{
    "version": "0.7.0",
    "architecture": "SlimmableContainer",
    "config": {
        "submodels": [
            {
                "max_value": 0.5,
                "model": {
                    "version": "0.7.0",
                    "metadata": {
                        "date": {
                            "year": 2026,
                            "month": 5,
                            "day": 4,
                            "hour": 18,
                            "minute": 36,
                            "second": 27
                        },
                        "loudness": -24.038164138793945,
                        "gain": 0.6719918588603052
                    },
                    "architecture": "WaveNet",
                    "config": {
                        "layers": [
                            {
                                "input_size": 1,
                                "condition_size": 1,
                                "head": {
                                    "out_channels": 1,
                                    "kernel_size": 16,
                                    "bias": true
                                },
                                "channels": 3,
                                "kernel_sizes": [
                                    6,
                                    6,
                                    6,
                                    6,
                                    6,
                                    6,
                                    6,
                                    6,
                                    6,
                                    6,
                                    6,
                                    6,
                                    6,
                                    6,
                                    15,
                                    15,
                                    6,
                                    6,
                                    6,
                                    6,
                                    6,
                                    6,
                                    6
                                ],
                                "dilations": [
                                    1,
                                    3,
                                    7,
                                    17,
                                    41,
                                    101,
                                    239,
                                    1,
                                    3,
                                    7,
                                    17,
                                    41,
                                    101,
                                    239,
                                    1,
                                    13,
                                    1,
                                    3,
                                    7,
                                    17,
                                    41,
                                    101,
                                    239
                                ],
                                "activation": [
                                    {
                                        "type": "LeakyReLU",
                                        "negative_slope": 0.01
                                    },
                                    {
                                        "type": "LeakyReLU",
                                        "negative_slope": 0.01
                                    },
                                    {
                                        "type": "LeakyReLU",
                                        "negative_slope": 0.01
                                    },
                                    {
                                        "type": "LeakyReLU",
                                        "negative_slope": 0.01
                                    },
                                    {
                                        "type": "LeakyReLU",
                                        "negative_slope": 0.01
                                    },
                                    {
                                        "type": "LeakyReLU",
                                        "negative_slope": 0.01
                                    },
                                    {
                                        "type": "LeakyReLU",
                                        "negative_slope": 0.01
                                    },
                                    {
                                        "type": "LeakyReLU",
                                        "negative_slope": 0.01
                                    },
                                    {
                                        "type": "LeakyReLU",
                                        "negative_slope": 0.01
                                    },
                                    {
                                        "type": "LeakyReLU",
                                        "negative_slope": 0.01
                                    },
                                    {
                                        "type": "LeakyReLU",
                                        "negative_slope": 0.01
                                    },
                                    {
                                        "type": "LeakyReLU",
                                        "negative_slope": 0.01
                                    },
                                    {
                                        "type": "LeakyReLU",
                                        "negative_slope": 0.01
                                    },
                                    {
                                        "type": "LeakyReLU",
                                        "negative_slope": 0.01
                                    },
                                    {
                                        "type": "LeakyReLU",
                                        "negative_slope": 0.01
                                    },
                                    {
                                        "type": "LeakyReLU",
                                        "negative_slope": 0.01
                                    },
                                    {
                                        "type": "LeakyReLU",
                                        "negative_slope": 0.01
                                    },
                                    {
                                        "type": "LeakyReLU",
                                        "negative_slope": 0.01
                                    },
                                    {
                                        "type": "LeakyReLU",
                                        "negative_slope": 0.01
                                    },
                                    {
                                        "type": "LeakyReLU",
                                        "negative_slope": 0.01
                                    },
                                    {
                                        "type": "LeakyReLU",
                                        "negative_slope": 0.01
                                    },
                                    {
                                        "type": "LeakyReLU",
                                        "negative_slope": 0.01
                                    },
                                    {
                                        "type": "LeakyReLU",
                                        "negative_slope": 0.01
                                    }
                                ],
                                "bottleneck": 3,
                                "head1x1": {
                                    "active": false,
                                    "out_channels": 1,
                                    "groups": 1
                                },
                                "layer1x1": {
                                    "active": true,
                                    "groups": 1
                                },
                                "groups_input": 1,
                                "groups_input_mixin": 1,
                                "conv_pre_film": {
                                    "active": false,
                                    "shift": true,
                                    "groups": 1
                                },
                                "conv_post_film": {
                                    "active": false,
                                    "shift": true,
                                    "groups": 1
                                },
                                "input_mixin_pre_film": {
                                    "active": false,
                                    "shift": true,
                                    "groups": 1
                                },
                                "input_mixin_post_film": {
                                    "active": false,
                                    "shift": true,
                                    "groups": 1
                                },
                                "activation_pre_film": {
                                    "active": false,
                                    "shift": true,
                                    "groups": 1
                                },
                                "activation_post_film": {
                                    "active": false,
                                    "shift": true,
                                    "groups": 1
                                },
                                "layer1x1_post_film": {
                                    "active": false,
                                    "shift": true,
                                    "groups": 1
                                },
                                "head1x1_post_film": {
                                    "active": false,
                                    "shift": true,
                                    "groups": 1
                                },
                                "gating_mode": [
                                    "none",
                                    "none",
                                    "none",
                                    "none",
                                    "none",
                                    "none",
                                    "none",
                                    "none",
                                    "none",
                                    "none",
                                    "none",
                                    "none",
                                    "none",
                                    "none",
                                    "none",
                                    "none",
                                    "none",
                                    "none",
                                    "none",
                                    "none",
                                    "none",
                                    "none",
                                    "none"
                                ],
                                "secondary_activation": [
                                    null,
                                    null,
                                    null,
                                    null,
                                    null,
                                    null,
                                    null,
                                    null,
                                    null,
                                    null,
                                    null,
                                    null,
                                    null,
                                    null,
                                    null,
                                    null,
                                    null,
                                    null,
                                    null,
                                    null,
                                    null,
                                    null,
                                    null
                                ],
                                "slimmable": null
                            }
                        ],
                        "head": null,
                        "head_scale": 0.01
                    },
                    "weights": [
                        0.23710457980632782,
                        1.0318468809127808,
                        -0.12208241969347,
                        -0.0209724809974432,
                        0.28123682737350464,
                        -0.1683097928762436,
                        -0.09757403284311295,
                        0.08570316433906555,
                        0.1463681310415268,
                        -0.14739301800727844,
                        0.483769953250885,
                        -0.5365757346153259,
                        -0.42084720730781555,
                        0.22334517538547516,
                        0.20875521004199982,
                        0.07189639657735825,
                        -0.170560821890831,
                        0.17058902978897095,
                        0.05823436379432678,
                        -0.04847432300448418,
                        -0.08638372272253036,
                        -0.09670411795377731,
                        0.2839609682559967,
                        0.4610529839992523,
                        -0.702136218547821,
                        -0.11374678462743759,
                        0.013736575841903687,
                        -0.32582736015319824,
                        0.32177191972732544,
                        0.5912826061248779,
                        -0.8971211910247803,
                        0.08907924592494965,
                        -0.07474616914987564,
                        0.05976320430636406,
                        -0.30495738983154297,
                        -0.4621284306049347,
                        0.42658764123916626,
                        0.16068175435066223,
                        0.06788132339715958,
                        0.16456516087055206,
                        0.2574988007545471,
                        0.24489673972129822,
                        0.634461522102356,
                        -0.10273300856351852,
                        -0.5688473582267761,
                        -0.12277624011039734,
                        0.2813848555088043,
                        0.37860751152038574,
                        0.7954703569412231,
                        -0.11920031160116196,
                        -0.7083492875099182,
                        0.14927323162555695,
                        0.0060970960184931755,
                        -0.06338085979223251,
                        -0.39894163608551025,
                        -0.02570139244198799,
                        0.3784160017967224,
                        -0.012177105993032455,
                        -0.0006801356794312596,
                        0.026932593435049057,
                        0.5084013342857361,
                        0.35602259635925293,
                        -1.1887829303741455,
                        0.47885990142822266,
                        0.974249541759491,
                        0.13309381902217865,
                        0.12837189435958862,
                        0.6365299224853516,
                        0.40555045008659363,
                        0.6251786351203918,
                        -1.1267496347427368,
                        -0.885628879070282,
                        0.24016672372817993,
                        0.373013973236084,
                        0.1500301957130432,
                        0.04718679189682007,
                        -0.012681836262345314,
                        0.018879150971770287,
                        0.03476438298821449,
                        0.012307565659284592,
                        0.004651304334402084,
                        -0.017605328932404518,
                        0.07871685922145844,
                        -0.008203087374567986,
                        -0.04038543999195099,
                        -0.05300237610936165,
                        0.18026337027549744,
                        -0.08444848656654358,
                        -0.06437727808952332,
                        -0.0722067579627037,
                        -0.028627388179302216,
                        -0.13608434796333313,
                        -0.5615033507347107,
                        -0.1491403430700302,
                        -0.004125015344470739,
                        0.04935908317565918,
                        0.05359451845288277,
                        -0.014890742488205433,
                        -0.095670685172081,
                        -0.5338992476463318,
                        -0.1714029610157013,
                        0.01833314076066017,
                        0.1252296417951584,
                        0.08200176805257797,
                        0.03858188912272453,
                        0.03351429104804993,
                        -0.06753542274236679,
                        0.01628318428993225,
                        0.06011344864964485,
                        0.33767056465148926,
                        -0.045159902423620224,
                        0.28465133905410767,
                        0.1621488630771637,
                        0.4654463529586792,
                        0.3017706274986267,
                        0.4374540150165558,
                        0.06146509200334549,
                        -0.16148465871810913,
                        -0.15284697711467743,
                        -0.06931500881910324,
                        -0.1667420119047165,
                        0.08345068991184235,
                        -0.14168405532836914,
                        -0.10444005578756332,
                        -0.24865120649337769,
                        -0.1006811112165451,
                        -0.32239219546318054,
                        -0.3133801519870758,
                        0.11147148907184601,
                        -0.08987744897603989,
                        -0.06671351194381714,
                        0.0509871169924736,
                        -0.2106964886188507,
                        0.12654522061347961,
                        0.33052006363868713,
                        -0.012205859646201134,
                        -0.3651064336299896,
                        0.5198926329612732,
                        -0.25764763355255127,
                        -0.2454729676246643,
                        0.4048333466053009,
                        1.3108572959899902,
                        -0.16606442630290985,
                        -0.4044090211391449,
                        -0.3216111361980438,
                        -0.2319338023662567,
                        0.07435913383960724,
                        0.15441223978996277,
                        -0.06812843680381775,
                        0.1317148059606552,
                        0.039302192628383636,
                        0.06742529571056366,
                        0.14140650629997253,
                        -0.0032964504789561033,
                        0.11224424093961716,
                        -0.09787026792764664,
                        0.03101104497909546,
                        -0.11019665747880936,
                        0.3048360347747803,
                        -0.021857954561710358,
                        0.03880850970745087,
                        -0.042569682002067566,
                        0.13220320641994476,
                        -0.01571137085556984,
                        0.13110612332820892,
                        0.11912962794303894,
                        0.02484859898686409,
                        0.20323605835437775,
                        0.14642180502414703,
                        0.10291995108127594,
                        0.6753363013267517,
                        -0.012149867601692677,
                        -0.02904658019542694,
                        -0.11837532371282578,
                        -0.03311644494533539,
                        -0.03971536457538605,
                        0.21292859315872192,
                        -0.0208177100867033,
                        -0.04616117849946022,
                        0.017976462841033936,
                        0.012963035143911839,
                        0.030604224652051926,
                        0.43228834867477417,
                        0.3294488787651062,
                        0.21359208226203918,
                        0.35739636421203613,
                        0.4016909897327423,
                        0.4136402904987335,
                        -0.039698097854852676,
                        -0.10377773642539978,
                        0.018251189962029457,
                        -0.11407444626092911,
                        -0.11545699089765549,
                        -0.05820581689476967,
                        -0.05248674750328064,
                        -0.22490079700946808,
                        -0.10397052019834518,
                        -0.07944508641958237,
                        -0.2293078899383545,
                        0.1261633336544037,
                        0.1402638554573059,
                        0.11456985026597977,
                        -0.35627683997154236,
                        0.023829970508813858,
                        0.6264244914054871,
                        0.5658431649208069,
                        -0.8587902188301086,
                        0.39379119873046875,
                        -0.6909993290901184,
                        0.46241384744644165,
                        0.10720890760421753,
                        -0.5874766111373901,
                        0.5152658820152283,
                        0.23926673829555511,
                        -0.5802461504936218,
                        -0.33998122811317444,
                        -0.18564119935035706,
                        -0.15455672144889832,
                        0.2715317904949188,
                        -0.06278461962938309,
                        0.0832924023270607,
                        0.102003313601017,
                        -0.003924436401575804,
                        -0.05804380029439926,
                        0.28928983211517334,
                        0.09217856824398041,
                        0.06624621152877808,
                        0.11214438080787659,
                        0.13650014996528625,
                        0.18535679578781128,
                        0.34333348274230957,
                        0.04009504243731499,
                        0.12295106053352356,
                        0.04008251056075096,
                        0.10049404203891754,
                        -0.08017789572477341,
                        0.3244512379169464,
                        -0.19612106680870056,
                        -0.08849839866161346,
                        -0.003825755789875984,
                        -0.014955749735236168,
                        0.027476640418171883,
                        0.0066949911415576935,
                        -0.09238482266664505,
                        -0.09716522693634033,
                        -0.18480579555034637,
                        -0.25028201937675476,
                        -0.3157196044921875,
                        -0.3581327199935913,
                        0.013087600469589233,
                        -0.057527314871549606,
                        0.010411054827272892,
                        0.07214260846376419,
                        -0.06294823437929153,
                        -0.14023056626319885,
                        0.09216221421957016,
                        0.10871829092502594,
                        0.1746399700641632,
                        0.1034964993596077,
                        0.0904286578297615,
                        0.03686821460723877,
                        0.1683702915906906,
                        0.35721543431282043,
                        0.36445996165275574,
                        0.2613816559314728,
                        0.2535097301006317,
                        -0.21395470201969147,
                        -0.07314351201057434,
                        0.16156210005283356,
                        0.09452855587005615,
                        0.18170161545276642,
                        0.07238306850194931,
                        -0.16580983996391296,
                        -0.03800405189394951,
                        -0.19805219769477844,
                        -0.039258457720279694,
                        1.4035247564315796,
                        -0.4978403151035309,
                        -0.17405185103416443,
                        0.2179230898618698,
                        0.08475248515605927,
                        -0.3148837685585022,
                        -0.18371522426605225,
                        0.5030528903007507,
                        0.46390795707702637,
                        0.5714716911315918,
                        -0.04426082596182823,
                        -0.11013668775558472,
                        -0.11618264019489288,
                        0.05065767467021942,
                        -0.34753215312957764,
                        -0.006290144752711058,
                        -0.012313997372984886,
                        -0.007976889610290527,
                        0.005127368029206991,
                        -0.0012141942279413342,
                        -0.0068834456615149975,
                        -0.02278807759284973,
                        -0.023050036281347275,
                        -0.018955813720822334,
                        -0.013084310106933117,
                        -0.021964676678180695,
                        -0.01897462084889412,
                        -0.002189943101257086,
                        -0.016013341024518013,
                        0.0005348076811060309,
                        -0.01419562753289938,
                        0.010280073620378971,
                        -0.00030866070301271975,
                        -0.11391694098711014,
                        -0.10790138691663742,
                        -0.047915540635585785,
                        -0.039219923317432404,
                        -0.08018454164266586,
                        -0.1567816138267517,
                        0.2096419483423233,
                        0.317422091960907,
                        0.30147668719291687,
                        0.21521534025669098,
                        0.10566959530115128,
                        -0.1679631471633911,
                        0.0616796649992466,
                        0.04087807983160019,
                        0.0645926222205162,
                        0.037486299872398376,
                        -0.007849386893212795,
                        -0.2966923713684082,
                        -0.11868837475776672,
                        -0.0052687060087919235,
                        -0.16307991743087769,
                        -0.1352299451828003,
                        -0.23761208355426788,
                        0.018644118681550026,
                        -0.12246090918779373,
                        -0.3137066066265106,
                        -0.07495126128196716,
                        -0.06342622637748718,
                        0.2212001234292984,
                        0.1605873852968216,
                        -0.08444634824991226,
                        -0.11634179204702377,
                        -0.11672171950340271,
                        -0.013582872226834297,
                        -0.14113272726535797,
                        0.14144334197044373,
                        -0.029664190486073494,
                        -0.011147021315991879,
                        0.2076949030160904,
                        0.005087174009531736,
                        -0.8046437501907349,
                        0.1347317397594452,
                        -0.002732746070250869,
                        -0.24684475362300873,
                        0.35720983147621155,
                        -0.005870310589671135,
                        0.4641038477420807,
                        -0.2764965891838074,
                        -0.0011211278615519404,
                        -0.30584588646888733,
                        -0.18005412817001343,
                        -0.4444803297519684,
                        -0.31204473972320557,
                        -0.36466091871261597,
                        -0.0481376014649868,
                        -0.02368423156440258,
                        0.10515007376670837,
                        -0.006840478163212538,
                        0.004619581159204245,
                        0.04261231794953346,
                        0.026271291077136993,
                        -0.10131098330020905,
                        0.025213144719600677,
                        -0.019341763108968735,
                        -0.023274952545762062,
                        -0.10064077377319336,
                        -0.04328792914748192,
                        -0.053383346647024155,
                        0.198878213763237,
                        0.061878450214862823,
                        -0.14798861742019653,
                        0.017934292554855347,
                        0.0008064463618211448,
                        0.0036434291396290064,
                        0.03157217800617218,
                        0.017845192924141884,
                        0.08306249976158142,
                        -0.21198634803295135,
                        0.03621016815304756,
                        0.017381200566887856,
                        0.049321454018354416,
                        0.2483517974615097,
                        0.2639596462249756,
                        0.5297237634658813,
                        0.01217416301369667,
                        -0.013209839351475239,
                        0.027447868138551712,
                        0.0703129693865776,
                        0.008008930832147598,
                        -0.06338660418987274,
                        -0.06249476224184036,
                        -0.15404771268367767,
                        -0.11058228462934494,
                        0.1266186535358429,
                        -0.0032265004701912403,
                        0.4750361442565918,
                        -0.3168296813964844,
                        -0.3285880386829376,
                        -0.02648315392434597,
                        0.39260923862457275,
                        -0.1871802657842636,
                        -0.06381262838840485,
                        -0.03864629939198494,
                        0.029207438230514526,
                        0.10214612632989883,
                        0.0016509771812707186,
                        -0.16459369659423828,
                        0.30000412464141846,
                        -0.04782527685165405,
                        -0.2006492018699646,
                        -0.15972009301185608,
                        -0.015604622662067413,
                        -0.18884184956550598,
                        0.29956117272377014,
                        0.0272676981985569,
                        0.434195876121521,
                        0.16990000009536743,
                        -0.02579897828400135,
                        -0.030488137155771255,
                        -0.11904339492321014,
                        -0.0015443892916664481,
                        0.253826379776001,
                        -0.3919731080532074,
                        0.36519765853881836,
                        0.2635475993156433,
                        -0.2838817238807678,
                        -0.01906365342438221,
                        -0.024237677454948425,
                        -0.10695555061101913,
                        -0.18829955160617828,
                        -0.20871834456920624,
                        -0.21185272932052612,
                        -0.016192574054002762,
                        -0.10808056592941284,
                        0.11346548795700073,
                        0.17021812498569489,
                        0.5089327692985535,
                        -0.3831295371055603,
                        0.032052986323833466,
                        0.03036746010184288,
                        0.12806610763072968,
                        0.2713119387626648,
                        0.3731878399848938,
                        -0.15716184675693512,
                        -0.06603189557790756,
                        -0.19220863282680511,
                        0.17045056819915771,
                        0.1193738579750061,
                        0.35173916816711426,
                        -0.13138583302497864,
                        0.02675577811896801,
                        -0.17961464822292328,
                        -0.2949296832084656,
                        -0.2544959485530853,
                        -0.1789870709180832,
                        -0.2770296037197113,
                        0.06580398231744766,
                        0.20545218884944916,
                        -0.17393837869167328,
                        -0.08682083338499069,
                        -0.40260761976242065,
                        -0.15699858963489532,
                        6.941970059415326e-05,
                        -0.028034405782818794,
                        0.07448511570692062,
                        -0.05751534923911095,
                        0.03267733007669449,
                        0.10175873339176178,
                        0.0006288368604145944,
                        0.03491093963384628,
                        -0.2269020527601242,
                        -0.2615399658679962,
                        -0.2429058998823166,
                        -0.11630818992853165,
                        -0.005386826116591692,
                        0.021294334903359413,
                        -0.14002282917499542,
                        -0.04624684527516365,
                        -0.10134284943342209,
                        0.19816233217716217,
                        0.04874522611498833,
                        -0.24137911200523376,
                        0.17857933044433594,
                        -0.05170215666294098,
                        -0.4150698482990265,
                        0.550915002822876,
                        -0.5571429133415222,
                        -0.45740029215812683,
                        0.27289342880249023,
                        0.7153944373130798,
                        -0.4071184992790222,
                        -0.12374790012836456,
                        0.1553514301776886,
                        0.3509176969528198,
                        0.08232253044843674,
                        0.2877272665500641,
                        -0.06535547971725464,
                        0.1365894079208374,
                        -0.005044656805694103,
                        -0.0013289764756336808,
                        -0.0005545615567825735,
                        -0.005325251258909702,
                        -0.003916885703802109,
                        0.0013245625887066126,
                        -0.003056574845686555,
                        -0.005826419685035944,
                        -0.0012227264232933521,
                        0.002098978264257312,
                        -0.006123386323451996,
                        -0.009261875413358212,
                        -0.0041796122677624226,
                        -0.004368882160633802,
                        -0.0021067196503281593,
                        0.0018544427584856749,
                        0.004636877682060003,
                        0.002448343439027667,
                        -0.11942595988512039,
                        -0.0018300425726920366,
                        -0.08057042211294174,
                        0.22012807428836823,
                        0.1292271465063095,
                        0.15952551364898682,
                        0.16620993614196777,
                        -0.0762987956404686,
                        -0.11131531000137329,
                        -0.058198992162942886,
                        0.16523367166519165,
                        0.08396704494953156,
                        -0.11007586121559143,
                        -0.057257186621427536,
                        -0.0774669423699379,
                        -0.2595135271549225,
                        -0.23338018357753754,
                        0.5936288237571716,
                        -0.2511131465435028,
                        0.055701810866594315,
                        -0.0023657542187720537,
                        -0.6839463710784912,
                        -0.049287475645542145,
                        0.3316577672958374,
                        -0.0019135162001475692,
                        -0.08853573352098465,
                        -0.4229849874973297,
                        0.11202108860015869,
                        0.07570107281208038,
                        0.1522434502840042,
                        -0.0696992352604866,
                        -0.041072532534599304,
                        -0.05401509627699852,
                        -0.7270069122314453,
                        -0.014838412404060364,
                        0.6422966122627258,
                        -0.011174117214977741,
                        -0.25797542929649353,
                        0.3410201370716095,
                        0.004418326076120138,
                        0.47478723526000977,
                        0.1938486099243164,
                        0.0015385159058496356,
                        0.20033800601959229,
                        0.5281242728233337,
                        -0.0006873206002637744,
                        0.26323384046554565,
                        -0.17815689742565155,
                        0.0032319482415914536,
                        -0.5291376113891602,
                        0.7461598515510559,
                        -0.11893995851278305,
                        -0.18293602764606476,
                        0.11354514211416245,
                        -0.045928455889225006,
                        0.07537239789962769,
                        -0.01924261450767517,
                        0.007212716620415449,
                        -0.06051702797412872,
                        -0.06654812395572662,
                        0.017819024622440338,
                        0.0801275372505188,
                        -0.052516162395477295,
                        0.1178106963634491,
                        0.30812615156173706,
                        0.057779647409915924,
                        0.013116956688463688,
                        0.05356748029589653,
                        0.08532008528709412,
                        0.05592055991292,
                        -0.07218611240386963,
                        -0.7459723353385925,
                        0.03198951482772827,
                        0.08061843365430832,
                        0.07624633610248566,
                        0.05159224569797516,
                        0.07093720883131027,
                        -1.0963937044143677,
                        0.06349770724773407,
                        0.014517790637910366,
                        -0.021672703325748444,
                        0.18324178457260132,
                        -0.14678922295570374,
                        -0.32088109850883484,
                        0.04509565979242325,
                        0.08895271271467209,
                        0.10409247875213623,
                        0.20445147156715393,
                        0.21072188019752502,
                        -0.6966040134429932,
                        -0.042156778275966644,
                        -0.11949744820594788,
                        -0.04848790541291237,
                        0.07846444845199585,
                        -0.08939015120267868,
                        -0.4816119372844696,
                        0.14808933436870575,
                        -0.05997391790151596,
                        -0.11476439982652664,
                        -0.04930983483791351,
                        -0.09396994858980179,
                        0.2742447257041931,
                        0.14420028030872345,
                        0.1550235003232956,
                        0.07432377338409424,
                        0.2549923062324524,
                        -0.0072182477451860905,
                        -0.3415912389755249,
                        0.008588111028075218,
                        0.244732066988945,
                        -0.03286970406770706,
                        0.053772617131471634,
                        -0.654426097869873,
                        -0.831010103225708,
                        0.4366401135921478,
                        -0.10378821194171906,
                        -0.13315045833587646,
                        -0.01815563440322876,
                        0.36040475964546204,
                        -0.5795077085494995,
                        0.759172260761261,
                        -0.81031334400177,
                        0.7017995119094849,
                        -0.2541237473487854,
                        0.03340823948383331,
                        0.17219382524490356,
                        0.14795269072055817,
                        0.18176469206809998,
                        -0.12897390127182007,
                        -0.13137538731098175,
                        -0.02100803516805172,
                        0.04698153957724571,
                        -0.12389128655195236,
                        -0.14835724234580994,
                        -0.19384275376796722,
                        -0.31277623772621155,
                        -0.3494641184806824,
                        -0.36851704120635986,
                        0.4168042838573456,
                        0.12902721762657166,
                        0.523401141166687,
                        0.25173136591911316,
                        0.16529648005962372,
                        -0.2910732328891754,
                        0.03140769153833389,
                        -0.013963566161692142,
                        0.13169808685779572,
                        -0.08269090950489044,
                        -0.13112133741378784,
                        0.00302287470549345,
                        -0.14387772977352142,
                        -0.09264618158340454,
                        0.0026255047414451838,
                        0.15854643285274506,
                        -0.15824441611766815,
                        -0.4114058017730713,
                        0.0008644502377137542,
                        -0.05443371832370758,
                        -0.05093389376997948,
                        -0.09967701137065887,
                        -0.12078015506267548,
                        0.7068443894386292,
                        -0.0663289725780487,
                        0.13042409718036652,
                        0.049132090061903,
                        0.015484357252717018,
                        -0.009247392416000366,
                        0.4916810989379883,
                        0.2571241855621338,
                        0.09042110294103622,
                        -0.07240352034568787,
                        -0.11452189832925797,
                        9.684339602245018e-05,
                        -0.09038052707910538,
                        0.0021307552233338356,
                        -0.013127434067428112,
                        -0.012959313578903675,
                        0.13778182864189148,
                        0.0736267939209938,
                        -0.20935824513435364,
                        0.13349728286266327,
                        0.14910642802715302,
                        0.3153506815433502,
                        0.17142216861248016,
                        0.640326976776123,
                        -0.04607495665550232,
                        -0.22578032314777374,
                        -0.512966513633728,
                        -0.3210783302783966,
                        0.7820438742637634,
                        -0.3709332346916199,
                        0.1486511379480362,
                        -0.0827183723449707,
                        0.48392048478126526,
                        0.39420419931411743,
                        0.13108636438846588,
                        -0.24961288273334503,
                        -0.20590949058532715,
                        -0.24952302873134613,
                        -0.3026435673236847,
                        -0.3478824496269226,
                        0.06190750375390053,
                        -0.17790032923221588,
                        -0.37120017409324646,
                        -0.2501285672187805,
                        -0.13233435153961182,
                        -0.14177818596363068,
                        0.0799218937754631,
                        -0.18032093346118927,
                        0.08714579790830612,
                        -0.2837604582309723,
                        -0.2754468321800232,
                        -0.19802577793598175,
                        0.05611875280737877,
                        -0.2583024203777313,
                        0.797899067401886,
                        -0.07952070981264114,
                        -0.051499079912900925,
                        -0.10770770162343979,
                        -0.05099063739180565,
                        -0.15222373604774475,
                        0.9745097756385803,
                        -0.06850718706846237,
                        -0.08580099791288376,
                        0.04222414642572403,
                        -0.05927363038063049,
                        -0.05583474785089493,
                        0.5435162782669067,
                        -0.04767517000436783,
                        0.02527792565524578,
                        0.01253956276923418,
                        0.01683151349425316,
                        0.049218837171792984,
                        -0.09938132017850876,
                        0.10657572001218796,
                        -0.08761043101549149,
                        -0.15948490798473358,
                        -0.032059818506240845,
                        -0.005130467936396599,
                        -0.21165932714939117,
                        -0.12539701163768768,
                        -0.15461134910583496,
                        -0.1133786141872406,
                        -0.08253622055053711,
                        -0.23676158487796783,
                        -0.44795674085617065,
                        -0.0767456442117691,
                        -0.08806706964969635,
                        0.004347252659499645,
                        0.0072356900200247765,
                        -0.15327268838882446,
                        0.5749656558036804,
                        -0.27811989188194275,
                        0.014060004614293575,
                        -0.33581140637397766,
                        -0.047416653484106064,
                        0.061974167823791504,
                        0.9486374855041504,
                        0.4977457523345947,
                        -0.5238394141197205,
                        0.01729123666882515,
                        -0.12955781817436218,
                        -0.38733240962028503,
                        0.8863646388053894,
                        0.27496182918548584,
                        0.34295040369033813,
                        -0.010062174871563911,
                        0.24679450690746307,
                        0.1903342753648758,
                        -0.1808478683233261,
                        -0.2984761595726013,
                        -0.18581195175647736,
                        -0.30844539403915405,
                        -0.1158231571316719,
                        -0.08611751347780228,
                        -0.3537963926792145,
                        0.08369047939777374,
                        0.11468301713466644,
                        0.12938356399536133,
                        0.14654241502285004,
                        -0.10896405577659607,
                        -0.2920794188976288,
                        0.14972302317619324,
                        0.12951348721981049,
                        0.1642066240310669,
                        0.07255858182907104,
                        -0.00014833650493528694,
                        -0.7641051411628723,
                        0.06640163064002991,
                        0.14003272354602814,
                        0.2616533041000366,
                        0.11005654186010361,
                        0.2620384097099304,
                        0.3657865822315216,
                        0.013473751954734325,
                        0.033366136252880096,
                        0.02303954027593136,
                        -0.03289803862571716,
                        0.008858702145516872,
                        0.14843091368675232,
                        -0.008791853673756123,
                        -0.01672019250690937,
                        -0.09512020647525787,
                        -0.046845078468322754,
                        -0.11577428877353668,
                        0.914842963218689,
                        -0.0832185372710228,
                        -0.08438792079687119,
                        -0.3050358295440674,
                        -0.2369661182165146,
                        -0.4252031445503235,
                        0.5086239576339722,
                        0.09493790566921234,
                        0.16208207607269287,
                        0.13536500930786133,
                        0.14725373685359955,
                        0.19364862143993378,
                        -0.8079307675361633,
                        0.0865088477730751,
                        0.11042007058858871,
                        0.16341623663902283,
                        0.1724301278591156,
                        0.2438839226961136,
                        -0.7123044729232788,
                        -0.24744060635566711,
                        -0.31083574891090393,
                        0.21218082308769226,
                        -0.5440137386322021,
                        -0.2787701487541199,
                        0.4075586795806885,
                        0.46576112508773804,
                        -0.42541348934173584,
                        -1.0117592811584473,
                        0.06025141850113869,
                        0.01935565285384655,
                        0.4208254814147949,
                        0.895784318447113,
                        -0.5910229682922363,
                        -0.22031109035015106,
                        0.2567841112613678,
                        -0.214017853140831,
                        -0.04751088097691536,
                        0.08813127130270004,
                        0.03315063938498497,
                        0.06642934679985046,
                        0.17086434364318848,
                        0.11053439974784851,
                        -0.10218191146850586,
                        -0.07179974764585495,
                        -0.04226626083254814,
                        -0.09417509287595749,
                        -0.17944028973579407,
                        -0.2392163872718811,
                        -0.48335278034210205,
                        -0.07886649668216705,
                        -0.03408212587237358,
                        -0.08487555384635925,
                        -0.1698746681213379,
                        -0.17573648691177368,
                        0.8717076182365417,
                        0.0005537865799851716,
                        0.09605555236339569,
                        0.06955846399068832,
                        -0.10924480110406876,
                        -0.018059607595205307,
                        -0.9433154463768005,
                        -0.011960453353822231,
                        -0.005215848330408335,
                        0.17375241219997406,
                        0.09459840506315231,
                        0.23028549551963806,
                        -0.002045445144176483,
                        -0.023094790056347847,
                        -0.0960259810090065,
                        0.07350068539381027,
                        -0.004697768948972225,
                        0.09087996929883957,
                        -0.7442917227745056,
                        0.08698657155036926,
                        0.09022251516580582,
                        0.04075724259018898,
                        0.16306819021701813,
                        0.1319793164730072,
                        0.05117209628224373,
                        -0.054541174322366714,
                        -0.0051518031395971775,
                        -0.008603764697909355,
                        -0.14572742581367493,
                        0.04626154899597168,
                        0.8343763947486877,
                        -0.03771299868822098,
                        -0.05866828188300133,
                        -0.0016495134914293885,
                        -0.12214861810207367,
                        0.04296457767486572,
                        -0.2001040130853653,
                        0.25905439257621765,
                        -0.049658991396427155,
                        -0.1362319141626358,
                        0.5941538214683533,
                        -0.41864070296287537,
                        0.5473435521125793,
                        -0.3819352984428406,
                        0.7022788524627686,
                        0.30544084310531616,
                        0.5247593522071838,
                        -0.385614275932312,
                        -0.5453460812568665,
                        0.8758517503738403,
                        0.21764737367630005,
                        -0.02085997723042965,
                        0.1346069723367691,
                        -0.17891806364059448,
                        0.07086185365915298,
                        0.1522989124059677,
                        0.1428811103105545,
                        0.2642061710357666,
                        0.11104902625083923,
                        0.3048228919506073,
                        -0.016489529982209206,
                        -0.1897796243429184,
                        -0.134958878159523,
                        -0.2700432240962982,
                        -0.07845768332481384,
                        -0.18185599148273468,
                        -0.3914906978607178,
                        0.07629306614398956,
                        0.0843006893992424,
                        0.14178727567195892,
                        -0.014172552153468132,
                        0.13095924258232117,
                        -0.12133077532052994,
                        0.058400947600603104,
                        0.010539223439991474,
                        0.061815883964300156,
                        -0.02600226365029812,
                        0.017870070412755013,
                        -0.04032009840011597,
                        -0.058609846979379654,
                        -0.07208202034235,
                        -0.055128615349531174,
                        0.02819514460861683,
                        -0.010965096764266491,
                        0.208601176738739,
                        0.023233424872159958,
                        0.00903194211423397,
                        0.022075830027461052,
                        -0.03284267336130142,
                        -0.025643283501267433,
                        -0.9295201897621155,
                        -0.1451670378446579,
                        0.12772607803344727,
                        0.011764796450734138,
                        -0.12136120349168777,
                        0.05788019672036171,
                        0.003039204515516758,
                        -0.08001216500997543,
                        0.13594505190849304,
                        -0.257135272026062,
                        0.008394426666200161,
                        -0.26068276166915894,
                        0.05790398269891739,
                        0.05560735613107681,
                        0.04897354915738106,
                        0.13028690218925476,
                        0.11978505551815033,
                        0.2998267114162445,
                        -0.3662321865558624,
                        -0.1973687708377838,
                        0.5877361297607422,
                        -0.05758717656135559,
                        0.19575457274913788,
                        -0.5320568680763245,
                        0.12742841243743896,
                        -0.16371746361255646,
                        -0.0978178083896637,
                        -0.1718004047870636,
                        0.4396434724330902,
                        -0.03173346817493439,
                        0.22548340260982513,
                        0.07096199691295624,
                        -0.741779625415802,
                        -0.12708888947963715,
                        -0.17801633477210999,
                        -0.019058197736740112,
                        0.09843319654464722,
                        -0.2697674036026001,
                        -0.16472429037094116,
                        -0.16908593475818634,
                        -0.22468261420726776,
                        -0.19503246247768402,
                        -0.14401566982269287,
                        -0.1845829039812088,
                        -0.06201871857047081,
                        -0.07881731539964676,
                        0.03190988674759865,
                        -0.14345017075538635,
                        -0.10773158073425293,
                        -0.060044657438993454,
                        0.006148052401840687,
                        -0.14030598104000092,
                        0.27375778555870056,
                        0.28312456607818604,
                        0.1701338291168213,
                        0.10389869660139084,
                        0.09033442288637161,
                        0.11488291621208191,
                        0.032537590712308884,
                        0.0902295708656311,
                        0.05441121757030487,
                        0.06568671762943268,
                        -0.027449652552604675,
                        0.03693872317671776,
                        0.05172033607959747,
                        0.12036585062742233,
                        0.34108272194862366,
                        0.08080291748046875,
                        0.12638133764266968,
                        0.0995708703994751,
                        -0.03857818618416786,
                        -0.026977192610502243,
                        0.18066458404064178,
                        -0.1367303431034088,
                        0.18440699577331543,
                        -0.0363679975271225,
                        0.04141815006732941,
                        -0.1647428572177887,
                        0.06354819238185883,
                        -0.015788454562425613,
                        -0.4863957464694977,
                        -0.5706772208213806,
                        0.029064331203699112,
                        -0.06931300461292267,
                        -0.018291298300027847,
                        0.005676057189702988,
                        0.05616869032382965,
                        0.07374431192874908,
                        0.028380952775478363,
                        0.06299130618572235,
                        0.1550343632698059,
                        0.0851687416434288,
                        0.00939051155000925,
                        0.15198156237602234,
                        0.1067533940076828,
                        0.1426762044429779,
                        0.19822171330451965,
                        -0.0027963975444436073,
                        0.033444084227085114,
                        0.0006683754618279636,
                        -0.013609686866402626,
                        -0.03669105842709541,
                        -0.019048433750867844,
                        0.06324613839387894,
                        0.14024163782596588,
                        0.14720921218395233,
                        0.21970967948436737,
                        0.053191136568784714,
                        0.16161112487316132,
                        0.14780505001544952,
                        0.23009346425533295,
                        0.24150942265987396,
                        -0.08834575861692429,
                        0.039750128984451294,
                        0.011741929687559605,
                        -0.0037474087439477444,
                        -0.008584743365645409,
                        -0.021777154877781868,
                        0.014195197261869907,
                        0.002583740744739771,
                        -0.10546283423900604,
                        -0.0914311408996582,
                        -0.00937060359865427,
                        -0.282444030046463,
                        0.4019956588745117,
                        0.3868105709552765,
                        -1.0381355285644531,
                        -0.1530090719461441,
                        0.007732669822871685,
                        -0.1445458084344864,
                        -0.17405670881271362,
                        -0.0467044971883297,
                        -0.2342008352279663,
                        -0.13409753143787384,
                        0.011288617737591267,
                        0.036457210779190063,
                        -0.06059233471751213,
                        0.03957808390259743,
                        0.01636841520667076,
                        0.033233944326639175,
                        -0.4294648766517639,
                        -0.26636940240859985,
                        0.20897889137268066,
                        0.05883477255702019,
                        0.03555567190051079,
                        0.10295014828443527,
                        0.11915557086467743,
                        0.012785654515028,
                        0.04852200672030449,
                        0.1638350635766983,
                        0.12197030335664749,
                        0.1629207879304886,
                        0.12045850604772568,
                        0.10609550774097443,
                        0.10549145936965942,
                        -0.2602616846561432,
                        -0.27142849564552307,
                        0.1520881950855255,
                        0.11749528348445892,
                        -0.0014632133534178138,
                        0.0108705535531044,
                        0.05947199463844299,
                        -0.022369978949427605,
                        0.09724914282560349,
                        0.08758489042520523,
                        -0.0496995747089386,
                        0.011146816425025463,
                        0.1041196659207344,
                        -0.08190672844648361,
                        0.21648839116096497,
                        -0.520358145236969,
                        -0.7053040862083435,
                        -0.2455265074968338,
                        -0.3285515010356903,
                        0.17237916588783264,
                        -0.060891568660736084,
                        0.347039133310318,
                        -0.1988891214132309,
                        0.16969938576221466,
                        0.5434609651565552,
                        0.3414047062397003,
                        -0.43425852060317993,
                        -0.27812182903289795,
                        0.46814414858818054,
                        0.19875480234622955,
                        0.5084338188171387,
                        -0.22896045446395874,
                        -0.1364518105983734,
                        -0.28043636679649353,
                        0.3635523021221161,
                        -0.032588183879852295,
                        0.05989033728837967,
                        0.03523850068449974,
                        -0.007835282012820244,
                        -0.01875702105462551,
                        -0.003943361341953278,
                        0.03780093416571617,
                        0.001813186565414071,
                        0.05558067932724953,
                        0.03183940052986145,
                        0.07436034828424454,
                        0.11804262548685074,
                        0.13117578625679016,
                        0.09424131363630295,
                        -0.22990931570529938,
                        0.04278111830353737,
                        0.050020404160022736,
                        -0.037326470017433167,
                        -0.10249949991703033,
                        -0.21419969201087952,
                        -0.23047544062137604,
                        -0.012868981808423996,
                        -0.28678080439567566,
                        -0.2423400729894638,
                        -0.340747594833374,
                        -0.1991114765405655,
                        -0.21290792524814606,
                        -0.1533045917749405,
                        -0.2561553120613098,
                        0.11397160589694977,
                        -0.09251493960618973,
                        -0.04516318440437317,
                        -0.058476466685533524,
                        -0.022779855877161026,
                        -0.04799540340900421,
                        -0.024864887818694115,
                        -0.09814879298210144,
                        -0.04611463472247124,
                        -0.08743711560964584,
                        -0.11878010630607605,
                        -0.19602592289447784,
                        -0.14822764694690704,
                        -0.11004950851202011,
                        0.021038809791207314,
                        0.8496113419532776,
                        -0.08535373955965042,
                        -0.10783418267965317,
                        -0.14767765998840332,
                        -0.08205214142799377,
                        -0.08471865952014923,
                        -0.10057639330625534,
                        -0.16090890765190125,
                        -0.13432836532592773,
                        -0.18930254876613617,
                        -0.11965474486351013,
                        -0.18655729293823242,
                        -0.1315828114748001,
                        -0.11379895359277725,
                        0.06770246475934982,
                        0.21418599784374237,
                        -0.2888001501560211,
                        -0.20563432574272156,
                        -0.17305982112884521,
                        -0.18947511911392212,
                        -0.12780049443244934,
                        -0.18489666283130646,
                        -0.4068814516067505,
                        -0.2923125624656677,
                        -0.28536853194236755,
                        -0.26517796516418457,
                        -0.20711374282836914,
                        -0.24325673282146454,
                        -0.15920445322990417,
                        0.003972726408392191,
                        -0.011149195954203606,
                        -0.0028186319395899773,
                        -0.03299408406019211,
                        -0.034657977521419525,
                        -0.08499884605407715,
                        -0.10426266491413116,
                        -0.1145404577255249,
                        -0.03038828633725643,
                        -0.0984116643667221,
                        -0.0818169042468071,
                        -0.06057051196694374,
                        0.015180512331426144,
                        0.06676206737756729,
                        0.0413215272128582,
                        0.09096360951662064,
                        -0.3037939667701721,
                        0.03646140173077583,
                        0.03784677013754845,
                        -0.02172303944826126,
                        0.0011223586043342948,
                        -0.028540387749671936,
                        0.014713957905769348,
                        -0.00033034925581887364,
                        -0.055192530155181885,
                        0.0015076226554811,
                        -0.05001075193285942,
                        -0.07032392919063568,
                        -0.17399676144123077,
                        -0.13293501734733582,
                        -0.010753811337053776,
                        0.49412479996681213,
                        0.10683179646730423,
                        0.05172395333647728,
                        -0.015227323397994041,
                        -0.040670208632946014,
                        -0.124085433781147,
                        0.004307048860937357,
                        0.2940883934497833,
                        -0.0008967330795712769,
                        0.11218605935573578,
                        0.1075001209974289,
                        0.1901414841413498,
                        0.12304405122995377,
                        0.07635194063186646,
                        0.17020851373672485,
                        -0.9089974164962769,
                        0.05572650209069252,
                        0.023210637271404266,
                        0.08020225912332535,
                        0.13055089116096497,
                        0.11213215440511703,
                        0.05636891350150108,
                        0.0503423772752285,
                        0.1206510066986084,
                        0.048650700598955154,
                        0.05389327555894852,
                        0.02313355728983879,
                        -0.025329550728201866,
                        -0.11037414520978928,
                        -0.07779459655284882,
                        0.06591518223285675,
                        0.29915183782577515,
                        0.3848058879375458,
                        0.29881545901298523,
                        0.39527079463005066,
                        0.5048681497573853,
                        -0.1368175745010376,
                        -0.0494411364197731,
                        -0.061832379549741745,
                        -0.6667848229408264,
                        -0.7148036956787109,
                        0.15737365186214447,
                        0.2492181360721588,
                        0.09603017568588257,
                        0.33680394291877747,
                        -0.024174394086003304,
                        0.10002448409795761,
                        0.37821173667907715,
                        -0.23773007094860077,
                        -0.02596321702003479,
                        0.15888793766498566,
                        0.08873279392719269,
                        0.010008327662944794,
                        -0.11921574175357819,
                        -0.04251273721456528,
                        0.20231421291828156,
                        0.15563181042671204,
                        0.05687016621232033,
                        0.09253940731287003,
                        -0.028614966198801994,
                        -0.6888249516487122,
                        -0.3004092872142792,
                        -0.14185170829296112,
                        -0.06683370471000671,
                        -0.2207738757133484,
                        -0.27446988224983215,
                        0.1078881025314331,
                        0.11906988173723221,
                        0.23356488347053528,
                        0.0984048917889595,
                        0.11029236018657684,
                        -0.1744646579027176,
                        -0.27121874690055847,
                        -0.14805589616298676,
                        0.010866750031709671,
                        0.041490621864795685,
                        0.11996249854564667,
                        -0.19656097888946533,
                        0.023798611015081406,
                        -0.2778087854385376,
                        0.028767971321940422,
                        0.18108156323432922,
                        -0.31332772970199585,
                        0.7459043264389038,
                        0.4891473352909088,
                        0.004515820182859898,
                        -0.18141469359397888,
                        0.1446264684200287,
                        -0.2550070881843567,
                        0.3042483329772949,
                        -0.23673084378242493,
                        0.2690369784832001,
                        0.016521941870450974,
                        0.19616293907165527,
                        -0.14763326942920685,
                        0.2830405533313751,
                        0.4165600538253784,
                        0.21648460626602173,
                        -0.00162391213234514,
                        0.09565363824367523,
                        -0.07291796803474426,
                        -0.035400811582803726,
                        -0.8554971814155579,
                        -0.29032662510871887,
                        0.020197411999106407,
                        -0.46245041489601135,
                        0.012398386374115944,
                        -0.14517976343631744,
                        -0.10478922724723816,
                        -0.04807259887456894,
                        -0.14948193728923798,
                        -0.19017760455608368,
                        0.3931939899921417,
                        -0.7865261435508728,
                        -0.7909629344940186,
                        0.1698121279478073,
                        1.2499512434005737,
                        0.7497307658195496,
                        -0.41869261860847473,
                        0.20639201998710632,
                        -0.3589658737182617,
                        0.10439999401569366,
                        0.023893097415566444,
                        -0.14958296716213226,
                        0.2758224606513977,
                        0.3860839903354645,
                        0.27062809467315674,
                        0.14427874982357025,
                        0.14357610046863556,
                        -0.1427638977766037,
                        0.09146874397993088,
                        0.1906534880399704,
                        0.13493061065673828,
                        0.07142765820026398,
                        0.18060927093029022,
                        -0.14126938581466675,
                        -0.10421351343393326,
                        -0.15121543407440186,
                        0.3893486559391022,
                        -0.08616373687982559,
                        -0.08140573650598526,
                        -0.35210224986076355,
                        -0.21834662556648254,
                        -0.1563771516084671,
                        -0.062276441603899,
                        0.048020534217357635,
                        -0.029794858768582344,
                        0.12572716176509857,
                        0.17247934639453888,
                        -0.035141706466674805,
                        0.33496174216270447,
                        -0.03592461720108986,
                        -0.06749427318572998,
                        -0.17647211253643036,
                        0.027874471619725227,
                        0.009980197064578533,
                        -0.20906265079975128,
                        -0.005427479278296232,
                        0.06080426275730133,
                        0.09892198443412781,
                        -0.3226519227027893,
                        -0.36875635385513306,
                        -0.06792959570884705,
                        -0.009182380512356758,
                        0.13755960762500763,
                        0.20614439249038696,
                        0.27179867029190063,
                        0.31158187985420227,
                        0.7003834247589111,
                        0.09584808349609375,
                        0.05596237629652023,
                        0.295624703168869,
                        0.3440863788127899,
                        -0.04460449889302254,
                        -0.185335174202919,
                        -0.04456614702939987,
                        -0.20859436690807343,
                        0.0609491728246212,
                        0.35211607813835144,
                        -0.3355771005153656,
                        0.3156048059463501,
                        -0.5732513070106506,
                        0.7012758255004883,
                        0.24253211915493011,
                        -0.14720062911510468,
                        0.2075195461511612,
                        0.5326477885246277,
                        -0.21246087551116943,
                        -0.3819541931152344,
                        -0.6910638213157654,
                        -0.9222540259361267,
                        0.5007259249687195,
                        -0.29197943210601807,
                        -0.08186765760183334,
                        0.01716601848602295,
                        -0.05767190083861351,
                        0.0035265348851680756,
                        -0.3636612594127655,
                        -0.05714826658368111,
                        -0.04018208011984825,
                        -0.0021789884194731712,
                        0.14813914895057678,
                        0.1555296927690506,
                        -0.05924387648701668,
                        -0.1437528282403946,
                        -0.033775459975004196,
                        -0.004560346715152264,
                        0.002161783166229725,
                        -0.4228771924972534,
                        -0.04951237142086029,
                        -0.14250123500823975,
                        0.13537243008613586,
                        0.04230703040957451,
                        0.10696713626384735,
                        0.10021553933620453,
                        -0.05228911340236664,
                        0.1870986819267273,
                        -0.013627586886286736,
                        -0.031782254576683044,
                        -0.11308210343122482,
                        -0.06385201215744019,
                        0.1806684285402298,
                        -0.2608773112297058,
                        0.05192146077752113,
                        -0.015814969316124916,
                        -0.05099187418818474,
                        0.013787641189992428,
                        0.20884519815444946,
                        0.7289944887161255,
                        -0.6885674595832825,
                        -0.39252471923828125,
                        -0.3246402144432068,
                        -0.019725903868675232,
                        -0.10793404281139374,
                        0.16432170569896698,
                        -0.04705742746591568,
                        -0.21986906230449677,
                        -0.23608148097991943,
                        -0.05006733909249306,
                        -0.07584695518016815,
                        0.01465277187526226,
                        0.034051429480314255,
                        0.2628018856048584,
                        -0.03882129490375519,
                        -0.2553994655609131,
                        -0.01084717083722353,
                        0.1729028970003128,
                        -0.0051738191395998,
                        -0.5142078995704651,
                        0.40410545468330383,
                        -0.08651676028966904,
                        -0.2917537987232208,
                        -0.09194326400756836,
                        0.26689743995666504,
                        0.2946522831916809,
                        -0.8108668327331543,
                        0.5496952533721924,
                        0.8233188986778259,
                        -0.4454978108406067,
                        -0.20781445503234863,
                        -0.782593846321106,
                        -0.1863277554512024,
                        -0.10872126370668411,
                        0.5661973357200623,
                        0.6385483741760254,
                        0.16975823044776917,
                        0.034695543348789215,
                        -0.17728327214717865,
                        -0.11148339509963989,
                        0.027144065126776695,
                        -0.9202770590782166,
                        0.5096322298049927,
                        0.6389358043670654,
                        0.05903688073158264,
                        0.3382204473018646,
                        0.5156855583190918,
                        -0.4691053628921509,
                        0.23475725948810577,
                        0.2042761892080307,
                        -0.2129094898700714,
                        0.04266494885087013,
                        0.24901214241981506,
                        0.41663315892219543,
                        -0.37934231758117676,
                        0.002289195777848363,
                        0.10633635520935059,
                        -0.030190642923116684,
                        -0.3290417492389679,
                        -0.3329627215862274,
                        -0.08829215168952942,
                        -0.01771889068186283,
                        0.03843386471271515,
                        0.21026502549648285,
                        0.12025345116853714,
                        0.014931091107428074,
                        -0.3813406825065613,
                        -0.20324023067951202,
                        0.19295181334018707,
                        -0.14791634678840637,
                        -0.32133519649505615,
                        -0.47344741225242615,
                        -0.011379064992070198,
                        -0.19323253631591797,
                        -0.3691704571247101,
                        -0.3492746949195862,
                        -0.045910224318504333,
                        0.15413346886634827,
                        -0.08276569843292236,
                        -0.11912312358617783,
                        0.03840852901339531,
                        -0.14218974113464355,
                        0.3909337520599365,
                        -0.007242316845804453,
                        0.020796585828065872,
                        0.1095544770359993,
                        0.41631221771240234,
                        0.3477708697319031,
                        -0.09172409027814865,
                        -0.21597152948379517,
                        0.37931063771247864,
                        0.08090382069349289,
                        0.26266270875930786,
                        -0.06775274127721786,
                        0.06609825789928436,
                        0.1899866908788681,
                        0.44884005188941956,
                        0.30827534198760986,
                        -0.16393861174583435,
                        0.12280666828155518,
                        0.3061380684375763,
                        0.23817412555217743,
                        0.019448138773441315,
                        -0.007798387669026852,
                        0.3046656847000122,
                        -0.05348973721265793,
                        0.3664478063583374,
                        0.21128416061401367,
                        0.1999659389257431,
                        0.04563437029719353,
                        -0.03298572823405266,
                        -0.084662526845932,
                        -0.0590171255171299,
                        -0.22224311530590057,
                        -0.2183590978384018,
                        -0.3435128927230835,
                        -0.1331879198551178,
                        0.029030311852693558,
                        0.06169360876083374,
                        0.2390306293964386,
                        -0.08910901844501495,
                        -0.2313893437385559,
                        -0.124819815158844,
                        -0.03551416099071503,
                        0.14663386344909668,
                        0.1443072259426117,
                        -0.17533698678016663,
                        0.22220134735107422,
                        -0.2453370839357376,
                        -0.5481517910957336,
                        -0.36144790053367615,
                        0.3758339285850525,
                        0.09542616456747055,
                        -0.1978190839290619,
                        0.1576993316411972,
                        0.362519770860672,
                        -0.0006392400246113539,
                        -0.10348621755838394,
                        0.167122021317482,
                        -0.07457759976387024,
                        0.3236125111579895,
                        0.27165892720222473,
                        0.24149978160858154,
                        -0.15734651684761047,
                        -0.25245916843414307,
                        -0.17772339284420013,
                        -0.5090513229370117,
                        0.04366933926939964,
                        -0.44437646865844727,
                        0.056540001183748245,
                        0.19685985147953033,
                        -0.1660127192735672,
                        0.1421261727809906,
                        0.11502151191234589,
                        0.20208661258220673,
                        0.16038233041763306,
                        0.12905219197273254,
                        0.13507497310638428,
                        0.23235736787319183,
                        0.2576138377189636,
                        0.03636869043111801,
                        -0.4492897093296051,
                        -0.13158679008483887,
                        -0.00907148513942957,
                        0.12155622243881226,
                        0.09826734662055969,
                        0.13077612221240997,
                        0.13571107387542725,
                        -0.5012822151184082,
                        -1.0606273412704468,
                        0.194909006357193,
                        -0.475402295589447,
                        0.37376126646995544,
                        0.7433547377586365,
                        -0.15752369165420532,
                        0.22130613029003143,
                        0.35821273922920227,
                        0.19902607798576355,
                        0.3086480498313904,
                        0.4775558412075043,
                        0.023436054587364197,
                        -0.2811111509799957,
                        -0.25118258595466614,
                        -0.14427584409713745,
                        0.4402267336845398,
                        -0.46085667610168457,
                        0.03765931725502014,
                        0.024855120107531548,
                        0.011007641442120075,
                        0.15607629716396332,
                        0.3771287798881531,
                        -0.4681403338909149,
                        -0.07291069626808167,
                        0.1399984210729599,
                        0.09869705140590668,
                        0.20892082154750824,
                        -0.10761861503124237,
                        0.5076625347137451,
                        0.07616057991981506,
                        -0.3300637900829315,
                        -0.24014616012573242,
                        0.04181353747844696,
                        0.20232881605625153,
                        0.22233179211616516,
                        -0.0360637865960598,
                        0.00013028530520386994,
                        0.0605221651494503,
                        0.1916399896144867,
                        0.23176033794879913,
                        0.3877870738506317,
                        -0.13990621268749237,
                        0.0750838965177536,
                        0.11221292614936829,
                        0.2350076138973236,
                        0.13717569410800934,
                        -0.7651352286338806,
                        -0.1819949448108673,
                        -0.13335610926151276,
                        0.21215197443962097,
                        0.28549420833587646,
                        -0.07022227346897125,
                        -0.0645754262804985,
                        0.18145978450775146,
                        -0.007828551344573498,
                        0.2715573310852051,
                        -0.15462693572044373,
                        -0.16075469553470612,
                        0.3148619532585144,
                        0.2424011379480362,
                        0.22334672510623932,
                        -0.06238889321684837,
                        0.07450082153081894,
                        -0.3277848958969116,
                        0.2509244680404663,
                        0.18422763049602509,
                        0.4826256036758423,
                        0.42278632521629333,
                        0.1725652664899826,
                        0.06290432065725327,
                        0.04325265809893608,
                        0.5626729130744934,
                        0.42994070053100586,
                        0.31040623784065247,
                        -0.3070378601551056,
                        -0.09824808686971664,
                        -0.5096324682235718,
                        -0.14741136133670807,
                        -0.37046170234680176,
                        0.18057480454444885,
                        -0.0663164034485817,
                        0.07581761479377747,
                        -0.28903481364250183,
                        0.013056308031082153,
                        -0.03798336535692215,
                        0.12984855473041534,
                        0.06325289607048035,
                        -0.32708656787872314,
                        0.09373854100704193,
                        0.005517786834388971,
                        -0.004634134937077761,
                        0.1060687005519867,
                        -0.059803642332553864,
                        0.20309332013130188,
                        -0.24317100644111633,
                        0.07962050288915634,
                        -0.004697982221841812,
                        0.20480231940746307,
                        -0.21950691938400269,
                        0.29342103004455566,
                        0.09729892760515213,
                        0.0778636485338211,
                        0.07766901701688766,
                        0.39071282744407654,
                        0.10052341222763062,
                        -0.3464646339416504,
                        0.5409756898880005,
                        0.07449989765882492,
                        -0.01713406853377819,
                        0.15859343111515045,
                        0.045085106045007706,
                        0.3682006597518921,
                        0.5791994333267212,
                        0.1507985144853592,
                        0.026382403448224068,
                        0.2577877640724182,
                        -0.18348997831344604,
                        0.33891910314559937,
                        -0.84357088804245,
                        -0.033475082367658615,
                        0.01819317787885666,
                        -0.15661247074604034,
                        -0.054126888513565063,
                        0.4438731074333191,
                        -0.1179853156208992,
                        -0.014411027543246746,
                        -0.003836169606074691,
                        -0.10819374024868011,
                        0.07889511436223984,
                        -0.22293123602867126,
                        0.30492231249809265,
                        -0.11077941954135895,
                        -0.010825848206877708,
                        -0.22098685801029205,
                        0.26617661118507385,
                        -0.35822492837905884,
                        -0.09058263152837753,
                        0.03417731076478958,
                        0.43908095359802246,
                        -0.15776461362838745,
                        0.15822164714336395,
                        -0.0025062570348381996,
                        -0.19353777170181274,
                        0.45570898056030273,
                        -0.4065808057785034,
                        0.2948029637336731,
                        0.28955864906311035,
                        0.4082295894622803,
                        0.14465749263763428,
                        0.3147417902946472,
                        0.45639538764953613,
                        0.1137242317199707,
                        0.19630926847457886,
                        -0.45144981145858765,
                        -0.15486258268356323,
                        -0.013107811100780964,
                        -0.04920756071805954,
                        -0.07536506652832031,
                        -0.07108742743730545,
                        -0.031014852225780487,
                        0.029949992895126343,
                        0.0643211081624031,
                        0.04783420264720917,
                        0.004366627894341946,
                        -0.05206788703799248,
                        -0.13993771374225616,
                        -0.24620315432548523,
                        -0.30394670367240906,
                        -0.21504473686218262,
                        -0.06602557748556137,
                        0.0075479913502931595,
                        -0.017978306859731674,
                        -0.04235633462667465,
                        -0.06128156930208206,
                        -0.06377764046192169,
                        -0.06771239638328552,
                        -0.08356673270463943,
                        -0.08183915913105011,
                        -0.0519515722990036,
                        -0.02253175713121891,
                        -0.005716415587812662,
                        0.036453716456890106,
                        0.10542713850736618,
                        0.1555306762456894,
                        0.11254005879163742,
                        0.027020258828997612,
                        -0.011819643899798393,
                        0.008868572302162647,
                        0.024086354300379753,
                        0.035237912088632584,
                        0.031373463571071625,
                        0.016643187031149864,
                        0.0017869231523945928,
                        0.014829146675765514,
                        0.052410200238227844,
                        0.10283013433218002,
                        0.14249925315380096,
                        0.16391704976558685,
                        0.161906436085701,
                        0.13824938237667084,
                        0.08148787915706635,
                        0.02236681990325451,
                        -0.0007906254613772035,
                        0.12255364656448364,
                        0.009999999776482582
                    ],
                    "sample_rate": 48000
                }
            },
            {
                "max_value": 1.0,
                "model": {
                    "version": "0.7.0",
                    "metadata": {
                        "date": {
                            "year": 2026,
                            "month": 5,
                            "day": 4,
                            "hour": 18,
                            "minute": 53,
                            "second": 53
                        },
                        "loudness": -26.383899688720703,
                        "gain": 0.6702560539381163
                    },
                    "architecture": "WaveNet",
                    "config": {
                        "layers": [
                            {
                                "input_size": 1,
                                "condition_size": 1,
                                "head": {
                                    "out_channels": 1,
                                    "kernel_size": 16,
                                    "bias": true
                                },
                                "channels": 8,
                                "kernel_sizes": [
                                    6,
                                    6,
                                    6,
                                    6,
                                    6,
                                    6,
                                    6,
                                    6,
                                    6,
                                    6,
                                    6,
                                    6,
                                    6,
                                    6,
                                    15,
                                    15,
                                    6,
                                    6,
                                    6,
                                    6,
                                    6,
                                    6,
                                    6
                                ],
                                "dilations": [
