{
    "version": "0.6.0",
    "metadata": {
        "date": {
            "year": 2026,
            "month": 1,
            "day": 19,
            "hour": 14,
            "minute": 51,
            "second": 21
        },
        "loudness": -20.0,
        "gain": 0.2,
        "name": "Generated WaveNet Model",
        "modeled_by": "create_wavenet.py"
    },
    "architecture": "WaveNet",
    "config": {
        "condition_dsp": {
            "version": "0.6.0",
            "metadata": {
                "date": {
                    "year": 2026,
                    "month": 1,
                    "day": 19,
                    "hour": 14,
                    "minute": 51,
                    "second": 18
                },
                "loudness": -20.0,
                "gain": 0.2,
                "name": "Generated WaveNet Model",
                "modeled_by": "create_wavenet.py"
            },
            "architecture": "WaveNet",
            "config": {
                "layers": [
                    {
                        "input_size": 1,
                        "condition_size": 1,
                        "head_size": 2,
                        "channels": 3,
                        "kernel_size": 3,
                        "dilations": [
                            1,
                            2
                        ],
                        "activation": "Tanh",
                        "gated": false,
                        "head_bias": false
                    },
                    {
                        "input_size": 3,
                        "condition_size": 1,
                        "head_size": 3,
                        "channels": 2,
                        "kernel_size": 3,
                        "dilations": [
                            8
                        ],
                        "activation": "Tanh",
                        "gated": false,
                        "head_bias": true
                    }
                ],
                "head": null,
                "head_scale": 0.02
            },
            "weights": [
                0.06433976071902836,
                -0.666643775832942,
                -0.6586699350730849,
                -0.7015330539730322,
                0.18804001144499694,
                -0.5337721451734043,
                -0.9199225181793098,
                -0.7311809309627368,
                -0.9279181562831975,
                -0.32416487507351754,
                -0.309888417560809,
                -0.09602625668679221,
                -0.5932024142364811,
                -0.38185643683078174,
                0.926139772501501,
                -0.5484355379308146,
                0.38188078662219094,
                0.9225907766534751,
                0.45674748473284565,
                0.34438793791197386,
                -0.16195435100383548,
                0.5576988278352226,
                0.5498800305506457,
                -0.3139939257130875,
                0.408173299238918,
                -0.5644501965045419,
                0.5205612866443627,
                -0.833827228220553,
                0.08775631411109952,
                0.8667641357755775,
                -0.6691094308654815,
                0.9542211322745777,
                0.9534688887786757,
                -0.31088957518408233,
                0.3527781167699009,
                0.8801521178363481,
                0.4082989266843313,
                -0.3871579278500481,
                0.719870281546853,
                0.6448748816406533,
                -0.37418154462181374,
                0.8784896821332251,
                -0.4969424683860242,
                -0.11067450122734646,
                -0.3672683224720046,
                0.8206655464923065,
                -0.4797404638161822,
                -0.6265593484482861,
                -0.6233531294922445,
                -0.1431941761368558,
                -0.8693414335860801,
                0.7511705026126134,
                -0.2399457807822587,
                -0.963883818542681,
                0.4067669335797852,
                -0.8803249219655962,
                0.7743071420294041,
                0.2641119301323702,
                0.4552999541099043,
                -0.011533043707054436,
                0.28079930709905954,
                -0.8665165981199978,
                -0.08686752283812704,
                0.2441432369138381,
                0.6014959971033942,
                -0.4104859015725857,
                0.02953893909664651,
                -0.02992969215850927,
                0.8835967774981532,
                0.7173895046721104,
                -0.20554090039509232,
                0.38404330909583173,
                -0.7110319852199491,
                0.34594626404332907,
                -0.13306123161140837,
                0.45267556344496085,
                -0.9892223931919699,
                0.446435868938746,
                -0.10658169919105798,
                0.6281198610697478,
                -0.6102159375016367,
                -0.01339247808905042,
                -0.5442024166856858,
                0.38639762686327805,
                0.1567065089721804,
                -0.7889090041195215,
                0.04516523454977772,
                -0.379938598308327,
                0.7347054096039243,
                0.8377949758284855,
                -0.14869184342533948,
                0.10033390751278803,
                -0.06406421660590245,
                -0.4830143070812414,
                0.6658500216938421,
                -0.21169699970812594,
                -0.7760520124257804,
                0.40642268135182524,
                0.245384721656128,
                -0.31329797775827917,
                0.09409539520028098,
                0.343406057010323,
                0.114500169692483,
                0.15186382939225185,
                0.32860796524072233,
                0.48732466102765604,
                -0.16126840420642874,
                0.5926085122208096,
                -0.25496342916462056,
                -0.7553264520683811,
                0.7556545805075174,
                -0.8825302452302328,
                -0.9334437728274676,
                0.802531580608169,
                0.7371719473742373,
                -0.5570047901153456,
                0.4753304171771069,
                0.5309062648484952,
                -0.22959170845048638,
                0.41963057758440425,
                0.061820292300138746,
                0.9293767079182926,
                0.8660998257187709,
                -0.7188978718318311,
                -0.65559713296011,
                0.544812259067327,
                -0.1481608531210783,
                0.33534667463649837,
                -0.48602325471350194,
                0.25212319788812687,
                -0.6000066607129177,
                -0.09367647036730076,
                -0.04684848783398543,
                0.5499076203078546,
                -0.18294081661960493,
                0.4276350850159023,
                0.8649328792103741
            ],
            "sample_rate": 48000
        },
        "layers": [
            {
                "input_size": 1,
                "condition_size": 3,
                "head_size": 2,
                "channels": 3,
                "kernel_size": 3,
                "dilations": [
                    1,
                    2
                ],
                "activation": "Tanh",
                "gated": false,
                "head_bias": false
            },
            {
                "input_size": 3,
                "condition_size": 3,
                "head_size": 1,
                "channels": 2,
                "kernel_size": 3,
                "dilations": [
                    8
                ],
                "activation": "Tanh",
                "gated": false,
                "head_bias": true
            }
        ],
        "head": null,
        "head_scale": 0.02
    },
    "weights": [
        -0.07527583078487576,
        -0.11166041922956316,
        0.566725886888735,
        -0.16620215263952054,
        0.6845473643982183,
        0.9539005169729702,
        -0.6832323889022389,
        -0.7178906643739678,
        0.17949864359029277,
        -0.28099397774386103,
        -0.8582422926906654,
        -0.42399635357210275,
        -0.8614801751207353,
        -0.6733773212184329,
        -0.3766891196512572,
        0.5474866604125983,
        0.4457810992430087,
        -0.275872843207297,
        -0.7446790477622918,
        0.8866028497651597,
        -0.3585742401922869,
        -0.355345460023057,
        -0.2929569735139357,
        -0.014258057379833877,
        0.13097868539883817,
        0.004922777631223507,
        -0.12368608317289365,
        -0.098370693351157,
        -0.363284162891526,
        -0.8674425366310696,
        -0.8931694850972296,
        -0.03958187245367095,
        -0.5066682699818792,
        -0.33923861216262274,
        -0.34800990182545277,
        0.49741176699484413,
        0.4453409244925961,
        -0.9030872800699274,
        -0.016337686055154954,
        0.4266390784678813,
        0.19665306743362665,
        0.23926587608092964,
        0.7523068331521479,
        -0.5485730852960897,
        0.07986839985841598,
        -0.784597062927594,
        -0.27003320089583127,
        -0.6177254803921619,
        -0.4245161938973938,
        -0.00663822469812736,
        -0.929785367159629,
        -0.6906139632949697,
        -0.8540040295574507,
        -0.5738783473689182,
        -0.9054723128882163,
        -0.1492116465558111,
        0.7742606036293458,
        -0.05426506360474015,
        -0.18795758431558895,
        -0.04016107880491582,
        0.9171435438190791,
        -0.009749683168857937,
        -0.6536860919440786,
        -0.4204147636148674,
        0.9793207422091372,
        -0.02329494561150458,
        0.5555043220757037,
        0.5655266349406125,
        -0.13932600447615084,
        -0.50696143777642,
        -0.7343125099617633,
        0.8959422443131921,
        -0.6432913477713804,
        0.4925717817106625,
        -0.5370238715477458,
        0.41808541261103316,
        -0.10758271403694653,
        -0.712563143133822,
        -0.6964895206083626,
        -0.6633053586050957,
        0.6096925147737824,
        0.9747807949679816,
        -0.7249826144489722,
        -0.016869947313234768,
        -0.5486948033903307,
        -0.10773469063635077,
        -0.46378262701098194,
        0.6155218039978567,
        -0.49791474741335273,
        0.7141036144462702,
        -0.3595340215477725,
        0.37066208663367517,
        -0.6706875357709356,
        0.022020813604965328,
        0.16124759297680202,
        -0.3787585526383912,
        0.8038054031547597,
        -0.8553869532963232,
        -0.22709302209990345,
        0.5863116939966524,
        0.1743160977178142,
        -0.4264015088763089,
        -0.1692286594862802,
        0.7822921547903541,
        -0.9060420267966582,
        -0.8568585611199795,
        0.9451646885123994,
        -0.8078504103640691,
        -0.057890715776115265,
        -0.9357321795164517,
        -0.8536252216881033,
        -0.38309499989732765,
        -0.1258787963772523,
        -0.46545070077814565,
        0.04790869840082035,
        -0.4640881384042257,
        -0.5001977703596499,
        0.028155476950588287,
        0.09025041862681182,
        -0.9147791403961696,
        -0.2910877108965728,
        -0.1260405274955525,
        -0.3944977653164474,
        -0.5678427142627351,
        -0.06155712446668504,
        -0.6237320015003092,
        0.9559413528796794,
        0.2811887995013067,
        -0.7320657726757156,
        -0.6951362370369374,
        -0.6836134474371802,
        0.9606335638209991,
        0.6263233089896785,
        0.9100939338884764,
        0.31478321898306794,
        0.24962173670577736,
        -0.8663619971257077,
        -0.6037781952568106,
        0.4284899018751376,
        -0.6096529301091873,
        0.6650173183106796,
        0.7803973802027657,
        0.26285957503449575,
        0.8913635481548958,
        0.025690627663809362,
        -0.6052626034400299,
        -0.12548589024804735
    ],
    "sample_rate": 48000
}