{"version":"0.5.4","metadata":{"loudness":-21.06308937072754,"gain":0.08574164955904189,"training":{"settings":{"ignore_checks":false},"data":{"latency":{"manual":null,"calibration":{"algorithm_version":1,"delays":[160],"safety_factor":1,"recommended":159,"warnings":{"matches_lookahead":false,"disagreement_too_high":false}}},"checks":{"version":3,"passed":true}},"validation_esr":0.003504998993517405}},"architecture":"WaveNet","config":{"layers":[{"input_size":1,"condition_size":1,"head_size":8,"channels":16,"kernel_size":3,"dilations":[1,2,4,8,16,32,64,128,256,512],"activation":"Tanh","gated":false,"head_bias":false},{"input_size":16,"condition_size":1,"head_size":1,"channels":8,"kernel_size":3,"dilations":[1,2,4,8,16,32,64,128,256,512],"activation":"Tanh","gated":false,"head_bias":true}],"head":null,"head_scale":0.02},"weights":[0.00014364911476150155,0.32912081480026245,-0.7662962079048157,-0.5838554501533508,-0.34995779395103455,0.011527320370078087,-0.00016490420966874808,0.5767499804496765,-0.009213307872414589,0.10767056047916412,-0.30344223976135254,-0.00264804158359766,-0.8077561259269714,-0.6817439794540405,-0.2385437786579132,0.0005034358473494649,-0.041272737085819244,0.012401988729834557,-0.22494471073150635,-0.039868179708719254,-0.05324917659163475,0.10292021185159683,-0.0462435744702816,0.22812750935554504,-0.004147212952375412,-0.008406049571931362,0.24443644285202026,-0.12220731377601624,-0.11503864824771881,0.0767553374171257,-0.04770777374505997,0.1333719789981842,-0.14850789308547974,-0.08932173252105713,-0.016521336510777473,-0.07627101987600327,0.06489356607198715,0.14958223700523376,-0.04976683109998703,0.06021391227841377,0.01442288514226675,-0.035917725414037704,0.12014304846525192,-0.11460966616868973,-0.19822712242603302,-0.09177134931087494,0.07250930368900299,0.1963595747947693,-0.04494281858205795,-0.0405866913497448,0.1033688485622406,0.13509677350521088,0.034030620008707047,0.13664473593235016,0.10964653640985489,-0.10527460277080536,0.14661847054958344,-0.09637592732906342,-0.11810566484928131,0.03394200652837753,0.08136846870183945,-0.011744863353669643,-0.11106793582439423,-0.009567854925990105,0.06593342125415802,0.02583789825439453,-0.005519653670489788,-0.021117644384503365,0.26338982582092285,0.17805688083171844,-0.06472289562225342,-0.23830966651439667,0.013541211374104023,0.17538951337337494,-0.05577092617750168,0.09160204976797104,0.08700091391801834,-0.30283433198928833,-0.01652335189282894,-0.125406876206398,-0.013802982866764069,0.16166280210018158,0.03724846616387367,-0.2516077756881714,-0.17107287049293518,-0.0829838290810585,0.15887591242790222,-0.03191666677594185,0.08244127035140991,-0.1721215695142746,-0.05943949520587921,0.018213659524917603,0.26017504930496216,0.08543418347835541,-0.0948057696223259,-0.26849377155303955,0.031462159007787704,0.107960544526577,-0.1853550672531128,-0.06880597770214081,0.1918642371892929,-0.08785050362348557,-0.10013178735971451,0.016307245939970016,-0.32218363881111145,-0.04204344376921654,-0.059618931263685226,-0.2853253483772278,-0.04585399478673935,0.0841430053114891,-0.018292425200343132,0.1712939739227295,-0.06563647836446762,0.09086459130048752,0.06486422568559647,-0.14234307408332825,0.00048161260201595724,-0.053070057183504105,0.04012364149093628,-0.006835730746388435,0.12001191079616547,0.030813146382570267,-0.10958980768918991,0.13400237262248993,-0.11087675392627716,-0.11822816729545593,0.0370042622089386,-0.08726738393306732,-0.05397618189454079,-0.16481800377368927,0.015618957579135895,0.07290390133857727,-0.04266801103949547,-0.030539367347955704,0.14385616779327393,-0.0822950229048729,0.04296441748738289,0.029345402494072914,0.06279359757900238,0.06384777277708054,0.15548983216285706,0.02740390971302986,0.16194790601730347,-0.04085792973637581,-0.059956204146146774,-0.039517149329185486,0.12620560824871063,0.05520329624414444,-0.05066627264022827,-0.15300773084163666,-0.06980081647634506,-0.10002712905406952,-0.06968552619218826,0.14574682712554932,0.10136160254478455,-0.17091913521289825,0.15396332740783691,-0.13092012703418732,-0.0997660830616951,-0.1519133448600769,-0.04905310273170471,0.0052024065516889095,-0.056962788105010986,-0.11777545511722565,-0.15467429161071777,0.05857142060995102,-0.07099965214729309,0.19575724005699158,-0.19134218990802765,-0.019117388874292374,0.26476767659187317,-0.12233085185289383,0.1141868531703949,0.18315312266349792,-0.20370091497898102,0.0873386487364769,-0.08397027850151062,-0.02227340266108513,0.09884286671876907,-0.1249716505408287,-0.02078975923359394,-0.01959824562072754,-0.03582153469324112,0.10495173931121826,0.05372827127575874,0.06812340766191483,-0.050761379301548004,-0.01575072668492794,-0.2276332676410675,0.14255157113075256,0.10286682844161987,0.2279132455587387,-0.17111852765083313,-0.007613904774188995,-0.08902250230312347,-0.13623885810375214,-0.09262342005968094,0.19079473614692688,-0.1486462503671646,-0.01218993030488491,0.1469721496105194,0.028229285031557083,-0.11803726106882095,0.029233546927571297,-0.14610812067985535,0.10821816325187683,-0.008447286672890186,0.23051783442497253,0.08913540840148926,-0.09558945894241333,-0.27177539467811584,0.16159652173519135,-0.005725187715142965,-0.07496574521064758,-0.1949843466281891,0.04307033121585846,-0.06969764083623886,-0.26534852385520935,0.14262138307094574,-0.0785590261220932,-0.1935741901397705,0.17162838578224182,0.0946795716881752,0.15206551551818848,-0.11418257653713226,0.020826073363423347,-0.07186686247587204,0.12638826668262482,0.12317410111427307,0.1648983210325241,-0.025513991713523865,0.08419689536094666,-0.1550302356481552,0.10614018887281418,0.1237293928861618,0.091694675385952,0.05261003226041794,-0.14183558523654938,-0.25152745842933655,0.07075321674346924,0.10089492052793503,-0.012924485839903355,-0.05520462617278099,0.035967934876680374,-0.11640945076942444,-0.11313960701227188,0.14236171543598175,-0.31200742721557617,0.02998018078505993,0.01766476035118103,-0.259922057390213,0.04225125163793564,0.16221460700035095,0.036465857177972794,-0.013298239558935165,-0.0064245364628732204,-0.18186010420322418,0.1406690925359726,-0.04856882989406586,-0.13706888258457184,-0.18237769603729248,0.015630466863512993,0.11895450949668884,0.2232886701822281,0.12499255686998367,-0.010740664787590504,0.06940258294343948,0.11144997924566269,0.1495598405599594,0.14521262049674988,-0.006249954923987389,-0.1086842492222786,-0.18201647698879242,-0.011280636303126812,-0.05097488686442375,-0.09633268415927887,0.18370607495307922,-0.12715871632099152,-0.12626132369041443,-0.025808673352003098,0.07236332446336746,-0.059769950807094574,-0.004333405289798975,0.07540826499462128,-0.06066880747675896,0.059596948325634,-0.004565185401588678,0.14591187238693237,0.03744513541460037,0.014073343016207218,-0.0806725025177002,0.05563340708613396,0.08419337123632431,0.10937945544719696,0.03864812105894089,-0.049882672727108,0.21218816936016083,-0.036599647253751755,0.09370361268520355,0.0501922070980072,-0.008612803183495998,-0.06997598707675934,-0.15507371723651886,-0.082297183573246,0.03904443606734276,-0.07930582016706467,0.013462092727422714,0.029495837166905403,-0.1264062076807022,-0.10660445690155029,-0.08296713978052139,0.17370490729808807,0.13891389966011047,-0.022530321031808853,0.2471129298210144,0.180234894156456,-0.05232233181595802,0.18921449780464172,0.1359233856201172,-0.024596430361270905,-0.11532492190599442,-0.07227251678705215,-0.11677563190460205,0.044108565896749496,0.23421135544776917,0.10271435230970383,-0.10775434970855713,-0.0637768805027008,0.11509837955236435,0.026464398950338364,0.040345270186662674,-0.15187761187553406,-0.024270478636026382,0.004764375742524862,-0.06944756954908371,0.2406608760356903,0.19303065538406372,0.15097683668136597,0.19821615517139435,0.17041197419166565,-0.002656270982697606,0.1446421891450882,0.20389598608016968,0.11197486519813538,0.10818757116794586,0.21468916535377502,0.09955704212188721,0.2611839175224304,-0.007410667836666107,-0.04905751347541809,-0.15822705626487732,-0.05982564389705658,-0.05182841420173645,0.12274563312530518,0.17405754327774048,-0.013801422901451588,-0.011250464245676994,0.20402976870536804,-0.030092254281044006,-0.002518516732379794,-0.22985605895519257,-0.06859637796878815,-0.14850522577762604,-0.012426728382706642,0.14743947982788086,0.1020229235291481,-0.008855109103024006,-0.19005538523197174,-0.04360821098089218,0.10432697087526321,-0.14102803170681,-0.017962366342544556,-0.32701563835144043,-0.14435350894927979,-0.10361949354410172,0.04226674139499664,0.19091074168682098,0.0813736841082573,-0.04540020227432251,0.03450193628668785,0.16559284925460815,0.0898166224360466,0.13518866896629333,0.09674433618783951,-0.08653082698583603,0.22017566859722137,0.024033198133111,-0.026592347770929337,0.024471163749694824,0.0354825034737587,-0.11064906418323517,0.03762151673436165,-0.11402378976345062,-0.21195517480373383,-0.04589051753282547,0.05464132875204086,-0.028888313099741936,-0.07179149240255356,-0.10595164448022842,0.15022441744804382,0.007117470260709524,-0.022526120766997337,-0.05596987158060074,0.12200449407100677,0.035076044499874115,-0.14673151075839996,0.14343345165252686,0.13945695757865906,-0.008287557400763035,0.08424565941095352,-0.054412275552749634,0.022201046347618103,0.12422915548086166,0.03491220250725746,-0.05508630350232124,-0.07993825525045395,-0.05991668999195099,-0.04378571733832359,0.0187896266579628,0.13070614635944366,-0.010645599104464054,-0.08973529934883118,-0.017806805670261383,0.02183581329882145,0.12921561300754547,-0.09948714822530746,0.005708503071218729,-0.12988880276679993,-0.09018686413764954,0.014322085306048393,-0.09330961108207703,0.0834418460726738,0.16403329372406006,0.04551482945680618,-0.08463440835475922,-0.03585077449679375,0.034338824450969696,-0.08320571482181549,0.11777391284704208,-0.12753985822200775,-0.10902618616819382,-0.09327597916126251,-0.0185693446546793,0.12551194429397583,-0.09542529284954071,0.16287477314472198,-0.05662353336811066,0.02976335771381855,0.038465291261672974,-0.061918992549180984,0.2051072120666504,0.0978330448269844,-0.010893678292632103,0.06583436578512192,-0.11498816311359406,0.28345659375190735,0.010859709233045578,0.044704619795084,0.04593775421380997,-0.04046017304062843,-0.17393812537193298,0.09765251725912094,0.01999816484749317,-0.109110027551651,-0.050499219447374344,0.06821168214082718,0.037642668932676315,-0.034306686371564865,0.05074314400553703,-0.017653202638030052,-0.09946388006210327,0.14266209304332733,0.07506832480430603,0.038120049983263016,0.12740576267242432,-0.1151953861117363,-0.2543395757675171,0.07152421027421951,-0.10443103313446045,0.2198900729417801,-0.10311710089445114,-0.09769345819950104,-0.06453095376491547,0.05916757881641388,-0.038832686841487885,0.2755883038043976,0.09087767452001572,0.055297352373600006,0.1669110655784607,-0.04548950493335724,-0.05545755848288536,0.1691354364156723,0.06938539445400238,-0.12416698783636093,0.10088150203227997,-0.047412578016519547,-0.15066146850585938,-0.04411597549915314,0.211216002702713,0.040352288633584976,0.034852657467126846,0.1588270217180252,0.15897539258003235,-0.09660492837429047,0.06508821994066238,0.015778588131070137,-0.13170628249645233,0.008769887499511242,0.05439041182398796,-0.1260872632265091,-0.08499833941459656,0.015383061952888966,0.06584293395280838,0.00732521153986454,0.038912344723939896,-0.02797793224453926,-0.256124883890152,-0.08302187919616699,0.2613907754421234,0.0341881662607193,0.10673727840185165,-0.1106833890080452,-0.09674175083637238,-0.19754494726657867,0.06619956344366074,-0.019621916115283966,0.2240326702594757,-0.20964594185352325,-0.05459087714552879,0.03430504724383354,0.09431149065494537,0.1154819056391716,-0.01538785919547081,-0.2977214753627777,-0.16124588251113892,0.09109416604042053,-0.21809393167495728,-0.14725257456302643,0.036131054162979126,-0.14157411456108093,-0.12817540764808655,0.05944794416427612,0.03273804858326912,0.058398425579071045,0.09669272601604462,0.15616939961910248,-0.09271165728569031,0.027775686234235764,-0.09308892488479614,0.14863558113574982,-0.1529899537563324,-0.09629089385271072,0.1261598914861679,-0.1084749698638916,0.0685909241437912,-0.03082522191107273,-0.0448760911822319,0.009258831851184368,0.06969381868839264,0.030175860971212387,-0.17390529811382294,-0.10238251835107803,-0.026580441743135452,0.11432052403688431,-0.027013305574655533,0.15235477685928345,-0.07526325434446335,-0.0049661872908473015,0.06751511991024017,0.07416728138923645,0.15324485301971436,0.11234316229820251,-0.07605303078889847,-0.08707470446825027,-0.029875950887799263,0.15682558715343475,-0.0620284266769886,-0.16582033038139343,0.091744564473629,0.15908412635326385,-0.05946788191795349,-0.07736071944236755,-0.15032856166362762,0.01856643706560135,0.030305609107017517,-0.09208675473928452,0.014558793045580387,0.0972885712981224,0.10489123314619064,0.08767997473478317,0.012904844246804714,-0.11150079220533371,-0.0707513839006424,0.12477494031190872,0.02846132405102253,0.06673283874988556,-0.10364758968353271,0.0961361825466156,0.1295630782842636,0.09932707995176315,-0.090959332883358,-0.05651780217885971,-0.12650561332702637,0.17081011831760406,-0.06484901160001755,-0.09489062428474426,0.10611315071582794,-0.06283900886774063,-0.0716489925980568,-0.044559042900800705,-0.028595540672540665,-0.10215842723846436,0.11559582501649857,-0.0639980137348175,0.07807514071464539,0.09261719137430191,0.03428249806165695,0.0011874748161062598,0.11037224531173706,0.03011377714574337,-0.04721567779779434,0.10634424537420273,0.025091322138905525,-0.16878315806388855,-0.007601405959576368,-0.0949518084526062,0.1310049593448639,0.01706101931631565,-0.1339709609746933,-0.03818993270397186,0.12434852123260498,0.03315642476081848,0.014642752707004547,0.046346139162778854,0.048323873430490494,-0.059842538088560104,-0.027582788839936256,-0.08667152374982834,-0.07218200713396072,0.11020193248987198,-0.07899262756109238,0.07977388054132462,0.12282589077949524,0.037909362465143204,-0.21685953438282013,0.20845705270767212,-0.1102239117026329,0.25037646293640137,-0.19112436473369598,-0.06495313346385956,0.20783424377441406,-0.13729438185691833,0.08455909043550491,0.02240298129618168,-0.20952540636062622,-0.048799026757478714,-0.03910301253199577,0.18772312998771667,-0.09348462522029877,0.04241210222244263,-0.036345288157463074,0.00044751251698471606,-0.024288814514875412,-0.03205827623605728,-0.018491597846150398,0.1496799886226654,-0.03830428048968315,0.14678247272968292,-0.14484773576259613,0.19262076914310455,-0.17115773260593414,0.09831708669662476,-0.1078798696398735,0.009579727426171303,0.06966563314199448,0.04144133999943733,-0.051141947507858276,0.12679992616176605,0.02118695341050625,-0.06938000023365021,0.25741878151893616,-0.17619000375270844,-0.04639965668320656,0.11031278967857361,-0.013582111336290836,0.08148129284381866,0.001816273434087634,-0.04497198387980461,0.06608782708644867,-0.043474290519952774,-0.08943720906972885,-0.04985399544239044,0.18449047207832336,0.09711457043886185,-0.028969157487154007,-0.2338222861289978,0.14394867420196533,-0.14526568353176117,-0.06328175216913223,0.06380128115415573,-0.09856784343719482,-0.03965041786432266,-0.07722988724708557,0.060929980129003525,-0.04017939046025276,-0.056024786084890366,0.08249244093894958,0.18876688182353973,0.016532909125089645,0.12843099236488342,0.07851111143827438,-0.11165641993284225,-0.14811161160469055,-0.1538078933954239,0.1494375765323639,-0.004811723716557026,0.08362867683172226,-0.005851193331182003,0.061729367822408676,0.03466515243053436,0.16795526444911957,-0.11035294830799103,-0.03642042353749275,-0.0335637703537941,-0.12148256599903107,-0.06464339792728424,0.17759650945663452,-0.1544346809387207,-0.010257749818265438,-0.03000730276107788,-0.06205436959862709,0.02705010399222374,0.01329191867262125,-0.0006688054418191314,-0.09226556867361069,0.09624055027961731,-0.006388934329152107,-0.07114805281162262,0.13384199142456055,-0.09605442732572556,-0.2575906217098236,-0.002593329641968012,0.10993220657110214,0.11069565266370773,0.07653381675481796,0.11425594240427017,0.24372442066669464,-0.07094404846429825,-0.03265784680843353,0.09598605334758759,-0.12132003158330917,-0.002327795373275876,0.01219337061047554,0.1098618358373642,0.010265027172863483,0.060868848115205765,0.02959374524652958,0.12098488956689835,-0.2093249261379242,-0.10424981266260147,0.020545389503240585,0.14059917628765106,-0.06395633518695831,0.14401547610759735,-0.07263875752687454,-0.10191689431667328,-0.04125310480594635,0.26353907585144043,-0.10928869992494583,-0.06726354360580444,0.0970979779958725,-0.14135241508483887,0.06953414529561996,0.2262021154165268,0.09569816291332245,-0.1011102944612503,0.29358720779418945,-0.0805075466632843,0.1358822137117386,0.0024195355363190174,-0.12418469041585922,0.055433668196201324,-0.005408024415373802,-0.028108548372983932,-0.08572505414485931,-0.14852815866470337,-0.026283374056220055,-0.15598033368587494,-0.00693354569375515,0.053158074617385864,-0.019509462639689445,0.006074863951653242,0.03651958331465721,0.12782695889472961,-0.03285522758960724,0.021973853930830956,-0.02494901604950428,-0.050235316157341,-0.03838978707790375,0.021892044693231583,0.4239882230758667,-0.3801412284374237,0.7386891841888428,-0.6463105082511902,-0.036301933228969574,0.822361946105957,0.9022580981254578,-0.4466903507709503,0.1335347592830658,0.10968217253684998,-0.40935805439949036,-0.32861754298210144,0.2373056262731552,-0.6245414614677429,0.12888021767139435,0.41841819882392883,-0.022037355229258537,0.1870546191930771,0.00041223366861231625,0.12098278850317001,0.24589407444000244,-0.04793786257505417,0.1746269017457962,-0.07792256027460098,0.019838066771626472,-0.028424257412552834,-0.029819730669260025,-0.05463572219014168,-0.028657302260398865,0.0412202887237072,0.15603885054588318,-0.10166213661432266,-0.18535564839839935,-0.10390806943178177,-0.3093434274196625,0.04920995235443115,-0.05119192972779274,-0.1693272739648819,-0.13880227506160736,0.14089475572109222,0.07023704051971436,0.14600133895874023,0.025313924998044968,0.008645976893603802,0.002488804282620549,-0.09995755553245544,0.07391340285539627,0.1508711725473404,0.008390956558287144,0.1839141696691513,0.1072293221950531,0.13447733223438263,-0.11631342023611069,-0.07373230159282684,-0.01605229079723358,-0.0756702721118927,-0.0008992627845145762,-0.19300846755504608,0.3022005558013916,-0.27160221338272095,0.14020977914333344,0.17746694386005402,0.10801365971565247,-0.09604423493146896,0.31106165051460266,-0.1980380415916443,0.05208441987633705,-0.16214630007743835,-0.015382496640086174,0.1301732212305069,0.10365020483732224,0.007871036417782307,-0.1492644101381302,0.12941627204418182,-0.06511685252189636,-0.04760455712676048,0.25321024656295776,0.21851962804794312,-0.05606979504227638,0.12177698314189911,-0.22268661856651306,-0.2198350727558136,-0.20775151252746582,0.20905384421348572,0.049383439123630524,0.1399868130683899,0.0958276242017746,-0.0484294556081295,0.08756233006715775,0.27242881059646606,-0.1025446355342865,0.1284642517566681,0.0034650713205337524,0.15898333489894867,-0.13697421550750732,0.15530212223529816,-0.31181925535202026,-0.026281502097845078,0.029791146516799927,0.06955154240131378,0.2186727523803711,0.13012786209583282,0.2043461948633194,0.15169790387153625,0.15433070063591003,-0.07316876202821732,-0.18092864751815796,-0.10468681156635284,-0.000651029113214463,-0.12028337270021439,0.12376181781291962,0.08637672662734985,0.02094075083732605,0.1755302995443344,0.21703684329986572,0.11273515969514847,-0.31562307476997375,-0.1172046884894371,0.0304271187633276,0.0570128969848156,0.15384575724601746,-0.2961801588535309,-0.12722454965114594,0.12479902803897858,0.14073053002357483,-0.2355400025844574,-0.01760241575539112,-0.26591911911964417,0.04537152498960495,0.19146642088890076,0.17830976843833923,-0.2398655265569687,-0.3202538788318634,0.10056302696466446,0.11484020948410034,0.11185566335916519,0.09913554787635803,-0.2956497073173523,0.2604896128177643,-0.2527163326740265,0.08861852437257767,-0.18963058292865753,-0.22621794044971466,0.01786516048014164,-0.21619465947151184,0.12050589174032211,-0.2008025348186493,-0.29440805315971375,0.10090143233537674,-0.19269748032093048,-0.2720660865306854,-0.03209519758820534,-0.1072215810418129,-0.3293766975402832,0.28922098875045776,0.11704830825328827,-0.054463762789964676,-0.19890263676643372,0.10167041420936584,-0.189814954996109,-0.277511328458786,-0.02800471894443035,0.11453475803136826,-0.25862476229667664,-0.15766632556915283,-0.10099291056394577,0.20254340767860413,-0.2346542924642563,-0.03037264756858349,0.16236846148967743,0.0012009339407086372,0.1897863894701004,0.1861303746700287,0.17567025125026703,-0.09263540804386139,0.02902194671332836,0.0287052970379591,0.2899748980998993,-0.23108938336372375,0.14155912399291992,-0.21447764337062836,-0.1608767956495285,0.015251684002578259,0.02915697917342186,0.10121218115091324,-0.14178283512592316,-0.10267411917448044,-0.11576860398054123,-0.11004848033189774,0.10916499048471451,-0.02899649180471897,0.2441408783197403,0.046897999942302704,-0.09719715267419815,0.1217862069606781,0.006582707166671753,0.052380047738552094,-0.08607053756713867,0.05212020501494408,-0.1301937848329544,-0.03466912358999252,-0.13079409301280975,-0.04019755497574806,-0.08534151315689087,-0.09247071295976639,0.1766691654920578,-0.18912190198898315,-0.17420744895935059,0.10683533549308777,-0.0170176699757576,0.2192349135875702,0.03282913938164711,0.3048843741416931,-0.1010553315281868,0.02185502089560032,0.14468103647232056,0.02814926952123642,-0.04861130565404892,-0.07502778619527817,0.14340299367904663,0.24477803707122803,-0.14986078441143036,0.07317250967025757,0.10597089678049088,0.004166455008089542,-0.24886314570903778,-0.20800204575061798,0.21413646638393402,-0.23520664870738983,0.23504722118377686,0.2368815541267395,0.09234228730201721,0.029057703912258148,-0.024360226467251778,-0.02192203886806965,0.006561817601323128,-0.25311151146888733,0.028044167906045914,-0.279339998960495,0.2692459225654602,-0.11316442489624023,0.2911406457424164,0.014571047388017178,-0.16637437045574188,0.013014120981097221,0.20300914347171783,0.08391118049621582,0.13418811559677124,-0.11694874614477158,0.0994914248585701,0.047406673431396484,-0.21754340827465057,0.08764898777008057,0.09542586654424667,-0.24337244033813477,-0.07064742594957352,0.29817160964012146,-0.08639481663703918,0.22138507664203644,-0.041112203150987625,-0.004422012250870466,0.1821269989013672,0.229498490691185,0.013986265286803246,-0.11188896000385284,-0.10802120715379715,-0.20043165981769562,-0.15305393934249878,0.15776097774505615,0.22889231145381927,0.13091978430747986,0.09274977445602417,0.07593788206577301,-0.05841033160686493,0.14750796556472778,-0.07955360412597656,-0.12553206086158752,-0.02085503749549389,0.08142583817243576,-0.006144650746136904,0.04387594014406204,-0.08859654515981674,0.07343804836273193,0.02492808923125267,0.01007948350161314,0.11406395584344864,0.031271956861019135,0.02330917678773403,0.02388770319521427,-0.07547110319137573,0.039345115423202515,0.08086701482534409,-0.07427506148815155,0.12202183902263641,0.06932792067527771,0.14794054627418518,-0.09519870579242706,-0.16009584069252014,0.15563248097896576,-0.11723855137825012,-0.042442236095666885,0.14721082150936127,-0.0335674025118351,0.046188995242118835,-0.17448005080223083,0.02291891910135746,-0.04932398721575737,-0.22426672279834747,0.015158570371568203,-0.050775520503520966,-0.33586379885673523,-0.013141240924596786,0.026234472170472145,-0.0009840914281085134,-0.1251067966222763,-0.12842987477779388,-0.07895618677139282,-0.03188515082001686,-0.028134582564234734,0.15189599990844727,-0.13249118626117706,-0.19204461574554443,-0.006389818154275417,-0.059955183416604996,-0.025953100994229317,0.22349311411380768,-0.16451722383499146,0.0008329974953085184,0.2893967628479004,-0.20818442106246948,-0.024643022567033768,0.14544464647769928,-0.019719578325748444,0.05413272976875305,-0.1332472264766693,-0.03492087870836258,-0.02956240251660347,0.06929562985897064,-0.008219650015234947,-0.11027441173791885,-0.03534284234046936,0.18268410861492157,-0.06485096365213394,-0.0000014673038322143839,0.20004136860370636,-0.09857413172721863,-0.1424858570098877,-0.07487856596708298,0.08900311589241028,-0.32647478580474854,0.18162521719932556,-0.07434644550085068,-0.18364600837230682,-0.00896751880645752,0.06509033590555191,0.08660165965557098,-0.013910558074712753,0.1901806741952896,0.15345250070095062,0.03676557168364525,-0.24389442801475525,0.23330263793468475,-0.08676672726869583,0.0734516903758049,-0.026017215102910995,-0.16705389320850372,0.0031989356502890587,-0.09322798252105713,0.1085137352347374,-0.1515040397644043,0.006920430809259415,0.008114507421851158,-0.06989788264036179,-0.0652262270450592,-0.021108491346240044,0.01177903451025486,-0.08849809318780899,0.09487684071063995,-0.06918250024318695,-0.013736420311033726,0.03802785649895668,-0.02028650976717472,-0.002827069954946637,-0.2331668585538864,0.13621468842029572,-0.16309267282485962,0.07977113127708435,0.020951079204678535,0.15163521468639374,-0.24086645245552063,-0.16016192734241486,-0.10047957301139832,-0.08915773034095764,-0.013525588437914848,0.09972362965345383,-0.15291276574134827,-0.036795683205127716,0.07213858515024185,-0.027780165895819664,0.026557371020317078,0.15230514109134674,0.019005073234438896,0.20710177719593048,-0.3199041187763214,-0.10679272562265396,-0.059875112026929855,-0.19062075018882751,0.17019806802272797,0.18767723441123962,-0.32023823261260986,-0.04235401377081871,-0.08557486534118652,0.12552864849567413,-0.08890821039676666,-0.26574790477752686,-0.11647965013980865,-0.06522276997566223,0.19279217720031738,-0.0827965959906578,0.17803722620010376,0.05573301017284393,-0.10212443768978119,-0.07428399473428726,-0.14154013991355896,0.06814703345298767,-0.025536857545375824,-0.17273329198360443,-0.01969236694276333,0.09507182240486145,-0.1818532794713974,0.27553460001945496,0.20080086588859558,-0.12900234758853912,-0.11530257016420364,0.10729429125785828,-0.17242012917995453,0.03586301580071449,-0.10587690025568008,0.17269258201122284,-0.12189581245183945,-0.19326411187648773,0.15414270758628845,0.16922450065612793,-0.17203430831432343,0.01783917285501957,-0.019484179094433784,-0.17416265606880188,-0.10480786114931107,0.12250977009534836,0.01208962220698595,0.07349283993244171,-0.02109513059258461,0.07298585027456284,-0.2817952036857605,0.0026865664403885603,0.08513722568750381,0.18089953064918518,-0.3943982720375061,0.16976593434810638,0.14528074860572815,-0.04610269516706467,-0.0014728493988513947,0.20871002972126007,-0.06926879286766052,-0.056888364255428314,0.1465306431055069,0.04111674055457115,0.2727948725223541,0.20354609191417694,0.11104359477758408,-0.0443815253674984,0.1644199937582016,-0.10831575095653534,-0.17751935124397278,0.013869964517652988,-0.08674225956201553,0.05106179788708687,0.03216668218374252,0.10575638711452484,0.09830258041620255,0.09659986943006516,-0.03540611267089844,-0.016541628167033195,0.07442212849855423,0.18587425351142883,-0.0774959847331047,-0.24247415363788605,-0.0023419454228132963,0.06307344883680344,-0.15220752358436584,0.03947880491614342,0.15837736427783966,-0.1041860282421112,-0.08786816149950027,-0.016502637416124344,-0.012878939509391785,0.06355208158493042,-0.1354828178882599,0.097994863986969,-0.12882842123508453,-0.024486476555466652,-0.030795155093073845,0.15392373502254486,-0.01976332813501358,0.15482386946678162,0.10578513145446777,-0.05647419020533562,-0.11702828109264374,-0.04602181166410446,0.007745971437543631,0.01785970851778984,-0.08793582022190094,0.131183922290802,0.0575328953564167,-0.06610534340143204,0.07859249413013458,-0.1958247274160385,-0.23502381145954132,0.19692444801330566,-0.13218632340431213,-0.0998668298125267,0.10729473829269409,-0.1739262193441391,-0.08558184653520584,0.04193795099854469,0.11026603728532791,0.06513365358114243,-0.06901278346776962,0.15230967104434967,-0.17694441974163055,-0.005759573541581631,-0.08135157823562622,0.204175665974617,0.11966483294963837,-0.16135965287685394,-0.048801615834236145,-0.07188116014003754,-0.06133829429745674,0.15553195774555206,0.0016194945201277733,-0.11659465730190277,0.15354740619659424,-0.10411910712718964,0.2320600003004074,-0.1122729703783989,0.00012100783351343125,0.08747410774230957,-0.2551250755786896,-0.0735001191496849,-0.029000140726566315,-0.11905301362276077,0.23237134516239166,0.2758890986442566,-0.05434827879071236,-0.04045059531927109,0.11806756258010864,-0.02471478097140789,0.047266293317079544,-0.042538393288850784,0.09765792638063431,-0.07647836208343506,0.30224713683128357,-0.0829801931977272,0.10383644700050354,0.1447037309408188,0.014111828990280628,-0.02081802859902382,-0.20907314121723175,-0.04939161241054535,-0.059911489486694336,-0.22938552498817444,0.12677918374538422,-0.1668190211057663,-0.03927508741617203,0.008796202018857002,0.1543741673231125,0.020255746319890022,0.02581450529396534,0.014881682582199574,0.013422376476228237,0.06998570263385773,-0.1800536811351776,0.03873535990715027,0.051234401762485504,0.05714213475584984,0.13872605562210083,0.10696565359830856,-0.06928707659244537,-0.09375442564487457,0.22034771740436554,-0.09087041765451431,0.22254984080791473,0.07042951136827469,0.15960365533828735,0.09706511348485947,-0.16978827118873596,0.0025086028035730124,-0.13577747344970703,-0.0703258365392685,0.02802291139960289,0.07546286284923553,-0.17434066534042358,-0.09300565719604492,0.05722055211663246,-0.0595632940530777,-0.02252906747162342,0.11236139386892319,0.0326213464140892,-0.07481925934553146,-0.04176438972353935,0.10168063640594482,0.04963706433773041,0.17231786251068115,0.2512176036834717,0.14971163868904114,0.007904264144599438,0.20608758926391602,-0.2100498527288437,-0.06746305525302887,0.05255255103111267,-0.07622438669204712,-0.08623205870389938,-0.07982627302408218,-0.00857233814895153,-0.14557024836540222,0.049556296318769455,-0.012201640754938126,0.17780156433582306,-0.07118415832519531,-0.010770756751298904,-0.14965412020683289,0.09963404387235641,0.22937463223934174,0.04445020109415054,-0.19210107624530792,-0.016082847490906715,0.07541004568338394,-0.25651150941848755,-0.011885926127433777,0.17923958599567413,-0.1823550909757614,0.030206918716430664,-0.14203044772148132,0.034306298941373825,-0.013007209636271,-0.03530902415513992,0.03093409538269043,-0.04301007091999054,-0.08377601951360703,0.11256106197834015,0.07852117717266083,0.11218766868114471,0.08206643164157867,-0.03715299442410469,0.11087535321712494,-0.15190574526786804,0.13677124679088593,-0.056067466735839844,-0.0830199345946312,-0.06359606981277466,-0.04494757577776909,0.03097495622932911,-0.040852125734090805,-0.1467924416065216,-0.15931782126426697,-0.06068115681409836,-0.007903830148279667,0.17505696415901184,0.19473229348659515,0.020911486819386482,-0.12818822264671326,-0.019273696467280388,0.03957381844520569,0.13966584205627441,-0.03778677061200142,-0.04752957820892334,-0.15874117612838745,-0.12477179616689682,0.153556227684021,0.14013604819774628,0.15855899453163147,0.10039693862199783,0.1357245147228241,-0.004555159248411655,0.11895176768302917,0.27124688029289246,0.09111368656158447,-0.14594893157482147,0.047153539955616,-0.05514049530029297,0.09970743954181671,-0.050256215035915375,-0.046414442360401154,-0.08539998531341553,-0.2842996120452881,-0.054910097271203995,0.004615332931280136,-0.20436632633209229,0.14838726818561554,0.07245132327079773,0.008780835196375847,-0.145453080534935,0.06687584519386292,0.08099214732646942,-0.06798494607210159,-0.08576050400733948,0.0036241181660443544,0.12914200127124786,-0.06302482634782791,0.24875251948833466,0.21216434240341187,0.03042704425752163,0.08338222652673721,-0.06789693236351013,0.012131641618907452,-0.07316025346517563,-0.01765786111354828,0.02872438170015812,-0.052280742675065994,-0.04542534053325653,0.007844196632504463,0.05459538847208023,0.07427748292684555,-0.073386050760746,0.013206817209720612,0.005494948010891676,0.001124521135352552,0.11485137790441513,-0.05328604578971863,-0.0077721672132611275,0.23175369203090668,-0.1410837024450302,0.16158527135849,0.1203245148062706,-0.18795132637023926,-0.11576525121927261,-0.046903569251298904,0.08178529888391495,0.06678782403469086,-0.10209272801876068,0.17396925389766693,-0.185867577791214,-0.10836147516965866,0.22723449766635895,0.007225234992802143,0.015477804467082024,0.10211200267076492,-0.09690213203430176,-0.118733249604702,0.03648524358868599,0.056744545698165894,0.16924498975276947,0.01005177479237318,-0.051092520356178284,-0.0832568034529686,0.02186695858836174,-0.011042773723602295,0.026359565556049347,-0.12453242391347885,-0.01775386743247509,0.17539697885513306,-0.07813675701618195,0.0395810604095459,-0.11994103342294693,0.025376860052347183,-0.07047058641910553,-0.061895109713077545,-0.11934904009103775,-0.07003004848957062,0.08010528236627579,-0.2422715723514557,-0.15411917865276337,0.059097036719322205,0.05619707703590393,-0.035815317183732986,-0.07680048793554306,0.05980737507343292,-0.093666672706604,-0.14603573083877563,0.04705195501446724,-0.0006628126138821244,-0.14659500122070312,-0.05501152202486992,0.06656793504953384,0.0891646295785904,0.08331659436225891,-0.10857677459716797,0.23004190623760223,0.13050849735736847,-0.00007961125811561942,0.24020931124687195,0.11480548977851868,-0.13482555747032166,0.1789582222700119,0.060843486338853836,-0.06620047241449356,-0.1120416522026062,-0.0036754603497684,0.06240733340382576,-0.16199998557567596,-0.018604639917612076,0.08133772760629654,0.021845277398824692,-0.16701313853263855,0.03334645926952362,-0.08365693688392639,-0.07949783653020859,0.009776883758604527,-0.2330884039402008,0.06570865958929062,-0.009953201748430729,-0.01629105769097805,-0.12091874331235886,0.01743534579873085,-0.12083570659160614,0.037003785371780396,0.18392454087734222,-0.02755633369088173,0.05047636479139328,-0.06629729270935059,0.015428118407726288,-0.19006012380123138,-0.08674954622983932,0.2104063332080841,-0.09233050793409348,0.03554770350456238,0.1483246237039566,-0.1013917624950409,0.03073124960064888,0.1751604527235031,-0.24922189116477966,0.11298865079879761,0.029073402285575867,0.06880161911249161,-0.07130517810583115,-0.22244131565093994,0.058787278831005096,-0.033582959324121475,0.03599293902516365,0.14151541888713837,0.19280602037906647,-0.26521673798561096,-0.060396481305360794,-0.14856179058551788,0.10847281664609909,0.02267521247267723,-0.009426494129002094,0.1619061678647995,-0.24162304401397705,-0.07624232023954391,-0.06856933236122131,0.0014220770681276917,0.008863965049386024,-0.05070270970463753,-0.02398771233856678,0.1589067131280899,0.16161233186721802,-0.20869499444961548,0.04140285402536392,0.053896695375442505,-0.24191220104694366,-0.060870058834552765,-0.010458149015903473,0.1976780742406845,-0.20858900249004364,0.058550283312797546,-0.08293237537145615,0.09440325945615768,0.12570951879024506,0.13133147358894348,0.14219796657562256,-0.08661450445652008,-0.3491540849208832,0.01489737257361412,0.07100570201873779,-0.03910485655069351,0.2184748351573944,0.01489555835723877,-0.1188599094748497,-0.16081532835960388,-0.009154025465250015,0.24573799967765808,-0.07879475504159927,-0.21876142919063568,-0.14530643820762634,-0.039390984922647476,-0.07881803810596466,0.11933598667383194,-0.31227242946624756,-0.178900808095932,-0.020843109115958214,0.07652518898248672,0.12286502122879028,-0.03605381026864052,0.20358219742774963,0.10525156557559967,-0.11634135991334915,-0.010982722975313663,-0.15016739070415497,0.06470059603452682,-0.033426325768232346,-0.2646898329257965,-0.16931909322738647,0.09610636532306671,0.039249058812856674,-0.1095750704407692,0.12691761553287506,-0.2330574095249176,-0.23430117964744568,0.047291845083236694,0.2561253011226654,0.20090371370315552,-0.12815354764461517,-0.10084526985883713,0.13971993327140808,-0.03442524001002312,0.019866008311510086,-0.01193545013666153,0.23201298713684082,0.006555576808750629,0.0068947928957641125,0.021680248901247978,0.05675246939063072,-0.08489775657653809,0.04254571720957756,0.11832400411367416,-0.007880160585045815,-0.08640600740909576,0.005172001197934151,-0.04787315055727959,-0.01585731841623783,0.04649952054023743,0.11075248569250107,0.0011820129584521055,-0.013214422389864922,0.12700653076171875,0.07313106954097748,-0.17363420128822327,0.18616384267807007,0.07232912629842758,-0.11935588717460632,0.12007872015237808,0.09532586485147476,0.07471074163913727,-0.19376234710216522,0.02862405590713024,0.03273990377783775,-0.0006801389390602708,-0.00429408298805356,0.046928584575653076,-0.1114048883318901,0.20733365416526794,0.20094414055347443,-0.2118890881538391,0.05758209899067879,-0.024532383307814598,-0.20040297508239746,-0.009865457192063332,-0.1124112457036972,0.10502415895462036,-0.15896233916282654,-0.0459461435675621,-0.04321374371647835,-0.031215550377964973,0.1374138742685318,-0.09622013568878174,0.05196794867515564,0.13029426336288452,-0.05544404312968254,-0.04853416606783867,0.053451549261808395,-0.03476167842745781,-0.031070725992321968,0.21863551437854767,-0.08003535866737366,0.1275390237569809,0.0024019815027713776,-0.07628078758716583,0.04456012696027756,-0.02314167656004429,0.07548331469297409,0.002565374132245779,-0.15335151553153992,-0.07568581402301788,0.08934088051319122,-0.2552981674671173,-0.013881257735192776,-0.07328376173973083,-0.14729627966880798,0.08180773258209229,0.05909152328968048,0.22630701959133148,-0.0068569425493478775,0.019751926884055138,0.08757232874631882,0.06689240038394928,0.09972289204597473,0.1103498563170433,0.08899826556444168,0.024696199223399162,0.16901694238185883,-0.07438664138317108,-0.0232741329818964,-0.032656390219926834,-0.20309841632843018,0.10086730122566223,0.0167195163667202,0.015358091332018375,-0.036562446504831314,0.08562441915273666,-0.0020917337387800217,0.016580743715167046,0.026753759011626244,-0.01529728900641203,0.06659242510795593,0.15496598184108734,0.023413414135575294,0.05157585069537163,0.14642541110515594,-0.21410344541072845,-0.029237274080514908,0.11257921904325485,-0.1547805517911911,0.022435229271650314,-0.14706812798976898,0.0074815452098846436,0.042139820754528046,0.028764385730028152,-0.0990825667977333,-0.06549925357103348,-0.24478985369205475,-0.027691753581166267,-0.002495869528502226,-0.16156809031963348,0.13221322000026703,-0.12022104859352112,0.12941241264343262,0.13512930274009705,0.03703922778367996,0.2022121697664261,-0.2324344962835312,0.043238315731287,-0.02975495159626007,0.09330078959465027,-0.003989073447883129,-0.03376753628253937,0.01613522320985794,0.0444418266415596,0.2379835695028305,-0.21007944643497467,0.04383549466729164,-0.06101101264357567,0.01060149073600769,0.017420267686247826,0.10283535718917847,0.1316215544939041,0.07596718519926071,0.09287343919277191,-0.004249577410519123,0.036477260291576385,-0.05200441554188728,0.05470142886042595,0.10330629348754883,0.07201891392469406,-0.07690276950597763,-0.11305848509073257,0.07677154988050461,0.021109789609909058,0.10443291068077087,-0.029577895998954773,0.06199388951063156,-0.09351900219917297,-0.26556912064552307,0.2588599622249603,0.429902046918869,-0.6108595728874207,0.0458633154630661,-0.6424615979194641,-0.32839465141296387,-0.4793056547641754,0.7389006614685059,-0.9151372313499451,-0.5081144571304321,-0.8591481447219849,0.525371789932251,-0.7277969121932983,0.27026769518852234,-0.6655865907669067,-0.17120620608329773,-0.017637263983488083,0.12057767063379288,0.25172263383865356,0.30692270398139954,0.04387791082262993,-0.3242265582084656,0.01083950325846672,-0.13910450041294098,-0.07001050561666489,0.17575028538703918,0.06710028648376465,0.12119614332914352,-0.018582362681627274,-0.1479877382516861,-0.11831333488225937,0.06213636323809624,-0.2865683138370514,0.17679955065250397,0.11878746747970581,-0.23685197532176971,0.22960767149925232,0.1219489574432373,-0.3419080972671509,0.2456519901752472,-0.147883802652359,-0.024181120097637177,0.3140351176261902,-0.018104657530784607,0.11391305923461914,0.19638870656490326,0.27112406492233276,-0.14950084686279297,-0.16073384881019592,-0.10414546728134155,0.30591005086898804,0.09815964102745056,0.05133466795086861,-0.004250577185302973,0.1965465396642685,-0.13115060329437256,0.026354366913437843,-0.05008704215288162,-0.14978288114070892,0.07543852925300598,0.1563551276922226,0.022225501015782356,0.04337277263402939,0.07419658452272415,0.0778321772813797,-0.044753775000572205,-0.1815999448299408,-0.22958050668239594,-0.14918754994869232,-0.12978844344615936,-0.2342429906129837,0.1327270269393921,-0.025583678856492043,-0.13347890973091125,0.16129660606384277,0.47070208191871643,-0.09461967647075653,0.13973158597946167,0.05659075081348419,0.43975043296813965,-0.2393844872713089,-0.027953946962952614,-0.04623815417289734,0.008815514855086803,0.05239539220929146,0.1363188475370407,0.14029648900032043,0.35099607706069946,0.09827367216348648,-0.28955143690109253,0.38005831837654114,-0.0723533183336258,0.07463214546442032,0.004440273158252239,0.08086493611335754,-0.14520083367824554,-0.022976737469434738,-0.23635153472423553,-0.19950558245182037,0.033040862530469894,-0.17732688784599304,-0.085823655128479,-0.2072242647409439,0.04626468941569328,0.09792470186948776,-0.077238067984581,-0.2131432592868805,-0.05675637349486351,-0.12085403501987457,0.10549487918615341,0.02138577029109001,0.09753882884979248,-0.12756885588169098,0.016646433621644974,-0.1376054286956787,0.11004067212343216,0.2404351383447647,-0.2077278196811676,0.045091662555933,0.08917523920536041,0.07116341590881348,-0.03591678664088249,0.21131058037281036,-0.18033599853515625,0.023714158684015274,-0.16438740491867065,0.268570214509964,0.1757231503725052,-0.09156285226345062,0.16764438152313232,0.1949482560157776,0.0851253941655159,-0.04686169698834419,0.06267297267913818,0.0537010096013546,0.00021437639952637255,0.28478920459747314,-0.2949480712413788,0.19769196212291718,-0.18205726146697998,0.13446591794490814,0.2060847282409668,0.15182247757911682,0.060033176094293594,0.12865670025348663,-0.601611316204071,-0.06866627931594849,-0.2323727309703827,-0.030453987419605255,0.09840930253267288,0.17791634798049927,-0.017405221238732338,0.23926208913326263,0.42935454845428467,0.11743346601724625,-0.46009498834609985,0.25938501954078674,-0.1293983906507492,0.319271445274353,-0.12032601237297058,0.09726446121931076,-0.1175471693277359,0.082840695977211,0.12049032747745514,-0.20643585920333862,0.019211938604712486,-0.03863576799631119,-0.1426437348127365,-0.027478286996483803,0.22036562860012054,0.2101241499185562,0.25836753845214844,0.05679153650999069,0.08411787450313568,-0.1791137307882309,-0.05974724143743515,-0.19063366949558258,-0.16042132675647736,0.2684650421142578,-0.10127075016498566,-0.09542692452669144,0.12190353870391846,0.00006918467988725752,0.2767787575721741,0.34021005034446716,-0.230127215385437,0.176785409450531,0.030450981110334396,0.23262228071689606,0.028979690745472908,0.21186648309230804,0.08402051031589508,0.3284706175327301,-0.4002106785774231,-0.17748671770095825,-0.17584072053432465,-0.0712827518582344,0.0003930169914383441,0.20720650255680084,-0.28787121176719666,0.16124708950519562,0.28231072425842285,-0.16013912856578827,-0.129216268658638,-0.10727819055318832,0.016382137313485146,-0.1553167700767517,-0.1597818285226822,-0.0858207419514656,-0.20722460746765137,0.20433121919631958,-0.01315105240792036,-0.08047434687614441,-0.1790158599615097,0.1527462750673294,-0.08978690207004547,-0.03956809639930725,-0.15782856941223145,-0.2555204927921295,0.1834256947040558,-0.24000632762908936,-0.10954652726650238,-0.14950190484523773,0.1222296729683876,0.007648352533578873,-0.31283247470855713,0.23639579117298126,-0.30289292335510254,-0.012307525612413883,0.03604181855916977,-0.055276721715927124,0.13715766370296478,0.23289790749549866,0.054685600101947784,-0.07094597816467285,0.1533203423023224,0.22820188105106354,0.07600729167461395,0.03224075213074684,0.0352974608540535,0.1750122606754303,-0.2761371433734894,0.018598390743136406,-0.2548622190952301,-0.18704794347286224,0.22256335616111755,0.051419034600257874,-0.048485852777957916,0.14482897520065308,-0.030045755207538605,0.05810685083270073,-0.023164020851254463,0.19146937131881714,0.18299132585525513,0.22717536985874176,0.12488990277051926,-0.059349190443754196,-0.30972519516944885,-0.13749456405639648,-0.2646968960762024,-0.1192597895860672,-0.36417534947395325,0.07302708923816681,0.06745678186416626,-0.30096566677093506,0.28547748923301697,-0.08181421458721161,-0.08627963811159134,0.16717930138111115,-0.29277846217155457,-0.29533377289772034,-0.10372955352067947,0.008906885050237179,0.007274959236383438,-0.027858801186084747,-0.08800239861011505,0.03578875958919525,0.09175794571638107,0.12655045092105865,0.08787653595209122,-0.004683513194322586,0.06594734638929367,-0.1609194129705429,0.023589642718434334,-0.22426582872867584,-0.10841385275125504,-0.062226302921772,0.2721976041793823,0.015552954748272896,-0.17007838189601898,-0.05810787156224251,-0.21527788043022156,0.039834532886743546,0.022946137934923172,0.06256082653999329,0.045833248645067215,-0.07315471768379211,-0.15643414855003357,-0.08054757863283157,0.02264084480702877,0.048816852271556854,0.01585674099624157,0.01608939841389656,0.06874535232782364,-0.014577466994524002,0.04636193811893463,-0.03818422928452492,0.040128644555807114,0.036390382796525955,-0.09399157017469406,-0.040028464049100876,0.12080344557762146,0.1947900354862213,-0.019346579909324646,0.08344514667987823,0.020510783419013023,0.011083335615694523,-0.13145697116851807,0.05198602378368378,0.03157835826277733,0.009238345548510551,0.1173333153128624,-0.08036854863166809,0.029942261055111885,0.06314710527658463,-0.026238631457090378,-0.28976109623908997,0.10037772357463837,-0.008609021082520485,0.12011732161045074,0.1489364206790924,0.06978432834148407,-0.04527038335800171,-0.008845742791891098,0.013423513621091843,-0.11217853426933289,-0.01744024083018303,0.14056627452373505,-0.047123830765485764,0.08130861818790436,-0.1344633400440216,0.24081069231033325,0.02352365292608738,0.11502368748188019,0.018974563106894493,-0.060493770986795425,-0.08779437839984894,0.14974741637706757,-0.08101819455623627,-0.021653151139616966,-0.06594553589820862,0.10652640461921692,-0.11378253251314163,0.08558319509029388,-0.20840324461460114,0.15240150690078735,0.021919865161180496,-0.04545220360159874,0.03268205001950264,0.2968454957008362,-0.1393173187971115,-0.13123756647109985,0.1474190652370453,0.10836091637611389,-0.015150216408073902,0.2742985188961029,-0.014844798482954502,-0.04251253232359886,-0.026637405157089233,-0.13114586472511292,-0.04895005375146866,0.06896859407424927,0.13455866277217865,0.029265528544783592,0.13881154358386993,-0.03163943067193031,-0.1489459127187729,0.1804206371307373,-0.010844932869076729,-0.03596984222531319,0.06988321244716644,0.11966296285390854,0.008071192540228367,0.13576467335224152,-0.007524832151830196,-0.14046554267406464,0.18383711576461792,-0.04823974519968033,-0.040797412395477295,0.12116914987564087,-0.02910836599767208,0.15248586237430573,-0.288308709859848,0.05802769586443901,0.14953258633613586,-0.13520771265029907,-0.1180110052227974,0.13064546883106232,-0.10256931185722351,0.0010461139027029276,-0.011577479541301727,0.34304100275039673,-0.07739988714456558,-0.06578083336353302,0.2171832174062729,-0.041218940168619156,0.05640457570552826,0.12101520597934723,-0.04751714691519737,0.025180894881486893,-0.18307800590991974,0.20929989218711853,-0.06358663737773895,-0.19106537103652954,0.04154397174715996,0.019002990797162056,-0.21186107397079468,0.09241306781768799,0.008198249153792858,-0.17421607673168182,0.029028406366705894,0.04998064786195755,-0.2536408603191376,-0.023547621443867683,0.1394619345664978,0.06510253995656967,-0.04943341761827469,0.1629195362329483,-0.4175417423248291,0.07520369440317154,0.07012292742729187,-0.30644524097442627,0.018940063193440437,0.07006888836622238,-0.0718662366271019,-0.06779181212186813,-0.013249981217086315,0.1905161440372467,-0.0010842062765732408,-0.03859039023518562,0.036334022879600525,-0.0823344886302948,-0.04415437951683998,0.022097216919064522,-0.19334924221038818,0.011529583483934402,-0.08156053721904755,0.07915713638067245,0.09097997099161148,0.3215954601764679,-0.11548884958028793,-0.045842159539461136,0.18125925958156586,0.008455305360257626,0.07722238451242447,0.4197162091732025,0.054060377180576324,0.16152861714363098,-0.16547362506389618,0.03401082381606102,-0.30551499128341675,0.16730189323425293,-0.07472304999828339,0.046646811068058014,0.1905723363161087,0.00022574124159291387,-0.007930012419819832,-0.06428209692239761,0.02560115046799183,0.03359091281890869,0.3073837459087372,-0.1109076663851738,0.18639680743217468,0.33141592144966125,-0.16522358357906342,0.08564668893814087,-0.14474429190158844,0.2691952884197235,0.03811817243695259,0.1369607001543045,0.02340063638985157,0.0677492767572403,-0.06953655928373337,0.1348681002855301,-0.0005656218272633851,0.009236035868525505,0.08072632551193237,0.0358571857213974,0.02307053841650486,0.1730514019727707,-0.24485160410404205,-0.11577419936656952,-0.023573296144604683,-0.1056157723069191,0.007530242204666138,0.0465073399245739,0.01023842953145504,-0.09697724133729935,-0.1529470980167389,0.1285676658153534,-0.08887702226638794,-0.18662390112876892,0.07634191960096359,-0.11948635429143906,-0.14555010199546814,0.32566481828689575,-0.02459026873111725,0.1995992809534073,0.08128823339939117,-0.10370692610740662,-0.09385311603546143,0.09089689701795578,0.03273821994662285,-0.011862481012940407,-0.0851544663310051,-0.0725218802690506,0.13544075191020966,0.04365139454603195,-0.14583560824394226,-0.23828324675559998,0.0782870501279831,-0.07812486588954926,-0.19407717883586884,0.32964372634887695,0.05701744183897972,-0.1320013850927353,-0.088294118642807,0.13518346846103668,0.010806395672261715,-0.17586153745651245,-0.019754495471715927,-0.003975630272179842,0.007466534152626991,-0.13094750046730042,-0.13320231437683105,-0.020884022116661072,-0.09067166596651077,-0.15033648908138275,0.13000409305095673,-0.031054453924298286,-0.12953610718250275,0.09123099595308304,-0.07644975930452347,-0.09335321933031082,0.01499837264418602,-0.04195399209856987,0.0070262192748487,0.05508996918797493,-0.12088267505168915,-0.051118697971105576,-0.02145683579146862,0.20198866724967957,-0.06130801513791084,-0.02908087521791458,-0.13564398884773254,0.11929234117269516,-0.049107231199741364,-0.03222797065973282,0.010583922266960144,0.045946575701236725,0.21002797782421112,0.045953523367643356,0.12481463700532913,0.06985094398260117,-0.018442407250404358,-0.044141948223114014,-0.09168724715709686,-0.021214453503489494,0.10401778668165207,0.0003740978136193007,-0.06458812952041626,0.030357737094163895,0.2320406436920166,-0.09872101992368698,-0.011449345387518406,0.03212554752826691,-0.11753617227077484,-0.0776095911860466,0.004900787491351366,0.020436467602849007,0.056440193206071854,-0.03124895505607128,-0.07061099261045456,-0.05810866504907608,-0.05205707997083664,0.17804987728595734,0.10743950307369232,-0.07804761826992035,-0.02969089150428772,0.09992516785860062,-0.10634393990039825,-0.020967766642570496,-0.12736999988555908,-0.08690780401229858,0.023682376369833946,-0.06767518073320389,-0.04172632098197937,0.15449094772338867,-0.1105625331401825,-0.2871139943599701,-0.02383379079401493,0.1301211714744568,-0.08569081127643585,0.08932015299797058,-0.11693091690540314,-0.3011787235736847,0.0882505550980568,-0.03618909791111946,-0.039958804845809937,-0.12924723327159882,-0.09076821058988571,-0.08076059818267822,-0.1392524093389511,-0.018167618662118912,-0.17470373213291168,-0.08627262711524963,0.07844167202711105,-0.3585643172264099,0.10183588415384293,0.14636126160621643,0.2579288184642792,-0.21350613236427307,-0.11108783632516861,0.10514938831329346,0.018276818096637726,-0.2504371106624603,-0.0055425637401640415,0.0887407585978508,0.08987271040678024,-0.12456922233104706,0.09139794856309891,-0.0008769087144173682,-0.20332826673984528,0.010046110488474369,0.0785423219203949,-0.18362048268318176,0.02738545648753643,-0.04385284706950188,-0.004816138651221991,0.09479714930057526,0.0025252795312553644,0.04492805898189545,-0.08782818168401718,0.07595309615135193,-0.033511221408843994,0.11222133040428162,0.0009299677331000566,0.09099432826042175,0.03658922761678696,0.04500684514641762,-0.10529571026563644,0.18517011404037476,-0.00864498969167471,0.03668081387877464,-0.10069461911916733,0.03951120004057884,0.03771347552537918,0.011711281724274158,-0.11605165898799896,-0.04663626104593277,-0.014915041625499725,0.07585610449314117,-0.24355264008045197,-0.09506544470787048,0.07330051809549332,-0.02997976914048195,-0.020273596048355103,0.077247753739357,-0.17410720884799957,-0.07909228652715683,-0.01865294761955738,0.14156769216060638,-0.21725434064865112,-0.0028930006083101034,-0.03613519296050072,0.024817684665322304,0.018106600269675255,-0.08897646516561508,0.18695610761642456,-0.08706110715866089,-0.023835666477680206,0.12377779930830002,-0.016031606122851372,-0.19434893131256104,0.08204478025436401,-0.017544683068990707,0.01673329435288906,-0.16843034327030182,-0.08833111822605133,-0.05113667622208595,0.10757896304130554,0.034225985407829285,-0.07873155176639557,-0.028416862711310387,0.051706161350011826,-0.04671626538038254,-0.08214156329631805,0.0465099960565567,0.16276222467422485,-0.12064284086227417,0.14921200275421143,-0.07354910671710968,0.07001858204603195,-0.13781686127185822,0.1562119871377945,0.10657916218042374,-0.09899497032165527,0.06807316094636917,0.12058410048484802,-0.02177080698311329,-0.11471524089574814,0.012867966666817665,0.11000680923461914,-0.052793391048908234,0.1109565943479538,0.03856326639652252,0.16423152387142181,-0.09255895763635635,0.05815558135509491,-0.18881769478321075,0.015631509944796562,0.0070094638504087925,0.18771964311599731,0.12032444775104523,0.043422672897577286,0.11230991035699844,0.02354908548295498,0.033204056322574615,-0.00866058561950922,-0.031965963542461395,-0.18275544047355652,0.03311029076576233,0.019020291045308113,-0.048229292035102844,-0.09988578408956528,0.007076929789036512,-0.051043253391981125,-0.1134607121348381,0.016181521117687225,-0.15766464173793793,0.05740418657660484,-0.186677485704422,-0.016047094017267227,-0.06962274014949799,-0.15193575620651245,0.07084611058235168,0.10851828753948212,-0.08218789100646973,0.06445378810167313,0.17610734701156616,0.028259707614779472,-0.11480961740016937,-0.1934822052717209,0.1219964325428009,-0.07622390985488892,-0.04016662761569023,-0.03430606424808502,-0.10175984352827072,0.06275331974029541,-0.1395355761051178,-0.12320923060178757,0.07391294836997986,0.06743241101503372,-0.20345206558704376,0.052810925990343094,0.0006520995520986617,-0.08174993097782135,-0.19745014607906342,-0.08283641934394836,-0.06991380453109741,0.05641608685255051,-0.06141481176018715,0.17089615762233734,0.08386894315481186,-0.09737645834684372,0.13098160922527313,-0.08930680900812149,0.13490033149719238,0.24714460968971252,0.1535262167453766,-0.1535399705171585,0.14718346297740936,0.0036998854484409094,0.21821406483650208,-0.09851298481225967,0.22387072443962097,-0.10224858671426773,-0.11104004830121994,0.11176042258739471,-0.00612244475632906,0.009376988746225834,0.04725010320544243,0.0023167128674685955,-0.08311856538057327,-0.24560952186584473,0.13781927525997162,-0.035563819110393524,0.11463554948568344,-0.046570464968681335,0.12474723160266876,-0.05684788152575493,-0.002997142029926181,0.023158742114901543,-0.07563571631908417,-0.003617950016632676,-0.10080043226480484,0.16866639256477356,-0.05519772320985794,0.019320933148264885,0.03601156175136566,0.14724349975585938,-0.15637730062007904,-0.05026525259017944,0.2047063261270523,-0.0878213569521904,0.12921741604804993,-0.14938057959079742,0.1613597720861435,-0.09616469591856003,0.07313035428524017,0.09340610355138779,0.11332190036773682,0.09143684804439545,0.3567017614841461,-0.11824806034564972,0.08264044672250748,-0.046563729643821716,0.025997627526521683,0.05789964273571968,-0.00009186438546748832,-0.05767565220594406,-0.15785636007785797,-0.15351730585098267,-0.10166383534669876,0.18040640652179718,0.315716028213501,-0.14187604188919067,0.02026897668838501,-0.04021139070391655,-0.07719264179468155,0.006037733517587185,0.19398686289787292,-0.10128599405288696,-0.20639584958553314,-0.13170528411865234,-0.05035210773348808,0.03682892024517059,0.0659518763422966,0.22598637640476227,-0.19006238877773285,0.029792841523885727,0.18538372218608856,-0.10141479223966599,-0.05615879222750664,-0.05615141987800598,0.0025557742919772863,0.1685759723186493,-0.025289593264460564,-0.06489188969135284,0.325835257768631,0.06652439385652542,-0.2259911149740219,-0.3359745144844055,-0.07920197397470474,0.028248725458979607,0.21619781851768494,0.25701904296875,-0.09357690066099167,-0.05780048668384552,0.05277283117175102,-0.1695019155740738,0.03408065065741539,-0.033500056713819504,-0.10629529505968094,0.02793489769101143,0.1096998006105423,0.09727602452039719,0.12902364134788513,-0.03431345894932747,0.09914752095937729,0.03292093053460121,-0.07325936108827591,0.19020943343639374,-0.01685619167983532,0.1645440012216568,-0.17991043627262115,0.03230277821421623,-0.0168534554541111,-0.10330992937088013,-0.08981414884328842,-0.11613229662179947,-0.06126999109983444,-0.1602998971939087,0.18923087418079376,0.10857491195201874,0.04206492751836777,-0.12774483859539032,0.06949378550052643,0.10865786671638489,-0.12269504368305206,0.028238937258720398,-0.15268488228321075,0.15282830595970154,0.07936947047710419,0.081896111369133,0.09192479401826859,0.0821293294429779,-0.1788385510444641,-0.027895348146557808,0.0579538568854332,0.013053539209067822,-0.1472831666469574,0.002539686858654022,0.02052251063287258,0.18963506817817688,-0.1511496603488922,-0.037060391157865524,0.1338159441947937,0.0139147425070405,-0.17202045023441315,-0.09296894818544388,-0.05855584517121315,0.12611417472362518,-0.028462456539273262,0.09042982012033463,0.06976065039634705,-0.046787332743406296,0.005601797252893448,-0.13019609451293945,0.020076358690857887,-0.040894877165555954,0.06180287152528763,0.08676493912935257,-0.031099699437618256,0.03568689897656441,-0.024513624608516693,0.04159506782889366,-0.03474489226937294,0.0036639668978750706,-0.04218490794301033,0.05550315976142883,0.09731174260377884,-0.011974803172051907,-0.18382082879543304,-0.17674608528614044,0.0797114148736,0.002906529465690255,-0.14934080839157104,0.07094191014766693,-0.07015540450811386,0.2011626958847046,0.16089610755443573,-0.13949596881866455,0.013135187327861786,-0.024998687207698822,-0.15527552366256714,-0.05897819250822067,0.04740474373102188,-0.059304479509592056,0.0919424444437027,0.14683231711387634,-0.0011188213247805834,-0.09677118808031082,0.024430517107248306,0.06740677356719971,-0.06880608946084976,0.004210605751723051,0.11490976810455322,-0.09866002202033997,-0.1367829293012619,0.0803530290722847,-0.022134363651275635,-0.10428084433078766,-0.017593059688806534,0.08565762639045715,-0.03977504000067711,-0.0750860720872879,-0.06609123200178146,-0.027446215972304344,-0.17697648704051971,-0.058844760060310364,0.02319040335714817,-0.06935587525367737,0.15123814344406128,-0.0647432878613472,0.06881291419267654,0.02590482123196125,0.06401899456977844,-0.011821692809462547,-0.12927396595478058,0.05204525217413902,0.1323947161436081,0.1180967465043068,0.07686630636453629,-0.10400795936584473,-0.07357294112443924,-0.012060625478625298,-0.03482301905751228,-0.14154137670993805,-0.11773154884576797,0.18434084951877594,-0.028990451246500015,-0.052136555314064026,0.1924537569284439,0.06620504707098007,0.1409492939710617,0.06323421746492386,0.00788919348269701,-0.07492989301681519,0.1051507294178009,0.12416789680719376,0.03166858106851578,0.06874990463256836,-0.04578442871570587,0.08911029249429703,0.008009590208530426,-0.025620240718126297,0.03768365830183029,0.04301728680729866,-0.027086462825536728,0.16193094849586487,-0.025838693603873253,0.030892077833414078,-0.046391915529966354,-0.026371071115136147,-0.06887931376695633,0.2490433007478714,0.11815657466650009,0.03576920926570892,0.1574074625968933,0.07063373923301697,-0.1184307113289833,0.021064892411231995,0.005715364124625921,0.17770245671272278,-0.13675296306610107,0.04400905594229698,0.021283011883497238,-0.14217621088027954,-0.032673370093107224,-0.33480778336524963,0.10654278099536896,0.14154747128486633,-0.01129230484366417,-0.033231377601623535,-0.06005217880010605,-0.011042831465601921,0.09388045221567154,-0.14363791048526764,0.0878823846578598,-0.10213819891214371,-0.1938295066356659,-0.1921863555908203,-0.10971095412969589,0.20822232961654663,0.034062087535858154,-0.014063308015465736,-0.005553929600864649,-0.04935796931385994,0.02622186206281185,-0.042349256575107574,-0.040962137281894684,-0.02220519445836544,0.08833639323711395,0.015464169904589653,0.12102574110031128,0.025140080600976944,-0.27650579810142517,0.04405125603079796,-0.009132074192166328,0.05512835830450058,-0.2611279785633087,-0.5850332975387573,0.8619378209114075,0.09776642173528671,-0.6068095564842224,0.04724899306893349,-0.23267647624015808,-0.031210411339998245,0.5548763871192932,-0.688616931438446,0.9747016429901123,0.44319260120391846,0.01954120397567749,-0.2572327256202698,-0.05842358246445656,-0.601904034614563,0.24851900339126587,-0.28251925110816956,0.18227651715278625,-0.43344563245773315,0.2858368158340454,0.2521834671497345,0.4098735451698303,0.11608581990003586,0.29158204793930054,0.004360108636319637,0.09885188192129135,0.08669763058423996,-0.3501504063606262,-0.12890437245368958,0.09654445946216583,-0.22244048118591309,0.09136391431093216,0.0011206063209101558,0.03219055384397507,0.2307637482881546,0.10168465226888657,0.1895323395729065,-0.23267289996147156,-0.19823653995990753,-0.30740243196487427,0.08194821327924728,-0.04082915559411049,-0.2224625200033188,0.07273272424936295,0.2837325930595398,0.07085422426462173,-0.05651542544364929,-0.02911263331770897,-0.10024925321340561,-0.2040332704782486,-0.1440783441066742,0.14524143934249878,-0.20117385685443878,-0.07904601842164993,-0.2235116958618164,-0.20399801433086395,0.15218515694141388,-0.24768589437007904,0.16759231686592102,0.19425858557224274,-0.16272683441638947,-0.14214664697647095,0.20635318756103516,0.2513151466846466,-0.14243623614311218,0.06087205186486244,-0.07455486804246902,-0.10973946750164032,0.3384656608104706,-0.2376728653907776,0.29608869552612305,0.23438578844070435,-0.2732428014278412,0.044056814163923264,0.3066593110561371,-0.053205035626888275,-0.11540509760379791,0.21518170833587646,-0.26477426290512085,0.15237821638584137,-0.2568700611591339,0.1928301751613617,-0.2621295154094696,0.2065247893333435,0.14513173699378967,0.2326400727033615,0.1630423665046692,0.1705838441848755,-0.16400976479053497,-0.23643085360527039,0.05002690851688385,-0.43572789430618286,-0.3376234769821167,0.28021618723869324,-0.15295858681201935,-0.07378735393285751,-0.17159652709960938,0.056944556534290314,-0.1257040947675705,-0.1735260933637619,-0.07246799767017365,0.2216636687517166,0.1385846883058548,-0.18298666179180145,-0.07577058672904968,0.024286769330501556,-0.1304357796907425,0.10069630295038223,0.21728254854679108,0.12773758172988892,0.20319433510303497,-0.027365511283278465,0.09431292861700058,0.08604244142770767,-0.02984866313636303,0.11042048037052155,-0.13818956911563873,-0.02174334228038788,-0.04069282487034798,-0.19254069030284882,0.13251981139183044,0.08242226392030716,-0.309949666261673,0.17153450846672058,0.08872655034065247,0.020054293796420097,0.1855745166540146,0.07292279601097107,0.16120058298110962,-0.2431638091802597,-0.12886875867843628,0.11409281939268112,0.020945966243743896,0.09648184478282928,-0.09435122460126877,0.10353025794029236,0.055995866656303406,-0.03646053746342659,0.08606358617544174,-0.05473816394805908,-0.024720115587115288,0.08833891153335571,-0.14542363584041595,-0.13282158970832825,0.2932707369327545,-0.2138221263885498,0.1575634777545929,0.38075071573257446,0.03331392630934715,-0.062117163091897964,-0.03043246828019619,-0.12614890933036804,0.13749738037586212,-0.20749637484550476,0.28964030742645264,-0.25216954946517944,-0.16132739186286926,0.11643368005752563,-0.06882624328136444,0.22301918268203735,0.016907144337892532,-0.3491983413696289,0.26436561346054077,0.12396270036697388,0.1872875839471817,-0.1435757428407669,-0.3119966685771942,0.011610224843025208,-0.030359823256731033,0.11930239945650101,-0.13733293116092682,-0.06862358003854752,-0.05093725770711899,0.3010777533054352,-0.22574393451213837,0.13580337166786194,-0.22301381826400757,-0.2540450692176819,-0.18892404437065125,0.21696563065052032,-0.07058878988027573,0.14787466824054718,-0.02079167030751705,0.13524676859378815,0.026707347482442856,-0.32107481360435486,0.07162880897521973,0.02384868636727333,-0.26382750272750854,0.029284406453371048,0.2287992388010025,0.08658657222986221,0.05093348026275635,-0.2577952742576599,0.01121276244521141,-0.02527513913810253,0.2656969726085663,0.24937601387500763,0.0915970578789711,-0.02684633433818817,-0.19799520075321198,-0.1430896520614624,0.17233671247959137,-0.28112873435020447,-0.237714022397995,0.053848810493946075,0.024138066917657852,-0.21897965669631958,-0.21462495625019073,-0.30828607082366943,-0.21747790277004242,0.230710968375206,0.07290319353342056,0.040893785655498505,-0.289504736661911,0.19369514286518097,-0.06381538510322571,-0.24487146735191345,-0.05894315615296364,0.0224986020475626,0.0029014695901423693,0.11836569756269455,-0.19905556738376617,-0.23386742174625397,0.04924927279353142,-0.25268810987472534,-0.11983860284090042,-0.004775740671902895,-0.08014985173940659,0.11381996423006058,-0.08333925902843475,-0.007274644915014505,-0.042715877294540405,0.026190465316176414,-0.10900550335645676,0.003935306798666716,0.13130944967269897,-0.1851177215576172,0.02856634557247162,-0.17680980265140533,0.3835678696632385,-0.2562609910964966,0.14896456897258759,-0.26488617062568665,-0.22250330448150635,-0.027878129854798317,-0.41030192375183105,-0.0015604197978973389,0.3215143084526062,0.1966111809015274,0.18515221774578094,0.11618028581142426,0.2903720438480377,-0.19338318705558777,0.0344858393073082,-0.06922110915184021,-0.0683322548866272,-0.2588672339916229,-0.36318954825401306,-0.09303350001573563,-0.12850981950759888,-0.00404997356235981,-0.2985687255859375,0.09927202761173248,0.10200046002864838,0.16993170976638794,0.263604074716568,-0.11215822398662567,-0.06194327026605606,-0.10401029139757156,0.05373041704297066,0.009455875493586063,0.06787499785423279,0.09769044071435928,0.050103023648262024,-0.05629296973347664,0.07411302626132965,0.07716045528650284,-0.033471137285232544,-0.17664477229118347,-0.06642816215753555,0.08368067443370819,0.04288296401500702,0.1504029780626297,0.14479410648345947,0.043013956397771835,-0.013708117417991161,0.17942367494106293,-0.010360385291278362,-0.08725433051586151,-0.13763828575611115,-0.06201856583356857,0.1865433305501938,-0.016932304948568344,-0.06810791790485382,0.11507119983434677,-0.15254716575145721,0.09839155524969101,-0.032148487865924835,-0.0043174028396606445,-0.21797528862953186,-0.12137255817651749,0.11746352165937424,-0.1667320430278778,0.08101147413253784,0.13469308614730835,-0.03220987319946289,0.04812226817011833,-0.1838066577911377,0.09926360100507736,0.06433659046888351,0.02372002601623535,-0.06971162557601929,0.11351820826530457,0.02523338980972767,0.020441323518753052,-0.12265782803297043,-0.2515591084957123,-0.23945681750774384,0.3480250835418701,0.0858881026506424,-0.10914868861436844,-0.1473103165626526,-0.1639237403869629,-0.026392938569188118,-0.13803550601005554,-0.13039550185203552,-0.1205698624253273,0.01714814454317093,-0.16500483453273773,-0.09220289438962936,0.10053268074989319,-0.15574410557746887,0.0695912092924118,0.06760241091251373,-0.08614476025104523,0.14427460730075836,-0.08263830095529556,0.21909834444522858,-0.3341136574745178,-0.0709260106086731,0.05338725447654724,-0.1679970622062683,-0.019555630162358284,0.0009386179153807461,0.11258208006620407,0.07202039659023285,0.2231287658214569,-0.020507806912064552,0.07560230046510696,0.04092692211270332,0.04958941787481308,-0.03375648334622383,-0.08653827011585236,-0.024117209017276764,0.04234600067138672,-0.20562726259231567,-0.292534202337265,-0.1338133066892624,0.07844319194555283,-0.01543454360216856,-0.05425218492746353,0.027574386447668076,0.04268203675746918,-0.013939879834651947,0.09224583953619003,-0.030832627788186073,-0.008668988011777401,0.1916268765926361,0.18519310653209686,-0.15964120626449585,-0.13930734992027283,0.06530005484819412,-0.012693212367594242,0.0399521179497242,0.17942504584789276,-0.1015462800860405,0.09186183661222458,0.12118716537952423,0.0997619479894638,-0.11989567428827286,0.455265611410141,-0.11993788182735443,0.08464809507131577,-0.18618865311145782,0.03733960539102554,-0.07014427334070206,0.1799745261669159,-0.12553457915782928,-0.18605074286460876,-0.03627140820026398,0.10143114626407623,-0.135223388671875,0.258180171251297,-0.010019425302743912,0.004881696309894323,0.06379000842571259,0.041805464774370193,-0.040849801152944565,-0.26531341671943665,-0.12450134009122849,-0.04970857501029968,0.0714675560593605,-0.1057809367775917,0.1120806485414505,0.13119463622570038,0.06332793086767197,-0.08473168313503265,-0.02130979299545288,0.07759945839643478,0.07814613729715347,-0.07998162508010864,0.06638036668300629,-0.13399085402488708,0.15947915613651276,-0.03309115767478943,-0.054965827614068985,-0.20260104537010193,-0.01259943563491106,-0.02067703939974308,-0.12083255499601364,-0.04183636233210564,-0.2863452732563019,0.032134369015693665,-0.050247568637132645,0.025509964674711227,-0.09415756911039352,-0.05034976452589035,0.022325722500681877,-0.15906234085559845,-0.03567013144493103,0.09637126326560974,0.07689157128334045,0.04919629544019699,0.017268413677811623,0.15346263349056244,0.01764291524887085,0.14075779914855957,0.1547355055809021,-0.07156862318515778,-0.03161950036883354,0.046137940138578415,-0.09194216132164001,-0.02854251116514206,0.14044401049613953,-0.07516106218099594,-0.04304814711213112,-0.16266921162605286,0.23108185827732086,0.09075925499200821,-0.05484113469719887,0.0022289694752544165,0.03930841386318207,0.06876008212566376,0.018333613872528076,0.028449419885873795,-0.1364290863275528,-0.0718856155872345,-0.014587732031941414,-0.17020605504512787,0.028195234015583992,0.037199828773736954,0.37662389874458313,-0.04047611355781555,-0.022707097232341766,0.037578459829092026,0.21106936037540436,-0.046147625893354416,0.09295318275690079,-0.019411128014326096,-0.004076370038092136,0.2524568438529968,-0.15070772171020508,-0.19470520317554474,0.1281263381242752,-0.20969048142433167,-0.23452548682689667,0.07124616205692291,-0.01013070996850729,0.04739046469330788,0.1677924245595932,-0.11081358790397644,0.10566675662994385,-0.24452736973762512,0.045014746487140656,-0.08323096483945847,0.03278951346874237,0.0184940192848444,0.054445989429950714,-0.22146347165107727,0.0032970928587019444,0.011070875450968742,-0.29227614402770996,-0.1395397037267685,-0.2366241067647934,0.17496134340763092,0.24319292604923248,-0.01060874667018652,-0.07409831881523132,0.0567689910531044,0.13670748472213745,-0.11194280534982681,-0.04828749597072601,-0.039351873099803925,0.23248061537742615,-0.13154888153076172,-0.13819855451583862,-0.010456790216267109,0.02630198374390602,-0.03514126315712929,-0.21663761138916016,-0.08384068310260773,-0.09312066435813904,0.07155366986989975,-0.15282920002937317,-0.1114506721496582,0.16028009355068207,-0.0620877705514431,-0.14169800281524658,-0.3262161314487457,-0.006977087818086147,0.01877310872077942,-0.16829733550548553,0.09093023091554642,0.13275586068630219,0.07994770258665085,0.21434687077999115,-0.11396501213312149,0.10334005951881409,-0.14674009382724762,-0.0903826653957367,-0.3007042109966278,0.048879943788051605,0.031040633097290993,0.01970817707479,0.18648748099803925,-0.1659790575504303,-0.1311570256948471,-0.1884460151195526,0.08381646126508713,-0.397227019071579,-0.08434967696666718,-0.15272077918052673,-0.04862977936863899,-0.05885196477174759,-0.03026050701737404,-0.07950033247470856,0.11629403382539749,-0.0817556157708168,-0.1564071923494339,-0.019689053297042847,-0.014918193221092224,0.09910128265619278,-0.06972886621952057,0.0641353502869606,0.050296805799007416,-0.1058734878897667,-0.09973122179508209,-0.3743683695793152,-0.06263045966625214,0.08231226354837418,0.11047117412090302,0.015347863547503948,0.016157858073711395,0.1314435452222824,-0.27796420454978943,0.018579792231321335,-0.27047285437583923,-0.0021141483448445797,0.03198329731822014,-0.03984518721699715,0.028168823570013046,0.08849781006574631,0.3691006898880005,-0.07263889908790588,0.19585475325584412,0.07562961429357529,-0.1615184098482132,0.01847359538078308,0.042933642864227295,0.13981285691261292,0.08590617030858994,0.32770615816116333,-0.053742192685604095,-0.28262996673583984,-0.33105695247650146,-0.23939315974712372,-0.09856821596622467,-0.05280965939164162,-0.03399757295846939,-0.24797657132148743,-0.34772002696990967,-0.15866407752037048,0.011355716735124588,0.12128979712724686,0.03217601403594017,0.2642431855201721,0.11128339171409607,-0.12259523570537567,0.055368561297655106,0.5959622859954834,0.2063305824995041,-0.20527663826942444,-0.10208813101053238,0.03830976411700249,0.2561717927455902,0.16874739527702332,-0.14239470660686493,-0.12476375699043274,-0.24394498765468597,-0.062249042093753815,0.16643285751342773,-0.06219182908535004,-0.12848792970180511,-0.14140309393405914,-0.011319338344037533,-0.16412925720214844,-0.08077504485845566,0.24640600383281708,-0.011737729422748089,-0.23824520409107208,-0.32457834482192993,-0.43946027755737305,0.13144735991954803,-0.1890009194612503,-0.0893898531794548,-0.03929567337036133,0.008222565054893494,0.15541523694992065,-0.16419613361358643,-0.06824097782373428,0.11183209717273712,-0.038280148059129715,0.1276068389415741,0.09213235974311829,-0.0876716896891594,0.07371164858341217,-0.02802322991192341,0.12001362442970276,-0.1407109946012497,-0.36825960874557495,-0.03644390031695366,-0.10992228239774704,0.07998867332935333,0.01281230989843607,0.11231022328138351,0.0012475113617256284,-0.03655016049742699,0.03566279634833336,0.09625307470560074,-0.07164131850004196,-0.17002233862876892,-0.03269136697053909,-0.006245917174965143,-0.04526970908045769,-0.11828345060348511,0.02134527824819088,-0.15892569720745087,0.15398915112018585,0.10758844763040543,-0.05558819696307182,0.07642892003059387,-0.10289036482572556,-0.1123453676700592,-0.03953782841563225,-0.16593320667743683,0.01290818490087986,0.03382132947444916,-0.19744442403316498,0.08091424405574799,-0.052807461470365524,-0.22397518157958984,0.17219550907611847,0.06723278760910034,0.19254322350025177,-0.2092326283454895,0.07143276929855347,0.014760789461433887,-0.16688652336597443,0.09123598039150238,0.031475648283958435,-0.023372001945972443,-0.05474322289228439,0.028912097215652466,-0.06700688600540161,-0.013456417247653008,-0.07218042761087418,0.051996275782585144,-0.06768152117729187,-0.02767258882522583,-0.1342192441225052,-0.06832287460565567,-0.07781253010034561,-0.14467358589172363,-0.15342573821544647,-0.007411287631839514,-0.12503159046173096,-0.15634353458881378,0.14084960520267487,0.15771476924419403,-0.0858113169670105,0.1154276579618454,-0.3121298551559448,-0.00023364287335425615,0.18890593945980072,0.07709883898496628,-0.21757034957408905,0.11131865531206131,0.010419930331408978,-0.13503573834896088,0.055962640792131424,0.03470773249864578,0.032571639865636826,0.1561039239168167,0.06930573284626007,0.048025086522102356,-0.026558812707662582,0.11693143844604492,0.0548177994787693,0.005730704870074987,-0.030351944267749786,0.13842089474201202,0.09069273620843887,0.20984326303005219,-0.12795956432819366,0.10963217914104462,0.0957736149430275,0.06587190926074982,0.11420512199401855,0.19691315293312073,0.05261377617716789,-0.009872258640825748,0.3102746307849884,0.09905530512332916,-0.12603537738323212,-0.11452651768922806,-0.3027680516242981,-0.09060179442167282,-0.09241344034671783,-0.010000837035477161,0.09158078581094742,0.10875891894102097,0.062105197459459305,0.0062878550961613655,-0.1430329531431198,0.004883682355284691,-0.03154109790921211,0.08512100577354431,0.084464892745018,-0.172551691532135,0.4053283631801605,-0.03509809449315071,-0.1298961192369461,-0.22806650400161743,-0.08276836574077606,0.08529077470302582,-0.16712333261966705,0.048257723450660706,-0.10321596264839172,0.33155006170272827,-0.10145170241594315,0.09491828829050064,0.063233382999897,-0.18058320879936218,0.19226165115833282,-0.2986989915370941,0.12240710109472275,0.007703192066401243,-0.10047456622123718,-0.12688256800174713,0.09769530594348907,-0.01022564060986042,0.15348027646541595,-0.10251321643590927,-0.004466419108211994,0.3039476275444031,0.027728768065571785,-0.016089804470539093,0.11104133725166321,-0.1467348337173462,-0.12935583293437958,0.0743255764245987,0.048304520547389984,-0.20911039412021637,0.27147242426872253,0.14796915650367737,0.1343536078929901,-0.1619960516691208,-0.1963529884815216,0.150055393576622,0.12797707319259644,0.08157256990671158,0.31222885847091675,-0.07995524257421494,0.130686417222023,0.11734340339899063,-0.34296703338623047,0.07740840315818787,0.15918540954589844,0.34387853741645813,-0.08777305483818054,0.01696920208632946,-0.1611296534538269,0.13436254858970642,0.00015815683582331985,0.16280296444892883,0.08548633754253387,-0.15765345096588135,0.290048748254776,0.05394513159990311,0.07073359936475754,0.1990257054567337,-0.16510172188282013,-0.2425386756658554,0.25016823410987854,-0.13648715615272522,-0.045359134674072266,-0.2367975264787674,0.05038466677069664,0.21195761859416962,0.06822191178798676,0.008347613736987114,0.0923265814781189,0.2844603955745697,-0.00890064425766468,0.2392890453338623,-0.16247139871120453,-0.06203746050596237,0.004234851337969303,-0.09630963206291199,0.15517418086528778,-0.36404934525489807,0.03207715228199959,-0.001676909509114921,-0.07490062713623047,0.017520848661661148,-0.15277515351772308,0.053865596652030945,0.16532281041145325,0.1336207091808319,-0.15071459114551544,-0.06841367483139038,0.052305396646261215,0.05329564958810806,-0.02775108814239502,0.20289134979248047,0.10836680978536606,0.18363195657730103,0.14902062714099884,-0.12045583873987198,-0.22521823644638062,0.13995279371738434,0.11078246682882309,-0.1886036992073059,0.28101345896720886,0.1341463178396225,0.33185267448425293,0.020650645717978477,-0.006797633599489927,0.23791654407978058,0.05096643790602684,-0.14977873861789703,0.17714814841747284,0.12236082553863525,0.08508982509374619,-0.227524071931839,-0.017949286848306656,0.023252153769135475,0.12452952563762665,0.019990555942058563,0.46376991271972656,-0.1677163690328598,-0.14011768996715546,-0.352565199136734,-0.1785012036561966,-0.004812825936824083,0.2291414588689804,-0.1864299327135086,0.38489097356796265,-0.39395177364349365,-0.08156303316354752,-0.18229550123214722,0.2612612545490265,-0.008195990696549416,0.06187046319246292,0.28381091356277466,-0.046297475695610046,-0.46603596210479736,1.0460182428359985,-0.18292805552482605,-0.17331475019454956,0.02334756776690483,0.07850629091262817,-0.09097123146057129,0.5352383255958557,-0.36038142442703247,-0.12494570761919022,0.04294508323073387,0.050809118896722794,-0.018151739612221718,0.03935949131846428,-0.35526761412620544,0.015059929341077805,-0.015409541316330433,0.02254103496670723,-0.11892704665660858,0.1297425627708435,0.08586747199296951,0.045980196446180344,-0.40811336040496826,-0.24236449599266052,0.11980832368135452,-0.10712868720293045,0.047507092356681824,-0.10282164812088013,0.13272713124752045,-0.009803014807403088,-0.15712366998195648,0.024892684072256088,-0.016505291685461998,-0.052934080362319946,0.00997142679989338,-0.10913882404565811,-0.03319069743156433,0.009010235778987408,0.030492112040519714,0.23079223930835724,0.041883111000061035,0.02790902741253376,-0.12675750255584717,0.13407735526561737,0.1751548796892166,-0.1571165919303894,-0.02120497077703476,-0.10137604176998138,-0.041252635419368744,0.05665365979075432,0.03837985917925835,-0.013778116554021835,-0.12019259482622147,0.18853963911533356,-0.11487571150064468,-0.10974059253931046,-0.04865862801671028,0.15204477310180664,0.00601712241768837,-0.019343584775924683,-0.027179133147001266,-0.14701753854751587,-0.12625829875469208,-0.17460912466049194,-0.12223272770643234,0.0765843391418457,-0.0609997883439064,-0.07393044978380203,0.14664320647716522,0.08251499384641647,-0.007737396284937859,0.06584523618221283,-0.1566838175058365,0.07733398675918579,0.1002475917339325,-0.03938959166407585,-0.24072396755218506,0.003532304195687175,0.043601084500551224,-0.0031595316249877214,0.05054251104593277,-0.015877699479460716,-0.08539383858442307,0.09177831560373306,0.02564966306090355,-0.1663198173046112,-0.1506078988313675,0.026487911120057106,0.10878901928663254,0.010190659202635288,0.13234928250312805,-0.11769925057888031,0.10638347268104553,-0.0452255941927433,-0.05621974542737007,0.08997544646263123,0.01235069241374731,0.10030460357666016,0.06779524683952332,-0.1858946979045868,0.034021683037281036,-0.053806956857442856,0.09859028458595276,-0.18212145566940308,-0.06652437150478363,0.1269458532333374,-0.04220789670944214,-0.18978692591190338,-0.09931344538927078,0.13611860573291779,-0.05488283932209015,0.07002291083335876,0.12972892820835114,-0.05870218202471733,-0.051621586084365845,0.018158292397856712,-0.03865278884768486,0.0051469337195158005,0.2655287981033325,0.17852823436260223,-0.07794664800167084,-0.028991354629397392,0.20671242475509644,-0.047937147319316864,0.3046877682209015,-0.05082588270306587,-0.03631933778524399,-0.01442715059965849,-0.13493375480175018,0.07523588091135025,0.16895420849323273,0.23149141669273376,-0.0012866513570770621,0.2851714491844177,0.13210950791835785,-0.07027512043714523,-0.01405847817659378,-0.05897469073534012,0.025540990754961967,-0.01836482807993889,-0.2156604826450348,0.05751849710941315,0.23261040449142456,0.005701121408492327,0.03560642525553703,-0.14654380083084106,0.11694028228521347,-0.1074882373213768,-0.017671402543783188,0.093006931245327,0.029450977221131325,0.3109963536262512,-0.08048687875270844,0.00976571999490261,-0.2619158625602722,0.023449929431080818,-0.11138451099395752,-0.19598938524723053,0.09260327368974686,-0.0722840204834938,0.28498950600624084,-0.008641490712761879,0.1147594228386879,0.2396651953458786,-0.043006978929042816,0.058295924216508865,-0.1338660567998886,0.07234475761651993,0.06999685615301132,0.014425757341086864,0.11734848469495773,-0.05702276900410652,0.11763492226600647,0.04963362216949463,-0.0604739747941494,-0.07427293062210083,0.028468478471040726,0.16627489030361176,0.008546577766537666,-0.02947874739766121,0.0634918212890625,0.06707091629505157,-0.036419156938791275,-0.008962159045040607,0.6282852292060852,0.28528550267219543,0.6115071177482605,-0.9666153192520142,-0.6470279097557068,-0.014367938041687012,-0.0890604555606842,0.016588978469371796,0.36882540583610535,0.439897358417511,-0.9377182722091675,0.40963780879974365,-0.23011285066604614,-0.5716989040374756,0.010106632485985756,-0.14847862720489502,0.025205835700035095,-0.2732756733894348,0.21119210124015808,-0.23615680634975433,0.14587433636188507,0.34075799584388733,-0.044466856867074966,-0.04114340990781784,-0.22722086310386658,-0.03063088096678257,-0.09330098330974579,0.12656529247760773,0.09261874109506607,-0.07351483404636383,0.1596900075674057,-0.1480005532503128,-0.17956294119358063,-0.31534433364868164,0.22356069087982178,-0.2352764755487442,-0.02862100675702095,-0.27802056074142456,-0.0016243535792455077,-0.062428656965494156,-0.17868030071258545,0.08391281217336655,-0.16669394075870514,-0.0700019896030426,-0.1210666224360466,0.19443285465240479,-0.03933543711900711,0.3308769464492798,-0.19363655149936676,0.236094132065773,-0.28735023736953735,-0.052860699594020844,-0.07861108332872391,-0.3454172611236572,-0.12465774267911911,0.042347174137830734,0.0040686409920454025,-0.11445953696966171,-0.03427359089255333,-0.307326078414917,-0.19254036247730255,0.23521758615970612,-0.011418728157877922,0.2284802794456482,-0.007972603663802147,-0.20530949532985687,-0.08662325888872147,0.2305491417646408,0.29651299118995667,0.32909294962882996,0.4155517816543579,0.19041413068771362,-0.40252378582954407,-0.2866804897785187,-0.0506158322095871,-0.20622070133686066,0.652310848236084,0.33217427134513855,-0.19738727807998657,-0.3863120675086975,0.13489030301570892,-0.11668986827135086,-0.12768764793872833,0.13757573068141937,0.2091338187456131,-0.05969708040356636,-0.054666899144649506,-0.10583418607711792,0.05916772782802582,0.155179962515831,0.13282692432403564,0.16598404943943024,-0.14460532367229462,-0.043653279542922974,-0.20305003225803375,-0.28153619170188904,0.09175782650709152,0.14293764531612396,0.36333203315734863,0.2845667898654938,-0.20381329953670502,0.05620838701725006,-0.07332304120063782,0.27742719650268555,0.008509072475135326,0.15058203041553497,-0.10551756620407104,0.22118394076824188,-0.2138136476278305,0.3052838444709778,-0.3656684160232544,0.05159036070108414,-0.2169613391160965,-0.21999242901802063,0.05999448895454407,0.020911429077386856,-0.024326223880052567,-0.27294403314590454,0.07862097769975662,0.052065469324588776,-0.16998665034770966,0.18560023605823517,0.040002886205911636,-0.13064926862716675,0.24950987100601196,-0.04186199977993965,0.017828671261668205,-0.045343365520238876,-0.18885202705860138,0.23650918900966644,-0.050600212067365646,0.14197081327438354,0.40231969952583313,-0.29017648100852966,-0.13384556770324707,0.2407296895980835,-0.23998428881168365,0.005702697206288576,0.09018280357122421,0.08203677088022232,-0.08356168866157532,0.05382104590535164,0.06127852201461792,-0.10051346570253372,-0.4594203233718872,0.1037246435880661,-0.3661403954029083,-0.21204842627048492,0.4131607711315155,0.1412113457918167,-0.19548767805099487,-0.4318010210990906,0.24243266880512238,-0.05332686007022858,-0.06241118535399437,-0.15592192113399506,0.4504445791244507,-0.09877985715866089,0.1294439733028412,-0.11065033078193665,0.17382313311100006,0.49425557255744934,0.11275644600391388,0.18425332009792328,-0.2306683361530304,0.0887889564037323,0.003252539550885558,0.21337199211120605,-0.10522681474685669,-0.1310710459947586,0.11304961889982224,-0.23527266085147858,0.22902056574821472,-0.13429367542266846,0.2551030218601227,0.12649205327033997,-0.40552058815956116,0.1506112962961197,-0.40493765473365784,-0.38318657875061035,-0.1062881276011467,0.2207185924053192,0.057190168648958206,-0.35567012429237366,0.29467615485191345,-0.11412685364484787,-0.23533006012439728,0.014975913800299168,-0.1418086141347885,-0.15230409801006317,0.4092831313610077,-0.11337990313768387,-0.07314828783273697,0.19339121878147125,-0.29750916361808777,-0.16704794764518738,0.011390269733965397,-0.031049948185682297,-0.025658564642071724,0.0317210853099823,-0.05074770748615265,-0.04997618868947029,0.2750509977340698,0.2157646268606186,-0.046977028250694275,0.23705849051475525,-0.02627013809978962,-0.22317418456077576,0.2517935633659363,0.17759130895137787,0.1800786852836609,0.37837013602256775,-0.08313780277967453,0.1273888796567917,-0.08375775068998337,0.1484317183494568,0.12656423449516296,0.0769064873456955,-0.33094996213912964,-0.16704025864601135,-0.19770744442939758,0.24358801543712616,-0.1118113175034523,-0.2980232834815979,-0.22177782654762268,0.03258618339896202,-0.04742029681801796,0.12901507318019867,0.03049950860440731,0.09462609142065048,-0.24760010838508606,-0.05453848838806152,0.08996930718421936,0.2130182385444641,0.06036324426531792,-0.13050326704978943,-0.2260504513978958,-0.24726241827011108,0.020253127440810204,-0.0544714592397213,0.12487974017858505,0.06060023605823517,0.11281563341617584,0.274273544549942,-0.2524600923061371,-0.3127182722091675,0.1608019769191742,0.05938273295760155,-0.14944754540920258,0.15669329464435577,-0.19053058326244354,-0.0032704523764550686,0.1449931263923645,0.08084473758935928,-0.016430014744400978,0.2724730372428894,-0.09800736606121063,0.055149178951978683,-0.15175989270210266,-0.16236592829227448,-0.2732003927230835,-0.4114939570426941,0.13428770005702972,-0.08781325817108154,0.00503388699144125,0.12850423157215118,-0.410272479057312,-0.04467228055000305,0.2316189408302307,-0.04512934386730194,-0.12018714100122452,-0.054662272334098816,-0.15140049159526825,0.01786811277270317,0.05627955496311188,-0.01808597333729267,0.021571462973952293,-0.021905360743403435,-0.018406344577670097,0.007331452332437038,-0.031083285808563232,0.0616726316511631,0.10076810419559479,-0.02339937910437584,0.03179529309272766,-0.14111308753490448,-0.061999183148145676,0.056186746805906296,0.14833171665668488,-0.047430772334337234,-0.01825679838657379,0.04463990405201912,0.11101559549570084,0.05556250736117363,-0.04460001364350319,0.1322481632232666,-0.0912521630525589,-0.14091716706752777,0.049992989748716354,0.012341423891484737,0.0775192603468895,-0.058563265949487686,0.0018191426061093807,0.09550502896308899,0.08174856007099152,0.07379451394081116,0.08127185702323914,0.14273692667484283,0.13062062859535217,0.09569212049245834,0.105595164000988,0.04448340833187103,-0.03670160099864006,-0.04522973299026489,0.1383155882358551,0.05674163997173309,-0.09651675820350647,0.05026502162218094,-0.21733547747135162,0.037497710436582565,0.23496738076210022,0.11312682926654816,-0.045850109308958054,-0.14823706448078156,0.06057969108223915,0.06898113340139389,-0.04902935400605202,-0.08254128694534302,-0.16432732343673706,0.03726727142930031,0.018255462870001793,-0.10651829093694687,0.025265397503972054,-0.19430029392242432,0.1681201010942459,-0.12212938070297241,-0.16182315349578857,-0.09624467045068741,0.22876891493797302,0.2006939947605133,-0.01621565967798233,0.02570950984954834,0.00856210570782423,-0.08407524228096008,-0.13005726039409637,-0.09140069037675858,0.052240703254938126,0.4019981324672699,0.18473529815673828,-0.013052338734269142,0.16185468435287476,-0.04664010927081108,0.08517399430274963,-0.050023194402456284,-0.08066989481449127,0.10454309731721878,0.14162161946296692,-0.10681836307048798,0.13576874136924744,0.03967912867665291,0.017693687230348587,-0.09794540703296661,0.11727481335401535,-0.13446597754955292,-0.05629468336701393,0.05169973894953728,0.07173094153404236,-0.17768394947052002,-0.20932622253894806,-0.2495376467704773,-0.23308934271335602,-0.10541395843029022,-0.07287605851888657,-0.14989721775054932,0.06467246264219284,0.1975845843553543,0.050754614174366,-0.12762607634067535,0.2040172964334488,0.10453515499830246,-0.08441620320081711,-0.2068343609571457,-0.24170441925525665,-0.09780253469944,-0.07505372166633606,-0.010907315649092197,0.08902434259653091,0.04729456454515457,-0.0026598740369081497,0.13132555782794952,0.09346792101860046,-0.0517621710896492,0.05759575963020325,-0.04840647429227829,0.011102087795734406,0.026013534516096115,-0.049002595245838165,-0.4000137150287628,-0.14207765460014343,-0.14410120248794556,-0.07421743869781494,0.12412344664335251,-0.03008148819208145,-0.10359267890453339,-0.0778999924659729,-0.1295248568058014,0.07374405860900879,-0.047428570687770844,0.06424976140260696,-0.04552057757973671,-0.07828237116336823,-0.045503705739974976,-0.0007306148763746023,0.06061185896396637,0.08731856197118759,0.08990445733070374,-0.09059134125709534,-0.04232996702194214,0.04145802557468414,-0.12998566031455994,-0.06763483583927155,0.02080979384481907,0.06732020527124405,0.14202368259429932,-0.03600012883543968,0.004915525671094656,0.12216035276651382,0.06311856955289841,0.11981801688671112,-0.02568598836660385,-0.06619472056627274,-0.21468177437782288,-0.038694679737091064,-0.06492666155099869,0.12049484252929688,0.10046582669019699,-0.15295322239398956,-0.060797251760959625,0.23867283761501312,-0.04512416198849678,0.020579690113663673,0.08455374836921692,-0.10421909391880035,0.3386923670768738,-0.06238587200641632,-0.19739961624145508,0.08285507559776306,-0.17341908812522888,-0.025930657982826233,0.1501171588897705,0.14614979922771454,-0.17583249509334564,0.07748312503099442,-0.06857273727655411,0.21343636512756348,-0.24261818826198578,0.24814364314079285,-0.0731697827577591,0.15949465334415436,-0.0700269415974617,0.051804929971694946,-0.05540074408054352,0.06937946379184723,0.060489121824502945,-0.030055301263928413,-0.39354977011680603,-0.15396739542484283,-0.06622175872325897,0.0820196196436882,0.10356985777616501,-0.00556324515491724,0.09377134591341019,0.046306509524583817,-0.12715204060077667,0.07342053204774857,-0.02849646843969822,0.03736945614218712,0.08705198764801025,-0.0849604606628418,0.052408263087272644,0.02159252017736435,0.11630839109420776,0.0290683563798666,-0.07905121892690659,0.15155474841594696,0.06201256439089775,-0.020466236397624016,0.170741468667984,0.23022612929344177,-0.22214725613594055,0.02947889268398285,-0.07630118727684021,0.17614902555942535,0.054109539836645126,0.11369790136814117,-0.005672375671565533,0.12413866072893143,-0.2324492186307907,0.14518074691295624,-0.03174225240945816,0.013018392957746983,0.22707316279411316,0.1432400494813919,-0.053111691027879715,-0.028081722557544708,-0.21998250484466553,0.10194331407546997,-0.045280735939741135,0.052797071635723114,-0.08867979794740677,-0.24446232616901398,-0.04617151618003845,-0.022343967109918594,0.2970055639743805,-0.20949575304985046,-0.21833878755569458,-0.2523895800113678,0.01337185688316822,-0.10043637454509735,-0.1790504902601242,-0.08606745302677155,-0.02907034382224083,-0.06894876062870026,-0.030639778822660446,0.07760573923587799,-0.23529048264026642,-0.09081771969795227,-0.041308239102363586,-0.19852301478385925,0.008693516254425049,-0.05841413140296936,0.07120607048273087,0.15132854878902435,-0.001266716979444027,-0.09532152116298676,0.05402801185846329,-0.12625083327293396,-0.23329241573810577,-0.018101176247000694,0.17467434704303741,0.05835800617933273,0.11526914685964584,0.16941748559474945,-0.3447287678718567,-0.02361667901277542,0.13097819685935974,0.12757836282253265,-0.08192016184329987,-0.1746111661195755,-0.0011279145255684853,0.10597676783800125,0.09902220964431763,-0.0008224056218750775,-0.25516942143440247,-0.22139869630336761,-0.2384241670370102,-0.035457219928503036,-0.002595980418846011,0.1783958077430725,0.013578089885413647,-0.1684437394142151,-0.12842333316802979,0.19854705035686493,0.02466895990073681,-0.16916345059871674,-0.09985801577568054,-0.06418370455503464,0.03780535236001015,0.02014894410967827,-0.14255134761333466,0.031865935772657394,0.21426299214363098,-0.11985751241445541,0.13013394176959991,0.02000599168241024,0.05319273844361305,-0.1327437311410904,-0.14616556465625763,0.08589260280132294,0.12867455184459686,0.01142086647450924,-0.09053832292556763,-0.13182801008224487,-0.030338231474161148,-0.026609741151332855,-0.19504734873771667,0.032904766499996185,0.29673466086387634,0.09306498616933823,0.07470868527889252,-0.002789524383842945,0.021117275580763817,0.21961240470409393,0.24346470832824707,-0.015891846269369125,0.10434776544570923,0.02149944007396698,-0.07641612738370895,-0.035423990339040756,0.04030567780137062,0.06121246516704559,-0.10009061545133591,0.0670698806643486,0.07256652414798737,0.12144257873296738,-0.011175884865224361,0.04034466668963432,0.0824458971619606,-0.18949666619300842,0.13704462349414825,0.04254097864031792,0.12460245192050934,-0.1942141354084015,0.11782756447792053,0.2447032928466797,0.1834411919116974,0.3201574385166168,0.02616312727332115,-0.02471819892525673,0.06304124742746353,0.04259929805994034,0.18071913719177246,-0.028640776872634888,0.00796717219054699,0.12180948257446289,0.11966264992952347,-0.10922659188508987,-0.09140456467866898,0.05861371383070946,0.16511407494544983,0.10987787693738937,0.11907511949539185,0.2651990056037903,0.09360823035240173,-0.1840546429157257,-0.24040533602237701,-0.04698219150304794,-0.20471927523612976,-0.04623917490243912,0.09622424840927124,-0.031776703894138336,-0.12710735201835632,-0.05535777658224106,0.008542424999177456,0.02214140258729458,0.11013319343328476,-0.14272060990333557,-0.17659679055213928,-0.15090976655483246,-0.04008864983916283,0.07089857012033463,0.00047375820577144623,-0.05905293673276901,-0.11908266693353653,-0.15025939047336578,0.056653983891010284,0.15035074949264526,0.01656240038573742,-0.19557248055934906,0.027745304629206657,0.17261846363544464,-0.015952952206134796,-0.15664570033550262,-0.1330767124891281,-0.07604657113552094,0.0198900755494833,-0.07059012353420258,-0.19355258345603943,0.030321666970849037,-0.06518005579710007,-0.15091988444328308,-0.09549665451049805,0.05325198918581009,0.0310782752931118,-0.1186055839061737,0.026532817631959915,-0.029879573732614517,0.10571273416280746,0.04673997685313225,-0.1881941556930542,-0.03142043575644493,-0.08346310257911682,-0.2163698375225067,-0.24262967705726624,0.0683891549706459,-0.07421094179153442,0.030796755105257034,0.030080066993832588,-0.13631826639175415,-0.11450722813606262,-0.04781269654631615,-0.1301039308309555,0.08594047278165817,-0.0019130130531266332,-0.17921103537082672,-0.08406432718038559,-0.01582718826830387,0.025691017508506775,0.03009559027850628,0.00212456239387393,-0.17163261771202087,0.10826941579580307,-0.18661567568778992,0.02931777574121952,0.20585757493972778,-0.07159512490034103,-0.005136944819241762,-0.22539107501506805,0.18348859250545502,0.026235468685626984,-0.19219405949115753,-0.2047763466835022,-0.09022235870361328,0.17618556320667267,-0.11191880702972412,-0.17030489444732666,-0.1112324446439743,-0.12388738989830017,-0.07603491097688675,0.07312604039907455,-0.011232397519052029,-0.005200893152505159,-0.010149061679840088,-0.0675002858042717,-0.027247151359915733,-0.1044793426990509,0.20308443903923035,0.04329967871308327,-0.16249176859855652,0.2806731164455414,0.05412668362259865,-0.08498860895633698,0.002180625917389989,-0.1390133947134018,-0.15767252445220947,0.37166959047317505,0.03249232843518257,0.019370827823877335,-0.013721493072807789,0.024119602516293526,-0.14614617824554443,0.058737993240356445,0.11658774316310883,-0.05648544058203697,-0.09792634099721909,0.05287198722362518,0.16156475245952606,-0.025810427963733673,-0.018220262601971626,-0.2919183671474457,0.15706288814544678,0.184701070189476,-0.02408675104379654,0.03520945459604263,-0.10954240709543228,-0.2125190645456314,0.18318894505500793,0.050952404737472534,0.05312780663371086,-0.02363649196922779,0.11806657165288925,0.09978785365819931,0.1421348750591278,0.06555937230587006,-0.03317805379629135,-0.12532925605773926,0.11656920611858368,-0.007528379093855619,-0.16171447932720184,-0.0020953170023858547,0.05362119525671005,0.0852038562297821,0.05403369665145874,0.01911676675081253,0.0629877969622612,0.1023666113615036,-0.1249983087182045,-0.09284141659736633,-0.10316506028175354,0.2386729121208191,-0.07467261701822281,-0.2641608715057373,0.20568156242370605,0.05041388422250748,0.0666322186589241,0.1887723058462143,-0.027164684608578682,-0.15200191736221313,-0.08515382558107376,0.0428343303501606,0.027147233486175537,-0.05754324793815613,0.10022565722465515,-0.15328377485275269,-0.22071059048175812,-0.016831617802381516,0.18452341854572296,-0.12436368316411972,0.25386300683021545,0.13463903963565826,-0.2516176998615265,0.05823652818799019,0.030184995383024216,0.05894128978252411,-0.07386139780282974,0.14822523295879364,0.08219897747039795,0.034047987312078476,0.020769793540239334,-0.0014427194837480783,0.05839776620268822,0.07349848747253418,0.014951121062040329,0.1769915372133255,-0.03179648146033287,0.1252891570329666,