{"version":"0.7.0","architecture":"SlimmableContainer","config":{"submodels":[{"max_value":0.5,"model":{"version":"0.7.0","metadata":{"date":{"year":2026,"month":4,"day":9,"hour":22,"minute":39,"second":26},"loudness":-23.740943908691406,"gain":0.7042363359649206},"architecture":"WaveNet","config":{"layers":[{"input_size":1,"condition_size":1,"head":{"out_channels":1,"kernel_size":16,"bias":true},"channels":3,"kernel_sizes":[6,6,6,6,6,6,6,6,6,6,6,6,6,6,15,15,6,6,6,6,6,6,6],"dilations":[1,3,7,17,41,101,239,1,3,7,17,41,101,239,1,13,1,3,7,17,41,101,239],"activation":[{"type":"LeakyReLU","negative_slope":0.01},{"type":"LeakyReLU","negative_slope":0.01},{"type":"LeakyReLU","negative_slope":0.01},{"type":"LeakyReLU","negative_slope":0.01},{"type":"LeakyReLU","negative_slope":0.01},{"type":"LeakyReLU","negative_slope":0.01},{"type":"LeakyReLU","negative_slope":0.01},{"type":"LeakyReLU","negative_slope":0.01},{"type":"LeakyReLU","negative_slope":0.01},{"type":"LeakyReLU","negative_slope":0.01},{"type":"LeakyReLU","negative_slope":0.01},{"type":"LeakyReLU","negative_slope":0.01},{"type":"LeakyReLU","negative_slope":0.01},{"type":"LeakyReLU","negative_slope":0.01},{"type":"LeakyReLU","negative_slope":0.01},{"type":"LeakyReLU","negative_slope":0.01},{"type":"LeakyReLU","negative_slope":0.01},{"type":"LeakyReLU","negative_slope":0.01},{"type":"LeakyReLU","negative_slope":0.01},{"type":"LeakyReLU","negative_slope":0.01},{"type":"LeakyReLU","negative_slope":0.01},{"type":"LeakyReLU","negative_slope":0.01},{"type":"LeakyReLU","negative_slope":0.01}],"bottleneck":3,"head1x1":{"active":false,"out_channels":1,"groups":1},"layer1x1":{"active":true,"groups":1},"groups_input":1,"groups_input_mixin":1,"conv_pre_film":{"active":false,"shift":true,"groups":1},"conv_post_film":{"active":false,"shift":true,"groups":1},"input_mixin_pre_film":{"active":false,"shift":true,"groups":1},"input_mixin_post_film":{"active":false,"shift":true,"groups":1},"activation_pre_film":{"active":false,"shift":true,"groups":1},"activation_post_film":{"active":false,"shift":true,"groups":1},"layer1x1_post_film":{"active":false,"shift":true,"groups":1},"head1x1_post_film":{"active":false,"shift":true,"groups":1},"gating_mode":["none","none","none","none","none","none","none","none","none","none","none","none","none","none","none","none","none","none","none","none","none","none","none"],"secondary_activation":[null,null,null,null,null,null,null,null,null,null,null,null,null,null,null,null,null,null,null,null,null,null,null],"slimmable":null}],"head":null,"head_scale":0.01},"weights":[0.27454259991645813,0.9570950269699097,-0.9480342864990234,-0.04259468615055084,-0.04225420579314232,-0.04204436391592026,-0.040537189692258835,-0.0380370169878006,-0.03483238071203232,-0.08547021448612213,-0.08288750052452087,-0.08140231668949127,-0.07725445926189423,-0.07182669639587402,-0.06458307802677155,0.08484728634357452,0.08231143653392792,0.08085104078054428,0.07675887644290924,0.07139482349157333,0.06424538791179657,-0.09041479974985123,0.0024030422791838646,0.17990519106388092,0.4949551820755005,0.11469817906618118,-0.1283097118139267,-0.6139212250709534,-0.11685587465763092,0.41935601830482483,1.1038814783096313,0.6737521886825562,-0.23504260182380676,0.24278351664543152,-0.16934391856193542,-0.6055611968040466,-1.1875075101852417,-0.38640469312667847,0.16034245491027832,-0.023126093670725822,0.005628620740026236,-0.12490376830101013,-0.12786522507667542,-0.11521607637405396,-0.05338491126894951,-0.08339180797338486,0.028252940624952316,-0.3476317524909973,-0.4873444139957428,-0.28643426299095154,-0.0030863280408084393,0.16875220835208893,0.08349258452653885,0.3843134939670563,0.4856482446193695,0.22198422253131866,0.10945073515176773,-0.19764776527881622,0.25704365968704224,0.36328360438346863,-0.06518785655498505,0.18136456608772278,-0.3592534065246582,0.25414761900901794,0.9400851726531982,-0.2866491973400116,-0.22927477955818176,-0.0916261300444603,0.842767059803009,-0.008184153586626053,-1.1181609630584717,-0.27502280473709106,0.25148531794548035,0.31464865803718567,0.359742134809494,0.2944357693195343,0.1231326162815094,-0.17474132776260376,-0.14189448952674866,-0.1291399449110031,0.022362930700182915,-0.14360591769218445,-0.021401112899184227,-0.09404339641332626,0.08416067063808441,0.03492691367864609,0.010305367410182953,0.09207535535097122,0.10502701252698898,0.2107032984495163,0.12922440469264984,0.10657402873039246,0.018815549090504646,-0.18793997168540955,-0.035762302577495575,-0.013792085461318493,-0.0188253466039896,0.028999773785471916,0.08795095235109329,0.11001242697238922,0.014506839215755463,-0.046857330948114395,-0.07111798971891403,-0.0350520983338356,-0.10736726969480515,0.09874483942985535,-0.023900359869003296,-0.012589910067617893,-0.034912560135126114,-0.12668611109256744,-0.15523800253868103,0.22896438837051392,-0.13186612725257874,-0.06444991379976273,-0.13432973623275757,-0.32928466796875,-0.1749129444360733,-0.04082923009991646,-0.004536786116659641,0.04966618865728378,0.1590716689825058,0.059431202709674835,-0.052477769553661346,-0.08917488157749176,-0.0038805881049484015,0.1826607882976532,0.18482691049575806,0.007360457442700863,-0.08358950912952423,-0.051928747445344925,-0.06848739087581635,0.036407265812158585,0.012789729051291943,-0.03655462712049484,-0.12200716882944107,0.20079712569713593,-0.35110825300216675,-0.06306786090135574,-0.37323328852653503,-0.022356700152158737,0.2764851152896881,-0.17156097292900085,-0.06373419612646103,-0.1473405659198761,-0.4004826545715332,-0.3156689703464508,0.2546151876449585,0.1367851197719574,-0.012849333696067333,-0.06579140573740005,-0.2535232901573181,-0.34466126561164856,0.29639536142349243,-0.0660511925816536,0.16716018319129944,-0.17123983800411224,0.14690351486206055,0.010641957633197308,-0.1684630960226059,-0.059276413172483444,-0.0599382221698761,-0.027162298560142517,0.06127805635333061,0.00817114021629095,-0.07018294930458069,-0.01078597828745842,0.13084837794303894,0.018592646345496178,-0.15005388855934143,0.1105225682258606,0.4482978582382202,-0.09414169192314148,0.013377495110034943,-0.04800981283187866,0.09744617342948914,0.06029114872217178,0.10180681198835373,0.0398213267326355,0.11623507738113403,0.05048384889960289,-0.004048052243888378,0.05070822685956955,-0.2529783546924591,0.26436376571655273,0.04111596941947937,0.0474974662065506,-0.11225055903196335,-0.048478610813617706,0.2130555957555771,0.16432473063468933,-0.03517119586467743,-0.20161476731300354,-0.013478402979671955,-0.11659181863069534,-0.35626155138015747,-0.1702960580587387,0.036560654640197754,0.13895682990550995,0.04342682287096977,0.25697457790374756,-0.012573231011629105,0.2324957698583603,-0.067972831428051,-0.016180671751499176,-0.007614282891154289,0.4658268094062805,0.4207182228565216,0.3786463439464569,-0.07493112981319427,-0.24985073506832123,-0.1453309804201126,-0.216121643781662,0.2661091685295105,-0.15221592783927917,0.6286018490791321,-0.22902652621269226,-0.3602375090122223,-0.22640444338321686,0.36699098348617554,-0.002611271571367979,0.06909456104040146,0.18519951403141022,0.30174168944358826,0.11938026547431946,0.2410162389278412,-0.08290807157754898,-0.03297441080212593,-0.13067714869976044,-0.10718563199043274,-0.15081188082695007,0.39417311549186707,0.02073260024189949,0.0357792042195797,0.12953515350818634,0.04590005800127983,-0.021967394277453423,-0.1768934428691864,-0.07278057932853699,-0.07508742064237595,0.05104771628975868,0.08447256684303284,0.11729300767183304,-0.3147079050540924,0.1283746212720871,0.1644139140844345,0.26655712723731995,0.15887267887592316,0.22922682762145996,-0.6885594129562378,-0.06766550987958908,-0.07768633216619492,-0.04588685557246208,0.0025939762126654387,-0.0008985024760477245,0.28797420859336853,0.15482710301876068,0.06248972937464714,0.05875272676348686,0.007287685759365559,0.06903980672359467,0.5099967122077942,0.174747496843338,0.05280625447630882,0.04947299137711525,0.08962956815958023,0.08270308375358582,-0.10145505517721176,0.11263135075569153,0.0615854412317276,0.0719200074672699,0.0959099754691124,0.06361295282840729,-0.8564907908439636,0.2355416715145111,-0.1761835217475891,0.08677621930837631,0.4883066713809967,0.48920735716819763,0.45483630895614624,0.03108932450413704,0.2680255174636841,-0.6562540531158447,-0.3532414436340332,0.2960197329521179,0.2177254855632782,0.49452823400497437,-0.7505350112915039,0.5560401678085327,-0.10598539561033249,0.042153067886829376,-0.3602038621902466,0.08015210181474686,0.029686395078897476,0.06219492480158806,-0.032162684947252274,0.03846906125545502,-0.01762523502111435,-0.058808017522096634,-0.09652362763881683,-0.005109806079417467,-0.11288265883922577,-0.038005437701940536,0.20317904651165009,0.21729788184165955,0.05957804247736931,0.033096637576818466,0.11205212771892548,0.18996021151542664,0.1948622763156891,-0.08072242140769958,-0.18367445468902588,-0.2125799059867859,0.044884093105793,-0.04896954074501991,0.04090183973312378,-0.15176518261432648,-0.17422093451023102,0.023420516401529312,0.029196444898843765,-0.03719724714756012,-0.2946212589740753,0.15154419839382172,0.122761569917202,0.142400860786438,0.21791689097881317,0.47773146629333496,0.15553569793701172,0.07538961619138718,-0.0033108522184193134,-0.16348566114902496,-0.07920677959918976,-0.05245077982544899,0.18703526258468628,-0.3259204626083374,-0.4345282018184662,-0.40431439876556396,-0.24247796833515167,-0.15997721254825592,0.022380603477358818,0.2880697548389435,0.3530168831348419,0.22684632241725922,0.12188006192445755,0.12030588090419769,-0.21178406476974487,-0.30540692806243896,0.01917807199060917,0.06907317042350769,-0.7536233067512512,0.13100770115852356,0.1786538064479828,0.46436983346939087,-0.05095689743757248,0.2989352345466614,-0.5459068417549133,0.5816908478736877,0.2695225775241852,-0.5160499215126038,-0.16940821707248688,0.4437538683414459,-0.4169435501098633,-0.4400533437728882,-0.32454538345336914,0.14312748610973358,0.11221495270729065,0.13154377043247223,0.08247964084148407,-0.04361243173480034,-0.32956573367118835,0.08776974678039551,0.1049741804599762,-0.07732951641082764,0.08391721546649933,-0.08497446775436401,0.19937600195407867,0.2080897092819214,0.08995329588651657,0.2902165651321411,0.13512267172336578,0.017856810241937637,0.2752336263656616,0.05872360244393349,-0.01463982556015253,-0.008902182802557945,0.029568051919341087,-0.029226720333099365,0.28934234380722046,0.06317313015460968,-0.015468114987015724,-0.03864625468850136,0.03705058619379997,-0.046022746711969376,-0.06561294943094254,0.1176459789276123,0.03242793306708336,0.060528602451086044,0.1067318394780159,0.26737627387046814,0.014504867605865002,0.008508727885782719,0.05945412069559097,0.004111402202397585,0.011925758793950081,-0.1598345786333084,-0.12572482228279114,0.09785833209753036,0.16490291059017181,0.11084714531898499,0.47970330715179443,0.3585975468158722,-0.3758009076118469,0.1142067015171051,0.16875827312469482,0.2680390477180481,0.20613615214824677,0.2589353024959564,0.09549444168806076,0.06517970561981201,0.06731846928596497,0.35358136892318726,0.24376899003982544,0.5250917077064514,0.032864511013031006,0.4896546006202698,0.18321505188941956,-0.016778260469436646,-0.12394929677248001,-0.7610176205635071,0.559590756893158,0.04387417435646057,-0.10679733753204346,-0.21803489327430725,0.40687882900238037,0.14197777211666107,-0.2844511866569519,0.0177236907184124,0.1988307535648346,0.0675903931260109,0.1924912929534912,0.03746137395501137,-0.027953000739216805,-0.2723572850227356,-0.36284276843070984,-0.1997978240251541,0.028101708739995956,0.033354252576828,-0.05507638305425644,0.4037950932979584,0.14616452157497406,0.3464784622192383,-0.039448872208595276,0.038657303899526596,0.06859647482633591,0.03013566881418228,0.19579404592514038,0.10884532332420349,0.23326987028121948,0.08903781324625015,-0.03184010833501816,-0.41532307863235474,-0.5124572515487671,-0.2777441143989563,0.019879600033164024,0.04000832140445709,-0.05335160344839096,0.5348303914070129,0.21199460327625275,0.4491068124771118,-0.057359274476766586,0.059855423867702484,0.11056368798017502,0.021621782332658768,-0.03604644164443016,-0.0002849725424312055,0.017002353444695473,0.0054761506617069244,0.20784452557563782,-0.15251785516738892,-0.06059281900525093,0.22791363298892975,-0.1419486105442047,-0.2163868248462677,-0.07931225001811981,0.012878422625362873,0.1682721972465515,-0.17700862884521484,-0.0527636744081974,-0.11859768629074097,0.008126765489578247,-0.18001408874988556,-0.21917004883289337,0.07624376565217972,-0.024761410430073738,-0.026852469891309738,0.117967888712883,-0.4737098515033722,-0.706417977809906,-0.2982429265975952,0.5987670421600342,0.7607514262199402,-0.3410465121269226,0.23134775459766388,0.30678078532218933,-0.1598762571811676,0.3457748293876648,-0.2549298107624054,0.2965131402015686,0.25486883521080017,0.03973754867911339,-0.10222956538200378,-0.39478179812431335,-0.18996277451515198,-0.05454038456082344,0.012402480468153954,0.08790026605129242,0.16260486841201782,0.04310941323637962,0.07750947773456573,-0.12116361409425735,-0.1700619012117386,0.04748862236738205,0.25704431533813477,0.531772255897522,0.26755648851394653,-0.17010457813739777,0.02176615595817566,0.16917966306209564,-0.06129106879234314,-0.05470062792301178,-0.14332425594329834,0.06504135578870773,0.1624939739704132,-0.03186790272593498,-0.08959785848855972,-0.10989531129598618,0.03703605756163597,0.03104116953909397,-0.1413113921880722,-0.1196521669626236,-0.09148060530424118,-0.21912513673305511,-0.10862629115581512,-0.19899478554725647,-0.5011657476425171,-0.22184211015701294,0.20378825068473816,0.1188836544752121,0.30608218908309937,-0.02394494228065014,0.1581687331199646,-0.0713014230132103,-0.13248051702976227,0.14038564264774323,-0.29325973987579346,0.042120810598134995,0.5270143747329712,0.1973838359117508,-0.21196423470973969,-0.2571928799152374,-0.41483795642852783,-0.14980828762054443,0.3639146387577057,0.11991557478904724,0.15637196600437164,-0.06454681605100632,-0.020653018727898598,0.03953656181693077,-0.08816397935152054,-0.2204391062259674,0.6986456513404846,0.679392397403717,0.1699928641319275,-0.10222022235393524,-0.5388631224632263,0.09928978234529495,0.49239206314086914,-0.2433898001909256,-0.2937714755535126,0.13910119235515594,0.3198617696762085,-0.06955143064260483,-0.38573306798934937,0.03741123154759407,-0.00973629578948021,0.25777748227119446,0.17391325533390045,0.05533542111515999,0.1299455165863037,-0.05033918842673302,0.2805113196372986,-0.2970961630344391,-0.2564355134963989,-0.1461312621831894,0.19921885430812836,-0.2608344554901123,-0.08812487125396729,-0.19847238063812256,-0.13350306451320648,0.0021557314321398735,0.3856794536113739,0.11291024088859558,0.008355473168194294,-0.3526563048362732,-0.03597589209675789,-0.019589517265558243,-0.16927117109298706,-0.08446194976568222,-0.18194326758384705,0.22033031284809113,0.13843679428100586,0.16399385035037994,-0.20901639759540558,0.14970149099826813,0.06716033816337585,0.13935576379299164,0.11769630014896393,0.15886123478412628,-0.03525805100798607,-0.014184413477778435,-0.07033910602331161,-0.3176215589046478,0.28429704904556274,0.07833003252744675,-0.18286541104316711,0.03229225054383278,-0.05024339631199837,0.24082110822200775,0.0241704098880291,-0.3849985599517822,0.04675034433603287,0.11713111400604248,-0.02144778147339821,0.04090234264731407,0.13728588819503784,-0.09804555028676987,-0.0709889605641365,0.3359004259109497,-0.2617926597595215,-0.014519783668220043,0.37964576482772827,-0.46558400988578796,0.20313061773777008,0.3266514241695404,-0.1824265569448471,-0.13502773642539978,0.658866822719574,-0.7840680480003357,0.13980746269226074,-0.5401561856269836,0.11478035897016525,0.17336419224739075,0.07616481930017471,-0.11385944485664368,-0.0899568721652031,0.04966610297560692,-0.22355905175209045,-0.2294018715620041,0.16045606136322021,0.0364246740937233,0.07816292345523834,-0.20771797001361847,-0.001437985454685986,0.13447305560112,0.04255044832825661,0.02692505344748497,0.1996164619922638,-0.16476692259311676,0.15955333411693573,-0.24323414266109467,0.17572137713432312,-0.27823150157928467,-0.01565779745578766,-0.13182632625102997,0.12046455591917038,0.10506968945264816,0.2144915610551834,0.09640810638666153,0.01859552226960659,0.21491384506225586,-0.2527381479740143,0.23375000059604645,-0.13465529680252075,0.24319230020046234,-0.2043260931968689,0.02631882205605507,-0.13973133265972137,-0.3801249861717224,-0.06732429563999176,0.06369435042142868,0.04786335304379463,0.12894921004772186,-0.17072388529777527,0.027263374999165535,0.2161947637796402,0.09447656571865082,-0.08270371705293655,0.22694143652915955,-0.09407512098550797,-0.25466224551200867,0.18004503846168518,-0.06962578743696213,-0.15441519021987915,-0.2571882903575897,-0.17321966588497162,-0.40010878443717957,0.07691986113786697,0.3303142488002777,0.3580964207649231,-0.3504674732685089,-0.04115552827715874,0.09108086675405502,-0.249421164393425,-0.2907334566116333,-0.15586495399475098,0.5494296550750732,-0.21076999604701996,0.2137896865606308,0.033770184963941574,0.32187458872795105,0.2936885356903076,0.29529181122779846,-0.2343858927488327,-0.0600312314927578,0.10975159704685211,-0.07332304120063782,0.15105949342250824,0.1050741896033287,-0.12248323112726212,-0.09608234465122223,-0.04841102659702301,-0.061169229447841644,0.012964817695319653,-0.2746354043483734,-0.37028539180755615,-0.13706596195697784,-0.08271633088588715,0.14231617748737335,-0.06845115125179291,-0.06227667257189751,0.0697864443063736,0.21320445835590363,0.09345120936632156,0.037940531969070435,-0.1510205715894699,-0.011678964830935001,0.048119720071554184,0.020247455686330795,-0.002396532567217946,-0.02153290994465351,0.04379638656973839,-0.10303214937448502,0.22633332014083862,-0.0024922473821789026,-0.056628432124853134,-0.14756889641284943,-0.17977231740951538,-0.12694139778614044,-0.007017816882580519,-0.14315193891525269,-0.07255731523036957,-0.11198680102825165,-0.041343867778778076,-0.2503121495246887,0.16623014211654663,-0.02637138031423092,0.04452402889728546,0.13699392974376678,0.28738999366760254,-0.323938250541687,0.16967111825942993,-0.10660489648580551,0.02360440045595169,0.16650207340717316,0.2677825093269348,0.22112751007080078,-0.17039798200130463,-0.09732452780008316,-0.03264206275343895,-0.02211838960647583,0.048144981265068054,-0.17057067155838013,-0.09280909597873688,-0.1448868066072464,0.32399412989616394,-0.09992663562297821,-0.2761204242706299,0.19879145920276642,-0.2784036695957184,0.26732271909713745,0.1036544218659401,0.056438956409692764,0.16596488654613495,0.36247673630714417,0.262637197971344,-0.163889542222023,-0.06334764510393143,-0.12130057066679001,-0.0429149866104126,0.007206756621599197,-0.09037225693464279,-0.26812025904655457,-0.12486135214567184,-0.17721571028232574,-0.19262488186359406,-0.18712015450000763,-0.31671759486198425,0.3895450532436371,-0.034383054822683334,0.017716431990265846,0.03147987276315689,-0.21680296957492828,-0.28126060962677,0.2109738290309906,-0.03392816334962845,-0.06162549927830696,-0.008029594086110592,-0.058407943695783615,0.02656429074704647,0.17269207537174225,-0.14067953824996948,-0.1921267807483673,-0.10602094233036041,-0.08879785984754562,-0.19580547511577606,-0.3352293372154236,-0.2948680520057678,-0.10048873722553253,-0.053085677325725555,-0.12895222008228302,-0.10958242416381836,0.24685579538345337,0.13263478875160217,0.13248151540756226,0.1935431808233261,-0.12243808805942535,0.06286748498678207,-0.2600470781326294,-0.07728581875562668,-0.03954353183507919,-0.11578035354614258,-0.1647905558347702,-0.006942850071936846,0.16115224361419678,-0.0876515656709671,-0.06195848435163498,-0.08866284787654877,0.3272082209587097,0.29713115096092224,0.10206561535596848,0.07898130267858505,-0.03794723376631737,0.35500597953796387,0.15640191733837128,-0.02018977329134941,0.2259669005870819,-0.1847621351480484,0.5530812740325928,-0.10340689867734909,0.3751976788043976,-0.19082078337669373,0.39920955896377563,-0.16151063144207,-0.3418594002723694,-0.35267630219459534,0.27437129616737366,-0.0689023807644844,0.024743154644966125,0.08384135365486145,0.04193079471588135,0.17539486289024353,0.138462096452713,0.21757736802101135,-0.10628584772348404,0.01217731274664402,-0.041926078498363495,0.039066020399332047,-0.007848578505218029,-0.03868494927883148,-0.13480260968208313,-0.1468888521194458,-0.0865233764052391,-0.18646200001239777,-0.14993299543857574,-0.3876756429672241,0.04093766584992409,-0.12050674110651016,-0.1361471712589264,-0.14719586074352264,-0.18583600223064423,-0.21810483932495117,-0.007597186136990786,0.015814905986189842,-0.012331693433225155,0.07635822147130966,0.07205866277217865,0.25798481702804565,-0.11940067261457443,0.1870802342891693,0.20944347977638245,0.2696341276168823,0.3141189515590668,0.4245147109031677,0.12113907933235168,-0.020800624042749405,-0.0626952275633812,-0.15781784057617188,-0.15225663781166077,-0.22683675587177277,0.06085091829299927,-0.015163496136665344,0.04956333339214325,-0.02688009664416313,-0.08210939168930054,0.08145450055599213,0.08682437986135483,-0.022513430565595627,0.12902604043483734,0.15368923544883728,-0.009789085946977139,0.1689114272594452,-0.29874908924102783,0.08035014569759369,-0.11520946025848389,0.04503443464636803,-0.08948840200901031,-0.7913705110549927,-0.22172220051288605,-0.24070248007774353,0.5787485837936401,-0.3185165822505951,0.6649284362792969,-0.34397372603416443,-0.41579514741897583,-0.4904797077178955,0.5574329495429993,0.03863002732396126,-0.049996815621852875,-0.26546457409858704,0.3882666528224945,0.08977612107992172,-0.012877050787210464,-0.08057133108377457,-0.1006443053483963,0.1071627140045166,-0.004512700252234936,0.08463592827320099,0.028750458732247353,0.011889458633959293,-0.0173434317111969,-0.6695102453231812,-0.04334833845496178,-0.025636879727244377,0.1111561581492424,0.25533124804496765,0.1494417041540146,-0.04336967691779137,-0.08014336228370667,-0.0021421737037599087,-0.06532387435436249,-0.22011496126651764,-0.21555575728416443,-0.1915014684200287,0.1256401687860489,0.027643350884318352,-0.03419739380478859,-0.13135378062725067,-0.08719281107187271,-0.06484769284725189,-0.1373375952243805,0.04961355775594711,0.16860604286193848,0.32763490080833435,0.4468609094619751,0.3357289135456085,-0.18248146772384644,0.08193574845790863,0.02167525142431259,-0.07487762719392776,-0.08983851969242096,-0.21152399480342865,-0.11789839714765549,0.12191425263881683,0.055183179676532745,-0.009547987021505833,0.03496842086315155,-0.8100252747535706,-0.39107051491737366,0.03654877841472626,0.16442732512950897,0.22038047015666962,0.1943470984697342,-0.10433840751647949,-0.3236056864261627,-0.3657439053058624,0.08661479502916336,0.0748346671462059,0.11898170411586761,0.1425536572933197,-0.06126410886645317,0.11557461321353912,0.1710793673992157,-0.061588600277900696,0.11016324907541275,-0.4841211438179016,-0.06473119556903839,0.8224963545799255,-0.7213533520698547,-0.8664226531982422,-0.5323933959007263,0.08516456186771393,0.18566511571407318,0.18845556676387787,0.34768611192703247,0.2282676249742508,0.162999227643013,-0.048805586993694305,-0.14555731415748596,-0.22055765986442566,-0.17251205444335938,0.04476606845855713,0.07092958688735962,-0.10848686844110489,-0.15036918222904205,0.015279625542461872,0.0420340895652771,0.01998499408364296,-0.1757105141878128,-0.11860168725252151,-0.2226293981075287,-0.06423819065093994,-0.021038249135017395,-0.05326342582702637,-0.04059940204024315,-0.08113923668861389,-0.08941111713647842,-0.08855748921632767,-0.203474223613739,-0.07974550127983093,-0.14243371784687042,0.05058043450117111,-0.0893513634800911,-0.16607104241847992,-0.0819435641169548,-0.07339552789926529,0.11486418545246124,0.09794998914003372,0.015062322840094566,-0.11983802914619446,-0.17261673510074615,0.14937260746955872,0.09055247902870178,-0.060143791139125824,-0.033000484108924866,-0.04569851979613304,-0.22145605087280273,-0.25512880086898804,0.18873929977416992,0.5123820900917053,0.6719297766685486,0.27375179529190063,-0.17483919858932495,-0.15545369684696198,-0.09429169446229935,0.025200944393873215,-0.12832795083522797,-0.1438552886247635,-0.1474534422159195,-0.21830008924007416,-0.052432429045438766,0.10146072506904602,0.056327562779188156,-0.1340579390525818,-0.194602832198143,-0.3541225492954254,-0.08439482003450394,-0.22711318731307983,-0.1812267005443573,-0.09235987067222595,0.0031145894899964333,-0.12916800379753113,-0.14260101318359375,-0.27612897753715515,-0.1326492875814438,-0.13460759818553925,-0.0381389744579792,0.11096960306167603,-0.12281426787376404,0.07130509614944458,0.17235910892486572,0.06075398623943329,-0.05879180505871773,-0.08566411584615707,-0.14188770949840546,0.05039354786276817,0.0895501971244812,0.031863030046224594,-0.04444624111056328,-0.15140938758850098,0.12052934616804123,0.20022538304328918,-0.01350369956344366,0.4005114436149597,0.7690133452415466,0.6831312775611877,0.2370690554380417,0.17061945796012878,-0.25829777121543884,-0.4278436601161957,-0.15726260840892792,-0.054962221533060074,-0.13493113219738007,-0.2888571619987488,-0.17028100788593292,0.06212100759148598,-0.10668233782052994,-0.12245325744152069,-0.03419186547398567,-0.32263773679733276,-0.44747158885002136,-0.36405420303344727,-0.2205556035041809,-0.17480981349945068,-0.09991173446178436,-0.1362159550189972,-0.3651306629180908,-0.22948791086673737,-0.2087022215127945,-0.17900186777114868,-0.05187346413731575,-0.20753954350948334,-0.12928998470306396,-0.08698641508817673,-0.11582807451486588,0.21339666843414307,0.18751928210258484,0.061428289860486984,-0.13138602674007416,-0.18901105225086212,0.1575676053762436,0.06438137590885162,0.048437487334012985,-0.08223354071378708,-0.07791563123464584,0.0501362681388855,0.21275664865970612,0.015906378626823425,-0.5844349265098572,-0.7560969591140747,0.2754671275615692,-0.05282339081168175,0.08237271755933762,0.1671806424856186,-0.645585298538208,-0.525503933429718,0.6418416500091553,-0.38544517755508423,-0.809557318687439,0.763375997543335,0.5567225813865662,0.7833160758018494,-0.7881671786308289,-0.7109234929084778,-0.5340336561203003,0.4982644021511078,-0.2878025770187378,0.00951496884226799,-0.05273992568254471,0.012023428454995155,-0.18261264264583588,-0.2501832842826843,0.14091497659683228,-0.21727895736694336,-0.07155372947454453,-0.3473854064941406,-0.11965266615152359,0.057276222854852676,0.06388408690690994,-0.11725477874279022,-0.09715703874826431,0.03332732990384102,0.2640884816646576,0.07151574641466141,0.03485185280442238,-0.1478545069694519,0.15685242414474487,-0.09282069653272629,-0.3473033308982849,-0.15814438462257385,-0.22993046045303345,-0.018022410571575165,0.37910065054893494,0.256049782037735,0.20997293293476105,0.09474097192287445,0.21351328492164612,0.11312892287969589,0.14893129467964172,-0.14092037081718445,0.024910831823945045,0.04915904626250267,-0.07411626726388931,0.04301521182060242,-0.25395137071609497,-0.02041967585682869,0.07478062808513641,0.07283798605203629,0.012204981409013271,-0.08933304995298386,-0.25023138523101807,-0.02468276023864746,-0.020239708945155144,0.03546235337853432,-0.16905686259269714,-0.16746868193149567,0.021406875923275948,0.030460579320788383,0.010523555800318718,0.06897716969251633,-0.15795797109603882,0.10620333254337311,0.21390879154205322,0.010116568766534328,-0.3789224922657013,-0.5364010334014893,-0.00301508535631001,0.09442894160747528,0.08313091099262238,-0.09399038553237915,-0.009200186468660831,-0.09307107329368591,0.0413876548409462,0.14093293249607086,0.014622514136135578,0.09033270925283432,0.07838182151317596,-0.09250566363334656,-0.22301581501960754,0.34836509823799133,-0.45152047276496887,-0.07577567547559738,-0.20838671922683716,-0.19921696186065674,-0.17567865550518036,-0.21651871502399445,-0.2944752871990204,-0.1355299949645996,0.038871556520462036,-0.35893428325653076,-0.09450794756412506,-0.34742212295532227,-0.37198910117149353,-0.33355239033699036,0.17598851025104523,0.23900440335273743,-0.3318175673484802,-0.1333913505077362,-0.024560080841183662,0.04601604491472244,-0.13784156739711761,-0.09020495414733887,-0.09789365530014038,-0.20512200891971588,-0.04588760808110237,-0.08990437537431717,-0.025971069931983948,-0.45697569847106934,0.04490644484758377,-0.2867358922958374,0.16917946934700012,-0.10497590899467468,0.2671302855014801,-0.1352652758359909,0.18410196900367737,0.19663095474243164,0.2819228768348694,-0.16991102695465088,-0.407345712184906,-0.033484477549791336,-0.19644151628017426,0.026009835302829742,-0.021575769409537315,-0.14004875719547272,-0.4495950937271118,-0.07728737592697144,-0.2661098539829254,0.06694184988737106,-0.4337427318096161,0.0610181950032711,0.03244229033589363,-0.17427819967269897,-0.042100273072719574,-0.5915891528129578,0.0802215039730072,-0.034430526196956635,-0.14252471923828125,0.14796897768974304,-0.4285086393356323,-0.22125369310379028,-0.06803522258996964,0.2183477282524109,0.4195253551006317,0.18686361610889435,-0.06894078105688095,-0.10960357636213303,0.05585198104381561,0.2795981466770172,-0.014783772639930248,-0.1686626672744751,-0.08469777554273605,-0.3270915448665619,-0.3625677227973938,-0.016479607671499252,0.32060882449150085,-0.5448489785194397,-0.12463004142045975,0.05765875428915024,0.0299078319221735,-0.41184839606285095,0.1908373087644577,0.12224914133548737,0.023555634543299675,-0.008048309944570065,0.018852805718779564,-0.1754891574382782,0.04217366874217987,0.3460036814212799,0.07281482219696045,-0.09699559211730957,-0.1062394306063652,0.4428368806838989,-0.21673694252967834,-0.3439440429210663,0.11189977079629898,0.10331059992313385,-0.08554716408252716,-0.17489835619926453,-0.2874862849712372,-0.6224809885025024,-0.22077392041683197,-0.1669131964445114,-0.08880303055047989,0.40706509351730347,-0.11400812864303589,-0.587034285068512,-0.27942055463790894,-0.4299263656139374,-0.047947343438863754,-0.13866792619228363,0.35785022377967834,0.666998565196991,-0.07000434398651123,0.09546581655740738,-0.3462299704551697,0.4092860519886017,0.14429804682731628,0.19131267070770264,-0.03467780724167824,-0.08256638795137405,0.16665169596672058,-0.1061098501086235,-0.05905774608254433,-0.02953900210559368,-0.24260403215885162,-0.003910597413778305,0.0917835533618927,-0.07499399036169052,-0.021707816049456596,0.04399309307336807,0.03378929942846298,0.2620910406112671,-0.26913565397262573,0.15162421762943268,0.35401609539985657,-0.018550986424088478,-0.0451725497841835,0.23218825459480286,0.01670963130891323,0.09731421619653702,-0.4016607403755188,-0.03590250015258789,0.3006564974784851,-0.3119986951351166,-0.061109524220228195,0.17399518191814423,0.2928188145160675,0.39822036027908325,-0.0886196717619896,-0.38945427536964417,-0.11884661018848419,0.15011997520923615,0.44598129391670227,0.05726055055856705,-0.03066929429769516,-0.1592647284269333,0.14284418523311615,-0.2191116064786911,0.14880655705928802,0.15197303891181946,0.09009741246700287,-0.08683335036039352,0.050339505076408386,-0.17331865429878235,0.01490121427923441,0.0024782181717455387,0.08126213401556015,0.024510053917765617,0.2611842751502991,0.08291631191968918,0.15122690796852112,-0.06496348977088928,0.22978456318378448,-0.03694762662053108,0.2339174747467041,0.0498296320438385,-0.10673515498638153,-0.117516428232193,0.22513557970523834,-0.14096523821353912,0.5117254257202148,0.16733281314373016,0.1351533979177475,-0.06636062264442444,0.00048357833293266594,0.14650289714336395,-0.32402142882347107,-0.18750160932540894,-0.1197485700249672,-0.023280810564756393,-0.0994279533624649,0.06840811669826508,0.02184971421957016,-0.04424184188246727,0.13673293590545654,0.10328376293182373,-0.022741852328181267,-0.008731294423341751,0.09704980999231339,-0.07452801614999771,-0.055863164365291595,-0.007414867635816336,-0.16940325498580933,-0.08463771641254425,-0.4120214283466339,0.30150094628334045,0.44132229685783386,-0.582518458366394,0.09831973910331726,0.03145478665828705,0.17521700263023376,-0.3793461322784424,-0.3498740494251251,0.46423307061195374,0.17680101096630096,-0.4506682753562927,0.419421523809433,0.13141436874866486,0.43218138813972473,-0.7092497944831848,-0.5400869250297546,-0.12208567559719086,-0.3405545651912689,0.1427975744009018,-0.5237893462181091,0.005705531220883131,-0.613936722278595,-0.4602755010128021,0.24503132700920105,0.4934900403022766,-0.3493072986602783,-0.15255527198314667,-0.7400902509689331,-0.5554385185241699,-0.09326452016830444,-0.07703174650669098,0.01979043148458004,-0.39726823568344116,0.04547779634594917,0.32905900478363037,-0.23146621882915497,0.16933244466781616,0.2939167618751526,0.0390685498714447,0.015551588498055935,-0.2718813419342041,0.04022041708230972,-0.1468771994113922,-0.1016118973493576,-0.05055704712867737,-0.015811335295438766,0.2809508442878723,-0.07033517956733704,-0.17269207537174225,0.11115065962076187,-0.047927115112543106,0.11965197324752808,0.19098089635372162,0.032223451882600784,-0.4021942615509033,-0.06302868574857712,-0.18968582153320312,0.22887831926345825,-0.12918464839458466,-0.05290724337100983,-0.41248956322669983,-0.2571314871311188,-0.09533562511205673,-0.10969226062297821,0.09488911181688309,-0.10637907683849335,0.17044231295585632,0.1721799075603485,-0.3352125585079193,0.01374361664056778,-0.30878499150276184,0.001727379742078483,0.2522675096988678,0.04567597061395645,0.25376763939857483,0.22937656939029694,-0.03527935594320297,0.19717104732990265,-0.19441938400268555,-0.6055846214294434,-0.4132583439350128,-0.2810419797897339,0.5646308064460754,-0.40976446866989136,0.26354271173477173,0.5516611337661743,-0.37341418862342834,0.25189268589019775,-0.07731051743030548,0.22641271352767944,-0.02338595874607563,-0.09480315446853638,-0.0463280975818634,-0.06827113032341003,-0.003991627600044012,0.026328736916184425,-0.016198065131902695,0.25110700726509094,-0.1840614676475525,0.0867045521736145,0.14249396324157715,-0.10601464658975601,-0.04901188611984253,-0.0763201043009758,-0.19155143201351166,-0.01799912191927433,0.09152184426784515,-0.001655028318054974,-0.0923694595694542,0.27679404616355896,-0.1386074274778366,0.11429636180400848,0.06345245242118835,-0.4991030693054199,-0.16096735000610352,0.10270955413579941,-0.14987808465957642,0.06466105580329895,0.050026342272758484,-0.5159046649932861,-0.25561726093292236,-0.12431083619594574,-0.11869795620441437,-0.26335641741752625,-0.3375818133354187,0.1277599036693573,0.06943974643945694,-0.27589622139930725,-0.10749930888414383,0.03200773894786835,-0.12301785498857498,-0.07175532728433609,-0.04141134396195412,-0.10858684778213501,-0.055059999227523804,-0.04187614470720291,-0.08959798514842987,0.1287904679775238,0.047571782022714615,0.11000042408704758,0.3439732789993286,0.06151759251952171,0.17045436799526215,-0.28985267877578735,-0.25721457600593567,0.3690020442008972,0.0867750495672226,-0.05031375586986542,-0.4127832353115082,0.2748801112174988,-0.2121819704771042,0.5308311581611633,-0.25100794434547424,-0.29806825518608093,0.5518774390220642,0.3170595169067383,0.41718029975891113,-0.17006191611289978,0.3042459487915039,0.14014773070812225,0.08675743639469147,0.07525015622377396,0.0964219868183136,-0.07287495583295822,0.06786706298589706,-0.0347101129591465,0.09971269965171814,0.22476202249526978,-0.13566073775291443,0.03523578867316246,-0.008991309441626072,-0.0748496726155281,-0.2552352845668793,0.0020830268040299416,-0.16032740473747253,-0.12070664018392563,-0.19563665986061096,-0.08704890310764313,-0.13614512979984283,-0.28310316801071167,-0.023237789049744606,-0.08946599066257477,-0.0038999742828309536,0.0770784392952919,0.3125128149986267,-0.004120270721614361,0.13951243460178375,0.019405422732234,0.003188318805769086,0.023243479430675507,0.02081257477402687,-0.17991803586483002,0.06384769827127457,0.07699833810329437,-0.0002530270430725068,-0.10576599091291428,-0.03644344583153725,0.005397241562604904,-0.07205238193273544,0.03007395938038826,-0.18496863543987274,-0.008044272661209106,-0.261893630027771,-0.15948402881622314,-0.19805873930454254,0.08861004561185837,-0.4285162687301636,0.21881987154483795,-0.040953923016786575,0.010574903339147568,-0.1366281509399414,0.2140996903181076,-0.07342484593391418,0.07013041526079178,0.175233393907547,-0.016097458079457283,0.03832145407795906,0.022944645956158638,-0.008121605031192303,0.19251862168312073,0.07167443633079529,0.257142573595047,-0.05371754616498947,0.3336132764816284,-0.24209775030612946,-0.9273880124092102,-0.03774073347449303,0.6763279438018799,1.128943681716919,-0.14998793601989746,0.18169061839580536,0.15525956451892853,-0.04415430128574371,0.3369370698928833,-0.11305123567581177,-0.11901486665010452,-0.176352396607399,-0.22436675429344177,0.03604273498058319,0.25545534491539,0.229975625872612,0.1467558592557907,0.07107186317443848,0.05578886717557907,0.15083563327789307,0.05882779136300087,0.007193260360509157,0.0590025819838047,0.1503339409828186,0.14155811071395874,-0.23794324696063995,0.2896139621734619,0.3849796950817108,0.3029252290725708,0.08546776324510574,-0.24672122299671173,-0.11833587288856506,0.07095547020435333,-0.11535880714654922,0.042740169912576675,-0.3132871091365814,-0.3764142096042633,0.40682172775268555,0.31452545523643494,-0.297102689743042,-0.13840444386005402,0.1668616384267807,0.06636500358581543,-0.06828875839710236,-0.10805298388004303,-0.3001587688922882,-0.2738220989704132,-0.017251748591661453,0.28747862577438354,0.09042450785636902,-0.04102155938744545,0.10324830561876297,0.0020279085729271173,0.2678219676017761,0.3877451717853546,-0.3755444586277008,-0.21369598805904388,0.286782443523407,0.14954069256782532,-0.13992346823215485,0.03719763457775116,0.12424970418214798,0.0595666766166687,0.30336806178092957,0.023011520504951477,0.3918088376522064,0.06697336584329605,-0.05042343586683273,0.17048369348049164,-0.5552831292152405,-0.1880638301372528,0.4638349711894989,-0.3332919180393219,0.25466659665107727,-0.027769913896918297,-0.35836488008499146,-0.04320773109793663,0.3486289978027344,0.023734183982014656,-0.09850051999092102,-0.38647952675819397,0.024483272805809975,0.038010984659194946,0.01276723388582468,-0.025167621672153473,-0.1372113674879074,0.15071064233779907,0.035603273659944534,-0.05913366749882698,0.10481345653533936,-0.00013911812857259065,0.2531743347644806,0.18111209571361542,0.07069817185401917,-0.07900089770555496,0.12530244886875153,-0.18051426112651825,0.2892414927482605,0.0026670489460229874,-0.0017275678692385554,-0.03539297357201576,-0.14134453237056732,-0.1358778327703476,-0.16287872195243835,0.03390266373753548,0.003283309517428279,0.0027888535987585783,0.12349231541156769,0.062159109860658646,0.3452065587043762,-0.321726530790329,0.004562395624816418,0.005519922822713852,0.06913670897483826,-0.043581124395132065,0.2821909487247467,0.00510440394282341,-0.016837256029248238,-0.025185568258166313,0.0010234728688374162,0.03256404027342796,0.16151392459869385,-0.18245992064476013,-0.03540917485952377,0.02953330986201763,-0.08655886352062225,0.04040098562836647,-0.2209981232881546,-0.14681260287761688,-0.03141751140356064,0.09502021968364716,-0.06640871614217758,0.2416347712278366,-0.2574068605899811,-0.018031155690550804,-0.44851112365722656,-0.016335615888237953,0.43329742550849915,-0.06554369628429413,-0.25465908646583557,0.08733360469341278,0.4557090103626251,-0.4065808057785034,0.2948029339313507,0.28955864906311035,0.4082295894622803,0.1446574628353119,0.31474176049232483,0.4563954174518585,0.1137242540717125,0.19630929827690125,-0.45144981145858765,-0.15486256778240204,-0.016537310555577278,-0.02505066990852356,-0.025501955300569534,-0.008018849417567253,0.015357577241957188,0.008551739156246185,-0.03988509252667427,-0.12497952580451965,-0.21190866827964783,-0.26716873049736023,-0.25688549876213074,-0.16958105564117432,-0.049785636365413666,0.04768385365605354,0.06882862001657486,0.04087885841727257,0.019103048369288445,0.02900199219584465,0.0036404773127287626,-0.09059421718120575,-0.17674526572227478,-0.23925770819187164,-0.22523605823516846,-0.14936332404613495,-0.08046596497297287,-0.012315115891397,0.022446811199188232,0.023337172344326973,0.009343638084828854,-0.003965352196246386,-0.004859683569520712,0.0030812325421720743,0.029623445123434067,0.07676089555025101,0.12113533169031143,0.1290518194437027,0.10767997801303864,0.0791337788105011,0.06863678991794586,0.11567144840955734,0.18004527688026428,0.19747912883758545,0.1258494257926941,0.03444482386112213,-0.01502969954162836,-0.014682487584650517,-0.005835592746734619,-0.001954422565177083,0.051902905106544495,0.009999999776482582],"sample_rate":48000}},{"max_value":1.0,"model":{"version":"0.7.0","metadata":{"date":{"year":2026,"month":4,"day":10,"hour":5,"minute":21,"second":57},"loudness":-23.62481689453125,"gain":0.726363729982411},"architecture":"WaveNet","config":{"layers":[{"input_size":1,"condition_size":1,"head":{"out_channels":1,"kernel_size":16,"bias":true},"channels":8,"kernel_sizes":[6,6,6,6,6,6,6,6,6,6,6,6,6,6,15,15,6,6,6,6,6,6,6],"dilations":[1,3,7,17,41,101,239,1,3,7,17,41,101,239,1,13,1,3,7,17,41,101,239],"activation":[{"type":"LeakyReLU","negative_slope":0.01},{"type":"LeakyReLU","negative_slope":0.01},{"type":"LeakyReLU","negative_slope":0.01},{"type":"LeakyReLU","negative_slope":0.01},{"type":"LeakyReLU","negative_slope":0.01},{"type":"LeakyReLU","negative_slope":0.01},{"type":"LeakyReLU","negative_slope":0.01},{"type":"LeakyReLU","negative_slope":0.01},{"type":"LeakyReLU","negative_slope":0.01},{"type":"LeakyReLU","negative_slope":0.01},{"type":"LeakyReLU","negative_slope":0.01},{"type":"LeakyReLU","negative_slope":0.01},{"type":"LeakyReLU","negative_slope":0.01},{"type":"LeakyReLU","negative_slope":0.01},{"type":"LeakyReLU","negative_slope":0.01},{"type":"LeakyReLU","negative_slope":0.01},{"type":"LeakyReLU","negative_slope":0.01},{"type":"LeakyReLU","negative_slope":0.01},{"type":"LeakyReLU","negative_slope":0.01},{"type":"LeakyReLU","negative_slope":0.01},{"type":"LeakyReLU","negative_slope":0.01},{"type":"LeakyReLU","negative_slope":0.01},{"type":"LeakyReLU","negative_slope":0.01}],"bottleneck":8,"head1x1":{"active":false,"out_channels":1,"groups":1},"layer1x1":{"active":true,"groups":1},"groups_input":1,"groups_input_mixin":1,"conv_pre_film":{"active":false,"shift":true,"groups":1},"conv_post_film":{"active":false,"shift":true,"groups":1},"input_mixin_pre_film":{"active":false,"shift":true,"groups":1},"input_mixin_post_film":{"active":false,"shift":true,"groups":1},"activation_pre_film":{"active":false,"shift":true,"groups":1},"activation_post_film":{"active":false,"shift":true,"groups":1},"layer1x1_post_film":{"active":false,"shift":true,"groups":1},"head1x1_post_film":{"active":false,"shift":true,"groups":1},"gating_mode":["none","none","none","none","none","none","none","none","none","none","none","none","none","none","none","none","none","none","none","none","none","none","none"],"secondary_activation":[null,null,null,null,null,null,null,null,null,null,null,null,null,null,null,null,null,null,null,null,null,null,null],"slimmable":null}],"head":null,"head_scale":0.01},"weights":[-0.12351254373788834,0.5188403129577637,-0.9008772373199463,-0.6511914134025574,-0.1445995718240738,0.13240382075309753,0.004111169371753931,0.6452168226242065,-0.010230939835309982,-0.013436087407171726,-0.01354809571057558,-0.021698789671063423,-0.01861523650586605,-0.034428197890520096,0.023043394088745117,0.039172347635030746,0.0651530846953392,0.11986556649208069,0.08853021264076233,0.1733940690755844,-0.009711512364447117,-0.018055062741041183,-0.09499017894268036,-0.14231650531291962,-0.16109848022460938,-0.2728503346443176,-0.007249110843986273,-0.063779816031456,-0.08960922062397003,-0.14535345137119293,-0.13605672121047974,-0.20645004510879517,-0.015019677579402924,-0.018747396767139435,-0.020813923329114914,-0.03510356694459915,-0.029476409777998924,-0.052828263491392136,0.008486120961606503,0.011790184304118156,0.012133698910474777,0.021393653005361557,0.017898982390761375,0.03540186583995819,-0.0025953787844628096,-0.0022799777798354626,-0.002460749354213476,-0.0022064794320613146,-0.0021596334408968687,-0.0019386819330975413,0.0355478972196579,0.061812568455934525,0.08102046698331833,0.13948988914489746,0.14038622379302979,0.20987702906131744,0.00019747739133890718,0.00021667058172170073,0.00018408372125122696,0.00022238149540498853,0.00018859279225580394,0.00021264998940750957,-0.0006206408725120127,-0.0006876547122374177,-0.000544888258446008,-0.0006933839758858085,-0.000550975208170712,-0.000649220310151577,0.0009720344678498805,0.0010840229224413633,0.0008328301482833922,0.0010851986007764935,0.0008374053868465126,0.001005707192234695,0.000743395066820085,0.000825878931209445,0.0006458162097260356,0.0008302416536025703,0.0006515069399029016,0.0007740430883131921,0.0002152573288185522,0.00023661514569539577,0.00019820766465272754,0.00024203132488764822,0.0002026445436058566,0.00023064573178999126,-0.00020823282829951495,-0.00022840261226519942,-0.00019369351502973586,-0.0002341911313124001,-0.00019827703363262117,-0.00022381337475962937,-8.615629667474423e-06,-9.374757610203233e-06,-8.370881914743222e-06,-9.727886208565906e-06,-8.639506631880067e-06,-9.439097993890755e-06,-0.0007375082350336015,-0.0008192401146516204,-0.000640600104816258,-0.0008234295528382063,-0.0006461333832703531,-0.0007676173117943108,-0.00345103838481009,0.011556542478501797,0.016551721841096878,0.019359450787305832,0.041869428008794785,0.05083024501800537,0.009835428558290005,-0.033690325915813446,-0.08018266409635544,-0.09799527376890182,-0.16233432292938232,-0.22719155251979828,-0.023521607741713524,0.04616011306643486,0.12623737752437592,0.1704821139574051,0.25863751769065857,0.36108115315437317,-0.019821401685476303,0.04189763963222504,0.08924698829650879,0.12289690226316452,0.19889827072620392,0.2769835889339447,-0.0060712057165801525,0.01281224936246872,0.02110433392226696,0.02550400048494339,0.053233250975608826,0.06642095744609833,0.00454137334600091,-0.011371261440217495,-0.016965605318546295,-0.020073838531970978,-0.043876562267541885,-0.053664494305849075,0.002136397175490856,0.0016211754409596324,0.00140200718306005,0.0014924282440915704,0.0005363485543057323,0.0002800517249852419,0.02131792902946472,-0.03925102576613426,-0.10217678546905518,-0.13619253039360046,-0.21114526689052582,-0.2908482849597931,-0.007282095029950142,-0.00523801613599062,0.013567345216870308,-0.006764591671526432,-0.06434611231088638,0.0024081740994006395,0.015080085955560207,0.007976876571774483,-0.03596620634198189,0.050719719380140305,0.2676265835762024,0.008941580541431904,-0.04438478499650955,-0.035531144589185715,-0.006750181317329407,-0.0578761026263237,-0.4820868968963623,-0.08662127703428268,0.0323045589029789,-0.06124311313033104,0.08763670921325684,-0.051741406321525574,-0.424985408782959,-0.02741723693907261,-0.013445877470076084,-0.020512927323579788,0.03081376478075981,-0.03492313250899315,-0.132376566529274,-0.015732266008853912,0.01750333607196808,0.013700471259653568,-0.005983913317322731,0.01788257621228695,0.09146148711442947,0.005232979077845812,-0.0005742217763327062,-0.0005590381915681064,-0.0007867702515795827,-0.0002125166356563568,0.0012747710570693016,-0.00039726754766888916,-0.020131144672632217,-0.003977726213634014,-0.06479130685329437,0.10313433408737183,0.33095693588256836,0.07195959985256195,-0.01574728824198246,-0.012587977573275566,0.0014207909116521478,-0.005450933240354061,0.0186615027487278,0.008437964133918285,0.03429263457655907,0.03370088338851929,-0.017081044614315033,0.008253082633018494,-0.11378225684165955,-0.045321304351091385,-0.0341082438826561,-0.029867617413401604,0.0309694092720747,-0.000735066831111908,0.19117633998394012,0.06963075697422028,-0.023028980940580368,-0.03745158389210701,0.024246031418442726,0.00823392067104578,0.1583794504404068,0.060390107333660126,-0.018667491152882576,-0.014327535405755043,0.0036787160206586123,-0.00496818870306015,0.027399050071835518,0.012434146367013454,0.015580222010612488,0.01220358069986105,-0.0028227549046278,0.004471192602068186,-0.021483920514583588,-0.010307993739843369,0.0008569948840886354,0.0008370308205485344,0.00043379474664106965,0.00037857808638364077,-0.0001305574260186404,-0.0002807968412525952,0.03160592541098595,0.02581164427101612,-0.016956057399511337,-0.008582880720496178,-0.1464364230632782,-0.07096537947654724,-0.008067367598414421,-0.009683873504400253,-0.002264559268951416,0.0001539936347398907,0.057577427476644516,0.01613428443670273,-0.00807745847851038,0.005977996625006199,-0.024397259578108788,-0.019554506987333298,-0.32580292224884033,-0.09758716076612473,-0.041409172117710114,0.00949476845562458,0.023331372067332268,0.09230215102434158,0.47630706429481506,0.10036773979663849,-0.018961668014526367,-0.0029695036355406046,0.034209806472063065,0.05771957337856293,0.37091264128685,0.08427361398935318,-0.01098127942532301,-0.007418649271130562,-0.0015068589709699154,0.004967712331563234,0.11215689778327942,0.029389996081590652,0.0067640370689332485,0.008981853723526001,0.00043337102397345006,-0.004301923327147961,-0.07299993187189102,-0.020753055810928345,0.0025616944767534733,0.0026590563356876373,0.0024084984324872494,0.0017712689004838467,0.00023419044737238437,0.0009292290196754038,-0.01552051305770874,0.03414324298501015,0.01589416153728962,-0.045483510941267014,-0.3995208442211151,-0.12434707581996918,0.02038000337779522,0.012959830462932587,0.018721804022789,0.01886344514787197,-0.03773980587720871,-0.0062780133448541164,-0.1036422848701477,-0.052569516003131866,-0.055843036621809006,-0.05838988348841667,0.23774971067905426,0.07671673595905304,0.1473427414894104,0.0824839398264885,0.035898663103580475,0.025184087455272675,-0.30858662724494934,-0.11620969325304031,0.12229260057210922,0.1079111248254776,0.04542224109172821,0.03016153909265995,-0.2643479108810425,-0.07896090298891068,0.03628493845462799,0.025402894243597984,0.02233003079891205,0.022732874378561974,-0.0746518224477768,-0.012679259292781353,-0.019760923460125923,-0.012877697125077248,-0.01650964841246605,-0.017057009041309357,0.05162224546074867,0.012073020450770855,-0.003926350735127926,-0.00354873132891953,-0.0037540921475738287,-0.003720394102856517,-0.0019366313936188817,-0.0024316301569342613,-0.060544922947883606,-0.0373460128903389,-0.08651885390281677,-0.04919276013970375,0.3260020911693573,0.10939231514930725,0.002142176264896989,-0.0003660129150375724,-0.0024669235572218895,0.0017702544573694468,-0.019452547654509544,-0.014567426405847073,-0.011497586034238338,0.0348188690841198,-0.0010838436428457499,0.01282504852861166,0.15530388057231903,0.05101031810045242,-0.020395023748278618,0.006021843757480383,-0.03798219934105873,0.0037552404683083296,-0.27171364426612854,-0.10414140671491623,-0.03377893567085266,0.017658891156315804,0.020472561940550804,0.032730598002672195,-0.15876974165439606,-0.08077533543109894,-0.0005429136799648404,-0.003059119451791048,-0.005726388189941645,0.0031963454093784094,-0.04079487919807434,-0.020513983443379402,-0.0013056029565632343,0.0024874554947018623,0.005784517619758844,0.0016105974791571498,0.026855697855353355,0.01877516694366932,0.00044145507854409516,0.0006903026369400322,0.0009153638384304941,0.0006909790099598467,0.001462344778701663,0.001757708378136158,0.023694626986980438,0.04422943666577339,-0.011206443421542645,0.027900731191039085,0.20017342269420624,0.03969106823205948,-0.2188478261232376,-0.01725406013429165,-0.24970205128192902,0.12516380846500397,0.09431318938732147,0.15535403788089752,0.1631866991519928,0.08944608271121979,0.4806845486164093,-0.0010916671017184854,-0.4582924544811249,0.6252386569976807,-0.023276716470718384,-0.4298471510410309,0.5476855039596558,0.36810600757598877,0.034419335424900055,0.0003470366937108338,-0.052452415227890015,-0.37908464670181274,0.2753429412841797,0.2316497564315796,-0.4805079996585846,-0.3410874903202057,-0.11526554822921753,9.293293987866491e-05,0.4003148674964905,0.4668649137020111,-0.08659857511520386,-0.3951183557510376,0.11087913066148758,0.2708005905151367,0.10320961475372314,-4.759328658110462e-05,0.060836419463157654,-0.3737887740135193,0.00033966870978474617,0.35353851318359375,-0.3277750015258789,-0.021907411515712738,0.28522148728370667,-0.00026796571910381317,-0.25274255871772766,-0.05738186091184616,0.300120085477829,0.19451166689395905,0.22794388234615326,-0.15214256942272186,0.11275717616081238,-2.3106436856323853e-05,0.0998731479048729,0.24247410893440247,-0.11133754998445511,0.39474719762802124,0.0019393742550164461,0.1731017380952835,0.36987900733947754,-3.9905906305648386e-05,-0.041997842490673065,0.11428682506084442,0.10037428140640259,0.14471535384655,-0.13303469121456146,0.135050967335701,0.41941478848457336,-0.00015542545588687062,-0.7753793597221375,0.018160773441195488,0.004291731398552656,0.2182513326406479,0.1776164323091507,-0.13364756107330322,-0.23032663762569427,-8.21794819785282e-05,0.21741995215415955,-0.15233714878559113,-0.157226100564003,-0.10915154963731766,0.06658058613538742,0.11140477657318115,0.14103610813617706,0.004098312929272652,0.1460297852754593,-0.13542111217975616,-0.2007407546043396,-0.03584223613142967,-0.06085081025958061,0.07429997622966766,-0.03745367005467415,-0.029932541772723198,-0.08146460354328156,-0.12448981404304504,-0.29429858922958374,0.17507940530776978,-0.056502267718315125,-0.03670581057667732,0.006227825302630663,0.06969036161899567,0.21086588501930237,-0.20501844584941864,-0.008183551020920277,-0.013903149403631687,-0.01209376659244299,-0.038699980825185776,-0.19312059879302979,0.2655123770236969,0.07996726036071777,0.09431938081979752,0.048335202038288116,0.054778531193733215,0.02671445719897747,0.15384751558303833,-0.021769125014543533,0.033950645476579666,0.08001508563756943,0.16861659288406372,0.17632271349430084,0.06776382774114609,-0.08066326379776001,0.003957157954573631,0.023217955604195595,0.06932657212018967,0.09328744560480118,-0.01325088832527399,0.013075296767055988,0.015917953103780746,-0.039318207651376724,-0.09295624494552612,-0.028574621304869652,-0.14497694373130798,0.016134215518832207,-0.025076400488615036,-0.004483028315007687,-0.037266913801431656,-0.012797356583178043,-0.14500877261161804,-0.06406574696302414,-0.06581036746501923,-0.03771460801362991,0.05518872290849686,0.07905467599630356,0.012524046935141087,0.06649292260408401,0.054780423641204834,0.037797845900058746,-0.05806439369916916,-0.08254139125347137,-0.02488350309431553,-0.07849913090467453,-0.05104994773864746,-0.03284040465950966,0.08125332742929459,0.06287245452404022,0.009824397973716259,-0.032651349902153015,0.0006096512079238892,-0.008755939081311226,0.02890496701002121,0.025218099355697632,0.014451287686824799,0.010808584280312061,0.031781505793333054,0.0252287145704031,0.0031910280231386423,-0.02327175810933113,-0.002949099289253354,0.00985376164317131,0.022153278812766075,0.022988339886069298,-0.01943250559270382,-0.031345613300800323,-0.016136327758431435,-0.0029117197263985872,0.016961554065346718,0.0026089476887136698,-0.032820165157318115,-0.014917897060513496,-0.010175406001508236,0.025527874007821083,-0.01184930745512247,0.00039709312841296196,-0.03665638715028763,-0.019797950983047485,-0.0035097827203571796,0.10646442323923111,0.03463457524776459,0.07913655787706375,0.06671028584241867,-0.027708236128091812,0.02549179457128048,-0.14304810762405396,-0.09352589398622513,-0.10381080955266953,-0.07732614874839783,-0.018292373046278954,-0.05647103115916252,0.1472083032131195,0.06692345440387726,0.06358294934034348,-0.00553749268874526,-0.09017815440893173,-0.000320886611007154,0.09887070208787918,0.07409597933292389,0.07456551492214203,0.053851742297410965,0.026621615514159203,0.04106993228197098,0.06751988083124161,0.03899046778678894,0.029333123937249184,0.01516755111515522,-0.03589603304862976,-0.03974539414048195,0.019999049603939056,0.01396858412772417,0.012018729001283646,-0.006340918131172657,-0.01839115470647812,-0.002171318745240569,-0.015645572915673256,0.0503140389919281,0.06589376926422119,0.07948149740695953,0.11619878560304642,0.16601774096488953,-0.07185285538434982,-0.054842785000801086,-0.060195982456207275,-0.033082522451877594,-0.0009423583978787065,-0.00385429710149765,-0.002360883867368102,-0.000936051132157445,0.0011330180568620563,0.001216400065459311,-0.0003203694650437683,-0.0018981044413521886,-0.006040030624717474,-0.007322197314351797,-0.00961391068994999,-0.01019459031522274,-0.009287579916417599,-0.007725497707724571,-0.006506241392344236,-0.0046497429721057415,-0.0034394909162074327,-0.004061100073158741,-0.0056976801715791225,-0.00672043627128005,0.004635411314666271,0.005162854678928852,0.005540628917515278,0.00550519535318017,0.005340156145393848,0.0051148696802556515,0.0020514708012342453,0.0018779472447931767,0.0009964387863874435,0.00047764251939952374,0.00047306634951382875,0.001412033918313682,-0.0037412105593830347,-0.0046966103836894035,-0.005995959043502808,-0.006343869958072901,-0.006306816358119249,-0.005594139453023672,0.001868350082077086,0.0015814746730029583,0.001717910054139793,0.002273828024044633,0.002813256112858653,0.002745982026681304,-0.0028520121704787016,-0.0031940818298608065,-0.0032275512348860502,-0.0030959786381572485,-0.002836959669366479,-0.0027800847310572863,0.0011149925412610173,0.0008965649758465588,0.000557407911401242,6.0560094425454736e-05,0.0003683615068439394,0.0002590694057289511,-0.004343224223703146,-0.0041867452673614025,-0.003676127642393112,-0.003186671994626522,-0.003485312918201089,-0.0034140469506382942,-0.002517202403396368,-0.0025949650444090366,-0.0031410346273332834,-0.0034747894387692213,-0.0027133056428283453,-0.003397469175979495,0.003523034742102027,0.003573670284822583,0.0032416635658591986,0.003103878116235137,0.003274754388257861,0.0029629336204379797,-0.0009575121803209186,-0.0011527894530445337,-0.0013015264412388206,-0.0012894257670268416,-0.001046438585035503,-0.0013014069991186261,-0.0012550399405881763,-0.001476356410421431,-0.0014886804856359959,-0.0015390171902254224,-0.001539719640277326,-0.0015549889067187905,0.007262947503477335,0.006962517276406288,0.006737435702234507,0.006534242071211338,0.006206338293850422,0.006715321447700262,-0.0021466475445777178,-0.0023023413959890604,-0.0019935837481170893,-0.0018759432714432478,-0.0021779732778668404,-0.0016724509187042713,-0.00712504331022501,0.009363635443150997,0.11817596852779388,0.026232343167066574,-0.04726027324795723,-0.10252705961465836,0.02436363510787487,0.001411444740369916,-0.1296308934688568,-0.061362702399492264,0.008173249661922455,0.10960473865270615,-0.009043307043612003,0.023000720888376236,0.15184174478054047,-0.008133789524435997,-0.09991781413555145,-0.15027885138988495,-0.02237764373421669,0.0017207561759278178,0.07026831805706024,0.028367044404149055,-0.012141404673457146,-0.08723431825637817,0.0202006958425045,0.03443869203329086,0.02913813479244709,-0.04036039859056473,-0.06283069401979446,-0.052592385560274124,-0.01136433519423008,0.002489160979166627,-0.005434480961412191,-0.021738464012742043,-0.03427211567759514,-0.027620753273367882,-0.07764682918787003,-0.06089725345373154,-0.012509924359619617,0.07431685924530029,0.07884442806243896,-0.018629353493452072,0.017902694642543793,-0.007772010285407305,-0.06611520051956177,-0.007504101376980543,0.03411119058728218,0.07339941710233688,-0.009463404305279255,-0.09002764523029327,-0.04835009202361107,-0.02685491368174553,-0.06365609914064407,0.4767727851867676,-0.019159505143761635,0.04203413054347038,0.2414482682943344,0.014738751575350761,0.28521066904067993,-0.5684718489646912,0.08969709277153015,0.07260379940271378,0.07087032496929169,0.07336131483316422,-0.08824610710144043,0.4509362280368805,-0.05125770717859268,-0.1965470314025879,-0.07369223982095718,-0.11163576692342758,-0.13275165855884552,0.11924221366643906,0.06371936202049255,0.03648834675550461,-0.034813638776540756,-0.027221065014600754,-0.08811402320861816,-0.08948374539613724,-0.019664639607071877,0.0032045734114944935,-0.08447574824094772,0.09374942630529404,-0.07234807312488556,-0.05776910483837128,0.14327000081539154,0.024732640013098717,-0.07812735438346863,-0.21320213377475739,-0.4212884306907654,0.006895455531775951,-0.0674712061882019,0.04422515630722046,0.06887520104646683,0.03812620788812637,0.09319387376308441,-0.1706867665052414,-0.007019401993602514,-0.0019947520922869444,0.07096565514802933,0.18147440254688263,0.2766723930835724,0.06177818030118942,0.036442868411540985,0.06786463409662247,-0.065336674451828,-0.1933482587337494,-0.2567867636680603,-0.08615869283676147,-0.010627052746713161,-0.0714423730969429,0.07934172451496124,0.15487703680992126,0.19474871456623077,0.02245585061609745,-0.10063913464546204,-0.04944119229912758,-0.004981279838830233,0.04274854063987732,0.0729512944817543,0.025988444685935974,-0.04493521526455879,-0.0020751694682985544,-0.014555616304278374,0.005299432203173637,0.008657603524625301,-0.035445261746644974,-0.04970777779817581,-0.020743342116475105,0.009710326790809631,-0.016629504039883614,0.0043462300673127174,-0.0015187693061307073,-0.08447190374135971,-0.021381167694926262,-0.0022991120349615812,0.021622860804200172,0.061242904514074326,-0.0022095846943557262,0.05377478897571564,0.04308175668120384,-0.006310486700385809,-0.06209854781627655,-0.06934667378664017,0.0004632049531210214,-0.020065652206540108,-0.0685809776186943,-0.010643883608281612,-0.018859852105379105,-0.026083707809448242,-0.06499213725328445,0.15893876552581787,-0.008150250650942326,-0.274968683719635,-0.01291173230856657,0.054252494126558304,0.0007680390845052898,0.0015144828939810395,0.06998113542795181,-0.6699773073196411,-0.010481070727109909,-0.24638113379478455,-0.03585643321275711,-0.16542311012744904,-0.012075617909431458,0.0011960448464378715,-0.23157837986946106,0.5334458351135254,-0.3632001578807831,0.3865634799003601,0.07484397292137146,-0.17124494910240173,-0.0009149955003522336,0.0009596865274943411,-0.15187428891658783,0.003578053554520011,0.2148238718509674,-0.43214690685272217,-0.13094110786914825,0.09061642736196518,-0.0015154469292610884,-0.0013927611289545894,-0.06333694607019424,0.5356407761573792,0.1654869168996811,-0.05508961156010628,-0.06346791982650757,-0.11245037615299225,-3.4335200780333253e-06,-0.0032229279167950153,0.18319937586784363,0.41684862971305847,0.14669790863990784,-0.1039077639579773,-0.15213626623153687,0.03321003541350365,-0.013164070434868336,-0.00042130370275117457,-0.11124832928180695,0.17514345049858093,0.07823120057582855,0.0656801387667656,0.11235031485557556,-0.18321163952350616,-0.000247196207055822,0.00022863502090331167,-0.00889329519122839,0.2841435670852661,-0.1870705932378769,-0.2788178026676178,0.02026359550654888,0.22260531783103943,0.010907327756285667,-0.007429967634379864,-0.09573174268007278,0.3280091881752014,0.3025526702404022,-0.10009008646011353,0.04528343677520752,0.09149841219186783,-0.0050939288921654224,-0.0004050477873533964,-0.0868082121014595,-0.05085751414299011,-0.02968556247651577,-0.14561063051223755,0.0348564013838768,-0.2679978311061859,-0.20849484205245972,0.06345468014478683,-0.05442237854003906,-0.13127349317073822,-0.027531415224075317,-0.0745968371629715,0.049229372292757034,0.050326958298683167,0.08772319555282593,-0.2469688504934311,-0.11779326945543289,-0.04434017464518547,-0.13895736634731293,-0.08237086981534958,-0.07878120988607407,0.13544586300849915,-0.019533075392246246,-0.07083826512098312,0.03278399631381035,0.057534653693437576,0.04721136763691902,-0.15665525197982788,0.0936882346868515,-0.017764633521437645,0.006454110611230135,0.04833236709237099,0.06672463566064835,-0.1424359381198883,-0.0034745894372463226,-0.12324336171150208,-0.07966858893632889,-0.06486356258392334,-0.016596591100096703,-0.11540158092975616,-0.02326933667063713,-0.07308830320835114,-0.08505529165267944,-0.014383729547262192,0.010522223077714443,-0.17395766079425812,-0.15945306420326233,0.1004653200507164,0.03879765421152115,0.025906002148985863,-0.0038249550852924585,-0.13952484726905823,0.0016870873514562845,0.04117542505264282,0.021849878132343292,-0.007820416241884232,-0.024874359369277954,0.05670627951622009,0.07350733131170273,-0.07090407609939575,-0.006852730643004179,0.057413868606090546,0.009839647449553013,-0.008807365782558918,-0.3940815031528473,0.0032398810144513845,-0.05497979372739792,-0.03483150899410248,-0.06840506941080093,0.026193680241703987,0.33983832597732544,0.012013551779091358,-0.02214594930410385,0.009841600432991982,0.035986993461847305,0.06545042246580124,-0.3820396363735199,0.05743645131587982,0.14565888047218323,0.1816895455121994,0.13345710933208466,0.09955298155546188,0.06984951347112656,0.07189115136861801,0.008778628893196583,-0.055978938937187195,-0.08206724375486374,-0.026128381490707397,0.07338002324104309,-0.013890648260712624,0.031170925125479698,0.0013907941756770015,-0.040053922683000565,-0.015602506697177887,0.056293416768312454,-0.03440114110708237,0.041915733367204666,0.048341862857341766,-0.05879167839884758,-0.13989612460136414,0.0783042162656784,-0.008921433240175247,-0.020005356520414352,-0.009709765203297138,0.002096068812534213,-0.007015823852270842,0.08105874806642532,0.006548615172505379,0.03386290371417999,0.05617498606443405,0.1607634276151657,0.40436702966690063,-0.037572845816612244,0.019230760633945465,0.13271395862102509,0.043116677552461624,-0.015220667235553265,-0.13341309130191803,0.10592062771320343,-0.012136369943618774,0.10063835233449936,-0.06789796054363251,0.04041330888867378,0.13853302597999573,-0.32516971230506897,-0.11054491251707077,-0.14336876571178436,-0.046307869255542755,-0.007644827011972666,0.04077647626399994,-0.19337309896945953,0.15432387590408325,0.06006348133087158,0.06569194793701172,-0.04684290289878845,-0.13601283729076385,-0.11712019145488739,0.07352085411548615,-0.04662492126226425,0.041932541877031326,-0.0037750296760350466,-0.1443854719400406,-0.1651034653186798,-0.21578644216060638,-0.06077324599027634,-0.023354915902018547,0.07474908977746964,0.20480681955814362,-0.14080999791622162,-0.013465778902173042,0.008099068887531757,-0.010817449539899826,-0.02987891249358654,-0.13482673466205597,0.009387413039803505,-0.03836502134799957,-0.11058975011110306,-0.029668575152754784,-0.04580911993980408,-0.1367536187171936,0.1643797904253006,0.0047616115771234035,-0.008268505334854126,-0.0633443146944046,-0.03530489280819893,-0.007693869527429342,-0.2329099029302597,0.12570276856422424,0.05203734338283539,0.02179546281695366,-0.06958956271409988,-0.2178315818309784,0.2003352791070938,-0.11257167160511017,-0.15184450149536133,-0.06909672170877457,-0.1612190455198288,-0.2595468759536743,-0.08757128566503525,0.15041641891002655,0.1570911854505539,-0.0017644107574597,-0.041837502270936966,-0.07200315594673157,0.10315228253602982,0.005351019091904163,0.024069948121905327,-0.08513586968183517,-0.16637040674686432,-0.15286540985107422,0.07989758998155594,0.020187310874462128,-0.03691281005740166,-0.18983958661556244,-0.14479367434978485,-0.27899375557899475,-0.09203222393989563,-0.021918151527643204,-0.04794557765126228,0.01521376334130764,0.10246193408966064,0.11686697602272034,-0.02657368965446949,0.008258688263595104,-0.027117548510432243,-0.03201715648174286,0.11303731054067612,0.1454450488090515,-0.05669541656970978,0.07378056645393372,0.012469237670302391,0.01798970066010952,-0.05636504665017128,-0.03855322301387787,-0.02716771326959133,-0.08020539581775665,-0.012818590737879276,-0.10637024790048599,0.08620718866586685,0.06977534294128418,-0.13426078855991364,-0.033417776226997375,0.030484534800052643,-0.008512060157954693,-0.010014555417001247,0.05134114250540733,-0.11427648365497589,-0.011096976697444916,0.006548636592924595,-0.005668491590768099,-0.0634351447224617,0.04475554823875427,-0.22450222074985504,0.11568707227706909,0.1329890936613083,0.08850901573896408,0.044372785836458206,0.06134987249970436,-0.16264000535011292,0.13802587985992432,0.0557798407971859,0.029143132269382477,-0.011890221387147903,-0.004853211343288422,-0.1855851709842682,-0.0015297170029953122,-0.015863358974456787,-0.0139692397788167,-0.03546799346804619,-0.0483383871614933,0.0704038143157959,0.10198203474283218,0.025372160598635674,0.06267863512039185,0.04033337160944939,0.15653419494628906,0.0680946633219719,-0.006491781212389469,-0.007623488549143076,-0.01725546270608902,0.032766032963991165,0.010579632595181465,-0.11935735493898392,-0.1330805867910385,-0.16616883873939514,-0.08843820542097092,0.054339826107025146,0.09813357144594193,0.0012739257654175162,-0.06809299439191818,-0.10798225551843643,0.034501876682043076,-0.10049206763505936,-0.041117627173662186,-0.0857825055718422,-0.03833821043372154,-0.08698682487010956,-0.09414774924516678,-0.04047303646802902,-0.013539406470954418,0.04580195993185043,-0.00729842483997345,-0.04929595813155174,-0.057866934686899185,0.06901711225509644,-0.011233843863010406,0.060479238629341125,-0.19330309331417084,-0.22122205793857574,-0.06097083166241646,-0.014858933165669441,0.03727367892861366,-0.012020062655210495,0.03705870360136032,0.007634446956217289,0.05152806267142296,0.015357446856796741,-0.020549340173602104,-0.07134264707565308,-0.1302383691072464,0.04621075093746185,-0.04499325528740883,-0.15479719638824463,-0.010053240694105625,-0.019557645544409752,0.0021783856209367514,-0.07614333182573318,0.05104199796915054,0.03633631020784378,0.012578314170241356,0.016952378675341606,0.04483361169695854,-0.021326884627342224,0.0005275752628222108,-0.1281827837228775,0.06500931829214096,0.031733132898807526,0.055365268141031265,0.059157080948352814,-0.10105086117982864,-0.046060968190431595,0.061912503093481064,-0.053963541984558105,0.13863712549209595,0.08168317377567291,0.028080986812710762,-0.039153289049863815,0.058067794889211655,0.10687357187271118,-0.033488593995571136,0.01684143766760826,-0.03868331387639046,-0.06389304995536804,0.02708827331662178,0.059308718889951706,-0.14054767787456512,-0.08403225243091583,-0.026376280933618546,-0.06582781672477722,-0.0718098133802414,-0.0831635519862175,-0.017759785056114197,-0.012557868845760822,-0.0037039497401565313,0.012484936974942684,-0.020474672317504883,-0.04798446595668793,0.1186322420835495,0.12471847981214523,0.07566727697849274,0.012691020034253597,0.08307845145463943,-0.04392724484205246,-0.09479912370443344,-0.09845539182424545,0.023772163316607475,0.09335934370756149,0.04787610471248627,0.05640111118555069,0.1715124249458313,0.13150553405284882,0.07585950940847397,-0.0023258456494659185,0.0694020539522171,-0.06829510629177094,0.044102743268013,-0.006584498565644026,-0.029951544478535652,-0.041365452110767365,0.05166696384549141,-0.054176151752471924,-0.031101295724511147,-0.0492459237575531,-0.040335625410079956,-0.07142185419797897,-0.0729174017906189,-0.05189774930477142,-0.036214109510183334,0.031421396881341934,0.05872791260480881,0.04848042130470276,0.034168947488069534,0.029275326058268547,0.06260278075933456,0.08151974529027939,0.03551233187317848,-0.10248073935508728,-0.06769710779190063,-0.006555607542395592,-0.05010531097650528,-0.02162487432360649,-0.005388230085372925,0.00910509005188942,0.01652822270989418,0.042797014117240906,-0.016091398894786835,-0.3682665228843689,0.11370477080345154,0.12021879851818085,-0.03135363385081291,0.10090869665145874,0.07360751926898956,0.03790169209241867,0.013181926682591438,0.17402344942092896,0.19226644933223724,-0.15509460866451263,-0.006985415704548359,0.15250614285469055,0.002442821627482772,0.04298753663897514,0.06090530380606651,0.43286821246147156,-0.32385942339897156,0.2997469902038574,-0.06367132812738419,-0.060452647507190704,0.11832628399133682,-0.09747215360403061,0.09941750764846802,-0.2052561491727829,-0.10413654893636703,0.29327109456062317,-0.030370548367500305,0.22317174077033997,0.13303719460964203,-0.02512134052813053,-0.08845515549182892,0.46737194061279297,-0.004025682806968689,0.16501490771770477,-0.022760087624192238,0.14306364953517914,-0.0007963285897858441,0.03038928471505642,0.25759947299957275,0.07468941807746887,-0.11420728266239166,0.14005592465400696,0.294463187456131,-0.13488568365573883,-0.05660351365804672,0.06975854188203812,0.2007603794336319,-0.05112425982952118,-0.15177087485790253,-0.1701720654964447,0.19530737400054932,0.042184602469205856,-0.05610043555498123,0.33729368448257446,0.20863808691501617,0.004840563517063856,0.3360348343849182,-0.132419154047966,0.2229934185743332,-0.052677977830171585,0.15271681547164917,-0.07263737171888351,0.2108994573354721,-0.2542417347431183,-0.3066198527812958,0.2827411890029907,0.0172218419611454,0.14092852175235748,0.2532188296318054,0.03605778142809868,-0.17860844731330872,-0.2152988463640213,0.22276175022125244,-0.17257001996040344,-0.0552172027528286,0.2672558128833771,0.15508587658405304,0.1570519506931305,0.11219315975904465,-0.19294080138206482,-0.09689786285161972,0.08542986214160919,-0.016381127759814262,-0.06562664359807968,0.020026469603180885,-0.07917843014001846,-0.1202884316444397,-0.02630833350121975,-0.04830446094274521,-0.13419616222381592,-0.12599632143974304,-0.3336533308029175,-0.07319076359272003,0.02073516510426998,-0.011614739894866943,-0.1571424901485443,-0.09638378769159317,0.3857749104499817,-0.026111431419849396,0.07979916781187057,0.054531730711460114,0.10597234964370728,0.021933915093541145,-0.24329619109630585,0.07902420312166214,0.021147461608052254,-0.02549264393746853,0.015123807825148106,0.05590434372425079,-0.09442123025655746,0.16670529544353485,0.052605412900447845,0.03490878641605377,-0.0489690825343132,0.0540367029607296,0.13640755414962769,-0.12579213082790375,0.010291065089404583,-0.028005125001072884,-0.02878355048596859,0.02738860622048378,-0.07849801331758499,-0.01889221929013729,-0.050707265734672546,0.036694228649139404,-0.0388890840113163,-0.03398057073354721,0.13633573055267334,-0.06646447628736496,0.0626884326338768,0.05866830050945282,0.026754308491945267,-0.020417453721165657,-0.043126851320266724,0.05249418318271637,-0.042690884321928024,-0.150598406791687,-0.1720002442598343,-0.0807008370757103,-0.2455252856016159,-0.24386456608772278,-0.17073123157024384,-0.1413990706205368,-0.07088248431682587,0.03925413265824318,-0.010535105131566525,0.09109193831682205,0.010862275958061218,0.026035768911242485,-0.08751644194126129,-0.06798399239778519,-0.08498304337263107,0.01757412776350975,0.011398187838494778,0.06811656057834625,-0.07420669496059418,-0.08562085032463074,-0.023604081943631172,0.07430493086576462,-0.0035457592457532883,0.04585610330104828,0.05795978382229805,-0.06874681264162064,-0.08293810486793518,-0.0007278915727511048,0.009401729330420494,-0.06279990077018738,-0.06764055043458939,-0.17960064113140106,-0.03436790779232979,-0.09207448363304138,-0.12024713307619095,-0.02540723793208599,-0.04279274865984917,-0.012697448022663593,-0.14133310317993164,0.02717556804418564,0.025708341971039772,0.06310731917619705,0.07941257953643799,0.003963727504014969,0.18359282612800598,0.1382419466972351,-0.006979321129620075,-0.013532084412872791,-0.32955971360206604,0.015570240095257759,0.08689069002866745,-0.007799023296684027,-0.24625346064567566,-0.23379190266132355,-0.10030155628919601,-0.015759576112031937,-0.11124582588672638,-0.10054519772529602,0.038899149745702744,-0.018242275342345238,-0.16492503881454468,-0.06785634160041809,0.021052701398730278,-0.06095830351114273,-0.11749885976314545,-0.0004337058635428548,-0.1300683170557022,0.022924184799194336,0.1058090552687645,-0.09365128725767136,-0.1278180629014969,-0.09470386803150177,-0.0750766322016716,0.028474846854805946,0.06260083615779877,-0.05955897644162178,0.0171726755797863,0.0177744273096323,0.055709339678287506,0.08315450698137283,0.17929646372795105,-0.05910283327102661,-0.16983172297477722,-0.09331195801496506,-0.23953823745250702,0.01931002363562584,0.12157834321260452,0.027431145310401917,0.19222670793533325,0.03272063657641411,0.11963432282209396,-0.025995684787631035,-0.07254471629858017,0.018880965188145638,-0.04429205507040024,-0.07571598142385483,0.003950969781726599,-0.09102705866098404,0.057709693908691406,-0.037729594856500626,-0.07820437848567963,-0.13280676305294037,-0.2312871217727661,-0.06492514908313751,0.005102003458887339,0.03427775204181671,-0.008485265076160431,-0.0194388497620821,0.0008351076394319534,-0.07979259639978409,0.1371684968471527,-0.10786809027194977,0.0427730418741703,0.09789284318685532,-0.0003582807257771492,0.11263476312160492,0.09744331240653992,0.032661810517311096,-0.031039217486977577,-0.007995369844138622,0.0305176991969347,-0.07393532246351242,0.07072637975215912,-0.07446684688329697,-0.027432268485426903,-0.12739239633083344,-0.17801016569137573,-0.2235127091407776,0.09638887643814087,-0.013196023181080818,0.05746718496084213,0.0814066156744957,-0.09344801306724548,-0.12630580365657806,0.0881357342004776,-0.008724953047931194,0.008228948339819908,-0.01560477539896965,-0.009822673164308071,-0.0006007307092659175,0.10740608721971512,0.021759146824479103,0.038014549762010574,0.056893013417720795,-0.004937352612614632,0.1189306452870369,-0.2630844712257385,0.03842932730913162,0.14691875874996185,0.2115505486726761,0.2223936766386032,0.14827609062194824,-0.15331138670444489,0.04044610634446144,0.09455764293670654,0.0081261545419693,0.040295109152793884,0.07309082895517349,-0.20112302899360657,-0.13883239030838013,-0.17349866032600403,-0.07210640609264374,-0.016871105879545212,-0.14194461703300476,-0.18742866814136505,-0.03389337286353111,0.021079950034618378,-0.01058468408882618,-0.10518436133861542,-0.10495410859584808,0.14358854293823242,-0.0196540504693985,-0.053282782435417175,-0.14076827466487885,-0.21568958461284637,-0.14066842198371887,0.060256436467170715,0.02653747983276844,-0.04621358960866928,-0.09209300577640533,0.07545801997184753,0.10219180583953857,-0.43617719411849976,0.03066115453839302,-0.04031965509057045,-0.06111213564872742,-0.031962763518095016,0.15665531158447266,0.04714956134557724,0.04269329831004143,-0.05030838027596474,-0.12533004581928253,-0.04738232120871544,-0.16789448261260986,0.19163210690021515,-0.017724502831697464,0.050916966050863266,-0.06128139793872833,-0.1422625035047531,0.05283091589808464,-0.09993289411067963,-0.02886543795466423,-0.091263048350811,-0.06886225938796997,-0.03162005543708801,-0.19517388939857483,0.15138448774814606,-0.060739949345588684,-0.061790432780981064,-0.0015733179170638323,0.010261153802275658,-0.04265442118048668,-0.0013835410354658961,0.014250023290514946,0.02753012627363205,0.03356912359595299,0.04769798368215561,-0.07515256851911545,-0.14733032882213593,-0.006106452085077763,0.10373316705226898,0.09132656455039978,0.03750787302851677,-0.12677957117557526,-0.18711459636688232,-0.11560051143169403,-0.08571045100688934,0.024033691734075546,-0.07490171492099762,-0.10320790112018585,-0.0028269398026168346,-0.04043463617563248,0.007531893439590931,0.03142472356557846,0.008391143754124641,-0.009283090010285378,0.04817965254187584,0.0342310406267643,0.07163144648075104,0.12051773816347122,0.14825411140918732,0.14080291986465454,0.04548243060708046,-0.18601864576339722,-0.11667200177907944,-0.002350941300392151,0.041761185973882675,-0.02863483689725399,0.17278718948364258,0.08220747858285904,0.1230778843164444,0.20274367928504944,0.006338693201541901,0.2011449784040451,-0.13400396704673767,0.005839430261403322,0.07511960715055466,0.04347465559840202,0.05752553045749664,0.03819345682859421,-0.10244078189134598,0.037119440734386444,0.018084542825818062,0.053396936506032944,0.014941154047846794,0.04726193845272064,-0.04025539755821228,-0.10553865879774094,-0.10134565085172653,-0.025791475549340248,-0.08859237283468246,0.05321872979402542,-0.040536511689424515,-0.04010951146483421,0.0820302814245224,-0.00794713944196701,0.20528708398342133,-0.010991277173161507,0.03365173935890198,-0.20160901546478271,-0.21042707562446594,-0.09768907725811005,-0.17059434950351715,-0.020713917911052704,-0.007705580908805132,-0.08554253727197647,-0.1387942135334015,-0.08871510624885559,-0.10378602147102356,-0.03927906975150108,-0.019848261028528214,0.10077983886003494,0.07622382044792175,0.11056054383516312,0.02000899612903595,0.09646259993314743,-0.0642804503440857,-0.02127094753086567,-0.05187896639108658,-0.09781491011381149,-0.018216460943222046,-0.13459868729114532,-0.03792959451675415,-0.08356115967035294,-0.07444466650485992,-0.06981004029512405,-0.08034324645996094,-0.10009054094552994,-0.08083450049161911,-0.08954989910125732,-0.15212883055210114,-0.14428426325321198,-0.17431294918060303,-0.14857366681098938,-0.06176275387406349,-0.004937541205435991,-0.04520555958151817,-0.07269664853811264,0.018285758793354034,0.02208046056330204,0.05518859997391701,-0.09967003017663956,-0.21935220062732697,-0.22488220036029816,-0.19359168410301208,-0.061169128865003586,-0.04412470757961273,0.08624889701604843,0.10825265198945999,0.07921988517045975,0.10516870766878128,0.09175238013267517,0.05357642099261284,-0.33730998635292053,0.07869875431060791,-0.042988747358322144,0.11424428224563599,0.1764003336429596,-0.03323862701654434,0.030399290844798088,-0.04590820521116257,0.1495451182126999,0.05746658146381378,0.1809123307466507,-0.11361604183912277,0.13988293707370758,-0.04264485463500023,-0.09911692142486572,0.10943526029586792,0.33479997515678406,0.15355825424194336,0.20193719863891602,0.18192672729492188,-0.1393449455499649,0.14228080213069916,-0.25873374938964844,-0.0772012397646904,-0.1304382085800171,0.015271632932126522,0.3706071972846985,-0.204450786113739,0.2834964990615845,0.2228991836309433,-0.27986207604408264,0.26518985629081726,0.46062034368515015,-0.17348499596118927,-0.1642111986875534,0.09124422073364258,-0.24430467188358307,-0.030756089836359024,0.022473104298114777,-0.02368464134633541,0.14374825358390808,-0.013957357034087181,0.09954413026571274,-0.244790717959404,-0.09394177794456482,0.16228248178958893,0.029620129615068436,0.018483441323041916,0.16135923564434052,0.09813926368951797,0.2102271467447281,0.09319315105676651,-0.30857187509536743,0.14318230748176575,0.2289605587720871,0.22273683547973633,0.23554199934005737,-0.09545876085758209,-0.16683237254619598,0.06325051188468933,0.11444026976823807,0.09835491329431534,0.0712059736251831,-0.1544419229030609,-0.005586604587733746,0.21990934014320374,0.12946152687072754,0.06788276135921478,0.09437432885169983,0.09628260880708694,-0.12139224261045456,0.267917275428772,0.06017410010099411,-0.18493926525115967,-0.2558138966560364,-0.09088323265314102,0.09620492160320282,-0.2416437417268753,0.2489415556192398,-0.08783101290464401,-0.1237454041838646,-0.04297236353158951,-0.018648315221071243,0.17584238946437836,0.1177145317196846,-0.009973659180104733,-0.12878765165805817,-0.021196499466896057,-0.05087217688560486,-0.05188188701868057,-0.05563533678650856,-0.102852001786232,-0.012968186289072037,0.16045112907886505,-0.14702704548835754,-0.1600678265094757,-0.1780833899974823,-0.16522431373596191,-0.15239837765693665,0.20691098272800446,-0.0017752519343048334,0.07153801620006561,0.11084748059511185,0.18788546323776245,0.21071390807628632,-0.018594656139612198,0.019845902919769287,0.04280611500144005,0.03306408226490021,0.07669352740049362,0.0879768654704094,0.046819545328617096,0.015226878225803375,0.01187221147119999,0.043396200984716415,0.08648531138896942,0.013109427876770496,-0.14434903860092163,-0.04132399335503578,0.021838389337062836,0.0002037438825936988,-0.03129686042666435,0.1619948446750641,-0.0021541742607951164,0.053182922303676605,0.00672411872074008,-0.04198151454329491,-0.04004211723804474,-0.22014380991458893,0.11368725448846817,-0.056028272956609726,-0.03115731291472912,-0.006282710935920477,0.09980734437704086,0.13429862260818481,0.007079090923070908,0.11066991090774536,0.06890504062175751,0.09235081076622009,0.005974702537059784,-0.13046269118785858,0.27435818314552307,-0.07785546034574509,-0.04948941618204117,0.012820134870707989,-0.09220224618911743,-0.08300555497407913,-0.13412357866764069,0.026677774265408516,0.06040788069367409,0.028604792430996895,0.15377020835876465,0.10590192675590515,0.29479536414146423,-0.0993092805147171,-0.04179993271827698,-0.0453420914709568,-0.022738071158528328,0.025254948064684868,0.09538617730140686,-0.09797358512878418,-0.11755824834108353,-0.13181759417057037,-0.1118139699101448,0.06823556870222092,0.13920430839061737,0.007772332988679409,-0.007504155393689871,0.047775574028491974,0.012570558115839958,-0.018940236419439316,-0.020816365256905556,-0.08629179745912552,0.019109385088086128,-0.0349239818751812,0.0017579409759491682,0.144955113530159,0.05642623454332352,0.01834222488105297,0.09446057677268982,0.041581716388463974,0.019426478073000908,0.03359515592455864,-0.19520553946495056,0.1051299199461937,0.010779143311083317,-0.04843991622328758,-0.1389741450548172,0.003359781112521887,-0.12352172285318375,0.0784432515501976,0.16730672121047974,0.1913912296295166,0.20881089568138123,0.20843079686164856,-0.25140580534935,-0.0033602742478251457,-0.10378226637840271,-0.0821935385465622,-0.12463310360908508,-0.21319159865379333,0.13333605229854584,-0.2261084020137787,-0.10909488052129745,-0.21070943772792816,-0.09219419956207275,-0.08042734116315842,-0.1680571734905243,-0.05232536047697067,0.0731193870306015,-0.02507071942090988,0.10620693862438202,0.06045391038060188,0.24266394972801208,0.03314640372991562,-0.04377656802535057,-0.13219068944454193,-0.04326734319329262,0.09233405441045761,-0.10287442803382874,-0.083811916410923,0.0013715858804062009,0.050524819642305374,0.08184238523244858,0.1250205934047699,-0.08058231323957443,-0.1456427276134491,0.005374089814722538,-0.11346136033535004,-0.10704127699136734,-0.1765708178281784,-0.0641351044178009,0.0340452715754509,-0.016722388565540314,0.004561218433082104,-0.007231174502521753,-0.052568599581718445,-0.00889174360781908,-0.03173811361193657,-0.07409403473138809,-0.03617873042821884,-0.11185765266418457,-0.0945056676864624,0.20102450251579285,-0.05554775148630142,0.010055731981992722,0.022899840027093887,-0.0005843903636559844,0.09862461686134338,-0.06847298890352249,0.020475177094340324,0.15875518321990967,0.1688799113035202,0.1191352903842926,-0.052119165658950806,-0.030194604769349098,0.14026983082294464,0.16883738338947296,0.05502192676067352,0.004727499559521675,0.006368536967784166,-0.30214130878448486,0.08564095199108124,0.07343283295631409,-0.0008669525268487632,-0.09904421865940094,-0.05761105194687843,-0.14228759706020355,-0.0144481947645545,-0.10214793682098389,-0.022223275154829025,-0.07743548601865768,-0.1162940040230751,-0.11841988563537598,0.025495998561382294,0.06702475994825363,0.12674060463905334,0.035716474056243896,-0.029881801456212997,0.15385723114013672,-0.004327898379415274,-0.04469786956906319,0.04273513704538345,0.049407556653022766,-0.09264612942934036,-0.07370177656412125,0.03841337561607361,0.01349391508847475,0.06220488250255585,0.1847299039363861,-0.06679029017686844,-0.13051842153072357,-0.014155079610645771,0.05521836876869202,-0.0005083635915070772,0.056604430079460144,0.12105923891067505,0.025218116119503975,0.05298170447349548,0.05992262810468674,-0.05847388133406639,0.013707118108868599,0.07957704365253448,0.04083251953125,-0.08849629759788513,0.030564501881599426,-0.04028499126434326,-0.12753497064113617,0.02059732936322689,-0.0008033124031499028,-0.023036791011691093,0.03300167992711067,-0.06136297062039375,-0.07584895938634872,-0.036277733743190765,-0.09158571809530258,-0.0158530343323946,-0.036330901086330414,-0.06309274584054947,-0.0079448027536273,-0.02525404281914234,-0.017229069024324417,-0.07797341793775558,0.059757497161626816,0.0527237243950367,0.07434987276792526,-0.014434291049838066,0.11831063032150269,-0.006667966954410076,0.08246371895074844,0.03888577222824097,-0.017932910472154617,0.054869744926691055,0.01286531426012516,0.020529696717858315,0.06932998448610306,0.16122186183929443,0.06182296574115753,0.004483121447265148,-0.014655524864792824,0.029810607433319092,0.022449245676398277,0.055697325617074966,0.2962352931499481,-0.0264706052839756,-0.027218874543905258,-0.00798838585615158,-0.030807845294475555,0.0032288087531924248,0.12955844402313232,0.059912193566560745,0.017018195241689682,-0.04483380541205406,-0.10361076891422272,-0.046704232692718506,0.19412313401699066,0.06637107580900192,-0.08500295132398605,-0.029463212937116623,-0.06022331863641739,-0.057349637150764465,0.01129855401813984,0.01178085245192051,-0.04995591938495636,-0.013448081910610199,-0.0237455852329731,-0.15158963203430176,0.07434037327766418,-0.11370778828859329,0.10845477879047394,0.08890963345766068,0.06124147027730942,-0.04216631129384041,0.1572892963886261,0.05539759621024132,0.08570324629545212,0.10074169933795929,0.017546413466334343,0.08811034262180328,0.01818191446363926,0.037700820714235306,-0.22031299769878387,-0.06399770826101303,-0.10009772330522537,-0.03829198330640793,-0.04936639964580536,0.15371282398700714,0.13349194824695587,-0.023833921179175377,-0.029826713725924492,-0.04681454971432686,-0.07571608573198318,-0.06370866298675537,-0.16951632499694824,-0.13373054563999176,-0.08640104532241821,-0.14739161729812622,-0.05599689483642578,-0.1335223913192749,-0.13359351456165314,-0.12586191296577454,-0.12424585223197937,-0.0197848342359066,-0.05215691775083542,-0.07994620501995087,0.00980434287339449,-0.06456895172595978,-0.07511045038700104,-0.0712502971291542,-0.009394392371177673,-0.15374788641929626,0.15137213468551636,-0.026512838900089264,-0.029611533507704735,0.025067776441574097,0.01266498863697052,0.10638726502656937,-0.009546727873384953,-0.03192638233304024,-0.08805091679096222,-0.05693865939974785,-0.09091131389141083,-0.10904079675674438,0.1376703828573227,-0.10352369397878647,-0.1606716364622116,-0.06333166360855103,0.04308009892702103,-0.03411448374390602,0.04422402381896973,0.19073337316513062,0.19162660837173462,0.003985578194260597,-0.08231640607118607,-0.06340562552213669,-0.2156093418598175,0.019558114930987358,0.07046335935592651,-0.039726704359054565,-0.07943099737167358,-0.00261954334564507,0.02545667439699173,-0.011606995016336441,-0.11767756193876266,-0.10074174404144287,-0.1505749523639679,-0.23545336723327637,-0.22799260914325714,0.14259475469589233,0.17990919947624207,0.07613801956176758,0.15295417606830597,0.0825432687997818,0.0654127225279808,0.054532550275325775,-0.055855270475149155,-0.06655876338481903,-0.0779462605714798,-0.07134592533111572,-0.036870092153549194,0.018094833940267563,0.29504719376564026,0.27417874336242676,0.0350637212395668,0.1674821823835373,-0.04880526289343834,0.012745963409543037,0.002870529657229781,-0.18841485679149628,-0.15510712563991547,0.055759672075510025,-0.09586062282323837,-0.00847731065005064,-0.20284831523895264,0.11377742886543274,0.08666248619556427,-0.10191833227872849,-0.14137190580368042,-0.07871042937040329,0.03994045406579971,-0.14333133399486542,-0.07653863728046417,0.33699390292167664,-0.2710787355899811,-0.023890553042292595,0.048105936497449875,0.03641067445278168,0.028969721868634224,-0.10269872099161148,0.32481592893600464,0.10593148320913315,-0.27365872263908386,-0.05079219490289688,-0.09875430166721344,-0.38264602422714233,0.18474343419075012,-0.20334777235984802,-0.23809172213077545,0.29440394043922424,-0.16151028871536255,0.04991426691412926,0.22960257530212402,-0.04314886033535004,0.03111143968999386,-0.1513182669878006,0.3559700846672058,0.04016813263297081,-0.17779751121997833,-0.13123968243598938,0.09325302392244339,-0.08907297998666763,-0.08891478925943375,-0.1353851705789566,0.10301373153924942,0.4082329273223877,-0.09383369237184525,-0.16828861832618713,-0.24736829102039337,0.22644026577472687,0.34114059805870056,0.3103978633880615,0.1114354357123375,-0.09686515480279922,0.05588289722800255,-0.17833516001701355,-0.051072053611278534,-0.06516370922327042,0.09830106049776077,-0.20028994977474213,0.11544899642467499,-0.07693945616483688,-0.21886718273162842,-0.12740997970104218,-0.09688327461481094,-0.21413402259349823,-0.012127320282161236,-0.2766880393028259,-0.10509207099676132,0.2367599457502365,-0.056684039533138275,0.05731955170631409,0.03693815693259239,-0.020648911595344543,-0.054856132715940475,0.0256235022097826,-0.2848261296749115,-0.05472133681178093,-0.10573607683181763,0.03761136904358864,0.2924230992794037,0.07306912541389465,0.24716819822788239,-0.053057435899972916,-0.02652653120458126,0.15604127943515778,-0.2215731292963028,-0.09997329860925674,0.04126208648085594,0.012751473113894463,0.018690500408411026,0.05408642068505287,0.12291102856397629,0.1094198226928711,0.10672882199287415,0.05877089872956276,-0.025587048381567,-0.142011359333992,-0.1095736175775528,-0.14099186658859253,-0.14621517062187195,-0.18074049055576324,-0.1919790506362915,0.06658755987882614,0.05993682146072388,0.02698437310755253,0.06560803949832916,0.0730712041258812,0.10329525917768478,-0.1613955795764923,-0.21772265434265137,-0.13589683175086975,-0.22688350081443787,-0.17266814410686493,-0.16685634851455688,-0.13798394799232483,-0.24803215265274048,-0.21828116476535797,-0.11324885487556458,-0.09864069521427155,0.17481191456317902,0.05271544307470322,0.019445711746811867,0.021738126873970032,0.10275257378816605,-0.014228377491235733,0.05875934660434723,-0.06719096750020981,-0.06351780146360397,-0.041067350655794144,-0.11179877072572708,-0.14498509466648102,-0.17634797096252441,-0.04752200096845627,0.005647656507790089,-0.023286184296011925,0.008612755686044693,-0.06486865133047104,-0.047046538442373276,0.030878450721502304,0.012001375667750835,0.029179584234952927,-0.009809110313653946,-0.010010769590735435,-0.21707476675510406,-0.21947485208511353,-0.17606940865516663,-0.23722341656684875,-0.07236967235803604,-0.16259385645389557,-0.05914543941617012,-0.04149197041988373,-0.028875429183244705,-0.07651025056838989,0.019704513251781464,-0.01785430498421192,-0.08900082111358643,-0.09920288622379303,-0.04531591385602951,-0.045824941247701645,0.022267010062932968,-0.007028565742075443,0.255962610244751,-0.0030902568250894547,0.10892415046691895,0.17244336009025574,0.12345615029335022,0.16819404065608978,0.28890010714530945,0.0521448478102684,0.09498526901006699,0.05300896614789963,0.03839804604649544,-0.11289297044277191,-0.2578023076057434,-0.016277454793453217,-0.04660244658589363,-0.08254123479127884,-0.041969697922468185,0.001222745981067419,0.1304546743631363,-0.10687212646007538,0.0019410024397075176,-0.0068886773660779,0.0052933585830032825,0.04017897695302963,0.1075182631611824,0.07758008688688278,0.019855106249451637,-0.022546425461769104,0.0571029931306839,0.00775227090343833,0.4319301247596741,0.09854728728532791,0.1337871104478836,0.09470473974943161,0.056297916918992996,0.1449747532606125,-0.21895794570446014,-0.03218276798725128,0.032840169966220856,0.01268264465034008,-0.056726422160863876,0.026279769837856293,0.6560208797454834,0.08539830148220062,0.03544308990240097,0.060332152992486954,0.06442473828792572,0.0216745026409626,0.3892689645290375,0.0050235530361533165,-0.09686969965696335,-0.10604017972946167,-0.11733342707157135,-0.04945037141442299,0.3185458779335022,-0.10351768881082535,-0.10973614454269409,-0.00458364374935627,-0.042040999978780746,-0.03983520716428757,0.09893946349620819,-0.013018330559134483,-0.009231362491846085,0.10235150158405304,0.07066252827644348,-0.09024378657341003,-0.10286957025527954,0.19984249770641327,0.10441622883081436,-0.021837012842297554,0.01570429839193821,0.010864011012017727,-0.29426249861717224,0.016323549672961235,0.019500503316521645,-0.09171357750892639,0.010761037468910217,-0.0132309440523386,0.03158894181251526,0.09357546269893646,0.1301373392343521,0.22385378181934357,0.21594950556755066,0.21265573799610138,-0.41764774918556213,-0.027814392000436783,-0.02597137726843357,0.04120791703462601,-0.08228302747011185,-0.09954556822776794,0.21799637377262115,0.13176394999027252,0.09844455122947693,0.17688174545764923,0.1825139820575714,0.33882713317871094,-0.3499649167060852,-0.13462653756141663,-0.06768997758626938,-0.2127559781074524,-0.20446012914180756,-0.3143579661846161,0.12711402773857117,-0.02088259346783161,-0.05223006755113602,-0.0832681879401207,0.052376702427864075,0.01024235412478447,-0.08562983572483063,0.011004832573235035,0.004530442412942648,0.014182318933308125,0.13071627914905548,0.08165870606899261,-0.18787458539009094,0.10426383465528488,0.04796389862895012,-0.031711433082818985,-0.01141015999019146,-0.056847963482141495,-0.14996421337127686,-0.023475544527173042,-0.05675726383924484,0.058922991156578064,-0.06415770202875137,0.029462512582540512,-0.019652534276247025,-0.045624107122421265,-0.06472624838352203,-0.17780809104442596,-0.16732624173164368,-0.29927411675453186,0.45258399844169617,0.07349956780672073,0.07982750236988068,-0.03199339285492897,0.0372934490442276,-0.012271867133677006,-0.15421970188617706,-0.10930556058883667,-0.08509796857833862,-0.10183274000883102,-0.06796959787607193,-0.21631070971488953,0.29194244742393494,0.05048460140824318,0.08440732955932617,0.2537730038166046,0.24623438715934753,0.17546187341213226,-0.06216961145401001,-0.04338368400931358,0.004815058782696724,0.08540770411491394,-0.0662919282913208,-0.13150499761104584,0.013071048073470592,-0.00016219915414694697,-0.09956005215644836,-0.07367924600839615,-0.061042699962854385,-0.09226157516241074,0.033848896622657776,-0.006239937152713537,-0.0980837345123291,-0.0014574758242815733,-0.020324312150478363,-0.03638075292110443,0.2777213156223297,-0.02819368802011013,0.1065947562456131,0.049292437732219696,0.060637954622507095,0.017269128933548927,0.007571360096335411,-0.1467771977186203,-0.00692229438573122,0.06657405197620392,0.004937066696584225,0.23844777047634125,-0.145368754863739,0.03368884325027466,-0.007872355170547962,0.11022458225488663,-0.020181331783533096,0.11474896967411041,0.06325044482946396,-0.25738346576690674,-0.09869537502527237,-0.1676180064678192,-0.12687857449054718,-0.0762140229344368,-0.11877817660570145,-0.06260484457015991,-0.2187182754278183,-0.13448473811149597,-0.03492197394371033,-0.24162033200263977,0.02056756243109703,0.027972346171736717,0.11129116266965866,0.03390754014253616,0.06905218958854675,0.07409139722585678,-0.027626963332295418,-0.033985335379838943,-0.09568233788013458,-0.06573544442653656,-0.0003017244453076273,-0.06270954012870789,0.055393464863300323,-0.15316294133663177,0.09538467228412628,0.047618210315704346,0.02293688803911209,0.010297361761331558,-0.05597560107707977,0.061476580798625946,-0.09883981198072433,-0.04570053145289421,0.08102815598249435,0.14143630862236023,-0.031105514615774155,0.07557030767202377,0.1023751050233841,0.06163235381245613,0.06275123357772827,-0.04455750435590744,-0.22275002300739288,-0.01097413245588541,0.031584277749061584,-0.07660111784934998,-0.09700999408960342,-0.10211092978715897,0.029315393418073654,-0.0009362543933093548,0.04462047666311264,0.14786669611930847,0.11827564239501953,0.08353423327207565,-0.12681932747364044,-0.15593965351581573,-0.005287313833832741,0.1725846379995346,-0.10199054330587387,-0.23026321828365326,0.1295674592256546,0.06223206967115402,-0.05247753486037254,0.017602473497390747,-0.1539197862148285,-0.1071828156709671,-0.12017346173524857,0.059202175587415695,0.12651927769184113,0.18602144718170166,0.1308957189321518,0.046736545860767365,0.07084757089614868,-0.03769726678729057,-0.055815957486629486,0.04812273010611534,-0.010507103987038136,0.017380420118570328,0.019390370696783066,-0.09741133451461792,0.005271699745208025,0.03665667399764061,0.13355940580368042,0.04555896669626236,-0.05058479681611061,-0.10327630490064621,-0.13901355862617493,-0.06554467976093292,-0.009714992716908455,-0.0330837219953537,-0.05708891898393631,0.04307796433568001,-0.08814181387424469,-0.05075867101550102,-0.0097415242344141,0.05276777595281601,-0.053875040262937546,-0.09856413304805756,-0.005088247824460268,