{
    "version": "0.5.1",
    "architecture": "WaveNet",
    "config": {
        "layers": [
            {
                "input_size": 1,
                "condition_size": 1,
                "head_size": 8,
                "channels": 16,
                "kernel_size": 3,
                "dilations": [
                    1,
                    2,
                    4,
                    8,
                    16,
                    32,
                    64,
                    128,
                    256,
                    512
                ],
                "activation": "Tanh",
                "gated": false,
                "head_bias": false
            },
            {
                "input_size": 16,
                "condition_size": 1,
                "head_size": 1,
                "channels": 8,
                "kernel_size": 3,
                "dilations": [
                    1,
                    2,
                    4,
                    8,
                    16,
                    32,
                    64,
                    128,
                    256,
                    512
                ],
                "activation": "Tanh",
                "gated": false,
                "head_bias": true
            }
        ],
        "head": null,
        "head_scale": 0.02
    },
    "weights": [
        0.21183405816555023,
        0.6565706729888916,
        -0.9311745762825012,
        -0.8769603371620178,
        -0.5202230215072632,
        0.34498462080955505,
        -0.08552175760269165,
        0.9416394233703613,
        -0.2030951976776123,
        0.4239267408847809,
        -0.4940235912799835,
        -0.3368983566761017,
        -1.1281020641326904,
        -0.7582275867462158,
        -0.5564514994621277,
        0.19154119491577148,
        0.07948649674654007,
        0.3014489710330963,
        -0.2815738320350647,
        0.039078619331121445,
        0.3052881062030792,
        0.044533055275678635,
        -0.1413658857345581,
        -0.14064952731132507,
        0.05334636569023132,
        -0.09262446314096451,
        -0.12417123466730118,
        -0.05953391641378403,
        -0.19505009055137634,
        -0.2865453362464905,
        0.02700580283999443,
        0.21991263329982758,
        0.15002195537090302,
        -0.15746775269508362,
        -0.16592951118946075,
        -0.3839724361896515,
        0.05143433436751366,
        0.23435963690280914,
        0.3153650462627411,
        -0.006843402981758118,
        -0.07027605921030045,
        -0.3092651069164276,
        0.13833832740783691,
        -0.03497915342450142,
        0.1428665965795517,
        -0.16222478449344635,
        -0.013936235569417477,
        -0.16339802742004395,
        0.02664865180850029,
        -0.09165211766958237,
        -0.15330299735069275,
        0.23064807057380676,
        -0.05390574783086777,
        -0.23351076245307922,
        0.17134355008602142,
        -0.1941658854484558,
        -0.22293230891227722,
        -0.034108784049749374,
        -0.20561154186725616,
        -0.31958574056625366,
        0.14971987903118134,
        0.11206307262182236,
        0.10403493046760559,
        -0.11657199263572693,
        -0.2822693884372711,
        0.19412651658058167,
        0.17264609038829803,
        -0.29925796389579773,
        0.28289997577667236,
        0.31774458289146423,
        0.20699536800384521,
        -0.24195078015327454,
        -0.13012371957302094,
        0.4451053738594055,
        -0.06819776445627213,
        -0.05812748149037361,
        0.3595275580883026,
        -0.31336668133735657,
        -0.16877074539661407,
        -0.4225800037384033,
        0.05315479263663292,
        0.3042277991771698,
        0.45942744612693787,
        -0.3653789162635803,
        -0.16078315675258636,
        -0.3456406593322754,
        0.16631971299648285,
        0.12030638009309769,
        0.40541642904281616,
        -0.26524224877357483,
        -0.11303726583719254,
        -0.26219090819358826,
        0.28819185495376587,
        0.2305794209241867,
        0.1833592802286148,
        -0.2829722464084625,
        -0.10983557999134064,
        0.38087213039398193,
        -0.30610013008117676,
        -0.2519166171550751,
        0.45734351873397827,
        -0.09432672709226608,
        -0.25038257241249084,
        0.2861473262310028,
        -0.3266875445842743,
        -0.18870127201080322,
        0.21414373815059662,
        -0.2988850176334381,
        -0.19067473709583282,
        -0.32749706506729126,
        0.09289827942848206,
        0.21618454158306122,
        -0.2347283661365509,
        0.4004402756690979,
        0.1435658484697342,
        -0.19681565463542938,
        0.23269446194171906,
        0.1140301525592804,
        0.08419384807348251,
        -0.2310776561498642,
        -0.05301529914140701,
        0.07748601585626602,
        -0.3416576087474823,
        -0.04168657958507538,
        -0.0651976466178894,
        -0.3524065613746643,
        -0.13819560408592224,
        -0.15257275104522705,
        0.20946063101291656,
        -0.023763984441757202,
        0.09299346059560776,
        -0.2379828244447708,
        -0.1412544548511505,
        -0.07258379459381104,
        0.37135371565818787,
        0.094759501516819,
        0.10882518440485,
        -0.2658655047416687,
        -0.04652557894587517,
        0.011646549217402935,
        0.40012553334236145,
        0.1905955672264099,
        0.2126692533493042,
        -0.2748417258262634,
        -0.22950246930122375,
        0.03179449588060379,
        -0.15717214345932007,
        -0.10076844692230225,
        -0.007553131319582462,
        -0.3805135488510132,
        -0.24570132791996002,
        -0.05578749626874924,
        -0.295913428068161,
        -0.028422566130757332,
        0.1487249732017517,
        -0.4015125632286072,
        -0.013797122053802013,
        -0.24401956796646118,
        0.17937467992305756,
        -0.014325520023703575,
        0.06336630135774612,
        -0.0831293836236,
        -0.009116694331169128,
        -0.12821947038173676,
        -0.1256488859653473,
        0.021142074838280678,
        -0.05121183395385742,
        0.1566220223903656,
        -0.14516578614711761,
        -0.0009175448794849217,
        0.23293577134609222,
        -0.07575637102127075,
        0.13377192616462708,
        0.15364745259284973,
        -0.1546558290719986,
        0.09383242577314377,
        -0.11229724436998367,
        -0.03469574823975563,
        0.062029879540205,
        -0.02567487396299839,
        -0.07364106923341751,
        -0.04282363876700401,
        -0.001027086516842246,
        0.05616527795791626,
        0.044654056429862976,
        0.1350211203098297,
        -0.08751093596220016,
        -0.028564611449837685,
        -0.21526017785072327,
        0.10674561560153961,
        0.11826477944850922,
        0.19519488513469696,
        -0.1290445327758789,
        -0.006606490351259708,
        -0.017810970544815063,
        -0.10963267832994461,
        -0.07117018103599548,
        0.15535570681095123,
        -0.10107126086950302,
        0.008019616827368736,
        0.10947670042514801,
        0.07550559192895889,
        -0.10071011632680893,
        -0.0006433013477362692,
        -0.10462018102407455,
        0.14392852783203125,
        -0.08900126814842224,
        0.20134656131267548,
        0.2872861921787262,
        -0.3198661506175995,
        -0.1600743979215622,
        0.1976185292005539,
        -0.2819325029850006,
        -0.1941266506910324,
        -0.20647552609443665,
        0.318943589925766,
        0.06133921444416046,
        -0.2905997633934021,
        0.42131736874580383,
        0.05566457286477089,
        -0.22891882061958313,
        0.44304394721984863,
        0.22097882628440857,
        0.22746619582176208,
        -0.4209408462047577,
        -0.08665651082992554,
        -0.3424161374568939,
        0.29122254252433777,
        0.12146366387605667,
        0.18780717253684998,
        -0.300025999546051,
        -0.05445302277803421,
        -0.22127525508403778,
        0.4203634560108185,
        0.23827247321605682,
        0.13223733007907867,
        -0.2319396585226059,
        -0.2648458182811737,
        -0.27480655908584595,
        0.3433018624782562,
        0.21385672688484192,
        -0.14819039404392242,
        0.23812071979045868,
        0.1375800520181656,
        -0.13513638079166412,
        0.16390584409236908,
        0.27947428822517395,
        -0.32951730489730835,
        0.30303817987442017,
        0.1492323875427246,
        -0.2872637212276459,
        0.31708985567092896,
        0.28742292523384094,
        0.1969054937362671,
        -0.3384537398815155,
        -0.14730612933635712,
        -0.23638296127319336,
        0.06852450966835022,
        0.0382118746638298,
        -0.12873651087284088,
        -0.05240597575902939,
        0.23719342052936554,
        0.09750961512327194,
        0.08163826167583466,
        -0.10532557219266891,
        -0.021278131753206253,
        -0.07345195859670639,
        -0.11399665474891663,
        0.14955298602581024,
        0.01032880786806345,
        -0.21726727485656738,
        -0.10774606466293335,
        -0.11651738733053207,
        0.17399555444717407,
        0.009295115247368813,
        -0.13623525202274323,
        0.04184896871447563,
        -0.11660777032375336,
        0.014672359451651573,
        0.1987425684928894,
        0.06614594906568527,
        -0.10347054153680801,
        -0.24289608001708984,
        0.07793396711349487,
        0.04576974734663963,
        0.26731041073799133,
        -0.01528242602944374,
        0.02298532798886299,
        -0.1824766844511032,
        0.05031533166766167,
        -0.0916009396314621,
        -0.10247834771871567,
        0.06768926978111267,
        -0.03669822961091995,
        -0.19005104899406433,
        -0.06500165164470673,
        0.06902424246072769,
        -0.26231834292411804,
        0.08699636161327362,
        -0.0721849575638771,
        -0.22265930473804474,
        -0.058565378189086914,
        -0.12702129781246185,
        0.1367141604423523,
        -0.16486521065235138,
        0.11577635258436203,
        -0.08782218396663666,
        -0.1129470095038414,
        0.242745503783226,
        -0.1156308725476265,
        0.043923936784267426,
        -0.20390604436397552,
        0.136982262134552,
        0.11568866670131683,
        -0.1314702183008194,
        0.18714092671871185,
        0.09690294414758682,
        -0.18024733662605286,
        0.15561585128307343,
        -0.16691988706588745,
        0.18909798562526703,
        -0.08680327981710434,
        0.07663135975599289,
        -0.20208124816417694,
        0.21251612901687622,
        -0.03573032468557358,
        0.2667384743690491,
        -0.07064761221408844,
        0.26198673248291016,
        -0.2415667325258255,
        0.0010329019278287888,
        -0.30300554633140564,
        0.3218109905719757,
        -0.010190949775278568,
        0.07186263054609299,
        -0.12673518061637878,
        0.20462188124656677,
        0.3328675925731659,
        -0.06839670985937119,
        0.21193063259124756,
        0.13193011283874512,
        -0.23441669344902039,
        0.2073659747838974,
        0.24612389504909515,
        -0.269142746925354,
        0.2191404104232788,
        0.23837722837924957,
        -0.10035925358533859,
        0.0025546348188072443,
        -0.17244268953800201,
        0.08398323506116867,
        -0.031525883823633194,
        0.17313659191131592,
        0.28135445713996887,
        -0.01187337189912796,
        0.22193531692028046,
        0.13006840646266937,
        0.03627627715468407,
        -0.2700536847114563,
        -0.1498229205608368,
        -0.07537667453289032,
        -0.3076961040496826,
        -0.2992499768733978,
        0.13994018733501434,
        -0.09106607735157013,
        -0.04903542995452881,
        0.14011065661907196,
        0.037573616951704025,
        0.08591729402542114,
        -0.05224863439798355,
        -0.26051342487335205,
        -0.09765461832284927,
        -0.06943550705909729,
        0.09893520176410675,
        0.044707316905260086,
        -0.1042107343673706,
        -0.05442570522427559,
        -0.07466522604227066,
        0.13124872744083405,
        0.2825709283351898,
        0.3142571449279785,
        -0.06359740346670151,
        -0.1074269711971283,
        -0.054251961410045624,
        0.08040378987789154,
        -0.0030483982991427183,
        -0.09539910405874252,
        0.1537473350763321,
        -0.2195524424314499,
        -0.1151203066110611,
        0.03804926574230194,
        -0.20439180731773376,
        -0.26622554659843445,
        -0.0606740266084671,
        -0.2821211814880371,
        -0.08700564503669739,
        0.12692062556743622,
        0.15578146278858185,
        0.08469382673501968,
        0.043193474411964417,
        -0.30260324478149414,
        -0.14008742570877075,
        -0.05456061288714409,
        -0.15241827070713043,
        -0.02440810576081276,
        -0.03753162920475006,
        0.41251832246780396,
        0.19339606165885925,
        -0.1286211609840393,
        0.3622579276561737,
        0.00033554533729329705,
        -0.09609900414943695,
        0.40659061074256897,
        0.09153003245592117,
        -0.16931287944316864,
        -0.3402191996574402,
        -0.13275738060474396,
        0.03461364656686783,
        0.3421567678451538,
        0.2284766137599945,
        -0.02572563849389553,
        -0.36714911460876465,
        -0.07692767679691315,
        0.14295712113380432,
        0.3905031383037567,
        -0.021273408085107803,
        -0.0742449089884758,
        -0.40067386627197266,
        -0.15504001080989838,
        0.1182454451918602,
        0.18866553902626038,
        0.1480373591184616,
        0.04969857260584831,
        0.3186132311820984,
        0.0058785839937627316,
        -0.13490381836891174,
        0.3078796863555908,
        -0.028475956991314888,
        -0.0020532547496259212,
        0.14604175090789795,
        -0.05531030520796776,
        -0.21227127313613892,
        0.2544129490852356,
        0.1882408857345581,
        -0.20741987228393555,
        -0.22292323410511017,
        -0.21093331277370453,
        0.08924609422683716,
        0.17285075783729553,
        -0.540228009223938,
        0.31043028831481934,
        0.13835632801055908,
        -0.30366256833076477,
        0.1480141431093216,
        -0.14704635739326477,
        0.5606182217597961,
        -0.0650353953242302,
        0.011553898453712463,
        0.330441415309906,
        -0.11343563348054886,
        -0.20495328307151794,
        0.38328710198402405,
        -0.049701567739248276,
        -0.044361233711242676,
        -0.389252632856369,
        0.16826289892196655,
        -0.0766146257519722,
        0.35802075266838074,
        -0.22243836522102356,
        0.010209728963673115,
        -0.378144770860672,
        0.21644268929958344,
        -0.008757251314818859,
        0.41046372056007385,
        -0.06274566799402237,
        -0.07203659415245056,
        -0.5608464479446411,
        0.15549099445343018,
        -0.14290307462215424,
        0.5135570764541626,
        -0.18888668715953827,
        -0.1408166140317917,
        0.3427024781703949,
        -0.008271555416285992,
        -0.06855663657188416,
        0.5542566776275635,
        0.01791994273662567,
        0.024282190948724747,
        0.4446088373661041,
        -0.1186070516705513,
        -0.09117811173200607,
        0.45649898052215576,
        -0.010786761529743671,
        0.011925753206014633,
        -0.272000789642334,
        0.15743742883205414,
        -0.2910301089286804,
        0.11869422346353531,
        0.19730043411254883,
        -0.06595511734485626,
        -0.005736830178648233,
        0.13762570917606354,
        0.26098233461380005,
        -0.04473854973912239,
        0.08114379644393921,
        0.11624754965305328,
        -0.08401873707771301,
        0.02007484808564186,
        0.152047798037529,
        -0.08136479556560516,
        -0.08127520978450775,
        -0.1024523600935936,
        0.09251519292593002,
        -0.015382691286504269,
        0.21619771420955658,
        -0.12283884733915329,
        -0.1395990550518036,
        -0.17894357442855835,
        0.212832510471344,
        0.025270598009228706,
        0.23868562281131744,
        -0.17272527515888214,
        0.011498594656586647,
        -0.30122193694114685,
        0.045708365738391876,
        -0.03625263646245003,
        0.3262139856815338,
        -0.17351050674915314,
        -0.03971966728568077,
        0.14171265065670013,
        0.006774503272026777,
        0.11084830015897751,
        0.08297539502382278,
        -0.24597705900669098,
        -0.14977332949638367,
        0.1900327354669571,
        -0.16656622290611267,
        -0.13561952114105225,
        0.13916251063346863,
        -0.1038133054971695,
        -0.11460047960281372,
        -0.15758353471755981,
        0.10597983747720718,
        -0.04519781097769737,
        0.26462751626968384,
        -0.03146135061979294,
        -0.0060265990905463696,
        0.14334635436534882,
        -0.22326195240020752,
        0.1381753534078598,
        -0.26018497347831726,
        0.030399756506085396,
        0.15214723348617554,
        -0.22184817492961884,
        0.20127065479755402,
        -0.004665365908294916,
        -0.16620074212551117,
        0.13730530440807343,
        0.09164709597826004,
        0.15040722489356995,
        -0.3036063015460968,
        -0.076988585293293,
        -0.2313537448644638,
        0.26754140853881836,
        -0.13378621637821198,
        0.26284754276275635,
        -0.20208877325057983,
        -0.03374454006552696,
        -0.05502974987030029,
        0.22991879284381866,
        0.0932273417711258,
        0.22698573768138885,
        -0.20887893438339233,
        -0.09061726182699203,
        -0.14816947281360626,
        0.2873586118221283,
        -0.049728814512491226,
        -0.2946164906024933,
        0.21801848709583282,
        0.13679735362529755,
        -0.16687215864658356,
        0.05255160480737686,
        -0.12182362377643585,
        -0.09091590344905853,
        0.15890198945999146,
        -0.06587570905685425,
        -0.10274650156497955,
        0.21984025835990906,
        0.11708628386259079,
        0.30365410447120667,
        -0.1335013061761856,
        -0.06527022272348404,
        -0.24202173948287964,
        0.3545495569705963,
        0.09817469120025635,
        -0.08313111960887909,
        -0.003490420989692211,
        0.10670094192028046,
        0.2628137469291687,
        0.0005382571835070848,
        -0.10889248549938202,
        0.07930782437324524,
        -0.22968153655529022,
        0.152555912733078,
        0.07263018935918808,
        -0.19697509706020355,
        0.09060323983430862,
        -0.2064722329378128,
        0.05533859506249428,
        -0.03542093187570572,
        0.1064346432685852,
        -0.3090325891971588,
        0.09933804720640182,
        -0.19347386062145233,
        0.18040263652801514,
        0.11090778559446335,
        0.2167041152715683,
        -0.11513252556324005,
        0.14326272904872894,
        -0.12063407152891159,
        0.06233922019600868,
        0.11738196760416031,
        0.1678234040737152,
        -0.2747945189476013,
        -0.026816189289093018,
        0.07632451504468918,
        0.009520073421299458,
        0.01726602017879486,
        -0.0021100351586937904,
        -0.1392362415790558,
        0.10418180376291275,
        0.16619868576526642,
        -0.08484543859958649,
        0.02653510309755802,
        0.18503130972385406,
        -0.16474245488643646,
        -0.042281828820705414,
        -0.2981675863265991,
        0.0007391238468699157,
        0.02035023644566536,
        -0.08193707466125488,
        0.2883613109588623,
        -0.06652476638555527,
        -0.06424032896757126,
        0.06021120026707649,
        -0.044768281280994415,
        -0.003409742144867778,
        -0.0353209525346756,
        0.07064357399940491,
        0.041858624666929245,
        -0.07465684413909912,
        0.12505237758159637,
        0.1954188197851181,
        -0.256975919008255,
        0.057244278490543365,
        -0.13355059921741486,
        0.18866278231143951,
        -0.04314015805721283,
        -0.05384037643671036,
        -0.16125164926052094,
        0.07822927087545395,
        -0.11173474788665771,
        0.25914081931114197,
        -0.29784125089645386,
        0.06666067242622375,
        -0.051759134978055954,
        0.1437685340642929,
        0.04100590571761131,
        0.12207557260990143,
        -0.06324663758277893,
        -0.06620316207408905,
        -0.19448165595531464,
        0.15462751686573029,
        0.10533029586076736,
        -0.14218126237392426,
        0.2931452691555023,
        0.05933189392089844,
        -0.15555280447006226,
        0.2843681275844574,
        0.03962564095854759,
        -0.026076054200530052,
        0.0872417762875557,
        0.06103941425681114,
        -0.17031873762607574,
        0.24728365242481232,
        0.06105304881930351,
        0.23086906969547272,
        -0.26624590158462524,
        -0.08376888185739517,
        0.14524750411510468,
        -0.017044270411133766,
        -0.14556816220283508,
        0.2405390441417694,
        0.15688598155975342,
        0.058989983052015305,
        -0.27977240085601807,
        0.07706128805875778,
        -0.05537845566868782,
        -0.116283118724823,
        -0.001714804326184094,
        -0.01166838500648737,
        -0.09488902240991592,
        -0.14415447413921356,
        -0.03118269145488739,
        0.04690244421362877,
        -0.007551169954240322,
        0.11970186978578568,
        -0.023496419191360474,
        -0.03465466573834419,
        0.04409192502498627,
        0.12841516733169556,
        -0.045386433601379395,
        -0.04035248979926109,
        -0.2610723674297333,
        0.15306322276592255,
        -0.09806376695632935,
        0.14799903333187103,
        0.05048393830657005,
        0.15617555379867554,
        -0.01829005777835846,
        0.10371890664100647,
        -0.03090772032737732,
        -0.15992067754268646,
        -0.09731298685073853,
        -0.034849390387535095,
        -0.11432197690010071,
        0.11150551587343216,
        -0.06644129008054733,
        -0.05864464491605759,
        -0.0963149294257164,
        0.025710972025990486,
        -0.025965575128793716,
        -0.04987230896949768,
        -0.10010696202516556,
        -0.02146408148109913,
        0.08038162440061569,
        -0.04508037492632866,
        -0.5502586960792542,
        0.2941538989543915,
        -0.20496629178524017,
        -0.5687459111213684,
        0.13577021658420563,
        0.22774431109428406,
        0.41184377670288086,
        -0.05533914268016815,
        0.23216092586517334,
        0.5530699491500854,
        -0.20048338174819946,
        0.08742459118366241,
        0.4068739414215088,
        -0.2501285970211029,
        -0.0962805524468422,
        -0.3390524089336395,
        0.2641279101371765,
        0.0755450576543808,
        0.48730191588401794,
        -0.2660118639469147,
        -0.002528501208871603,
        -0.515074610710144,
        0.024291375651955605,
        0.09999289363622665,
        0.5301739573478699,
        -0.30038049817085266,
        0.03142457827925682,
        -0.40001317858695984,
        0.038990188390016556,
        0.0755678042769432,
        0.5827223062515259,
        -0.2512591779232025,
        0.051778241991996765,
        0.5081617832183838,
        -0.26843103766441345,
        0.19062839448451996,
        0.5305337905883789,
        -0.033476896584033966,
        0.017724094912409782,
        0.5962292551994324,
        -0.21141816675662994,
        0.25159651041030884,
        0.31280839443206787,
        -0.26076602935791016,
        0.02564508654177189,
        -0.4035603404045105,
        0.21789750456809998,
        -0.10520519316196442,
        -0.07382401078939438,
        -0.08747633546590805,
        -0.0901932567358017,
        0.04641910269856453,
        -0.0063336798921227455,
        -0.028137611225247383,
        -0.051185980439186096,
        0.0409257672727108,
        0.1456611603498459,
        -0.02169392816722393,
        -0.001849576598033309,
        -0.021254489198327065,
        0.01453480776399374,
        -0.026904892176389694,
        0.07335356622934341,
        0.3792387843132019,
        -0.23548494279384613,
        0.9154036045074463,
        -0.6954144239425659,
        -0.17804569005966187,
        1.0632625818252563,
        0.9122915863990784,
        -0.5973862409591675,
        0.25598180294036865,
        0.1807580441236496,
        -0.4280759394168854,
        -0.3625691831111908,
        0.2597506642341614,
        -0.8857244849205017,
        0.19719387590885162,
        0.5448598265647888,
        -0.01474362425506115,
        0.41005808115005493,
        0.04781179875135422,
        0.1703110784292221,
        0.13271978497505188,
        -0.08784539252519608,
        0.29456445574760437,
        -0.020997660234570503,
        -0.17036668956279755,
        -0.05052952468395233,
        0.09377887099981308,
        -0.1507696509361267,
        0.1789105385541916,
        0.051074061542749405,
        0.1606161892414093,
        0.1568053811788559,
        -0.0019815429113805294,
        -0.23857441544532776,
        -0.2792474031448364,
        -0.03327252343297005,
        0.11269060522317886,
        0.10089579224586487,
        -0.4058191180229187,
        0.13704518973827362,
        -0.0767412781715393,
        0.2330368012189865,
        -0.31316959857940674,
        0.1262061446905136,
        0.001559129566885531,
        -0.3724890649318695,
        0.2047560065984726,
        0.19117102026939392,
        -0.0022891240660101175,
        0.24144816398620605,
        0.045624129474163055,
        0.108949214220047,
        -0.33011510968208313,
        -0.09947263449430466,
        0.24898403882980347,
        -0.22441093623638153,
        0.18556831777095795,
        -0.24225452542304993,
        0.358070433139801,
        -0.3641926348209381,
        0.22380095720291138,
        0.2487703561782837,
        0.13632816076278687,
        -0.07111438363790512,
        0.3881336748600006,
        -0.36611080169677734,
        -0.038520149886608124,
        -0.1792241483926773,
        0.3102943003177643,
        -0.1307893991470337,
        0.08318756520748138,
        0.2730237543582916,
        -0.486074835062027,
        0.13827891647815704,
        -0.05836743488907814,
        0.03244602680206299,
        0.01879715546965599,
        0.36766359210014343,
        -0.026733549311757088,
        -0.11434828490018845,
        -0.20603880286216736,
        -0.24123473465442657,
        -0.320681095123291,
        0.11668270081281662,
        0.17806874215602875,
        0.1115332767367363,
        0.18424932658672333,
        -0.17857883870601654,
        0.10661447793245316,
        0.31643688678741455,
        -0.052252721041440964,
        0.06860872358083725,
        0.10198589414358139,
        0.15656892955303192,
        -0.09866125881671906,
        0.15445761382579803,
        -0.2824147641658783,
        0.010097747668623924,
        0.1268797069787979,
        0.11506885290145874,
        0.17353872954845428,
        0.23637421429157257,
        0.0866437703371048,
        -0.008274847641587257,
        0.2129145860671997,
        -0.10046330094337463,
        -0.1760578751564026,
        -0.06377880275249481,
        -0.1136753112077713,
        -0.11723661422729492,
        0.016546539962291718,
        -0.0405578687787056,
        0.07167623192071915,
        0.3266685903072357,
        0.34575825929641724,
        0.1218641847372055,
        -0.6670464277267456,
        -0.0700632855296135,
        0.15399345755577087,
        0.09376436471939087,
        0.18467403948307037,
        -0.5656161308288574,
        0.08899743109941483,
        0.08659537881612778,
        0.22992460429668427,
        -0.2549995183944702,
        0.19873160123825073,
        -0.3894663453102112,
        0.1602831780910492,
        0.09619811922311783,
        0.3114173412322998,
        -0.18868084251880646,
        -0.3202917277812958,
        0.24050937592983246,
        0.13280101120471954,
        0.09199213981628418,
        0.12172307074069977,
        -0.37112826108932495,
        0.08823661506175995,
        -0.1514570564031601,
        0.04987340047955513,
        -0.22175101935863495,
        -0.12571802735328674,
        -0.0716235488653183,
        -0.011565134860575199,
        -0.12375391274690628,
        -0.28573647141456604,
        -0.32088929414749146,
        0.1186884418129921,
        -0.21446530520915985,
        0.08828390389680862,
        0.1384354680776596,
        -0.31120961904525757,
        -0.3115766644477844,
        0.14256873726844788,
        0.06971033662557602,
        0.11407100409269333,
        0.03728777915239334,
        0.25031203031539917,
        -0.028660928830504417,
        -0.2310165911912918,
        0.03735795617103577,
        0.28395310044288635,
        -0.27801114320755005,
        -0.3024894893169403,
        0.16029997169971466,
        -0.06858611851930618,
        -0.3449009656906128,
        0.16001486778259277,
        0.19244122505187988,
        -0.05856253206729889,
        0.0945996642112732,
        0.07859061658382416,
        -0.011547256261110306,
        -0.20553305745124817,
        0.08678397536277771,
        0.04706234857439995,
        0.42651262879371643,
        -0.2914876639842987,
        0.018200431019067764,
        -0.30771031975746155,
        -0.22886031866073608,
        0.394103467464447,
        -0.13955017924308777,
        0.17385518550872803,
        -0.20622457563877106,
        0.09074388444423676,
        -0.2343822568655014,
        0.06232036277651787,
        0.17948605120182037,
        0.11593113094568253,
        0.3166508376598358,
        0.020636577159166336,
        -0.0599396750330925,
        0.15144214034080505,
        0.06520126760005951,
        0.06822653114795685,
        -0.3067864775657654,
        0.06562403589487076,
        -0.14234605431556702,
        0.10644925385713577,
        -0.3695240318775177,
        0.22725354135036469,
        -0.23874235153198242,
        -0.1533743292093277,
        0.33745381236076355,
        -0.25919416546821594,
        -0.5036345720291138,
        -0.05234745144844055,
        -0.058582987636327744,
        -0.053081974387168884,
        0.06733926385641098,
        0.21763166785240173,
        -0.24047036468982697,
        -0.007776366546750069,
        0.2637830972671509,
        0.16774111986160278,
        0.029530923813581467,
        0.017594125121831894,
        0.04213312640786171,
        0.26385459303855896,
        -0.0892317146062851,
        -0.10900542140007019,
        0.1668720245361328,
        0.0013176441425457597,
        -0.15045607089996338,
        -0.19159285724163055,
        0.07805399596691132,
        -0.16036389768123627,
        0.18812473118305206,
        0.18393583595752716,
        0.1853870153427124,
        -0.023330610245466232,
        -0.1679115742444992,
        0.05739177390933037,
        -0.0034174416214227676,
        -0.0972248837351799,
        -0.10147147625684738,
        -0.07378251105546951,
        0.14363811910152435,
        -0.16501085460186005,
        0.30106881260871887,
        -0.13272392749786377,
        -0.3052835762500763,
        -0.0464373417198658,
        0.029157958924770355,
        0.4600425362586975,
        0.2731897532939911,
        -0.23166021704673767,
        -0.011274436488747597,
        -0.02367900311946869,
        -0.2707661986351013,
        0.20823439955711365,
        0.2154156118631363,
        -0.0028752649668604136,
        -0.04236019030213356,
        0.2891550660133362,
        0.21484783291816711,
        0.4074450433254242,
        -0.12854357063770294,
        -0.3459753692150116,
        0.3355376124382019,
        0.2596968412399292,
        0.20135025680065155,
        -0.04048493131995201,
        -0.4158661961555481,
        0.018271107226610184,
        -0.31749221682548523,
        0.11291508376598358,
        0.10395731031894684,
        0.14912422001361847,
        -0.2726656496524811,
        0.07074236869812012,
        -0.10712780058383942,
        0.1549796760082245,
        -0.0012264300603419542,
        -0.17361940443515778,
        0.009172782301902771,
        0.06396765261888504,
        -0.02976810559630394,
        0.016346218064427376,
        -0.1093030720949173,
        0.008615105412900448,
        0.06876504421234131,
        -0.006193992216140032,
        0.05284753814339638,
        0.05791594088077545,
        -0.017929954454302788,
        -0.004423476755619049,
        0.050049327313899994,
        0.19431833922863007,
        0.03623984381556511,
        -0.06692397594451904,
        -0.12057999521493912,
        -0.022339992225170135,
        0.2533891797065735,
        0.17405915260314941,
        -0.07338855415582657,
        0.07627097517251968,
        0.0036650646943598986,
        -0.05233069136738777,
        0.08619217574596405,
        0.04138418287038803,
        0.15275722742080688,
        -0.26992377638816833,
        0.35222944617271423,
        -0.21999162435531616,
        -0.3984757363796234,
        0.023470254614949226,
        -0.047880321741104126,
        -0.4269450604915619,
        -0.12189082056283951,
        -0.09136620163917542,
        0.19364473223686218,
        -0.25662684440612793,
        -0.3112882375717163,
        -0.17392843961715698,
        -0.08330117911100388,
        -0.2587554454803467,
        0.1874074786901474,
        -0.10943158715963364,
        -0.05934135243296623,
        -0.3231589198112488,
        0.2350500375032425,
        -0.11177527159452438,
        0.2616104483604431,
        -0.10170778632164001,
        -0.008112270385026932,
        0.32401522994041443,
        -0.15998625755310059,
        -0.05593372881412506,
        0.4310651421546936,
        -0.0024813811760395765,
        0.07954458892345428,
        -0.4653712213039398,
        -0.10375133901834488,
        -0.06692031770944595,
        -0.02050783485174179,
        0.11834096908569336,
        -0.09585405141115189,
        -0.16892868280410767,
        0.18448396027088165,
        0.01964535191655159,
        0.13271090388298035,
        0.11464251577854156,
        0.20365028083324432,
        -0.1340227872133255,
        -0.008394203148782253,
        0.1303003877401352,
        -0.2710975408554077,
        0.21097424626350403,
        -0.22431853413581848,
        0.07467509061098099,
        -0.12703432142734528,
        0.14555494487285614,
        0.1871083825826645,
        -0.11950504779815674,
        0.013763521797955036,
        0.17633451521396637,
        -0.10285238921642303,
        0.14800207316875458,
        -0.23427341878414154,
        0.04822399094700813,
        0.0192871131002903,
        0.16452832520008087,
        -0.24149325489997864,
        0.11546369642019272,
        -0.06831260025501251,
        0.05674179643392563,
        -0.12298346310853958,
        0.15978562831878662,
        -0.07178246229887009,
        0.040007542818784714,
        -0.20615866780281067,
        0.14334094524383545,
        0.08651820570230484,
        -0.032629188150167465,
        0.11814642697572708,
        0.026541324332356453,
        -0.21793945133686066,
        -0.028335854411125183,
        -0.16774791479110718,
        0.3526245951652527,
        -0.26985448598861694,
        -0.16849510371685028,
        0.02990814857184887,
        -0.058234475553035736,
        0.09838559478521347,
        0.1712505966424942,
        -0.07192037999629974,
        -0.2292216718196869,
        -0.0009387578465975821,
        -0.17775577306747437,
        0.19384455680847168,
        0.046522390097379684,
        -0.018956266343593597,
        -0.03655923157930374,
        0.03806484118103981,
        0.01589934341609478,
        0.10942015796899796,
        -0.033058907836675644,
        0.24233484268188477,
        0.1518103927373886,
        -0.39598312973976135,
        -0.13889537751674652,
        0.10621596872806549,
        -0.18629980087280273,
        0.25787657499313354,
        -0.15980394184589386,
        0.027718326076865196,
        -0.15228943526744843,
        -0.030054008588194847,
        0.001173363532871008,
        -0.04971449822187424,
        -0.3246542513370514,
        -0.07928993552923203,
        -0.04302680864930153,
        0.31168022751808167,
        -0.05563317984342575,
        0.1390954554080963,
        -0.05052262917160988,
        0.07287395000457764,
        -0.14515680074691772,
        -0.09095856547355652,
        0.03344733268022537,
        0.0005760655621998012,
        -0.2701777219772339,
        0.2015029937028885,
        -0.03918870911002159,
        0.06878349184989929,
        -0.011378501541912556,
        0.21861527860164642,
        -0.25356027483940125,
        -0.3013691008090973,
        -0.21080735325813293,
        -0.22669759392738342,
        0.11930333822965622,
        0.05545441061258316,
        0.5369526147842407,
        0.05529843643307686,
        -0.03597182780504227,
        0.08935298770666122,
        0.15710482001304626,
        -0.022171109914779663,
        -0.013299236074090004,
        0.003551995847374201,
        -0.05087510496377945,
        -0.12749996781349182,
        -0.02260006032884121,
        -0.053147293627262115,
        0.10646715015172958,
        0.09277772903442383,
        0.10674630105495453,
        -0.17080751061439514,
        -0.12270829826593399,
        0.05093994364142418,
        -0.04277171939611435,
        -0.26428020000457764,
        0.06555662304162979,
        0.20163220167160034,
        -0.12862302362918854,
        0.07416506111621857,
        0.22251079976558685,
        0.06408192962408066,
        0.0836714506149292,
        0.2742999494075775,
        -0.04314463213086128,
        0.183631032705307,
        0.17184263467788696,
        0.28454241156578064,
        -0.017256252467632294,
        0.18210400640964508,
        -0.031119126826524734,
        -0.056513573974370956,
        0.05382310971617699,
        -0.05057558789849281,
        0.10012837499380112,
        0.10457409173250198,
        -0.06216653063893318,
        0.1175060048699379,
        -0.17270557582378387,
        -0.035346198827028275,
        0.004220462869852781,
        0.21070612967014313,
        0.19142121076583862,
        0.020384568721055984,
        -0.22212469577789307,
        -0.15194538235664368,
        -0.004372354131191969,
        -0.024394210427999496,
        -0.17327558994293213,
        -0.005172474775463343,
        -0.058985479176044464,
        -0.07914882153272629,
        -0.1789623200893402,
        -0.1581617295742035,
        0.13305246829986572,
        -0.16309459507465363,
        0.14228764176368713,
        -0.11772730201482773,
        0.015504448674619198,
        -0.007590807508677244,
        0.22029554843902588,
        0.18732990324497223,
        0.24945895373821259,
        -0.01613646186888218,
        -0.005086319986730814,
        -0.13767185807228088,
        -0.01502213254570961,
        0.05055617541074753,
        0.15163981914520264,
        -0.15969318151474,
        -0.04113408923149109,
        -0.2502559721469879,
        -0.1867496818304062,
        -0.1959708333015442,
        -0.11478448659181595,
        -0.25546637177467346,
        0.03173496946692467,
        0.10423849523067474,
        -0.059234365820884705,
        0.09485112130641937,
        -0.04040973260998726,
        -0.13884197175502777,
        0.19746439158916473,
        0.03983713686466217,
        0.0750892162322998,
        -0.019890980795025826,
        -0.18996448814868927,
        0.02098926343023777,
        0.011606762185692787,
        -0.08933482319116592,
        0.35179403424263,
        -0.14522838592529297,
        -0.15752796828746796,
        -0.1529998481273651,
        0.0450078584253788,
        0.2420061081647873,
        -0.19340287148952484,
        0.19936515390872955,
        -0.08429849147796631,
        0.29359564185142517,
        -0.06540417671203613,
        0.05457405373454094,
        -0.22925573587417603,
        0.13096380233764648,
        0.05375632271170616,
        -0.48375242948532104,
        0.061311863362789154,
        0.11170553416013718,
        -0.4054756462574005,
        0.23878304660320282,
        0.2573465406894684,
        0.10920008271932602,
        -0.10668537765741348,
        0.03165742754936218,
        -0.046517159789800644,
        0.06806822866201401,
        -0.021434498950839043,
        0.34600016474723816,
        -0.03238024562597275,
        0.3461814820766449,
        -0.7022776007652283,
        0.3730681538581848,
        0.052027974277734756,
        0.30657193064689636,
        -0.04449005052447319,
        -0.06550444662570953,
        -0.024791259318590164,
        -0.016416369006037712,
        -0.07805273681879044,
        0.24067890644073486,
        -0.17662234604358673,
        0.009763408452272415,
        -0.44743335247039795,
        0.1514364331960678,
        0.0917254239320755,
        0.2906731367111206,
        0.02217218652367592,
        0.04329932481050491,
        0.11133114248514175,
        -0.25030410289764404,
        -0.1752227395772934,
        0.10180280357599258,
        0.028776900842785835,
        0.20628803968429565,
        -0.056396257132291794,
        0.2922942638397217,
        -0.04839437082409859,
        0.12820330262184143,
        -0.06118849292397499,
        0.1687208116054535,
        0.12764804065227509,
        0.21138517558574677,
        0.04746551811695099,
        -0.018541457131505013,
        0.15298868715763092,
        -0.06924823671579361,
        0.006291144993156195,
        0.070038340985775,
        -0.20749706029891968,
        -0.36278843879699707,
        -0.15793508291244507,
        0.08246508240699768,
        0.23340250551700592,
        0.027779581025242805,
        -0.024152157828211784,
        0.09623374789953232,
        -0.0967087373137474,
        0.08257590234279633,
        0.013136751018464565,
        0.44891557097435,
        0.10334865003824234,
        0.18986356258392334,
        0.0721869245171547,
        -0.060458727180957794,
        0.07429474592208862,
        -0.2542908787727356,
        -0.27600833773612976,
        0.07526867836713791,
        -0.1965017020702362,
        -0.06222515553236008,
        -0.11761684715747833,
        0.08112254738807678,
        -0.11565029621124268,
        -0.003599947551265359,
        0.017305631190538406,
        0.10623441636562347,
        -0.17572668194770813,
        -0.004061057697981596,
        -0.042310137301683426,
        0.14380815625190735,
        0.04826558008790016,
        0.19208131730556488,
        -0.26248905062675476,
        0.00013706341269426048,
        0.15550824999809265,
        -0.246599480509758,
        -0.1019933819770813,
        -0.12978094816207886,
        0.1166260838508606,
        -0.13069693744182587,
        -0.22113119065761566,
        0.06527089327573776,
        -0.02761521004140377,
        -0.22707688808441162,
        0.09256508201360703,
        -0.10321754217147827,
        0.19552282989025116,
        -0.4649465084075928,
        0.16417604684829712,
        -0.055777911096811295,
        0.23028431832790375,
        -0.13401181995868683,
        0.27306675910949707,
        -0.23032830655574799,
        -0.030837805941700935,
        -0.24352318048477173,
        0.038985710591077805,
        -0.16288430988788605,
        0.21991367638111115,
        -0.09645134955644608,
        0.054394446313381195,
        0.06525110453367233,
        -0.06381365656852722,
        -0.03704210743308067,
        0.17103014886379242,
        -0.11798273772001266,
        0.04990839958190918,
        -0.36979737877845764,
        0.17453274130821228,
        -0.06765065342187881,
        -0.04014183208346367,
        -0.22239848971366882,
        -0.1233525276184082,
        -0.2724389135837555,
        -0.2616606056690216,
        -0.3566868305206299,
        0.301225870847702,
        0.1512693166732788,
        0.5332134962081909,
        -0.21472539007663727,
        0.39210638403892517,
        -0.134247824549675,
        0.10190223157405853,
        0.11759933829307556,
        -0.02603653259575367,
        -0.15729142725467682,
        -0.2375451922416687,
        -0.1735130399465561,
        0.035036418586969376,
        -0.03543782979249954,
        0.16872209310531616,
        -0.06849178671836853,
        -0.21259349584579468,
        0.15827254951000214,
        -0.28682971000671387,
        0.2398131787776947,
        0.22320736944675446,
        -0.00533311627805233,
        -0.15569894015789032,
        -0.15671266615390778,
        -0.02667890302836895,
        -0.09240515530109406,
        -0.026585951447486877,
        -0.16017045080661774,
        0.08840673416852951,
        0.3416772186756134,
        -0.04484123736619949,
        0.2570778429508209,
        0.04138584062457085,
        -0.024431604892015457,
        0.027662547305226326,
        -0.08607414364814758,
        -0.07359851896762848,
        -0.009543448686599731,
        0.2734491229057312,
        0.0366673581302166,
        -0.14928437769412994,
        0.004376611672341824,
        -0.042374320328235626,
        -0.005723956972360611,
        -0.0946502834558487,
        -0.09903333336114883,
        -0.08550848811864853,
        0.06901080906391144,
        -0.18636482954025269,
        0.42288967967033386,
        -0.08727144449949265,
        0.019220596179366112,
        0.27302393317222595,
        -0.11440940201282501,
        0.09743060171604156,
        0.049155525863170624,
        0.06970153003931046,
        -0.07303216308355331,
        -0.29335153102874756,
        0.19865356385707855,
        0.056367263197898865,
        -0.016314875334501266,
        0.041655283421278,
        -0.09986955672502518,
        -0.14559327065944672,
        0.10630080848932266,
        -0.07516667991876602,
        0.40915730595588684,
        -0.1524384319782257,
        -0.2048339694738388,
        -0.20323830842971802,
        0.1261894255876541,
        -0.18747282028198242,
        0.33398425579071045,
        0.1465066522359848,
        0.1850665956735611,
        0.06424791365861893,
        -0.00872682686895132,
        -0.07802048325538635,
        0.08659231662750244,
        -0.07896629720926285,
        -0.17021436989307404,
        0.16732706129550934,
        -0.05796666070818901,
        -0.21445803344249725,
        0.2652135491371155,
        -0.18016661703586578,
        -0.002354119438678026,
        -0.1736486256122589,
        -0.141456738114357,
        0.0004853049758821726,
        0.12263169139623642,
        -0.1253027766942978,
        -0.08997470140457153,
        0.1505642831325531,
        0.10587038844823837,
        0.10810944437980652,
        -0.0847102627158165,
        -0.005258983466774225,
        0.08308474719524384,
        -0.41089215874671936,
        0.11718619614839554,
        0.07988893985748291,
        -0.058199118822813034,
        -0.03577541932463646,
        -0.09079578518867493,
        0.4056464731693268,
        -0.13228029012680054,
        -0.12776346504688263,
        0.24033457040786743,
        0.04780822992324829,
        -0.1309412121772766,
        0.2850455045700073,
        -0.06104212999343872,
        0.10551954805850983,
        -0.6461729407310486,
        0.1570761501789093,
        -0.036453817039728165,
        0.08371980488300323,
        -0.105906181037426,
        0.24672916531562805,
        -0.18100407719612122,
        -0.018449686467647552,
        0.08608157187700272,
        0.08691910654306412,
        -0.18921618163585663,
        0.1158287450671196,
        -0.1829710304737091,
        0.1201702430844307,
        0.06809575855731964,
        -0.22989113628864288,
        0.06034259870648384,
        0.15425898134708405,
        -0.30296626687049866,
        -0.10884206742048264,
        -0.09295777976512909,
        0.12362686544656754,
        -0.07364587485790253,
        0.08528248965740204,
        -0.04743654653429985,
        -0.23736852407455444,
        0.14238567650318146,
        -0.16489620506763458,
        -0.020065678283572197,
        -0.20032057166099548,
        0.054688744246959686,
        0.0624028816819191,
        -0.10957731306552887,
        0.01486673578619957,
        0.1649841070175171,
        0.19392749667167664,
        -0.09913565218448639,
        0.0593608096241951,
        -0.040179602801799774,
        0.3734547793865204,
        -0.17009159922599792,
        -0.16244587302207947,
        0.16253073513507843,
        -0.02148219756782055,
        -0.007699526846408844,
        0.41721680760383606,
        -0.14960090816020966,
        0.14183281362056732,
        -0.25168585777282715,
        0.11492813378572464,
        -0.14231829345226288,
        0.22774608433246613,
        -0.13746677339076996,
        0.0408480204641819,
        -0.24441304802894592,
        0.0031207252759486437,
        -0.4112871289253235,
        0.3810224235057831,
        -0.07736005634069443,
        -0.004496186506003141,
        -0.35023513436317444,
        0.22625936567783356,
        0.16928349435329437,
        -0.14448806643486023,
        0.01412948127835989,
        0.0751681998372078,
        -0.21858061850070953,
        -0.09117944538593292,
        -0.2616930305957794,
        0.39801129698753357,
        -0.03473217412829399,
        -0.08033548295497894,
        0.05087196081876755,
        -0.20329345762729645,
        0.2033442258834839,
        0.2239263355731964,
        0.13229131698608398,
        0.28308728337287903,
        -0.3346836268901825,
        -0.07770493626594543,
        -0.011861826293170452,
        -0.31672078371047974,
        0.10546321421861649,
        0.26793354749679565,
        -0.0682453140616417,
        -0.09098701179027557,
        -0.18541085720062256,
        0.22039102017879486,
        -0.08309293538331985,
        -0.04787975549697876,
        0.014952677302062511,
        0.04720966890454292,
        -0.16100473701953888,
        0.22969020903110504,
        0.042484600096940994,
        0.01645592413842678,
        -0.34907904267311096,
        0.2254370003938675,
        0.05283813923597336,
        0.3492356240749359,
        -0.12517505884170532,
        0.31638142466545105,
        -0.10121043026447296,
        0.0496223010122776,
        0.03945961222052574,
        -0.2471931427717209,
        -0.09566798061132431,
        0.06386365741491318,
        -0.4140818417072296,
        0.046709977090358734,
        -0.016888391226530075,
        -0.3146284222602844,
        -0.12333542108535767,
        0.23629093170166016,
        -0.5507334470748901,
        0.07463479042053223,
        0.0681215152144432,
        0.38880017399787903,
        0.14372025430202484,
        -0.03492939844727516,
        -0.06826827675104141,
        0.08362983912229538,
        0.010570337064564228,
        0.1698651760816574,
        -0.0870860368013382,
        -0.017260095104575157,
        -0.07549800723791122,
        0.15482117235660553,
        -0.12593607604503632,
        0.12581434845924377,
        0.007484393659979105,
        0.008652954362332821,
        0.1977122277021408,
        0.11205650866031647,
        -0.1170322448015213,
        -0.25789615511894226,
        0.007958167232573032,
        -0.09717603772878647,
        -0.13937053084373474,
        0.08467397093772888,
        0.08963826298713684,
        -0.20846831798553467,
        0.029047776013612747,
        -0.10266568511724472,
        0.17077064514160156,
        0.008048533461987972,
        0.032335203140974045,
        -0.28446340560913086,
        0.20017702877521515,
        -0.033774133771657944,
        0.2420906126499176,
        -0.043580468744039536,
        -0.031553346663713455,
        -0.16571731865406036,
        0.1577005833387375,
        -0.1015886664390564,
        0.1906735897064209,
        -0.05995909497141838,
        0.09102246165275574,
        0.24309763312339783,
        -0.19324488937854767,
        -0.07693081349134445,
        0.14388804137706757,
        -0.19430886209011078,
        -0.04838822782039642,
        -0.40868109464645386,
        0.09731462597846985,
        -0.14593850076198578,
        0.0699879378080368,
        -0.0788489282131195,
        0.11874820291996002,
        0.26315727829933167,
        -0.2307502180337906,
        -0.3569284677505493,
        0.05338234081864357,
        0.03515859320759773,
        0.005465327762067318,
        -0.04271606355905533,
        0.05587638542056084,
        0.01951410621404648,
        0.25783178210258484,
        -0.054719261825084686,
        0.15082867443561554,
        -0.2839220464229584,
        0.08969938009977341,
        -0.06855607032775879,
        -0.1426742672920227,
        0.16643385589122772,
        -0.013716383837163448,
        -0.30003097653388977,
        -0.005859374534338713,
        -0.07292785495519638,
        -0.059152476489543915,
        -0.14890266954898834,
        -0.15486592054367065,
        -0.14422722160816193,
        0.2118474543094635,
        -0.12150751054286957,
        0.3692791163921356,
        0.05025015026330948,
        0.06626906991004944,
        -0.29905423521995544,
        0.22877494990825653,
        0.06681883335113525,
        0.2773503065109253,
        -0.02749618887901306,
        -0.07006566971540451,
        0.08023422211408615,
        -0.14755412936210632,
        -0.3212607502937317,
        0.15115393698215485,
        -0.18753811717033386,
        0.10176839679479599,
        -0.4188685417175293,
        0.0477256141602993,
        -0.19128936529159546,
        0.19378699362277985,
        -0.124143086373806,
        -0.006327270995825529,
        0.13909213244915009,
        -0.06452351808547974,
        -0.12978389859199524,
        -0.0018953322432935238,
        0.025950225070118904,
        0.11690783500671387,
        0.11180926859378815,
        0.01830166019499302,
        -0.055139049887657166,
        0.22313211858272552,
        0.020992491394281387,
        -0.012724080123007298,
        -0.2767011523246765,
        0.07613326609134674,
        0.016913382336497307,
        -0.1570151150226593,
        -0.16840523481369019,
        0.09438985586166382,
        -0.4352821707725525,
        -0.12129256129264832,
        -0.23060423135757446,
        -0.05547258257865906,
        -0.0814710333943367,
        -0.15862880647182465,
        0.03825048357248306,
        0.17757004499435425,
        -0.12063518911600113,
        0.3384144902229309,
        -0.1292738914489746,
        0.1195007860660553,
        -0.3411284387111664,
        0.26458504796028137,
        -0.1299321949481964,
        0.12655887007713318,
        0.03726761415600777,
        -0.015157008543610573,
        0.24553026258945465,
        -0.16508078575134277,
        -0.12882161140441895,
        -0.007881635800004005,
        -0.10343005508184433,
        0.06695818156003952,
        -0.23504911363124847,
        0.11238723248243332,
        0.36075055599212646,
        0.028328794986009598,
        -0.0012004796881228685,
        0.07282286882400513,
        -0.021665718406438828,
        0.13434076309204102,
        0.04644971713423729,
        0.1436789333820343,
        -0.030864842236042023,
        -0.06294084340333939,
        -0.005521364044398069,
        0.027182351797819138,
        -0.12411700934171677,
        0.06739932298660278,
        0.056773386895656586,
        -0.055274270474910736,
        -0.4305172264575958,
        0.16415749490261078,
        0.4709678888320923,
        -0.7528839707374573,
        0.38098403811454773,
        -0.8075335025787354,
        -0.41953209042549133,
        -0.44883638620376587,
        0.72529536485672,
        -1.0976836681365967,
        -0.5761905312538147,
        -1.056440830230713,
        0.30176112055778503,
        -0.8422028422355652,
        0.22773222625255585,
        -0.810062050819397,
        -0.1526266485452652,
        -0.010806183330714703,
        0.013230751268565655,
        0.2845943570137024,
        0.11630949378013611,
        -0.12565977871418,
        -0.22159050405025482,
        -0.12372645735740662,
        0.21756942570209503,
        -0.025902435183525085,
        -0.1104794591665268,
        -0.06030027195811272,
        0.07787102460861206,
        0.1836051642894745,
        -0.08969031274318695,
        0.05851934105157852,
        0.00099919771309942,
        0.009859774261713028,
        -0.17113251984119415,
        -0.35051536560058594,
        -0.22753901779651642,
        0.17454056441783905,
        -0.1771019995212555,
        -0.03739367425441742,
        0.038375191390514374,
        -0.24057184159755707,
        0.28608423471450806,
        0.5662186741828918,
        0.06079895421862602,
        0.0543932169675827,
        -0.004389937035739422,
        0.1793714314699173,
        0.11332041025161743,
        -0.2040802240371704,
        0.10622403770685196,
        0.11688058078289032,
        -0.03747856989502907,
        0.44659316539764404,
        0.03279423713684082,
        -0.0026641658041626215,
        -0.08713138848543167,
        0.08000349998474121,
        -0.27724170684814453,
        -0.3094867169857025,
        -0.14930419623851776,
        0.18497301638126373,
        0.27423131465911865,
        0.05357350781559944,
        -0.14701956510543823,
        0.1604287028312683,
        -0.22722211480140686,
        -0.1908237189054489,
        -0.09487547725439072,
        -0.270894855260849,
        -0.27119192481040955,
        0.06919217854738235,
        -0.05802176520228386,
        -0.02298581972718239,
        0.04713860899209976,
        0.1954716145992279,
        0.4128587543964386,
        -0.206539124250412,
        -0.1633734107017517,
        0.038463957607746124,
        0.3914703130722046,
        -0.09124811738729477,
        0.0851166844367981,
        -0.031178580597043037,
        0.10292861610651016,
        0.059824034571647644,
        0.09447269886732101,
        0.14332075417041779,
        0.2613449990749359,
        0.10306109488010406,
        -0.3024609684944153,
        0.12672501802444458,
        -0.34036773443222046,
        -0.03870129957795143,
        -0.09863176196813583,
        -0.14345350861549377,
        -0.27429667115211487,
        -0.27158698439598083,
        -0.31905046105384827,
        0.03415108844637871,
        0.031313274055719376,
        -0.22700102627277374,
        0.06300481408834457,
        0.030965551733970642,
        0.17974691092967987,
        0.2222496122121811,
        -0.09123918414115906,
        -0.2030537873506546,
        -0.150459885597229,
        -0.08549488335847855,
        0.07797230780124664,
        0.09461911022663116,
        0.20248869061470032,
        -0.13603948056697845,
        0.578031599521637,
        -0.4230974018573761,
        -0.033902715891599655,
        0.38014644384384155,
        -0.18384197354316711,
        -0.38480761647224426,
        0.05057094991207123,
        0.1453854739665985,
        -0.3655354678630829,
        -0.04321954399347305,
        -0.09921287000179291,
        0.11932805180549622,
        0.06546200066804886,
        0.38930827379226685,
        0.10495820641517639,
        0.19170989096164703,
        -0.19782550632953644,
        -0.4103773832321167,
        -0.06325920671224594,
        -0.137674942612648,
        -0.05869829282164574,
        0.05347958579659462,
        -0.2611822187900543,
        0.3256978392601013,
        0.046919725835323334,
        0.4392884075641632,
        -0.17243021726608276,
        0.16716645658016205,
        0.2310442477464676,
        0.03166384622454643,
        0.14433272182941437,
        0.1685975044965744,
        -0.020726606249809265,
        -0.166604146361351,
        -0.22044499218463898,
        0.04616782069206238,
        0.02651074528694153,
        -0.2190694510936737,
        -0.11234495788812637,
        0.03315174579620361,
        0.20279410481452942,
        -0.0423339419066906,
        -0.22232647240161896,
        0.16366112232208252,
        0.04942856356501579,
        0.2778555750846863,
        -0.20161758363246918,
        -0.1186678558588028,
        0.3139784038066864,
        -0.16191618144512177,
        0.17185556888580322,
        -0.18879809975624084,
        0.1246812641620636,
        -0.12127946317195892,
        -0.02148285135626793,
        -0.0724848136305809,
        0.02882392890751362,
        -0.027535628527402878,
        0.2371961921453476,
        0.05073660612106323,
        0.21947824954986572,
        -0.13942119479179382,
        -0.09643951058387756,
        -0.10638736188411713,
        -0.18880927562713623,
        0.4424644708633423,
        -0.007170130964368582,
        -0.04246152937412262,
        -0.045604318380355835,
        -0.041340071707963943,
        0.0724673867225647,
        0.35781824588775635,
        -0.23152466118335724,
        0.014940028078854084,
        -0.12774351239204407,
        0.009034756571054459,
        0.008330149576067924,
        0.03425179421901703,
        -0.09105216711759567,
        0.11180969327688217,
        -0.3606829345226288,
        -0.023316625505685806,
        -0.1793072372674942,
        -0.33589547872543335,
        0.025104690343141556,
        0.31152889132499695,
        -0.021975135430693626,
        0.1364172101020813,
        0.03714652359485626,
        -0.16286984086036682,
        0.08963748067617416,
        -0.12233854085206985,
        -0.019113631919026375,
        -0.08809013664722443,
        -0.00020858520292676985,
        -0.26299166679382324,
        -0.0736512616276741,
        -0.004236429464071989,
        -0.16354797780513763,
        0.08376732468605042,
        -0.013459823094308376,
        0.010032895021140575,
        0.012877373024821281,
        0.037419404834508896,
        -0.2832741439342499,
        -0.12285840511322021,
        0.05485428497195244,
        -0.08091704547405243,
        -0.03340956196188927,
        0.03708228841423988,
        0.21102319657802582,
        0.04004928842186928,
        -0.18040010333061218,
        0.09944724291563034,
        -0.36696285009384155,
        0.21854345500469208,
        -0.08150945603847504,
        -0.10133934766054153,
        0.08968967944383621,
        0.26052990555763245,
        0.04772385209798813,
        -0.12434995919466019,
        -0.026763586327433586,
        0.2606855630874634,
        0.10326205939054489,
        0.05122341960668564,
        -0.040370870381593704,
        0.4825670123100281,
        -0.16653263568878174,
        -0.1632666438817978,
        -0.23819318413734436,
        -0.1157313734292984,
        -0.08482855558395386,
        0.04455680772662163,
        -0.2651423513889313,
        0.0925091803073883,
        0.046955376863479614,
        0.3610095679759979,
        -0.11430051922798157,
        0.06581318378448486,
        0.11041766405105591,
        0.15348832309246063,
        0.1854914128780365,
        -0.126804381608963,
        -0.32181715965270996,
        0.19588395953178406,
        -0.3547430634498596,
        0.03369114547967911,
        -0.1461661159992218,
        0.11666880548000336,
        0.17668001353740692,
        -0.16996541619300842,
        0.2422790229320526,
        0.14295557141304016,
        -0.14363965392112732,
        0.3519863486289978,
        -0.21451419591903687,
        -0.1561487317085266,
        -0.02579830028116703,
        -0.088124580681324,
        0.09390979260206223,
        -0.017024895176291466,
        -0.15029112994670868,
        0.09369073808193207,
        0.03914593905210495,
        0.07649721950292587,
        -0.01715826615691185,
        0.008106476627290249,
        0.0023027672432363033,
        -0.11679565906524658,
        -0.027364132925868034,
        -0.2963080108165741,
        -0.12321604788303375,
        -0.09794079512357712,
        -0.007109649945050478,
        -0.2997072637081146,
        0.024167440831661224,
        0.028240758925676346,
        -0.1464545726776123,
        -0.23283866047859192,
        0.06687045842409134,
        0.2449187934398651,
        -0.1457047164440155,
        0.08662750571966171,
        -0.39212921261787415,
        -0.017848728224635124,
        0.1515374630689621,
        0.15323348343372345,
        -0.1501704305410385,
        0.015520389191806316,
        0.009910817258059978,
        0.19239240884780884,
        -0.09079957753419876,
        0.5340756773948669,
        -0.12542180716991425,
        -0.1934218853712082,
        0.1980440765619278,
        -0.0279298834502697,
        0.026359906420111656,
        0.2725009322166443,
        -0.14117856323719025,
        -0.09293853491544724,
        -0.15150801837444305,
        0.09413070231676102,
        -0.11744225770235062,
        0.14984336495399475,
        -0.1886986643075943,
        -0.2425064593553543,
        -0.40586668252944946,
        0.058098722249269485,
        0.011039506644010544,
        0.023444682359695435,
        -0.1656908094882965,
        -0.05760057643055916,
        0.240353524684906,
        -0.27523288130760193,
        0.12224171310663223,
        0.1596042960882187,
        -0.30160021781921387,
        -0.060562364757061005,
        -0.35229599475860596,
        0.25267571210861206,
        -0.13726016879081726,
        -0.13828346133232117,
        0.05421707406640053,
        -0.06087389960885048,
        0.05317062512040138,
        -0.0742749497294426,
        0.28152281045913696,
        0.1437361091375351,
        0.15123768150806427,
        -0.10179011523723602,
        -0.05525064840912819,
        0.03536977618932724,
        0.21602065861225128,
        -0.02273053489625454,
        -0.03875524923205376,
        -0.012954605743288994,
        0.04792703315615654,
        -0.14175929129123688,
        -0.7484894394874573,
        -0.12903431057929993,
        0.02455267868936062,
        -0.10913348942995071,
        0.01167488656938076,
        -0.20760945975780487,
        0.05609947070479393,
        -0.027246715500950813,
        -0.08375055342912674,
        -0.05400600656867027,
        0.09212225675582886,
        -0.05039364844560623,
        0.39540863037109375,
        0.15090297162532806,
        0.0692453607916832,
        0.036789871752262115,
        0.00743459165096283,
        0.012078494764864445,
        0.09770038723945618,
        0.08345194905996323,
        0.009346334263682365,
        0.12129515409469604,
        -0.037473466247320175,
        -0.10793500393629074,
        -0.009033042937517166,
        0.08984175324440002,
        0.07786566019058228,
        0.12299385666847229,
        0.148140087723732,
        -0.1254434436559677,
        0.0987953394651413,
        0.14639882743358612,
        0.060915376991033554,
        -0.03571002930402756,
        -0.06780717521905899,
        -0.09176961332559586,
        0.28722164034843445,
        -0.14138393104076385,
        -0.05223878100514412,
        -0.2571580708026886,
        0.18809932470321655,
        0.15092872083187103,
        -0.029949652031064034,
        -0.3149673640727997,
        0.0425228476524353,
        0.360828697681427,
        -0.018649019300937653,
        -0.18271979689598083,
        0.34952104091644287,
        -0.024639729410409927,
        0.07095701992511749,
        0.1518590897321701,
        0.012423647567629814,
        0.08456678688526154,
        0.05856863409280777,
        -0.1712491661310196,
        0.042612429708242416,
        0.07725322991609573,
        0.31601274013519287,
        0.03939751908183098,
        0.09653135389089584,
        -0.10612132400274277,
        -0.15735037624835968,
        0.06874950230121613,
        0.29603713750839233,
        -0.04889123514294624,
        0.1557779312133789,
        -0.11421049386262894,
        0.061580199748277664,
        0.0891818180680275,
        -0.10511621832847595,
        0.00532032735645771,
        0.22239337861537933,
        -0.2601865530014038,
        -0.02940714731812477,
        0.028782039880752563,
        0.2192845642566681,
        0.0023940084502100945,
        -0.0818062350153923,
        -0.368721604347229,
        -0.033624839037656784,
        -0.16750933229923248,
        0.12169011682271957,
        0.012544984929263592,
        -0.042311906814575195,
        0.3050708472728729,
        -0.0037561317440122366,
        0.28927168250083923,
        -0.061698365956544876,
        -0.20174354314804077,
        0.01272116880863905,
        0.14593452215194702,
        0.028524896129965782,
        -0.16108503937721252,
        -0.34533894062042236,
        0.03945038840174675,
        -0.03153356909751892,
        -0.6230770945549011,
        0.03267678618431091,
        -0.1679898202419281,
        0.07917603105306625,
        0.24259264767169952,
        0.05803903192281723,
        0.18626241385936737,
        0.12427578121423721,
        -0.21507377922534943,
        -0.32210391759872437,
        -0.27022913098335266,
        -0.14323720335960388,
        0.1067396029829979,
        0.04415994510054588,
        0.09290605783462524,
        -0.2349771112203598,
        -0.2608424723148346,
        0.05123574286699295,
        0.14401297271251678,
        0.06043300777673721,
        0.052057355642318726,
        0.1028972938656807,
        0.1781916469335556,
        -0.023381315171718597,
        0.05456551909446716,
        0.13179855048656464,
        -0.26973333954811096,
        -0.2290598750114441,
        0.11075197905302048,
        0.07210277020931244,
        0.017716754227876663,
        -0.19533666968345642,
        0.0910293459892273,
        0.0591675341129303,
        0.16077160835266113,
        -0.02356492169201374,
        -0.012027313001453876,
        0.12371642887592316,
        -0.03407229855656624,
        0.15532606840133667,
        -0.2848427891731262,
        -0.10208871215581894,
        -0.03313448652625084,
        0.06555484980344772,
        -0.03012695722281933,
        0.19465292990207672,
        0.015171712264418602,
        -0.05376656726002693,
        0.20866765081882477,
        0.3118075430393219,
        0.04978398606181145,
        -0.14985322952270508,
        0.09309394657611847,
        -0.04823432117700577,
        -0.2066899538040161,
        0.25080105662345886,
        0.18188561499118805,
        0.2374480962753296,
        -0.10080122947692871,
        -0.15126709640026093,
        -0.08707407861948013,
        0.22096876800060272,
        -0.12906040251255035,
        0.031142132356762886,
        -0.2763092517852783,
        -0.11493655294179916,
        -0.023876041173934937,
        0.05031803995370865,
        -0.14685076475143433,
        -0.2236739546060562,
        0.27749103307724,
        -0.1273110806941986,
        -0.2687019109725952,
        0.2834008038043976,
        0.01692458614706993,
        -0.02712181583046913,
        -0.1859501302242279,
        0.059669870883226395,
        -0.1567019671201706,
        0.017383534461259842,
        0.11025849729776382,
        0.040764424949884415,
        -0.04503757134079933,
        -0.0010223633144050837,
        -0.030706997960805893,
        -0.24570156633853912,
        -0.053854651749134064,
        -0.21811066567897797,
        0.2236613929271698,
        0.11438819020986557,
        0.03820713981986046,
        -0.0434519462287426,
        -0.09186490625143051,
        -0.031138049438595772,
        0.24377547204494476,
        -0.3165832459926605,
        -0.05869561806321144,
        -0.006703573279082775,
        -0.34155037999153137,
        -0.19759909808635712,
        0.17304198443889618,
        0.14230595529079437,
        0.02527039311826229,
        -0.27650901675224304,
        -0.18113408982753754,
        -0.07085840404033661,
        0.16241274774074554,
        0.12145049124956131,
        0.076280876994133,
        -0.10005898773670197,
        0.046419743448495865,
        -0.008601762354373932,
        0.18753385543823242,
        0.21838803589344025,
        0.013574032112956047,
        -0.1980372816324234,
        0.10679510235786438,
        0.1718399077653885,
        -0.06269236654043198,
        0.08088003844022751,
        -0.01198210846632719,
        -0.13113905489444733,
        0.03919391706585884,
        -0.2225499153137207,
        0.20175643265247345,
        -0.2520451843738556,
        -0.21042999625205994,
        0.05137776955962181,
        0.0968773141503334,
        0.06237761676311493,
        -0.15353088080883026,
        0.320557177066803,
        -0.017783142626285553,
        -0.14480428397655487,
        -0.08204295486211777,
        0.19348959624767303,
        0.12390591949224472,
        0.1274888664484024,
        -0.09967722743749619,
        -0.044431839138269424,
        -0.18158859014511108,
        0.018704893067479134,
        -0.010437019169330597,
        -0.28364595770835876,
        0.11069010198116302,
        0.056291673332452774,
        0.1077546775341034,
        0.09482569247484207,
        -0.17836487293243408,
        -0.0494094043970108,
        0.09219706803560257,
        0.06301763653755188,
        -0.20125849545001984,
        0.05887247249484062,
        -0.00680966442450881,
        0.14817573130130768,
        0.10214722901582718,
        -0.08608148247003555,
        0.11821778118610382,
        -0.021256430074572563,
        -0.01476975530385971,
        -0.0018318165093660355,
        -0.08441854268312454,
        0.015605052933096886,
        0.17905062437057495,
        -0.03676062822341919,
        -0.11405380815267563,
        0.07785385102033615,
        0.22350186109542847,
        0.056075915694236755,
        0.3463831841945648,
        -0.09709656983613968,
        0.10968220233917236,
        0.13687609136104584,
        0.06037745252251625,
        -0.04106079414486885,
        -0.12234768271446228,
        -0.07711409777402878,
        -0.15519189834594727,
        -0.17291322350502014,
        0.19085529446601868,
        0.07175745815038681,
        -0.018231624737381935,
        -0.02301587536931038,
        -0.03162600100040436,
        -0.16626593470573425,
        0.08420035988092422,
        -0.01803969405591488,
        0.15824197232723236,
        0.017772767692804337,
        -0.3017069697380066,
        0.11167559772729874,
        -0.28830304741859436,
        0.22121350467205048,
        -0.026167675852775574,
        -0.09194435179233551,
        0.0219887625426054,
        0.025209790095686913,
        0.09034695476293564,
        -0.18604202568531036,
        -0.0802198052406311,
        0.04636714980006218,
        -0.006486073136329651,
        0.1296299248933792,
        -0.010418622754514217,
        0.0740201324224472,
        0.22262494266033173,
        0.2327951043844223,
        -0.16620691120624542,
        -0.03857533261179924,
        0.1406545639038086,
        0.17902882397174835,
        -0.15025967359542847,
        0.022113261744379997,
        0.028873981907963753,
        0.126998171210289,
        -0.014810686931014061,
        -0.17449642717838287,
        0.07461518794298172,
        -0.10183212906122208,
        0.02060236595571041,
        -0.19353607296943665,
        -0.2220851331949234,
        -0.08396973460912704,
        0.25256872177124023,
        0.06444869190454483,
        0.05186517909169197,
        0.035351891070604324,
        0.1261374056339264,
        -0.07014067471027374,
        -0.0608973354101181,
        0.051557593047618866,
        -0.05300435423851013,
        -0.14740309119224548,
        -0.04914156347513199,
        0.041993118822574615,
        0.03877006098628044,
        0.11027217656373978,
        0.019500281661748886,
        0.21742630004882812,
        0.012022968381643295,
        0.005378842819482088,
        0.19726911187171936,
        0.11059089004993439,
        0.23845018446445465,
        0.10602392256259918,
        -0.034642528742551804,
        0.07526995241641998,
        0.07744014263153076,
        0.09191335737705231,
        0.11581747233867645,
        -0.008629770018160343,
        0.01868514157831669,
        0.0023969553876668215,
        0.19266441464424133,
        0.2802651822566986,
        -0.015133779495954514,
        -0.12746043503284454,
        0.15167510509490967,
        -0.018665919080376625,
        0.06237788125872612,
        0.06653369963169098,
        0.19845105707645416,
        0.21767593920230865,
        0.24221108853816986,
        0.13262230157852173,
        0.17100495100021362,
        0.2584005296230316,
        0.018418239429593086,
        0.09887441992759705,
        0.045783378183841705,
        -0.15008758008480072,
        -0.029101071879267693,
        0.10502513498067856,
        0.19298577308654785,
        -0.06695021688938141,
        -0.009266984649002552,
        0.2129027545452118,
        0.01950729452073574,
        -0.017431164160370827,
        -0.013109158724546432,
        -0.08209474384784698,
        0.007274912670254707,
        0.12753471732139587,
        0.06504758447408676,
        0.10108865797519684,
        -0.28285035490989685,
        -0.10564498603343964,
        0.03278760984539986,
        -0.39063864946365356,
        -0.14300958812236786,
        -0.020484421402215958,
        -0.5751547813415527,
        -0.14347195625305176,
        -0.18327027559280396,
        0.2338390052318573,
        0.1659398376941681,
        -0.07190614938735962,
        -0.22934332489967346,
        -0.046924978494644165,
        0.022426920011639595,
        -0.04040611907839775,
        -0.1950136125087738,
        0.13111378252506256,
        -0.06314675509929657,
        -0.11435675621032715,
        -0.08188769221305847,
        0.10123900324106216,
        -0.19597165286540985,
        -0.22196339070796967,
        0.10789033770561218,
        -0.23073901236057281,
        0.07359921187162399,
        -0.10344760119915009,
        0.10593345016241074,
        0.15356314182281494,
        -0.30586516857147217,
        -0.05767381936311722,
        -0.04501974582672119,
        0.17436467111110687,
        0.08597146719694138,
        0.1547604650259018,
        0.0861261710524559,
        0.10361598432064056,
        0.0762157142162323,
        -0.05521584674715996,
        0.05525675788521767,
        0.07239729166030884,
        0.26744672656059265,
        0.14102254807949066,
        -0.09331965446472168,
        0.05488273501396179,
        0.28133100271224976,
        0.16837717592716217,
        0.06104527413845062,
        0.41472092270851135,
        0.6699844002723694,
        -0.06899482011795044,
        0.11818894743919373,
        0.32874995470046997,
        -0.034907106310129166,
        0.046169452369213104,
        0.0775928720831871,
        -0.11852115392684937,
        -0.11231324076652527,
        0.03451433777809143,
        0.1766635626554489,
        0.15474364161491394,
        -0.0673447921872139,
        -0.05820256844162941,
        0.12195146083831787,
        -0.10470809042453766,
        0.2123357057571411,
        0.07241938263177872,
        -0.01720978319644928,
        -0.07587886601686478,
        0.223704531788826,
        -0.10652808099985123,
        -0.1934492141008377,
        0.07842548191547394,
        0.11215829849243164,
        -0.22467473149299622,
        0.06664422154426575,
        -0.10155418515205383,
        0.044013455510139465,
        0.11798398196697235,
        0.02438436821103096,
        0.13410599529743195,
        -0.09361826628446579,
        -0.054717522114515305,
        0.11054843664169312,
        0.10960852354764938,
        -0.07482019066810608,
        0.09160447120666504,
        -0.10987257212400436,
        0.06418012082576752,
        0.014304929412901402,
        0.07102486491203308,
        -0.12443848699331284,
        0.09824167191982269,
        0.11450769007205963,
        0.04396159574389458,
        0.16816583275794983,
        -0.14004220068454742,
        -0.01393863745033741,
        0.2292969822883606,
        -0.15099960565567017,
        0.02260882407426834,
        -0.10890546441078186,
        -0.1770714968442917,
        -0.06825730949640274,
        -0.07061925530433655,
        -0.11275952309370041,
        -0.04893290251493454,
        -0.13106606900691986,
        0.1135399341583252,
        -0.10154978930950165,
        -0.050101492553949356,
        -0.02427792176604271,
        -0.1257091760635376,
        -0.05478530377149582,
        0.0895780697464943,
        -0.16485093533992767,
        -0.07113417983055115,
        -0.07378615438938141,
        -0.17998944222927094,
        0.13754481077194214,
        -0.1583605855703354,
        -0.263510525226593,
        0.15519598126411438,
        -0.3222212791442871,
        0.19006586074829102,
        -0.19259029626846313,
        -0.02210218645632267,
        0.08205839991569519,
        0.2274753451347351,
        -0.038525503128767014,
        -0.1315942406654358,
        -0.11777228116989136,
        0.08255375176668167,
        -0.12640874087810516,
        0.03894361853599548,
        -0.03162901848554611,
        0.015915604308247566,
        0.0701991394162178,
        0.038693610578775406,
        0.009460176341235638,
        -0.06304902583360672,
        -0.03839534893631935,
        0.19134904444217682,
        -0.3584425449371338,
        -0.41006898880004883,
        -0.059621233493089676,
        -0.01846640557050705,
        -0.09399449080228806,
        -0.41377636790275574,
        -0.24221114814281464,
        0.06647700071334839,
        -0.15770678222179413,
        0.1594318300485611,
        -0.07003030180931091,
        0.18465429544448853,
        0.02613009512424469,
        0.3108237385749817,
        0.2403896003961563,
        0.08675862103700638,
        0.1271718442440033,
        -0.07724888622760773,
        0.0701800137758255,
        0.08777125179767609,
        0.17752766609191895,
        0.027722174301743507,
        0.16531458497047424,
        0.07403615862131119,
        0.07821473479270935,
        0.11474458128213882,
        -0.015790080651640892,
        -0.06699883192777634,
        -0.0344616062939167,
        -0.4245792031288147,
        -0.09187858551740646,
        -0.07921452820301056,
        -0.07717394828796387,
        0.041501447558403015,
        -0.006958597339689732,
        -0.12540854513645172,
        -0.20933637022972107,
        0.19803065061569214,
        0.05232780799269676,
        -0.13316340744495392,
        -0.15136289596557617,
        0.0026295024435967207,
        0.2663007378578186,
        -0.05491857975721359,
        0.07353322952985764,
        0.040545590221881866,
        -0.034832913428545,
        -0.07701659202575684,
        -0.07438220828771591,
        -0.45712581276893616,
        -0.0966743528842926,
        0.08050069957971573,
        0.01754411682486534,
        0.09029984474182129,
        -0.22440846264362335,
        0.0197296105325222,
        0.0690746083855629,
        -0.04256989434361458,
        -0.07045551389455795,
        -0.10257022827863693,
        0.15611977875232697,
        0.16321510076522827,
        -0.003315051319077611,
        -0.12275364249944687,
        -0.017651181668043137,
        0.06972444802522659,
        0.03104979172348976,
        -0.03572222962975502,
        0.0762333795428276,
        -0.02059824950993061,
        0.14995373785495758,
        0.13738462328910828,
        -0.1425490379333496,
        0.002909083617851138,
        0.04236169531941414,
        -0.11451071500778198,
        0.12591029703617096,
        0.012986911460757256,
        -0.02818763628602028,
        -0.24430051445960999,
        0.14280618727207184,
        0.23693913221359253,
        0.09904315322637558,
        0.04891282692551613,
        -0.026118775829672813,
        0.0957048237323761,
        -0.0764288455247879,
        -0.05036381259560585,
        -0.31275853514671326,
        -0.08496706932783127,
        0.12578171491622925,
        0.09356548637151718,
        0.024167874827980995,
        -0.10855292528867722,
        -0.28537285327911377,
        -0.07522766292095184,
        -0.022499099373817444,
        -0.46833792328834534,
        -0.09471185505390167,
        -0.48409098386764526,
        0.21760216355323792,
        -0.29060783982276917,
        -0.20390135049819946,
        -0.054924868047237396,
        -0.011562574654817581,
        -0.037903521209955215,
        0.10554322600364685,
        -0.1325758695602417,
        0.09323844313621521,
        -0.048433490097522736,
        0.040265366435050964,
        0.0034290936309844255,
        -0.14899849891662598,
        -0.07600261270999908,
        -0.0001416127197444439,
        -0.15191522240638733,
        -0.06360948085784912,
        -0.08077044039964676,
        0.013568895868957043,
        -0.06575334817171097,
        0.0006406102911569178,
        0.026101211085915565,
        -0.09364986419677734,
        -0.03641199693083763,
        0.18160434067249298,
        -0.27795103192329407,
        -0.2141062170267105,
        0.00905187614262104,
        0.17411194741725922,
        0.014113293029367924,
        0.019921353086829185,
        0.06019338592886925,
        0.16896949708461761,
        -0.07802995294332504,
        -0.05008712783455849,
        0.19203776121139526,
        -0.176441952586174,
        0.16540434956550598,
        0.0035137315280735493,
        -0.06152215600013733,
        0.0054008313454687595,
        0.0530107356607914,
        0.09713645279407501,
        -0.03353177756071091,
        -0.17508958280086517,
        0.7219946980476379,
        -0.4195449650287628,
        0.43061715364456177,
        0.27623701095581055,
        0.04446336627006531,
        0.15072038769721985,
        -0.012915861792862415,
        -0.10665252804756165,
        0.08853431791067123,
        0.012881064787507057,
        0.12520365417003632,
        -0.05512639507651329,
        -0.02000075951218605,
        -0.20716233551502228,
        0.13177770376205444,
        -0.13401037454605103,
        0.29200178384780884,
        0.10190919041633606,
        -0.15136000514030457,
        0.10131680220365524,
        -0.03021436557173729,
        -0.08622031658887863,
        -0.049523767083883286,
        0.013222457841038704,
        0.17340274155139923,
        -0.054489847272634506,
        0.0777030885219574,
        0.022924251854419708,
        0.09941881150007248,
        0.14405624568462372,
        0.23543274402618408,
        0.07087336480617523,
        -0.054709382355213165,
        0.04390482231974602,
        0.05725995451211929,
        -0.04719367250800133,
        -0.09843424707651138,
        -0.05955113098025322,
        0.10352782905101776,
        0.14168673753738403,
        -0.0016228032764047384,
        0.06610716879367828,
        -0.14690063893795013,
        0.062308285385370255,
        -0.04519167169928551,
        0.013013457879424095,
        -0.09017368406057358,
        -0.7787773013114929,
        0.8134514689445496,
        0.3371371626853943,
        -0.3724552094936371,
        0.1696905791759491,
        -0.36314547061920166,
        -0.17804625630378723,
        0.712070882320404,
        -1.1095070838928223,
        0.8186495304107666,
        0.6806970238685608,
        -0.20140457153320312,
        -0.6823545098304749,
        -0.050536151975393295,
        -0.5788129568099976,
        0.1147102490067482,
        0.002009672112762928,
        0.023240795359015465,
        -0.13590694963932037,
        0.05244731158018112,
        0.19982771575450897,
        0.3226909935474396,
        -0.10931921750307083,
        0.24390146136283875,
        -0.008270373567938805,
        0.22226624190807343,
        0.08493264764547348,
        0.037578582763671875,
        0.09869523346424103,
        -0.045170582830905914,
        -0.12972204387187958,
        0.4284510910511017,
        -0.10859298706054688,
        0.13458941876888275,
        0.10844431072473526,
        0.061203230172395706,
        0.19671805202960968,
        -0.09339381754398346,
        -0.008140729740262032,
        -0.37383949756622314,
        0.08333980292081833,
        0.10252095758914948,
        -0.20166175067424774,
        0.17420262098312378,
        0.19983436167240143,
        0.036550745368003845,
        -0.06452251225709915,
        -0.13400693237781525,
        -0.17063839733600616,
        0.102633036673069,
        -0.2694116532802582,
        0.30687597393989563,
        -0.06822752952575684,
        -0.06427144259214401,
        -0.22046540677547455,
        -0.18530182540416718,
        -0.0856570154428482,
        -0.14680474996566772,
        0.26834431290626526,
        0.11793827265501022,
        -0.26668381690979004,
        0.17350661754608154,
        0.07208436727523804,
        0.20157496631145477,
        -0.05584153160452843,
        -0.005033648572862148,
        0.035693418234586716,
        -0.09530766308307648,
        0.05969124287366867,
        -0.14009280502796173,
        0.11418301612138748,
        0.2891615927219391,
        0.026294903829693794,
        0.014334199950098991,
        -0.025859961286187172,
        0.19333869218826294,
        0.07060181349515915,
        -0.0934654176235199,
        -0.09192246198654175,
        -0.10683991760015488,
        -0.1568489521741867,
        0.24992771446704865,
        -0.228872150182724,
        0.07989216595888138,
        -0.16164417564868927,
        -0.048251789063215256,
        0.10350851714611053,
        0.07294436544179916,
        -0.07730787992477417,
        -0.27393683791160583,
        0.02445511519908905,
        -0.007681615650653839,
        -0.1230923980474472,
        0.0723656490445137,
        -0.009737749584019184,
        -0.36797410249710083,
        0.13512468338012695,
        0.210465207695961,
        -0.10068168491125107,
        -0.2070789784193039,
        -0.00920432060956955,
        0.4408607482910156,
        -0.051123835146427155,
        0.03420322388410568,
        -0.1784486174583435,
        0.3122497498989105,
        -0.1482664942741394,
        0.3061223328113556,
        0.4725090265274048,
        0.250206857919693,
        0.08030860871076584,
        -0.0336296372115612,
        0.1516001671552658,
        0.11080458015203476,
        0.04573735222220421,
        0.13264966011047363,
        -0.15314017236232758,
        0.1669309288263321,
        -0.00945298746228218,
        -0.15752863883972168,
        0.18302983045578003,
        0.2938888669013977,
        -0.19738361239433289,
        0.19341491162776947,
        0.11167199909687042,
        0.39474746584892273,
        0.0719427764415741,
        0.4532323479652405,
        0.30322304368019104,
        -0.15651792287826538,
        0.07285967469215393,
        -0.05013066530227661,
        -0.09695543348789215,
        0.03489350154995918,
        -0.255098819732666,
        0.034991972148418427,
        0.22694167494773865,
        0.20546257495880127,
        0.08936207741498947,
        0.06433141976594925,
        0.3376009464263916,
        0.1554355025291443,
        -0.10511445254087448,
        -0.022043021395802498,
        0.14302681386470795,
        -0.14400134980678558,
        0.10597588866949081,
        0.2217373549938202,
        0.0007313882233574986,
        -0.2796753942966461,
        0.2377857267856598,
        -0.08060076087713242,
        0.09909915924072266,
        -0.20588596165180206,
        0.1415487378835678,
        -0.3125181198120117,
        -0.219954252243042,
        0.03525850921869278,
        0.02973264269530773,
        0.3502660393714905,
        -0.08329024910926819,
        -0.24384036660194397,
        0.28266581892967224,
        -0.0017986545572057366,
        0.0784924104809761,
        -0.10462242364883423,
        -0.33841392397880554,
        -0.11880211532115936,
        0.11212991923093796,
        0.06996848434209824,
        0.00996153149753809,
        -0.04480275139212608,
        -0.013488775119185448,
        0.2064250409603119,
        -0.03595392778515816,
        0.21465855836868286,
        -0.2493756115436554,
        -0.05340889096260071,
        -0.21754707396030426,
        0.26617759466171265,
        -0.10056835412979126,
        -0.07011469453573227,
        -0.06839814782142639,
        0.33449751138687134,
        -0.05821623280644417,
        -0.17335379123687744,
        0.0038510768208652735,
        -0.17472226917743683,
        -0.3612099289894104,
        -0.04471519961953163,
        0.17796941101551056,
        0.27695825695991516,
        -0.010184183716773987,
        -0.04026171937584877,
        0.04889540374279022,
        -0.2531679570674896,
        0.22703233361244202,
        0.29499366879463196,
        0.11273984611034393,
        -0.09965264797210693,
        -0.14972971379756927,
        -0.12229928374290466,
        0.27972766757011414,
        -0.14530406892299652,
        -0.16524629294872284,
        -0.013342736288905144,
        0.1053551435470581,
        -7.066354010021314e-05,
        -0.17381229996681213,
        -0.21051819622516632,
        -0.021782860159873962,
        0.15071675181388855,
        0.0642097070813179,
        -0.20716457068920135,
        -0.05757816880941391,
        -0.15389397740364075,
        0.13124191761016846,
        -0.2664036452770233,
        0.14211998879909515,
        -0.016135012730956078,
        0.18913644552230835,
        0.07659561187028885,
        -0.19788682460784912,
        -0.28951212763786316,
        0.12053784728050232,
        -0.16995443403720856,
        -0.06556417047977448,
        0.20359335839748383,
        -0.22975701093673706,
        0.15797896683216095,
        0.05688993260264397,
        0.13900788128376007,
        0.09067521244287491,
        0.02049253135919571,
        -0.13475331664085388,
        0.044115372002124786,
        0.060689777135849,
        -0.23143751919269562,
        0.10639706254005432,
        0.16316571831703186,
        0.2558530271053314,
        0.008684289641678333,
        0.006571839097887278,
        -0.13889080286026,
        0.04013261944055557,
        0.1926998347043991,
        -0.1880071759223938,
        0.30452829599380493,
        0.14944082498550415,
        0.28979045152664185,
        0.07393592596054077,
        0.03788166493177414,
        0.0491144061088562,
        -0.021446896716952324,
        -0.1645316183567047,
        -0.2515864670276642,
        0.09517712146043777,
        -0.20326891541481018,
        0.04221143573522568,
        -0.001728530740365386,
        -0.09738745540380478,
        0.05383257940411568,
        -0.24747039377689362,
        0.017595311626791954,
        0.31054073572158813,
        0.025014393031597137,
        0.1452067643404007,
        -0.12481045722961426,
        -0.015535653568804264,
        -0.18158097565174103,
        0.03919617086648941,
        0.05900035798549652,
        -0.1380888670682907,
        0.23974159359931946,
        0.06491287797689438,
        -0.08037688583135605,
        0.006419888231903315,
        0.023846155032515526,
        0.14458835124969482,
        -0.3163081407546997,
        -0.22269020974636078,
        0.05411285534501076,
        0.12326344102621078,
        0.07469279319047928,
        0.02283667027950287,
        -0.0638987272977829,
        -0.030660545453429222,
        0.03515024110674858,
        0.10383906960487366,
        -0.04014923796057701,
        -0.024345504119992256,
        -0.03926302120089531,
        0.32033631205558777,
        -0.1964012235403061,
        0.0020529122557491064,
        -0.026765715330839157,
