{
    "version": "0.5.0",
    "architecture": "WaveNet",
    "config": {
        "layers": [
            {
                "input_size": 1,
                "condition_size": 1,
                "head_size": 4,
                "channels": 8,
                "kernel_size": 3,
                "dilations": [
                    1,
                    2,
                    4,
                    8,
                    16,
                    32,
                    64
                ],
                "activation": "Tanh",
                "gated": false,
                "head_bias": false
            },
            {
                "input_size": 8,
                "condition_size": 1,
                "head_size": 1,
                "channels": 4,
                "kernel_size": 3,
                "dilations": [
                    128,
                    256,
                    512,
                    1,
                    2,
                    4,
                    8,
                    16,
                    32,
                    64,
                    128,
                    256,
                    512
                ],
                "activation": "Tanh",
                "gated": false,
                "head_bias": true
            }
        ],
        "head": null,
        "head_scale": 0.02
    },
    "weights": [
        0.3085289001464844,
        0.6437543630599976,
        -0.9822474122047424,
        -0.5083304643630981,
        -0.45461505651474,
        0.2875787019729614,
        -0.0995975211262703,
        0.8400005102157593,
        0.02607511542737484,
        -0.07216247916221619,
        -0.0418175645172596,
        -0.11098631471395493,
        -0.3245749771595001,
        -0.17393195629119873,
        -0.017596932128071785,
        0.13871467113494873,
        0.12687288224697113,
        0.18521332740783691,
        0.0014221137389540672,
        -0.03892684727907181,
        0.13940171897411346,
        0.3023558557033539,
        -0.007164997514337301,
        0.10138501971960068,
        -0.14984703063964844,
        -0.00792855117470026,
        0.19747738540172577,
        -0.3893296718597412,
        -0.02957344241440296,
        -0.12108329683542252,
        -0.20944459736347198,
        0.13182325661182404,
        -0.37830236554145813,
        0.2372203916311264,
        -0.2776894271373749,
        -0.35053640604019165,
        0.19800668954849243,
        0.1573278158903122,
        0.2545989453792572,
        -0.22699831426143646,
        0.027019526809453964,
        0.047421038150787354,
        -0.29103538393974304,
        -0.1662950962781906,
        0.012947451323270798,
        -0.41678357124328613,
        0.15830527245998383,
        -0.059975530952215195,
        0.22096297144889832,
        -0.041269414126873016,
        0.335149884223938,
        0.12960302829742432,
        -0.3174901306629181,
        -0.1303407847881317,
        0.4576685428619385,
        -0.1347508728504181,
        0.12941884994506836,
        -0.4737759828567505,
        -0.024701392278075218,
        -0.07055564969778061,
        -0.1232851892709732,
        0.15044145286083221,
        -0.1621628701686859,
        0.2802022397518158,
        0.046771831810474396,
        -0.06560926139354706,
        0.23229393362998962,
        -0.014465359039604664,
        0.08721118420362473,
        0.41210418939590454,
        -0.23181232810020447,
        -0.020571522414684296,
        -0.12753911316394806,
        0.24939501285552979,
        0.06747940182685852,
        0.021900884807109833,
        0.10647332668304443,
        -0.14164261519908905,
        -0.19667233526706696,
        -0.06419236212968826,
        -0.32914942502975464,
        0.21251821517944336,
        0.4135834276676178,
        -0.43628039956092834,
        0.006330803502351046,
        0.13310949504375458,
        0.19975751638412476,
        -0.06278584897518158,
        -0.0840531438589096,
        0.09562947601079941,
        0.10778844356536865,
        -0.0517599992454052,
        0.3699549436569214,
        0.111269012093544,
        -0.3706212043762207,
        -0.34525173902511597,
        0.08896823227405548,
        0.22405444085597992,
        0.025502676144242287,
        -0.25651103258132935,
        0.14864778518676758,
        -0.09288637340068817,
        -0.12087502330541611,
        0.10992805659770966,
        0.07267254590988159,
        -0.1287393718957901,
        -0.16424980759620667,
        -0.031146226450800896,
        -0.16981537640094757,
        -0.03256309777498245,
        -0.219313383102417,
        0.27854081988334656,
        -0.06025136634707451,
        0.05513696372509003,
        0.3027886152267456,
        -0.10962356626987457,
        -0.1776413768529892,
        0.17013019323349,
        0.08878335356712341,
        0.19414226710796356,
        -0.06805175542831421,
        -0.03814711049199104,
        -0.2717587947845459,
        -0.08801340311765671,
        -0.15984880924224854,
        0.007169752381742001,
        -0.20857450366020203,
        -0.16448558866977692,
        0.08022797852754593,
        -0.44162628054618835,
        0.15077251195907593,
        0.1930566132068634,
        -0.33849912881851196,
        0.1349535435438156,
        -0.005380966700613499,
        0.19185605645179749,
        -0.1381634771823883,
        -0.1572359800338745,
        0.2575380206108093,
        -0.014578444883227348,
        0.04284200072288513,
        0.33153679966926575,
        0.04014962539076805,
        0.15401721000671387,
        -0.3817894458770752,
        0.06458385288715363,
        -0.1372564733028412,
        -0.034946050494909286,
        0.11112847924232483,
        -0.009108709171414375,
        -0.3997524380683899,
        -0.030372392386198044,
        -0.30252355337142944,
        0.3158276081085205,
        0.1919851303100586,
        -0.3159681558609009,
        0.31948578357696533,
        -0.057212620973587036,
        0.08428377658128738,
        -0.27564024925231934,
        -0.14774085581302643,
        0.08183549344539642,
        -0.3843315839767456,
        -0.28958895802497864,
        0.0895761176943779,
        -0.1919727921485901,
        -0.19220204651355743,
        -0.0635075494647026,
        0.0013446867233142257,
        0.083137646317482,
        0.36205655336380005,
        0.10225538909435272,
        0.11333385109901428,
        -0.04627962410449982,
        0.0067893932573497295,
        0.23551234602928162,
        0.4568154811859131,
        0.010699993930757046,
        0.3429989814758301,
        0.11582369357347488,
        0.005985501687973738,
        0.016698399558663368,
        -0.14139673113822937,
        0.07304076105356216,
        0.03866779804229736,
        -0.21602113544940948,
        -0.03446538373827934,
        -0.10223672538995743,
        -0.46000936627388,
        0.11638844758272171,
        0.09414999186992645,
        0.4309413433074951,
        -0.16133995354175568,
        0.06502325087785721,
        0.1785440742969513,
        0.34474804997444153,
        0.3220023214817047,
        0.34809836745262146,
        -0.13955336809158325,
        0.052669133991003036,
        -0.006312309764325619,
        0.1644718199968338,
        -0.04965613782405853,
        -0.31696829199790955,
        -0.04866095632314682,
        0.043652500957250595,
        -0.26037660241127014,
        -0.007085325662046671,
        0.30780377984046936,
        0.12349512428045273,
        0.04660564661026001,
        -0.04344126582145691,
        0.05279550701379776,
        -0.09608791768550873,
        0.10788212716579437,
        0.1752256155014038,
        -0.33262819051742554,
        -0.09776631742715836,
        0.1272958219051361,
        -0.4767813980579376,
        -0.14654356241226196,
        0.2741145193576813,
        0.1886780709028244,
        0.09110307693481445,
        -0.440561980009079,
        0.41291317343711853,
        -0.39193952083587646,
        -0.19129426777362823,
        -0.28407108783721924,
        -0.18080368638038635,
        0.10636749863624573,
        0.11332767456769943,
        0.11837142705917358,
        0.2902132570743561,
        0.22469180822372437,
        -0.171371191740036,
        0.22948385775089264,
        -0.1391499787569046,
        -0.2404216080904007,
        0.1738659143447876,
        0.09339034557342529,
        0.3521711230278015,
        -0.1291477084159851,
        0.1781911849975586,
        0.06529445946216583,
        -0.4403518736362457,
        0.4081553816795349,
        -0.4384077489376068,
        -0.15328127145767212,
        -0.11586731672286987,
        -0.258748322725296,
        -0.00583738973364234,
        0.20903001725673676,
        -0.1616896539926529,
        -0.21127256751060486,
        0.11590361595153809,
        -0.37568947672843933,
        -0.1087782084941864,
        -0.015312588773667812,
        -0.08302848786115646,
        -0.1376953274011612,
        0.23223312199115753,
        0.29727062582969666,
        0.3020251989364624,
        0.4546886384487152,
        -0.16547121107578278,
        0.12212658673524857,
        0.2884478271007538,
        0.5574129819869995,
        0.30813661217689514,
        -0.5214114785194397,
        -0.4333120584487915,
        -0.38896605372428894,
        -0.03214403986930847,
        -0.19598962366580963,
        -0.4226030111312866,
        0.30844351649284363,
        -0.2842571437358856,
        -0.01089246291667223,
        0.17482727766036987,
        0.02591269463300705,
        -0.15424086153507233,
        -0.1425180733203888,
        0.19012977182865143,
        0.05356355011463165,
        0.019483933225274086,
        -0.03918589651584625,
        0.04343320429325104,
        0.1319381296634674,
        -0.17233169078826904,
        -0.22337542474269867,
        0.39358997344970703,
        0.06870336830615997,
        -0.05496381223201752,
        -0.2046213448047638,
        -0.16758319735527039,
        0.13786566257476807,
        -0.07190315425395966,
        0.09404598921537399,
        -0.049931589514017105,
        -0.2337268590927124,
        -0.009457274340093136,
        -0.09849585592746735,
        0.237367182970047,
        0.020569683983922005,
        -0.1987002044916153,
        -0.2933213710784912,
        0.16588865220546722,
        0.08385349065065384,
        0.25473248958587646,
        -0.1578759253025055,
        -0.08507564663887024,
        0.40782541036605835,
        0.21081312000751495,
        -0.018431194126605988,
        0.1270483434200287,
        -0.16201087832450867,
        -0.21296565234661102,
        0.04830688238143921,
        -0.05158834904432297,
        0.1730770468711853,
        -0.26625877618789673,
        -0.2698812186717987,
        0.013593670912086964,
        0.2438826858997345,
        0.15140153467655182,
        0.3492136597633362,
        0.1620490700006485,
        0.1637858897447586,
        -0.15020659565925598,
        -0.2200462967157364,
        -0.3116792142391205,
        0.3840401768684387,
        0.17691069841384888,
        -0.19799765944480896,
        -0.08754347264766693,
        -0.05579062178730965,
        -0.1094154417514801,
        0.16581179201602936,
        0.14577127993106842,
        -0.08268117159605026,
        -0.016915980726480484,
        0.11385727673768997,
        0.19629380106925964,
        -0.26874229311943054,
        0.2600550353527069,
        0.22538752853870392,
        0.14537115395069122,
        -0.10702565312385559,
        0.17703771591186523,
        -0.11468179523944855,
        0.2115134447813034,
        -0.011674100533127785,
        0.19022996723651886,
        0.022833388298749924,
        0.17794401943683624,
        -0.17482009530067444,
        0.14818955957889557,
        -0.12159980088472366,
        0.15867137908935547,
        -0.21477137506008148,
        -0.27416783571243286,
        0.16473360359668732,
        0.024884188547730446,
        -0.040367502719163895,
        0.5282516479492188,
        0.2512545585632324,
        -0.009599169716238976,
        -0.3728491961956024,
        0.14924636483192444,
        -0.3700205087661743,
        0.312583863735199,
        -0.09057265520095825,
        0.07875540107488632,
        -0.49855026602745056,
        -0.23107023537158966,
        0.07992862910032272,
        0.3365635871887207,
        0.24453391134738922,
        0.39875999093055725,
        -0.13850535452365875,
        -0.24297010898590088,
        -0.03489195555448532,
        0.4191923439502716,
        -0.22215290367603302,
        0.12909355759620667,
        0.19698336720466614,
        0.015069217421114445,
        -0.3511151969432831,
        0.08130614459514618,
        0.19881904125213623,
        0.09178026020526886,
        -0.1272761970758438,
        0.18874479830265045,
        -0.23715688288211823,
        0.13046863675117493,
        0.32914867997169495,
        0.23773781955242157,
        -0.08492870628833771,
        0.09742487221956253,
        0.017226053401827812,
        0.045820269733667374,
        -0.1668248325586319,
        0.49391311407089233,
        0.06180950626730919,
        -0.2821412682533264,
        0.05844234675168991,
        0.2280852347612381,
        0.21232183277606964,
        -0.07307577133178711,
        -0.35525262355804443,
        0.17989535629749298,
        0.1715145707130432,
        -0.04169239476323128,
        -0.29230010509490967,
        -0.0703044980764389,
        0.0389057956635952,
        -0.18897445499897003,
        -0.04484383016824722,
        0.23808184266090393,
        -0.17286647856235504,
        -0.2045847773551941,
        0.04633563756942749,
        0.20294980704784393,
        0.061278872191905975,
        -0.2806215286254883,
        -0.14569906890392303,
        -0.0716400295495987,
        0.05013890564441681,
        0.24077048897743225,
        -0.21007539331912994,
        -0.032444536685943604,
        0.09777578711509705,
        -0.14275681972503662,
        -0.23902425169944763,
        0.02868475392460823,
        0.08985668420791626,
        -0.11194796115159988,
        0.051853734999895096,
        -0.12282944470643997,
        -0.35210946202278137,
        -0.2153061032295227,
        0.0005327020189724863,
        0.07680749893188477,
        -0.3254489302635193,
        0.17906668782234192,
        -0.3295941948890686,
        0.0817641094326973,
        -0.031944241374731064,
        -0.2105855792760849,
        0.07638242840766907,
        0.14452779293060303,
        0.20939421653747559,
        0.14724130928516388,
        -0.147586390376091,
        0.15307407081127167,
        -0.045779868960380554,
        0.05227864161133766,
        0.014408092014491558,
        -0.2115708440542221,
        -0.3510466516017914,
        0.19978030025959015,
        0.20270389318466187,
        -0.03674229979515076,
        0.02107471413910389,
        0.11812300235033035,
        -0.1582241803407669,
        -0.07618022710084915,
        -0.04154481366276741,
        0.012467354536056519,
        -0.11306586116552353,
        0.11630193889141083,
        0.047092679888010025,
        0.07027049362659454,
        0.149661123752594,
        0.03137946501374245,
        -0.3253946900367737,
        -0.0949873998761177,
        -0.25168246030807495,
        0.28179657459259033,
        -0.15181846916675568,
        -0.08805117756128311,
        -0.013612516224384308,
        0.11089777201414108,
        0.00685976492241025,
        0.07670407742261887,
        0.06037833169102669,
        0.049978334456682205,
        -0.011315705254673958,
        -0.5453423261642456,
        -0.09226007759571075,
        0.5098116397857666,
        0.566112756729126,
        -0.8099998831748962,
        1.090172290802002,
        0.08614831417798996,
        -0.4671790897846222,
        -0.29098814725875854,
        0.13831639289855957,
        0.6287798881530762,
        -0.2406872659921646,
        0.1516425907611847,
        0.19659872353076935,
        0.16027921438217163,
        0.31933245062828064,
        -0.19333702325820923,
        0.155959814786911,
        0.3516398072242737,
        0.01799137145280838,
        0.25067201256752014,
        -0.1135563999414444,
        0.020300496369600296,
        0.010627576150000095,
        -0.04118853062391281,
        0.21690012514591217,
        -0.23199111223220825,
        -0.5545908212661743,
        0.1807982325553894,
        0.13855507969856262,
        0.014347320422530174,
        0.21564406156539917,
        -0.027535883709788322,
        0.09476388990879059,
        -0.20322760939598083,
        -0.3816123604774475,
        0.022449232637882233,
        0.24965313076972961,
        -0.3563922643661499,
        -0.10793004184961319,
        -0.3793491721153259,
        0.22032196819782257,
        0.39537185430526733,
        -0.6732708215713501,
        -0.2664578855037689,
        -0.3695504367351532,
        0.07295003533363342,
        -0.061376363039016724,
        -0.40743669867515564,
        -0.21525539457798004,
        -0.012900560162961483,
        -0.6238151788711548,
        -0.1044401079416275,
        0.159526526927948,
        -0.46921083331108093,
        0.3062286376953125,
        0.43407678604125977,
        -0.07507988810539246,
        -0.3621214032173157,
        -0.48315247893333435,
        0.7782288193702698,
        -0.27484390139579773,
        -0.5050086975097656,
        0.4711220860481262,
        -0.0014056067448109388,
        -0.0366232804954052,
        0.02162306010723114,
        -0.17590413987636566,
        0.10124661773443222,
        0.19937865436077118,
        -0.2290841042995453,
        -0.2513692080974579,
        -0.1485138088464737,
        -0.03328481689095497,
        0.1073555201292038,
        -0.15395507216453552,
        0.20895953476428986,
        -0.019582370296120644,
        -0.08622797578573227,
        0.30244696140289307,
        -0.22933508455753326,
        0.1717427670955658,
        0.28722837567329407,
        -0.3821771740913391,
        -0.08437637239694595,
        -0.17982207238674164,
        0.532780110836029,
        -0.3472647964954376,
        -0.08873028308153152,
        -0.022107090801000595,
        0.037123385816812515,
        -0.35757672786712646,
        0.11369702965021133,
        -0.2682965099811554,
        0.16974768042564392,
        -0.07708501815795898,
        -0.09603189677000046,
        -0.02833404764533043,
        0.4517973065376282,
        -0.05319785326719284,
        0.3142085075378418,
        -0.3385651707649231,
        -0.1424325406551361,
        -0.25741735100746155,
        0.2849486172199249,
        0.18351604044437408,
        -0.05737964063882828,
        -0.2503882646560669,
        0.16978353261947632,
        0.25040432810783386,
        0.1868019998073578,
        -0.21379630267620087,
        -0.1963045746088028,
        -0.14157220721244812,
        0.17678678035736084,
        -0.1439591944217682,
        0.04097096621990204,
        0.07028577476739883,
        -0.2379862517118454,
        -0.2580629289150238,
        -0.07399868220090866,
        0.2383040338754654,
        -0.18326281011104584,
        0.19332638382911682,
        -0.24538856744766235,
        -0.07745160907506943,
        0.22802522778511047,
        -0.058421775698661804,
        0.18498900532722473,
        0.40606921911239624,
        -0.1349562108516693,
        0.07344066351652145,
        0.26110008358955383,
        0.1746901273727417,
        -0.5108769536018372,
        0.07014897465705872,
        -0.1898837685585022,
        0.2199372947216034,
        0.06123786047101021,
        0.03475567698478699,
        -0.4521932601928711,
        0.6629847884178162,
        0.05190829932689667,
        0.08524876832962036,
        0.15056602656841278,
        0.0830126404762268,
        -0.2943803071975708,
        -0.2841013967990875,
        -0.35032638907432556,
        0.06187322735786438,
        0.17838284373283386,
        0.04131821170449257,
        -0.05112066864967346,
        0.21070589125156403,
        0.24747835099697113,
        -0.2098880261182785,
        0.327686071395874,
        0.18152402341365814,
        0.6404163241386414,
        -0.19264762103557587,
        -0.019380802288651466,
        -0.11170423030853271,
        -0.47359177470207214,
        -0.050284624099731445,
        0.0291595458984375,
        -0.24454008042812347,
        -0.1552978754043579,
        -0.2953214943408966,
        -0.1831040382385254,
        0.2195744514465332,
        0.45973458886146545,
        -0.08038059622049332,
        0.17073364555835724,
        -0.03008614480495453,
        -0.12476516515016556,
        -0.13071121275424957,
        0.5081247687339783,
        0.11828036606311798,
        -0.2006703019142151,
        0.1406582146883011,
        0.12540674209594727,
        -0.19410385191440582,
        -0.41796571016311646,
        0.05748727172613144,
        -0.2295323759317398,
        0.2635999321937561,
        0.3794974386692047,
        0.29000285267829895,
        -0.3428599238395691,
        0.2740870714187622,
        -0.31769242882728577,
        0.2685236632823944,
        -0.1440185308456421,
        -0.03252262994647026,
        -0.3778701424598694,
        0.08246247470378876,
        -0.21522396802902222,
        0.15003986656665802,
        -0.19955217838287354,
        0.21021665632724762,
        0.8082584142684937,
        -0.021847862750291824,
        -0.13177582621574402,
        0.5946217179298401,
        0.3570670187473297,
        -0.03800654411315918,
        -0.5113111138343811,
        0.3002889156341553,
        -0.23390476405620575,
        -0.06131124496459961,
        0.20010648667812347,
        0.15043650567531586,
        0.6053035855293274,
        -0.3327815532684326,
        -0.08945491164922714,
        -0.10540418326854706,
        -0.06621825695037842,
        -0.20295552909374237,
        -0.43212780356407166,
        -0.006139739416539669,
        0.012415077537298203,
        0.3023046553134918,
        -0.03704651817679405,
        -0.23958082497119904,
        0.29828962683677673,
        0.19788463413715363,
        -0.1695169359445572,
        0.3318065106868744,
        -0.001969012664631009,
        0.19327178597450256,
        -0.0748027041554451,
        0.31787458062171936,
        -0.16477034986019135,
        0.06890647113323212,
        0.0075368392281234264,
        -0.02443176507949829,
        0.14219871163368225,
        0.35551100969314575,
        -0.2609502375125885,
        0.22363188862800598,
        -0.17883194983005524,
        -0.05820451304316521,
        -0.2531725764274597,
        0.07301325350999832,
        -0.13219858705997467,
        0.1338730752468109,
        0.039417605847120285,
        0.2154618203639984,
        -0.5548498034477234,
        0.0816117376089096,
        0.1381186842918396,
        -0.5078842639923096,
        0.03689863160252571,
        0.14403365552425385,
        0.38753485679626465,
        -0.031486231833696365,
        0.2798175811767578,
        -0.009635173715651035,
        -0.3399914801120758,
        -0.29899001121520996,
        0.12183088809251785,
        -0.13626080751419067,
        0.09974734485149384,
        0.028252845630049706,
        0.10042046010494232,
        0.066380575299263,
        0.5949439406394958,
        -0.13480912148952484,
        0.3985362946987152,
        -0.3921296000480652,
        -0.1637558490037918,
        0.07970263063907623,
        0.12720158696174622,
        -0.18847469985485077,
        -0.04886506870388985,
        0.10548942536115646,
        -0.23826457560062408,
        -0.06686436384916306,
        0.07666216045618057,
        -0.5846551060676575,
        -0.28162461519241333,
        0.31532996892929077,
        -0.967875063419342,
        0.46599236130714417,
        0.44170960783958435,
        0.39494985342025757,
        -0.5345783233642578,
        0.42906561493873596,
        -0.42249441146850586,
        0.4067057967185974,
        -0.30754873156547546,
        -0.41082698106765747,
        0.12172810733318329,
        -0.0928649753332138,
        0.1542111337184906,
        -0.32683104276657104,
        -0.400834858417511,
        0.009569716639816761,
        -0.3498382270336151,
        0.19388963282108307,
        0.040180232375860214,
        0.04523269087076187,
        -0.01961742527782917,
        0.5184211730957031,
        0.13666115701198578,
        -0.11833099275827408,
        -0.058001257479190826,
        -0.46658962965011597,
        -0.02623915858566761,
        -0.11623922735452652,
        0.021843677386641502,
        0.02752949297428131,
        -0.08985063433647156,
        0.2880708575248718,
        0.00866053905338049,
        -0.03660796210169792,
        0.2833876311779022,
        0.3828352689743042,
        -0.315068781375885,
        0.47336545586586,
        -0.11122247576713562,
        -0.3372931182384491,
        -0.027588510885834694,
        -0.10996957123279572,
        -0.3951161205768585,
        -0.08938325196504593,
        0.5252732038497925,
        -0.12845799326896667,
        0.02189680002629757,
        0.06177568808197975,
        -0.10603132843971252,
        0.6068342328071594,
        -0.18443574011325836,
        0.24434584379196167,
        -0.1929202675819397,
        -0.2799639105796814,
        -0.14177526533603668,
        0.07276537269353867,
        -0.1454254537820816,
        0.37537047266960144,
        -0.016051068902015686,
        0.23859362304210663,
        -0.22935928404331207,
        0.0476117767393589,
        -0.15352387726306915,
        -0.17919528484344482,
        0.2528972029685974,
        0.011820831336081028,
        -0.20932260155677795,
        -0.09016460180282593,
        0.1615213006734848,
        -0.036847371608018875,
        0.30048251152038574,
        0.09078525006771088,
        0.0986252948641777,
        0.17537321150302887,
        -0.12214239686727524,
        0.11187782138586044,
        0.2620658874511719,
        0.046575095504522324,
        0.04705195501446724,
        -0.09544365108013153,
        0.2123713493347168,
        -0.07761355489492416,
        -0.21707789599895477,
        0.031955912709236145,
        -0.10168132185935974,
        0.04250401258468628,
        -0.021745149046182632,
        0.20671643316745758,
        -0.41049689054489136,
        0.1580721139907837,
        0.2838801443576813,
        0.2119542956352234,
        0.0844929963350296,
        0.237490713596344,
        -0.0869721993803978,
        0.1172289177775383,
        0.15666821599006653,
        -0.48655813932418823,
        0.2786839008331299,
        0.20432712137699127,
        0.003560001729056239,
        0.234286829829216,
        0.09200377762317657,
        -0.13251294195652008,
        0.22918787598609924,
        0.08362453430891037,
        -0.012381146661937237,
        0.053933385759592056,
        0.197397381067276,
        0.18591223657131195,
        0.11422673612833023,
        -0.12657685577869415,
        0.1909450888633728,
        -0.07793173938989639,
        0.06245197728276253,
        0.1531650722026825,
        -0.19088302552700043,
        -0.15387624502182007,
        0.012213251553475857,
        0.04523306339979172,
        0.35644540190696716,
        0.044802382588386536,
        0.4334772229194641,
        -0.07779310643672943,
        -0.05333857610821724,
        -0.5475589632987976,
        0.010165686719119549,
        0.1711997538805008,
        -0.2252783179283142,
        0.043609682470560074,
        0.28060489892959595,
        0.008124866522848606,
        0.16499628126621246,
        0.0617733858525753,
        -0.1937459409236908,
        -0.1409129500389099,
        -0.05370726063847542,
        0.051543958485126495,
        -0.0878615528345108,
        0.1276692897081375,
        0.14428314566612244,
        -0.15007363259792328,
        0.12532861530780792,
        -0.3709568977355957,
        -0.010894806124269962,
        0.008859274908900261,
        -0.42702844738960266,
        0.07440108805894852,
        0.09352272003889084,
        0.13199485838413239,
        -0.11945699155330658,
        -0.3549608886241913,
        0.04857010766863823,
        0.11086288839578629,
        -0.34264686703681946,
        0.12837739288806915,
        -0.08238647878170013,
        0.2793305218219757,
        -0.034732479602098465,
        0.20465493202209473,
        -0.4729515016078949,
        -0.06495282053947449,
        0.2484068125486374,
        0.3017227351665497,
        0.052670739591121674,
        0.13881032168865204,
        -0.39436766505241394,
        -0.026285570114850998,
        -0.2075899839401245,
        -0.3416936695575714,
        0.06006268411874771,
        0.10773977637290955,
        0.06215107813477516,
        -0.18924759328365326,
        -0.17649593949317932,
        -0.0405765138566494,
        -0.18440572917461395,
        -0.04706583172082901,
        0.005588752217590809,
        -0.11851488053798676,
        0.16082414984703064,
        -0.1870495080947876,
        -0.20062799751758575,
        -0.05306312441825867,
        0.2241353690624237,
        0.04647981375455856,
        0.10331189632415771,
        0.059891920536756516,
        -0.0007488710689358413,
        -0.2929198145866394,
        0.15791864693164825,
        0.0060142274014651775,
        -0.07483263313770294,
        -0.024164047092199326,
        -0.02976243756711483,
        0.11466480791568756,
        -0.07764815539121628,
        0.12405532598495483,
        0.1202169880270958,
        -0.08367199450731277,
        0.11413400620222092,
        0.24140506982803345,
        -0.06638407707214355,
        -0.2574341893196106,
        -0.25336313247680664,
        0.13452500104904175,
        0.26274600625038147,
        0.058991193771362305,
        0.01897633820772171,
        -0.1832861751317978,
        -0.4017316401004791,
        0.04722033813595772,
        0.059276122599840164,
        0.12695686519145966,
        -0.20327742397785187,
        -0.5457155108451843,
        0.5131431221961975,
        -0.24111495912075043,
        0.0653359517455101,
        -0.178217813372612,
        -0.027994532138109207,
        -0.1801595389842987,
        -0.15198341012001038,
        0.17203634977340698,
        -0.07835932075977325,
        -0.002616508398205042,
        -0.09878450632095337,
        0.014060351997613907,
        -0.003400614485144615,
        -0.20547591149806976,
        -0.5037973523139954,
        -0.298026442527771,
        -0.37806954979896545,
        0.061581823974847794,
        0.18473917245864868,
        -0.22219769656658173,
        0.07451114058494568,
        -0.128513902425766,
        -0.2003757655620575,
        0.10760719329118729,
        0.46872377395629883,
        0.25763002038002014,
        -0.2328168898820877,
        -0.05450810119509697,
        -0.016205325722694397,
        0.36463895440101624,
        0.09875062108039856,
        -0.12055841088294983,
        0.16062034666538239,
        0.11366651952266693,
        -0.21932557225227356,
        -0.1969062089920044,
        0.17732274532318115,
        0.057994600385427475,
        -0.1233980804681778,
        -0.06271231174468994,
        -0.0690339207649231,
        -0.0866810604929924,
        0.17637230455875397,
        0.2109244465827942,
        0.02765643037855625,
        -0.04135642945766449,
        -0.08715163171291351,
        0.17345213890075684,
        0.25639408826828003,
        -0.3232129216194153,
        0.09842756390571594,
        -0.177703395485878,
        -0.0062143076211214066,
        0.01832960732281208,
        0.01504845917224884,
        0.0037969795521348715,
        -0.14745664596557617,
        0.0722874104976654,
        0.045025430619716644,
        0.0710950717329979,
        -0.05957862734794617,
        -0.8526366949081421,
        0.3801525831222534,
        -0.05540284886956215,
        -0.4229872226715088,
        0.6232212781906128,
        0.49776607751846313,
        -0.9877029061317444,
        -0.0410502552986145,
        0.34260261058807373,
        0.18532805144786835,
        0.18226689100265503,
        -0.062994584441185,
        -0.0842164158821106,
        0.354904443025589,
        0.13505549728870392,
        0.22824086248874664,
        -0.2843271493911743,
        -0.27699530124664307,
        0.08621206879615784,
        -0.30817490816116333,
        0.11713818460702896,
        0.15445739030838013,
        0.13399846851825714,
        -0.1260768324136734,
        0.09056518226861954,
        -0.5145174860954285,
        0.5243619680404663,
        -0.46576571464538574,
        -0.045555002987384796,
        -0.19028331339359283,
        0.11491499841213226,
        -0.17095132172107697,
        0.01930229738354683,
        -0.32232722640037537,
        0.3425655663013458,
        -0.3086852431297302,
        0.12186695635318756,
        0.036439139395952225,
        0.37020745873451233,
        -0.017265785485506058,
        0.2301376909017563,
        -0.21386831998825073,
        -0.08827902376651764,
        0.24854494631290436,
        -0.06357651948928833,
        0.20567747950553894,
        0.0016991420416161418,
        -0.09028110653162003,
        0.15975134074687958,
        -0.29916295409202576,
        0.5190331339836121,
        -0.07406315207481384,
        0.07399429380893707,
        -0.30024003982543945,
        0.33130210638046265,
        0.11976756900548935,
        -0.1529182493686676,
        0.13983522355556488,
        -0.21849478781223297,
        -0.024932527914643288,
        -0.09328983724117279,
        0.029537759721279144,
        -0.08175747841596603,
        -0.37451666593551636,
        -0.16582955420017242,
        0.1485411524772644,
        -0.3026324510574341,
        -0.5429906845092773,
        0.1152663454413414,
        -0.26334109902381897,
        -0.29995298385620117,
        -0.15094232559204102,
        -0.031477030366659164,
        -0.1693526804447174,
        0.0534602552652359,
        -0.04988422989845276,
        -0.2640407681465149,
        -0.13598866760730743,
        -0.1965760886669159,
        -0.12653179466724396,
        -0.024344302713871002,
        -0.39297550916671753,
        -0.0743982270359993,
        0.08617102354764938,
        -0.13372941315174103,
        0.17607158422470093,
        0.1424100697040558,
        -0.05384587496519089,
        -0.17008623480796814,
        0.09565109759569168,
        0.048998959362506866,
        -0.3387936055660248,
        -0.11340611428022385,
        0.1666773557662964,
        -0.14020571112632751,
        0.19499506056308746,
        0.27335959672927856,
        -0.1299837827682495,
        -0.09296254068613052,
        -0.16418007016181946,
        0.08935966342687607,
        -0.24190810322761536,
        0.009151562117040157,
        -0.11200668662786484,
        -0.07274114340543747,
        -0.12471918761730194,
        0.17065322399139404,
        -0.07281145453453064,
        -0.20828993618488312,
        0.14009015262126923,
        0.04817308112978935,
        0.13453353941440582,
        -0.30885836482048035,
        0.01337443571537733,
        -0.2222924679517746,
        0.04218221828341484,
        -0.047983936965465546,
        -0.1621275097131729,
        -0.054752811789512634,
        0.22108685970306396,
        0.15863151848316193,
        -0.37364453077316284,
        -0.12354164570569992,
        0.029065914452075958,
        -0.010375643149018288,
        -0.1601274311542511,
        -0.12618112564086914,
        0.08467264473438263,
        0.1401793509721756,
        0.004382703918963671,
        0.20638714730739594,
        -0.289897620677948,
        -0.07312460243701935,
        -0.08982442319393158,
        0.1667502373456955,
        -0.10098305344581604,
        -0.20838232338428497,
        -0.30799996852874756,
        0.007532889023423195,
        0.14031565189361572,
        0.3176679015159607,
        -0.14153918623924255,
        0.07206995785236359,
        0.1271928995847702,
        -0.019600359722971916,
        0.12471438944339752,
        -0.21996212005615234,
        0.013399370014667511,
        0.1511266827583313,
        -0.23218770325183868,
        0.00546761229634285,
        -0.011685427278280258,
        0.14562861621379852,
        0.24354630708694458,
        0.0740571916103363,
        0.0053613861091434956,
        -0.04865410178899765,
        -0.3715837001800537,
        -0.05386987701058388,
        -0.03714098408818245,
        -0.16407722234725952,
        0.07773732393980026,
        0.01674313098192215,
        -0.5697616338729858,
        -0.06415734440088272,
        -0.2529923617839813,
        -0.0004887170507572591,
        -0.287112832069397,
        -0.1904393881559372,
        -0.341948926448822,
        0.044144947081804276,
        0.13138359785079956,
        -0.15191331505775452,
        0.2357807755470276,
        0.06251882761716843,
        -0.20045697689056396,
        -0.12503820657730103,
        -0.07311081886291504,
        0.10809706896543503,
        0.12703928351402283,
        0.022784527391195297,
        -0.009187900461256504,
        0.25544384121894836,
        0.2791786789894104,
        -0.25586119294166565,
        0.10641380399465561,
        0.23731359839439392,
        -0.11450931429862976,
        -0.0784708708524704,
        -0.09687720984220505,
        0.09977993369102478,
        -0.3083958923816681,
        -0.2820395827293396,
        -0.10717437416315079,
        0.004567698575556278,
        -0.06805679947137833,
        0.1776309758424759,
        -0.23686106503009796,
        -0.259872168302536,
        0.052022725343704224,
        0.1109549030661583,
        0.0006775730289518833,
        -0.22430060803890228,
        0.11240816116333008,
        0.13418956100940704,
        -0.17562848329544067,
        0.02005370892584324,
        0.1698051393032074,
        0.18968075513839722,
        -0.3227597773075104,
        0.0038664937019348145,
        0.17336662113666534,
        -0.09011159092187881,
        0.15226000547409058,
        0.03266014903783798,
        0.13119520246982574,
        -0.030374668538570404,
        0.4505835175514221,
        0.07429767400026321,
        0.25509291887283325,
        -0.14896342158317566,
        0.17200122773647308,
        0.024266013875603676,
        0.09603681415319443,
        -0.26397788524627686,
        0.025618737563490868,
        0.06761939078569412,
        -0.04066343232989311,
        0.09574052691459656,
        0.07103346288204193,
        0.2546285390853882,
        -0.16334736347198486,
        -0.33161526918411255,
        0.08577745407819748,
        -0.04135870933532715,
        0.19833937287330627,
        -0.029296087101101875,
        -0.04639940336346626,
        -0.19669896364212036,
        -0.09994388371706009,
        -0.3456481695175171,
        -0.2038075029850006,
        -0.08512775599956512,
        0.1621321141719818,
        0.1755698025226593,
        -0.1631736308336258,
        -0.2904464304447174,
        -0.17057666182518005,
        -0.03272475674748421,
        0.3331853449344635,
        0.08724995702505112,
        -0.20400957763195038,
        0.2073262333869934,
        0.09719908237457275,
        0.11227121204137802,
        0.1561468094587326,
        -0.07371031492948532,
        0.04251227155327797,
        0.2794787585735321,
        0.10272233933210373,
        -0.05632349103689194,
        -0.035444777458906174,
        0.056691162288188934,
        0.013691753149032593,
        -0.5731796622276306,
        -0.19020311534404755,
        -0.021075449883937836,
        0.3847960829734802,
        0.02357984334230423,
        -0.11124330759048462,
        0.3606076240539551,
        0.06672235578298569,
        -0.02922852523624897,
        0.06140526756644249,
        -0.15386657416820526,
        -0.024651912972331047,
        -0.16160182654857635,
        0.09817103296518326,
        -0.06412413716316223,
        -0.03510861471295357,
        -0.37314748764038086,
        -0.7638104557991028,
        -0.2637246251106262,
        -1.0324978828430176,
        0.6140078902244568,
        0.490021288394928,
        -0.8319729566574097,
        -0.3450276851654053,
        0.23225237429141998,
        -0.5575717091560364,
        0.08965882658958435,
        0.21202117204666138,
        -0.2540472745895386,
        0.5220873951911926,
        -0.058762650936841965,
        0.10325368493795395,
        -0.17339813709259033,
        -0.12676462531089783,
        0.27639442682266235,
        -0.2295394390821457,
        -0.11690785735845566,
        0.2287777215242386,
        -0.11668537557125092,
        0.18726801872253418,
        0.5454221367835999,
        0.4774947762489319,
        0.10652153193950653,
        0.12173575907945633,
        -0.08133508265018463,
        -0.05834939703345299,
        0.16563381254673004,
        -0.00754006952047348,
        0.45173075795173645,
        0.13608615100383759,
        -0.3126737177371979,
        0.3662037253379822,
        -0.03875846415758133,
        0.2760063707828522,
        -0.028676152229309082,
        -0.2588101029396057,
        -0.24982120096683502,
        0.06568850576877594,
        -0.1216716542840004,
        0.11845511198043823,
        -0.3681067228317261,
        0.1877175271511078,
        -0.3128488063812256,
        0.10151050239801407,
        0.1993916779756546,
        0.48235073685646057,
        0.08549930900335312,
        -0.06119789928197861,
        0.5407504439353943,
        -0.17576539516448975,
        0.11195233464241028,
        0.0074224332347512245,
        0.20737022161483765,
        0.28886011242866516,
        -0.01944003254175186,
        0.022653087973594666,
        -0.31414148211479187,
        0.049495816230773926,
        -0.1056632474064827,
        0.06830722838640213,
        0.11058297008275986,
        0.384246826171875,
        0.2050894945859909,
        -0.1333511918783188,
        0.013968244194984436,
        -0.11586809903383255,
        0.12916415929794312,
        -0.1978728473186493,
        0.03629437834024429,
        -0.116842120885849,
        -0.2644253075122833,
        0.11474059522151947,
        0.14756885170936584,
        0.050382569432258606,
        0.18759143352508545,
        -0.08575837314128876,
        0.0360662043094635,
        0.05881651118397713,
        -0.28539803624153137,
        0.11992567777633667,
        0.30635538697242737,
        -0.06506749987602234,
        -0.08310162276029587,
        -0.09976767003536224,
        0.22429165244102478,
        0.15314213931560516,
        -0.03792799636721611,
        -0.34120190143585205,
        -0.013635322451591492,
        -0.04099513217806816,
        -0.058492910116910934,
        -0.21394991874694824,
        -0.2714223861694336,
        0.19900847971439362,
        0.02579907327890396,
        0.06267830729484558,
        -0.18075498938560486,
        -0.05908266082406044,
        -0.15886768698692322,
        0.4546552896499634,
        0.16145206987857819,
        0.008513187058269978,
        0.1454554945230484,
        -0.10927729308605194,
        -0.11212977766990662,
        -0.4926031827926636,
        0.024775465950369835,
        0.13827010989189148,
        0.21555079519748688,
        -0.0868750661611557,
        0.0001641537674004212,
        -0.0755053162574768,
        -0.09949885308742523,
        -0.04892875626683235,
        0.3475089967250824,
        0.07882107049226761,
        0.03807180002331734,
        -0.25352874398231506,
        0.040707677602767944,
        -0.12000668793916702,
        -0.12695269286632538,
        0.10521995276212692,
        0.07427062839269638,
        -0.2802669107913971,
        -0.25059768557548523,
        -0.1426781564950943,
        0.10218396037817001,
        -0.06868588924407959,
        0.001963979098945856,
        -0.030490636825561523,
        0.20137780904769897,
        0.060400985181331635,
        0.12520678341388702,
        -0.29548192024230957,
        0.14279596507549286,
        0.2644244432449341,
        0.18141449987888336,
        -0.25516819953918457,
        0.12204650044441223,
        0.30506590008735657,
        0.2152308076620102,
        -0.11336997896432877,
        -0.07503718137741089,
        0.12713836133480072,
        0.0912473276257515,
        0.164637953042984,
        0.7743816375732422,
        -0.018733534961938858,
        0.03717279061675072,
        0.18484564125537872,
        0.022022278979420662,
        -0.07398056983947754,
        0.23620060086250305,
        0.2269870787858963,
        0.17109161615371704,
        -0.04126667603850365,
        0.27544552087783813,
        -0.10855022072792053,
        -0.14135536551475525,
        0.08874354511499405,
        -0.08400017768144608,
        -0.16512247920036316,
        -0.15142633020877838,
        0.1517401486635208,
        -0.1480654776096344,
        0.21205271780490875,
        0.0953272357583046,
        -0.010315037332475185,
        -0.21611528098583221,
        -0.06741849333047867,
        -0.1912030130624771,
        -0.08387758582830429,
        -0.09240895509719849,
        -0.20197899639606476,
        -0.07878328859806061,
        -0.00785242859274149,
        -0.1358083039522171,
        0.3259861469268799,
        0.1032932922244072,
        0.06634699553251266,
        -0.2517226040363312,
        -0.02967253141105175,
        0.03795410320162773,
        0.08837149292230606,
        -0.011971460655331612,
        -0.09360533207654953,
        -0.2635572850704193,
        0.04495367035269737,
        0.16742126643657684,
        0.3011859953403473,
        -0.12162631750106812,
        -0.030600126832723618,
        0.1857147514820099,
        0.09486772119998932,
        -0.09989200532436371,
        0.12529818713665009,
        -0.14659973978996277,
        -0.05381249636411667,
        0.1921813189983368,
        -0.0931851714849472,
        0.1736108809709549,
        -0.230208620429039,
        -0.2858492434024811,
        0.02016242779791355,
        -0.5711360573768616,
        0.045614082366228104,
        0.11409371346235275,
        -0.05376662686467171,
        0.053966909646987915,
        0.001357612549327314,
        0.3025166392326355,
        -0.0638478696346283,
        -0.27699410915374756,
        -0.14570745825767517,
        -0.034551654011011124,
        -0.13963834941387177,
        -0.16825340688228607,
        0.26292678713798523,
        0.0155760757625103,
        -0.2566010653972626,
        -0.02842041291296482,
        0.03739102557301521,
        0.14954248070716858,
        0.12180584669113159,
        0.037669435143470764,
        -0.32756587862968445,
        -0.11161143332719803,
        -0.1512710005044937,
        0.06718166172504425,
        0.15255117416381836,
        0.030505269765853882,
        -0.2626328766345978,
        -0.05179732292890549,
        -0.15315896272659302,
        0.171495720744133,
        -0.4070552587509155,
        -0.09627947211265564,
        -0.11952141672372818,
        -0.0788629949092865,
        -0.008146032691001892,
        -0.04994160309433937,
        -0.03659028559923172,
        -0.185530886054039,
        -0.20766156911849976,
        0.03921427205204964,
        -0.04974022135138512,
        -0.06115102395415306,
        0.09672341495752335,
        0.09559738636016846,
        -0.0011185812763869762,
        -0.22997026145458221,
        -0.0709242895245552,
        -0.00849121529608965,
        0.06662967056035995,
        -0.009658295661211014,
        -0.30473434925079346,
        0.30706992745399475,
        0.11212210357189178,
        0.12475613504648209,
        -0.006345339585095644,
        0.04322274401783943,
        0.29278063774108887,
        0.15427611768245697,
        0.07385160028934479,
        -0.1671101599931717,
        -0.2356315702199936,
        0.025429897010326385,
        0.11859293282032013,
        -0.13334713876247406,
        0.024446086958050728,
        -0.05753200128674507,
        -0.14602871239185333,
        -0.002437107264995575,
        0.1476188600063324,
        0.08158647269010544,
        0.18170012533664703,
        -0.34096989035606384,
        0.02826947346329689,
        -0.14486093819141388,
        0.23218438029289246,
        -0.21985648572444916,
        0.16533954441547394,
        -0.661210298538208,
        0.6126444935798645,
        0.6668855547904968,
        -0.025126725435256958,
        -0.02406124211847782,
        -0.12902584671974182,
        -0.07956283539533615,
        -0.3124763071537018,
        0.1390848010778427,
        0.3831027150154114,
        0.27275097370147705,
        0.22990354895591736,
        0.3556479513645172,
        0.06676771491765976,
        0.1477012187242508,
        0.04962122067809105,
        -0.06595594435930252,
        -0.09334059059619904,
        0.08024930208921432,
        0.024976300075650215,
        -0.19241145253181458,
        -0.22169505059719086,
        0.22536787390708923,
        0.19209405779838562,
        0.21774937212467194,
        -0.09510212391614914,
        0.29628437757492065,
        -0.06542393565177917,
        -0.508709192276001,
        -0.3280380666255951,
        0.14061887562274933,
        0.14530117809772491,
        0.25507548451423645,
        0.5683321356773376,
        -0.20080016553401947,
        -0.14949573576450348,
        0.013590528629720211,
        0.1009003221988678,
        -0.2568424344062805,
        -0.07138905674219131,
        0.20145808160305023,
        0.30926623940467834,
        -0.5681828260421753,
        -0.020192233845591545,
        0.005472477059811354,
        0.004053295589983463,
        -0.4045504629611969,
        -0.08855163305997849,
        -0.10927043855190277,
        0.1966148167848587,
        -0.2800808250904083,
        0.5221348404884338,
        -0.1766846477985382,
        0.2531055808067322,
        0.11828689277172089,
        0.07981489598751068,
        0.10701590031385422,
        0.20552237331867218,
        -0.5129023790359497,
        -0.19351840019226074,
        0.043024469166994095,
        0.02837180905044079,
        0.2232580929994583,
        -0.11872830241918564,
        -0.2845197916030884,
        -0.2391292154788971,
        -0.29198917746543884,
        0.36475515365600586,
        -0.07553102821111679,
        -0.25707244873046875,
        -0.02365082874894142,
        -0.18366694450378418,
        -0.18116730451583862,
        0.2500959038734436,
        -0.1480206698179245,
        -0.025673439726233482,
        0.19800131022930145,
        -0.006849390454590321,
        -0.06797217577695847,
        0.054057493805885315,
        -0.0946076363325119,
        0.3185538649559021,
        -0.09937672317028046,
        -0.021684277802705765,
        -0.18418602645397186,
        0.6522077918052673,
        0.11934374272823334,
        -0.11686563491821289,
        0.05146143585443497,
        0.06147079914808273,
        0.22169189155101776,
        -0.16532669961452484,
        0.03216089680790901,
        -0.101683609187603,
        0.09165531396865845,
        0.026372326537966728,
        0.033763643354177475,
        -0.10873407125473022,
        0.08210199326276779,
        -0.2817695736885071,
        0.11852846294641495,
        0.027018291875720024,
        0.15332314372062683,
        0.11691923439502716,
        0.07944926619529724,
        -0.1744498759508133,
        0.26097673177719116,
        -0.0790129229426384,
        -0.28492626547813416,
        -0.14881980419158936,
        -0.06780382990837097,
        0.1400512158870697,
        0.2606658637523651,
        -0.22004249691963196,
        -0.1133946105837822,
        0.06157395616173744,
        -0.27243638038635254,
        -0.028751801699399948,
        -0.038685645908117294,
        0.12211356312036514,
        0.04676715284585953,
        0.16542184352874756,
        -0.12428861856460571,
        0.04248424619436264,
        0.3811730742454529,
        -0.010923225432634354,
        -0.13024567067623138,
        0.13736528158187866,
        0.29576438665390015,
        0.2772325277328491,
        0.10058893263339996,
        -0.6498832702636719,
        -0.20908693969249725,
        0.19133032858371735,
        -0.19512587785720825,
        -0.3257123529911041,
        -0.29043594002723694,
        0.4812336266040802,
        0.2518635094165802,
        -0.09397665411233902,
        -0.1508241891860962,
        -0.22501401603221893,
        0.041095513850450516,
        -0.17889197170734406,
        -0.13032959401607513,
        -0.27244308590888977,
        -0.06232764571905136,
        -0.14010201394557953,
        0.07781278342008591,
        0.04508725181221962,
        0.15727804601192474,
        -0.28590095043182373,
        -0.17825523018836975,
        -0.08741400390863419,
        -0.11420393735170364,
        0.1373988837003708,
        -0.09051389992237091,
        -0.014322182163596153,
        0.11046542972326279,
        0.0866287425160408,
        0.43452462553977966,
        -0.14913100004196167,
        -0.04727485030889511,
        -0.262901246547699,
        -0.014708003960549831,
        0.006069308612495661,
        0.576996386051178,
        0.058784838765859604,
        0.0015386722516268492,
        -0.5573900938034058,
        0.04005136713385582,
        -0.13266301155090332,
        -0.08788671344518661,
        -0.1374010592699051,
        -0.17155180871486664,
        0.04570109397172928,
        -0.053991999477148056,
        0.16801221668720245,
        0.1292882263660431,
        0.3755733072757721,
        0.31211596727371216,
        -0.10159838199615479,
        -0.012954809702932835,
        -0.06732794642448425,
        0.002728072227910161,
        -0.04052630811929703,
        -0.0803137943148613,
        -0.02718507871031761,
        0.12478456646203995,
        0.603731095790863,
        0.05079697445034981,
        0.060428738594055176,
        -0.07095970213413239,
        -0.2241993099451065,
        0.2793892025947571,
        0.3026811182498932,
        0.09939024597406387,
        0.1103060394525528,
        0.19472083449363708,
        0.10401254892349243,
        0.052014317363500595,
        0.13945767283439636,
        0.3338862657546997,
        0.10275625437498093,
        -0.15607872605323792,
        -0.406109482049942,
        -0.17576813697814941,
        -0.17616336047649384,
        -0.20488350093364716,
        -0.2691459059715271,
        -0.07503415644168854,
        -0.036838434636592865,
        0.06671035289764404,
        0.14530721306800842,
        -0.13541334867477417,
        -0.17843139171600342,
        -0.34352460503578186,
        -0.17963171005249023,
        -0.08136245608329773,
        0.14313660562038422,
        0.122173011302948,
        -0.06373406946659088,
        0.24971312284469604,
        0.20350094139575958,
        -0.0032851698342710733,
        0.107086680829525,
        -0.0025752997025847435,
        -0.29916492104530334,
        -0.026258546859025955,
        0.1825263351202011,
        -0.07291974872350693,
        -0.1767210066318512,
        0.20637530088424683,
        0.04877953976392746,
        -0.13426896929740906,
        -0.07600583881139755,
        -0.058322831988334656,
        0.051262833178043365,
        0.04067206382751465,
        0.021379593759775162,
        0.2664899528026581,
        0.03563486784696579,
        0.17695870995521545,
        0.10738035291433334,
        -0.20375309884548187,
        0.09421966969966888,
        0.054123833775520325,
        -0.24844402074813843,
        -0.006583609618246555,
        -0.09750821441411972,
        0.3498205244541168,
        0.1701214462518692,
        0.10964519530534744,
        -0.2945540249347687,
        -0.10700581222772598,
        -0.02331826463341713,
        0.4268627166748047,
        -0.19516119360923767,
        -0.07310914248228073,
        -0.2871483862400055,
        0.0058402251452207565,
        0.06375075876712799,
        -0.24893033504486084,
        -0.1244187206029892,
        -0.06136873736977577,
        -0.22183017432689667,
        0.17260630428791046,
        -0.08944443613290787,
        -0.3765523433685303,
        -0.07781469821929932,
        0.05448732152581215,
        -0.3385656476020813,
        0.026374010369181633,
        0.15903303027153015,
        -0.7133535146713257,
        -0.26557692885398865,
        -0.574454665184021,
        0.8795371055603027,
        0.6039109826087952,
        -0.02441488765180111,
        -0.7254601120948792,
        -0.862333357334137,
        -0.30309441685676575,
        -0.3335646986961365,
        0.13531582057476044,
        0.09265092015266418,
        0.3078180253505707,
        0.2514287233352661,
        -0.3382450342178345,
        0.03962930664420128,
        0.1909431666135788,
        -0.17788255214691162,
        -0.015308542177081108,
        0.04075596481561661,
        -0.219414621591568,
        0.12566997110843658,
        -0.02448473498225212,
        -0.288539320230484,
        0.40463587641716003,
        -0.564692497253418,
        0.30603525042533875,
        0.40845736861228943,
        0.15429364144802094,
        0.085432268679142,
        -0.011439534835517406,
        0.15943285822868347,
        -0.7448866367340088,
        -0.4851776659488678,
        -0.2088399976491928,
        0.2901324927806854,
        0.02922412008047104,
        0.5486418604850769,
        0.1985645741224289,
        -0.18575221300125122,
        -0.3179929852485657,
        0.012204512022435665,
        -0.47201040387153625,
        -0.4494894742965698,
        -0.030819660052657127,
        0.3670865595340729,
        0.22123321890830994,
        0.025037026032805443,
        0.05830403417348862,
        0.10046285390853882,
        -0.041894230991601944,
        -0.16811473667621613,
        -0.005681149195879698,
        -0.08900120109319687,
        0.0990394726395607,
        -0.199345663189888,
        -0.16070781648159027,
        0.09405656158924103,
        0.07276510447263718,
        0.25724974274635315,
        0.35796135663986206,
        -0.28608113527297974,
        0.008525481447577477,
        -0.126892551779747,
        0.33495086431503296,
        -0.45146673917770386,
        0.0036087259650230408,
        -0.11028970032930374,
        0.3455219268798828,
        -0.056770045310258865,
        -0.1700233817100525,
        0.1519518941640854,
        0.3669203221797943,
        0.04390472173690796,
        -0.15069454908370972,
        0.34352272748947144,
        -0.1792033165693283,
        -0.04826580733060837,
        -0.24974161386489868,
        -0.12779787182807922,
        -0.2765111029148102,
        -0.14300794899463654,
        -0.37151986360549927,
        -0.031745702028274536,
        0.2373603880405426,
        -0.4384094774723053,
        -0.05612776055932045,
        -0.02170821651816368,
        0.17094381153583527,
        0.3599465489387512,
        -0.09480822086334229,
        -0.14369624853134155,
        -0.17386984825134277,
        -0.3701937198638916,
        0.05094451829791069,
        0.18277224898338318,
        0.19397006928920746,
        0.004845533985644579,
        0.12107071280479431,
        -0.2705744504928589,
        0.1805635690689087,
        0.17619235813617706,
        -0.3993445038795471,
        -0.06264959275722504,
        0.22593607008457184,
        -0.10981562733650208,
        -0.1370742917060852,
        0.1802411675453186,
        -0.07382356375455856,
        0.17421573400497437,
        -0.05746559053659439,
        0.16202138364315033,
        0.06503893435001373,
        -0.04632556065917015,
        -0.008983907289803028,
        0.3049856126308441,
        0.1539192497730255,
        -0.20716159045696259,
        -0.046836018562316895,
        0.15087167918682098,
        -0.04471777379512787,
        0.15475386381149292,
        -0.07947959750890732,
        0.11467741429805756,
        -0.08461941033601761,
        0.17898115515708923,
        0.14532166719436646,
        -0.01762821525335312,
        -0.17308081686496735,
        0.3231624662876129,
        -0.28969910740852356,
        -0.09418094903230667,
        -0.4306546151638031,
        -0.16835083067417145,
        0.2158621847629547,
        0.04112278297543526,
        0.025286909192800522,
        0.03442978858947754,
        0.2452714592218399,
        0.02344869263470173,
        -0.16823430359363556,
        0.17303436994552612,
        -0.10631921142339706,
        0.34421345591545105,
        -0.1470988392829895,
        -0.14132553339004517,
        0.1899595558643341,
        -0.016233574599027634,
        0.1338503211736679,
        -0.3101697266101837,
        0.017111098393797874,
        -0.0006626390968449414,
        -0.19321928918361664,
        -0.059059519320726395,
        -0.14955006539821625,
        0.2430313229560852,
        -0.15417376160621643,
        -0.13227587938308716,
        0.8285715579986572,
        -0.12217656522989273,
        -0.3774741291999817,
        0.16815418004989624,
        -0.03720898926258087,
        -0.016517113894224167,
        -0.019109010696411133,
        0.16158732771873474,
        0.35299721360206604,
        -0.03516344353556633,
        0.40684646368026733,
        0.24148960411548615,
        -0.38151657581329346,
        0.0028673848137259483,
        0.3916398584842682,
        0.07008310407400131,
        0.09721336513757706,
        0.023869358003139496,
        0.033838316798210144,
        -0.1285800039768219,
        -0.36013880372047424,
        -0.09791019558906555,
        -0.24290549755096436,
        -0.47842732071876526,
        0.09818287938833237,
        0.018853692337870598,
        -0.15430240333080292,
        -0.011335297487676144,
        0.02759966067969799,
        0.03497317060828209,
        -0.09068147093057632,
        -0.08711688965559006,
        -0.04158502444624901,
        -0.15193456411361694,
        0.10031268000602722,
        -0.08636707067489624,
        -0.31962287425994873,
        0.18947772681713104,
        -0.1623688042163849,
        -0.2977810204029083,
        -0.11313378810882568,
        0.4508887529373169,
        -0.4348689913749695,
        -0.6372355222702026,
        -0.11755320429801941,
        -0.5388205051422119,
        0.12037814408540726,
        -0.5218529105186462,
        -0.19984596967697144,
        -0.14599719643592834,
        0.22791340947151184,
        0.3891652226448059,
        -0.7026576399803162,
        0.5682584047317505,
        -0.5898903012275696,
        0.13030323386192322,
        -0.401140034198761,
        -0.21719655394554138,
        0.33587029576301575,
        0.4656144082546234,
        0.059101805090904236,
        -0.17274470627307892,
        -0.3347938060760498,
        -0.1141989678144455,
        0.18505863845348358,
        -0.1702304482460022,
        -0.1276596188545227,
        0.4094918370246887,
        0.056113168597221375,
        0.030149098485708237,
        -0.187254399061203,
        0.09848068654537201,
        0.043100036680698395,
        0.19206440448760986,
        -0.304587721824646,
        -0.30585819482803345,
        0.04791288450360298,
        -0.1847994327545166,
        -0.5003650188446045,
        0.6506633162498474,
        0.030517227947711945,
        0.09245435148477554,
        1.100771188735962,
        0.13342750072479248,
        0.29503723978996277,
        0.5094956159591675,
        0.010718445293605328,
        0.31463533639907837,
        -0.22292833030223846,
        0.1757495254278183,
        0.505965530872345,
        -0.426339715719223,
        -0.04590426757931709,
        -0.11216147989034653,
        -0.5920701622962952,
        -0.051833201199769974,
        -0.26006418466567993,
        -0.4084240198135376,
        0.20858389139175415,
        -0.16089408099651337,
        0.11770270764827728,
        0.005118576344102621,
        -0.5255043506622314,
        0.02187202498316765,
        -0.015439179725944996,
        0.17277389764785767,
        0.07332232594490051,
        -0.023848749697208405,
        0.20646679401397705,
        -0.10603594034910202,
        0.08239436149597168,
        -0.0759325698018074,
        -0.07408498227596283,
        -0.14006303250789642,
        0.06568904966115952,
        1.2413569688796997,
        -0.7643798589706421,
        -0.008894992992281914,
        -0.4494647979736328,
        0.02465406060218811,
        0.2369469702243805,
        -0.14812874794006348,
        -0.31957194209098816,
        0.7347425818443298,
        -0.42868223786354065,
        -0.12435729801654816,
        0.5704758167266846,
        0.21175408363342285,
        -0.40525513887405396,
        0.30531707406044006,
        0.24229475855827332,
        -0.16063043475151062,
        -0.12572692334651947,
        0.1284331977367401,
        0.267717182636261,
        -0.03556675463914871,
        0.2828935980796814,
        -0.4055487811565399,
        -0.20703989267349243,
        -0.10744434595108032,
        0.29391908645629883,
        0.04508969560265541,
        -0.11695835739374161,
        -0.03850408270955086,
        -0.03932826220989227,
        0.05497395619750023,
        -0.08515702933073044,
        -0.018790841102600098,
        0.11026395857334137,
        0.029583923518657684,
        0.013077666983008385,
        -0.13153192400932312,
        0.105323426425457,
        -0.0758218839764595,
        0.09981619566679001,
        -0.11884668469429016,
        0.046962592750787735,
        -0.05114341154694557,
        -0.1854771077632904,
        0.027782170102000237,
        -0.15190620720386505,
        -0.1786496788263321,
        -0.08094774186611176,
        -0.19273945689201355,
        0.17291498184204102,
        -0.04136575013399124,
        0.09535613656044006,
        0.11785627901554108,
        0.04356346279382706,
        -0.07230323553085327,
        0.585658848285675,
        -0.01780666783452034,
        -0.07564792782068253,
        0.7014694809913635,
        -0.12363097071647644,
        -0.34452980756759644,
        -0.12794646620750427,
        -0.05864245444536209,
        0.0146692069247365,
        -0.281303346157074,
        0.013734140433371067,
        -0.008834556676447392,
        0.12965089082717896,
        0.032671865075826645,
        -0.05908989906311035,
        -0.19827844202518463,
        0.1872597485780716,
        0.0883035808801651,
        -0.7146608233451843,
        0.14706014096736908,
        0.8556390404701233,
        0.6929543018341064,
        0.25736740231513977,
        -0.20009925961494446,
        -0.4322737157344818,
        -0.1795239895582199,
        -0.39869585633277893,
        0.04218205437064171,
        0.012538619339466095,
        0.1442083865404129,
        -0.37992504239082336,
        0.22420279681682587,
        0.13342782855033875,
        -0.15774188935756683,
        0.2506752908229828,
        0.37678107619285583,
        0.21600471436977386,
        0.24251893162727356,
        -0.04573628678917885,
        0.20970065891742706,
        0.382110059261322,
        -0.11398226022720337,
        -0.12871390581130981,
        0.42284873127937317,
        -0.10933567583560944,
        -0.3096688985824585,
        0.10361794382333755,
        -0.012085399590432644,
        0.43517643213272095,
        -0.05949857831001282,
        0.2465433031320572,
        1.0323973894119263,
        0.5382307767868042,
        -0.16768911480903625,
        0.3767133355140686,
        0.15593765676021576,
        0.05493081733584404,
        0.09547527134418488,
        0.006479257717728615,
        0.13438637554645538,
        0.6317253708839417,
        0.5167708396911621,
        0.5552008152008057,
        0.8769400119781494,
        0.6580139398574829,
        -0.07850947976112366,
        0.04737655445933342,
        -0.31066444516181946,
        -0.13899779319763184,
        -0.42867740988731384,
        -0.419820636510849,
        0.26102426648139954,
        0.05666673928499222,
        -0.015264198184013367,
        0.2930494546890259,
        0.7476125955581665,
        0.5943278670310974,
        -0.356951504945755,
        0.08327752351760864,
        0.030924281105399132,
        -0.00028763810405507684,
        0.06831131875514984,
        0.1440347284078598,
        -0.4119376242160797,
        -0.39706289768218994,
        0.08544939756393433,
        -0.39664047956466675,
        -0.5828759074211121,
        0.20334558188915253,
        -0.3481946289539337,
        -0.015657074749469757,
        0.11522996425628662,
        0.13161490857601166,
        0.4921713173389435,
        -0.5632161498069763,
        0.1650826781988144,
        -0.4133484363555908,
        0.6515108346939087,
        0.6155216693878174,
        0.36724668741226196,
        0.21377407014369965,
        0.0598360113799572,
        0.02794387750327587,
        -0.3268846571445465,
        0.2540772259235382,
        0.392235666513443,
        0.5156649947166443,
        -0.19003023207187653,
        -0.14094074070453644,
        0.19885727763175964,
        0.3806852102279663,
        0.5565273761749268,
        0.04923319071531296,
        0.1170281171798706,
        0.16404569149017334,
        -0.32875433564186096,
        -0.37350115180015564,
        -0.39123833179473877,
        0.24361872673034668,
        0.15821538865566254,
        -0.29905539751052856,
        0.35692840814590454,
        -0.12336514890193939,
        -0.045847244560718536,
        0.41589730978012085,
        0.1256944090127945,
        -0.06423717737197876,
        -0.002931426977738738,
        -0.19627675414085388,
        0.2218039333820343,
        0.12664255499839783,
        0.014745724387466908,
        0.06612763553857803,
        -0.1538429707288742,
        -0.013898883014917374,
        -0.13487091660499573,
        0.42716896533966064,
        -0.20942407846450806,
        0.05339803174138069,
        0.349267840385437,
        0.11660362035036087,
        0.13792110979557037,
        0.10467330366373062,
        -0.04111114889383316,
        0.2313786894083023,
        -0.24491143226623535,
        0.06839528679847717,
        -0.009504685178399086,
        -0.2652885615825653,
        0.010304667986929417,
        -0.28117719292640686,
        0.16283021867275238,
        0.6300209760665894,
        0.49149754643440247,
        -0.3985837399959564,
        -0.16436326503753662,
        0.34021008014678955,
        -0.034307774156332016,
        -0.07977155596017838,
        0.31452715396881104,
        0.012840754352509975,
        -0.10031689703464508,
        0.2567506432533264,
        -0.026945332065224648,
        0.003403184236958623,
        0.2051275670528412,
        0.032225679606199265,
        0.2616133391857147,
        0.12013031542301178,
        0.07887391000986099,
        -0.08814225345849991,
        -0.22119425237178802,
        -0.3715246021747589,
        -0.17376653850078583,
        0.555820107460022,
        -0.012385310605168343,
        0.052932560443878174,
        0.4380442202091217,
        0.011489791795611382,
        -0.5802804827690125,
        0.9100760221481323,
        0.4366306662559509,
        -0.6679167747497559,
        -0.29445672035217285,
        0.16605432331562042,
        -0.19639064371585846,
        -1.1560194492340088,
        0.6069803833961487,
        0.15429483354091644,
        0.08090706169605255,
        -0.4696747958660126,
        -0.48847997188568115,
        -0.36935630440711975,
        -0.09916702657938004,
        -0.35687384009361267,
        0.44008171558380127,
        0.029905296862125397,
        0.04445972666144371,
        0.12463679909706116,
        0.022994276136159897,
        0.061927828937768936,
        0.3711273968219757,
        0.016548549756407738,
        0.1042790487408638,
        0.38661813735961914,
        -0.03707505017518997,
        -0.10572876036167145,
        0.36603599786758423,
        0.09659075736999512,
        -0.13641710579395294,
        -0.26490646600723267,
        -0.16281618177890778,
        -0.18271295726299286,
        0.26614686846733093,
        0.11713434010744095,
        0.005893486086279154,
        -0.051388490945100784,
        0.3287445902824402,
        0.3181280195713043,
        -0.1296217143535614,
        -0.00872450415045023,
        -0.02108120359480381,
        -0.1048324853181839,
        -0.03614829480648041,
        0.24723900854587555,
        0.13180649280548096,
        -0.0073805321007966995,
        -0.2632496953010559,
        -0.49077364802360535,
        0.12821316719055176,
        -0.08331824094057083,
        0.18440307676792145,
        -0.017300836741924286,
        -0.06866870820522308,
        0.08527300506830215,
        -0.014649515971541405,
        -0.03988633304834366,
        -0.38796424865722656,
        0.025992900133132935,
        -0.1310097873210907,
        -0.4116480052471161,
        -0.017768943682312965,
        0.1297408491373062,
        -0.025814270600676537,
        -0.17570313811302185,
        -0.21256008744239807,
        0.09777512401342392,
        -0.11574672162532806,
        0.2767432928085327,
        0.06346441805362701,
        0.26124608516693115,
        -0.17933891713619232,
        -0.37441107630729675,
        0.4276086390018463,
        0.16413038969039917,
        -0.2780742943286896,
        -0.5448938012123108,
        -0.3732575476169586,
        0.6213353872299194,
        -0.08414065092802048,
        0.15438151359558105,
        -0.001156131736934185,
        0.4296969771385193,
        0.3693477213382721,
        -0.32749003171920776,
        0.6254559755325317,
        -0.3126511573791504,
        -0.11960619688034058,
        -0.4686553478240967,
        -0.5160930752754211,
        0.17097139358520508,
        -0.07770055532455444,
        -0.10606217384338379,
        0.2112209051847458,
        0.17377042770385742,
        -0.03383241966366768,
        0.20215356349945068,
        0.3265223801136017,
        -0.30671587586402893,
        -0.2818930745124817,
        0.18873438239097595,
        0.4134449064731598,
        -0.18813087046146393,
        0.8737615346908569,
        0.07203058153390884,
        0.1814984381198883,
        -0.006186808925122023,
        -0.018509728834033012,
        0.22029200196266174,
        -0.13571038842201233,
        0.03864292427897453,
        0.2661588191986084,
        -0.0995618924498558,
        0.05084652081131935,
        -0.424834281206131,
        0.45118433237075806,
        0.07613618671894073,
        0.19987042248249054,
        0.09613722562789917,
        -0.15031000971794128,
        -0.2188486009836197,
        0.1129445880651474,
        0.022536493837833405,
        -0.13095127046108246,
        -0.21624290943145752,
        0.2853335738182068,
        0.18051770329475403,
        -0.09604760259389877,
        -0.056831393390893936,
        -0.22680170834064484,
        -0.06661709398031235,
        0.17198124527931213,
        0.049860600382089615,
        -0.002960280980914831,
        0.16486771404743195,
        -0.1313600242137909,
        -0.045938875526189804,
        -0.22166025638580322,
        0.2688235342502594,
        -0.36201441287994385,
        -0.37502434849739075,
        0.003624723292887211,
        0.1790761798620224,
        -0.05545482411980629,
        -0.04886989668011665,
        -0.40859824419021606,
        -0.2953818738460541,
        -0.37355637550354004,
        -0.0010575674241408706,
        -0.6952717900276184,
        0.0258373711258173,
        0.3736499845981598,
        -0.284927099943161,
        -0.11709023267030716,
        -0.04818128049373627,
        0.33344539999961853,
        -0.4681219160556793,
        -0.01671394146978855,
        0.47226351499557495,
        0.21704904735088348,
        -0.3628591001033783,
        -0.6794689893722534,
        0.22440490126609802,
        -0.11882124096155167,
        -0.29265180230140686,
        -0.018475187942385674,
        0.18328671157360077,
        -0.07725521177053452,
        0.056365348398685455,
        -0.16219288110733032,
        0.04769564047455788,
        -0.010413036681711674,
        0.2241409718990326,
        -0.07279058545827866,
        0.02717789262533188,
        0.060111477971076965,
        0.0390172153711319,
        -0.009016879834234715,
        -0.25924059748649597,
        0.19186840951442719,
        -0.04117165133357048,
        0.31331223249435425,
        0.034275200217962265,
        -0.05398354306817055,
        -0.2613881528377533,
        0.20018163323402405,
        -0.07743775844573975,
        0.18078644573688507,
        -0.11976820230484009,
        0.21063131093978882,
        0.18650862574577332,
        -0.4370517432689667,
        -0.08199695497751236,
        0.3040744364261627,
        0.19256100058555603,
        -0.006724053528159857,
        -0.2439311444759369,
        0.12988153100013733,
        -0.162229523062706,
        0.01742624118924141,
        0.22828909754753113,
        0.18123167753219604,
        0.1560371220111847,
        0.1742132306098938,
        0.15215611457824707,
        0.05729921534657478,
        -0.18114818632602692,
        0.10994619131088257,
        0.06210533529520035,
        0.13998889923095703,
        -0.11649633198976517,
        -0.13461795449256897,
        0.7463226318359375,
        -0.21940843760967255,
        -0.1094474121928215,
        -0.2662472128868103,
        -0.1179938018321991,
        0.08232255280017853,
        -0.3081717789173126,
        -0.2289402335882187,
        -0.3374561369419098,
        -0.2675228714942932,
        0.337147057056427,
        0.5030046105384827,
        -0.6004199981689453,
        0.6726014018058777,
        0.4965711236000061,
        0.008727149106562138,
        -0.42633360624313354,
        -0.2208874225616455,
        0.3491884768009186,
        -0.27211809158325195,
        -0.382963091135025,
        -0.0715680867433548,
        -0.28791487216949463,
        -0.6882420778274536,
        -0.7213323712348938,
        0.4822775721549988,
        0.09113078564405441,
        0.3761109709739685,
        -0.07247679680585861,
        0.3758948743343353,
        -0.10593658685684204,
        -0.15611392259597778,
        0.15143191814422607,
        0.21674290299415588,
        -0.12172751128673553,
        -0.02496286854147911,
        -0.20704065263271332,
        0.19989992678165436,
        -0.0022095965687185526,
        0.18462727963924408,
        -0.021723685786128044,
        0.0016394724370911717,
        0.16457240283489227,
        -0.04176102206110954,
        0.06593368947505951,
        0.22208361327648163,
        0.005510082468390465,
        -0.08998756110668182,
        -0.26414886116981506,
        -0.005816751625388861,
        0.1501948982477188,
        0.19994814693927765,
        -0.20997251570224762,
        0.0716085359454155,
        0.21330374479293823,
        -0.30380794405937195,
        0.2444857954978943,
        0.2163335531949997,
        0.06796058267354965,
        -0.13904723525047302,
        -0.1658606082201004,
        0.22881974279880524,
        -0.007865900173783302,
        0.20307758450508118,
        -0.056632205843925476,
        0.07797068357467651,
        0.09753848612308502,
        0.6043142676353455,
        -0.03155575692653656,
        -0.2051859349012375,
        -0.0956968143582344,
        0.13412262499332428,
        0.12076524645090103,
        -0.18825353682041168,
        -0.2101079225540161,
        0.22357167303562164,
        -0.09413105994462967,
        0.03885621204972267,
        -0.1481051743030548,
        -0.1987002193927765,
        -0.014233695343136787,
        0.09370236843824387,
        -0.009099232032895088,
        0.12575337290763855,
        -0.232112318277359,
        0.306037962436676,
        0.28784796595573425,
        0.012091003358364105,
        0.8115285038948059,
        0.26372143626213074,
        0.5750983953475952,
        0.0778789147734642,
        0.15874791145324707,
        -0.1203325092792511,
        0.19631776213645935,
        -0.17093464732170105,
        -0.4586631655693054,
        0.028548942878842354,
        0.012973555363714695,
        0.07515736669301987,
        0.9135151505470276,
        1.06202232837677,
        -0.15195432305335999,
        -0.2622455060482025,
        -0.23599717020988464,
        0.15766368806362152,
        -0.4642028510570526,
        -0.24005699157714844,
        -0.0489579513669014,
        0.04672187194228172,
        0.2185879796743393,
        0.0016066039679571986,
        -0.15438400208950043,
        0.2451295256614685,
        0.11484129726886749,
        0.2852676510810852,
        0.05460888147354126,
        0.032882120460271835,
        0.2813971936702728,
        -0.13662117719650269,
        -0.08751679211854935,
        -0.10122726857662201,
        -0.14640699326992035,
        0.18410024046897888,
        -0.010205726139247417,
        0.0972975417971611,
        -0.16021640598773956,
        0.1411474347114563,
        -0.5366883277893066,
        -0.2439098060131073,
        0.11673545092344284,
        0.3054834306240082,
        0.1781705915927887,
        -0.033732134848833084,
        0.0252830870449543,
        0.006142079830169678,
        -0.15891583263874054,
        -0.09069069474935532,
        -0.22453203797340393,
        -0.12644077837467194,
        -0.1223982721567154,
        -0.12380369007587433,
        0.42168745398521423,
        -0.04584840312600136,
        -0.006449342705309391,
        -0.09222222119569778,
        -0.31185299158096313,
        0.025306200608611107,
        0.05344961956143379,
        -0.334381103515625,
        -0.0032149164471775293,
        -0.09777971357107162,
        -0.29134729504585266,
        -0.02573196031153202,
        0.013203860260546207,
        -0.4613320529460907,
        0.14842915534973145,
        -0.13631469011306763,
        0.2948114573955536,
        0.04440709576010704,
        0.6218885183334351,
        0.19107753038406372,
        0.1343582570552826,
        -0.0046608177945017815,
        -0.1445310413837433,
        0.19341598451137543,
        0.11771086603403091,
        0.4948556125164032,
        0.1663912534713745,
        0.2421814650297165,
        -0.0070491512306034565,
        0.4080865681171417,
        -1.1807191371917725,
        1.0439672470092773,
        -0.165748730301857,
        0.2655760943889618,
        0.1746164858341217,
        -0.6118344068527222,
        0.39127448201179504,
        0.5096746683120728,
        -0.13052143156528473,
        -0.06954257190227509,
        0.13938699662685394,
        0.18577980995178223,
        0.05769335851073265,
        -0.06899195164442062,
        0.09876429289579391,
        0.4914886951446533,
        -0.05420228838920593,
        0.3317764401435852,
        -0.1468600481748581,
        0.22120508551597595,
        -0.0616774782538414,
        -0.22800545394420624,
        0.2784574031829834,
        0.04380218684673309,
        -0.15340857207775116,
        -0.0930255576968193,
        0.4076458811759949,
        0.07092642039060593,
        -0.029254691675305367,
        0.30933454632759094,
        0.2053336650133133,
        -0.06412576884031296,
        0.17150388658046722,
        0.04760851338505745,
        0.13117645680904388,
        0.2436998039484024,
        0.09479381889104843,
        0.10962292551994324,
        0.25086724758148193,
        -0.1811254471540451,
        0.006488577462732792,
        0.35744139552116394,
        0.15899255871772766,
        0.618557333946228,
        0.09004808217287064,
        0.10957952588796616,
        0.008536219596862793,
        0.18785633146762848,
        -0.10256639122962952,
        0.12294278293848038,
        -0.34775280952453613,
        -0.06361047923564911,
        -0.02580413781106472,
        0.3591127097606659,
        -0.3550264537334442,
        -0.1119881197810173,
        0.36460080742836,
        0.25919532775878906,
        -0.16627319157123566,
        0.16506770253181458,
        0.028478682041168213,
        -0.15942835807800293,
        -0.04331553354859352,
        -0.5120492577552795,
        -0.4284229278564453,
        -0.04471588879823685,
        -0.7695010900497437,
        0.02992931380867958,
        0.25617530941963196,
        -0.3671111464500427,
        0.2807402014732361,
        0.2716345191001892,
        -0.40188851952552795,
        0.08024871349334717,
        0.0798625648021698,
        0.08915500342845917,
        0.0224450696259737,
        -0.6402662396430969,
        0.140774205327034,
        0.2636512517929077,
        -0.09060455858707428,
        0.24128137528896332,
        -0.2609797418117523,
        0.29923030734062195,
        0.1413038671016693,
        -0.2123734951019287,
        0.2917864918708801,
        -0.4188069701194763,
        -0.2450917661190033,
        0.24986805021762848,
        0.23001748323440552,
        -0.5149067640304565,
        0.0787520706653595,
        0.13975057005882263,
        0.25116872787475586,
        0.35094913840293884,
        -0.2767781913280487,
        0.11791304498910904,
        -0.3060950040817261,
        -0.09371279925107956,
        0.03363252803683281,
        0.1374453902244568,
        0.18281060457229614,
        0.023269498720765114,
        0.11528164148330688,
        0.5011999607086182,
        0.07743189483880997,
        0.10908963531255722,
        0.1727207750082016,
        -0.014138597063720226,
        -0.27616989612579346,
        0.45837634801864624,
        0.039314016699790955,
        0.1625395268201828,
        0.45850318670272827,
        -0.030387841165065765,
        -0.029769403859972954,
        0.05053256079554558,
        0.07214850932359695,
        -0.006036469247192144,
        0.014959531836211681,
        0.04690827429294586,
        -0.26497095823287964,
        0.9232317209243774,
        0.03959590569138527,
        -0.0013958887429907918,
        -0.15692833065986633,
        -0.2517203688621521,
        -0.0018661010544747114,
        -0.05205593630671501,
        0.07839789241552353,
        -0.15062738955020905,
        0.10134007781744003,
        0.0754091814160347,
        0.1796904355287552,
        0.08859789371490479,
        -0.17882810533046722,
        0.31239306926727295,
        -0.17486120760440826,
        -0.1448117047548294,
        0.2330535501241684,
        -0.658098578453064,
        0.48737218976020813,
        -0.040552519261837006,
        -0.260938435792923,
        0.33776572346687317,
        -0.34396499395370483,
        0.13178595900535583,
        0.16068364679813385,
        0.5996506810188293,
        0.016636084765195847,
        -0.32510238885879517,
        0.60017329454422,
        -0.008871843107044697,
        0.3045203983783722,
        -1.4065278768539429,
        0.15805311501026154,
        0.4275129437446594,
        -0.052538931369781494,
        -0.006509168539196253,
        -0.2473616898059845,
        0.1999320685863495,
        -0.05926948040723801,
        0.2106480598449707,
        0.1488325595855713,
        -0.014913797378540039,
        0.43320971727371216,
        -0.06874176859855652,
        -0.001722248736768961,
        0.1979796290397644,
        -0.22301019728183746,
        -0.12440408021211624,
        -0.11719655990600586,
        -0.07520289719104767,
        -0.023298677057027817,
        0.29416030645370483,
        -0.20675045251846313,
        -0.04340660572052002,
        0.21111226081848145,
        -0.2807866632938385,
        0.054534491151571274,
        0.23194952309131622,
        0.1990354061126709,
        -0.12884549796581268,
        -0.19515922665596008,
        0.1544240415096283,
        0.04456207901239395,
        0.2061687707901001,
        0.06676848232746124,
        -0.11652183532714844,
        0.3653202950954437,
        0.029719289392232895,
        0.0060893758200109005,
        0.1702360063791275,
        0.1301928609609604,
        0.07096751779317856,
        -0.17276087403297424,
        -0.01621958240866661,
        0.033258385956287384,
        0.33097875118255615,
        0.00400835694745183,
        -0.014049772173166275,
        -0.24507355690002441,
        -0.2615460157394409,
        -0.0478389635682106,
        -0.19448693096637726,
        0.22411690652370453,
        0.18407319486141205,
        0.14642012119293213,
        0.11490034312009811,
        0.02065780758857727,
        -0.21702232956886292,
        -0.02204824984073639,
        -0.09293126314878464,
        0.17391127347946167,
        -0.20800663530826569,
        0.6748113036155701,
        0.07332705706357956,
        -0.2673276662826538,
        -0.4612339735031128,
        -0.12091034650802612,
        -0.04836457967758179,
        -0.23046547174453735,
        0.3559243679046631,
        0.2869518995285034,
        -0.44128191471099854,
        -0.050015389919281006,
        0.1681065559387207,
        0.4823986291885376,
        -0.11955636739730835,
        0.3069649934768677,
        -0.028011441230773926,
        -0.1917715072631836,
        0.30598050355911255,
        -0.4455450773239136,
        0.41890019178390503,
        0.4994143843650818,
        -0.1365121603012085,
        0.1975109577178955,
        0.49860215187072754,
        0.48193469643592834,
        0.5988292098045349,
        0.8320274353027344,
        -0.8271985054016113,
        0.41304972767829895,
        0.019999999552965164
    ]
}