{
    "version": "0.5.0",
    "architecture": "WaveNet",
    "config": {
        "layers": [
            {
                "input_size": 1,
                "condition_size": 1,
                "head_size": 8,
                "channels": 16,
                "kernel_size": 3,
                "dilations": [
                    1,
                    2,
                    4,
                    8,
                    16,
                    32,
                    64,
                    128,
                    256,
                    512
                ],
                "activation": "Tanh",
                "gated": false,
                "head_bias": false
            },
            {
                "input_size": 16,
                "condition_size": 1,
                "head_size": 1,
                "channels": 8,
                "kernel_size": 3,
                "dilations": [
                    1,
                    2,
                    4,
                    8,
                    16,
                    32,
                    64,
                    128,
                    256,
                    512
                ],
                "activation": "Tanh",
                "gated": false,
                "head_bias": true
            }
        ],
        "head": null,
        "head_scale": 0.02
    },
    "weights": [
        -0.009235447272658348,
        0.3718731999397278,
        -0.5519164204597473,
        -0.5481187105178833,
        -0.03135659918189049,
        -0.006565119605511427,
        -0.04672543331980705,
        0.7569829225540161,
        0.004595354665070772,
        0.032359156757593155,
        -0.16216859221458435,
        0.004731337074190378,
        -0.8472015261650085,
        -0.5118032693862915,
        -0.22793595492839813,
        0.005727971903979778,
        0.11141721159219742,
        0.08632591366767883,
        -0.17983132600784302,
        -0.10981441289186478,
        -0.1147708147764206,
        0.19989261031150818,
        0.02853596955537796,
        0.28772005438804626,
        -0.08444240689277649,
        0.07100624591112137,
        0.3105359673500061,
        -0.2043680101633072,
        -0.08398519456386566,
        0.07629773020744324,
        -0.17292451858520508,
        0.06690844893455505,
        -0.11366483569145203,
        0.07376594841480255,
        -0.022220496088266373,
        -0.041995368897914886,
        -0.12708784639835358,
        0.0666620284318924,
        -0.12005802243947983,
        0.13813155889511108,
        -0.05010524392127991,
        -0.08547891676425934,
        -0.2045671045780182,
        -0.12515875697135925,
        -0.20841993391513824,
        0.06238183379173279,
        0.10905564576387405,
        0.22428515553474426,
        -0.1740976870059967,
        -0.05490465089678764,
        0.04177917540073395,
        -0.06533198058605194,
        0.11758477985858917,
        0.20603573322296143,
        0.03141557052731514,
        -0.02873365208506584,
        0.20686890184879303,
        -0.18169482052326202,
        -0.06422042101621628,
        0.08113270252943039,
        -0.022454293444752693,
        0.07901895046234131,
        -0.04311683773994446,
        -0.11768834292888641,
        0.10357613861560822,
        0.026074178516864777,
        -0.21108928322792053,
        0.13666808605194092,
        0.054669592529535294,
        0.1695929914712906,
        -0.2126295417547226,
        -0.018673032522201538,
        0.019936125725507736,
        0.008922508917748928,
        0.15855857729911804,
        0.09570205211639404,
        -0.04745805636048317,
        -0.08983385562896729,
        -0.010172675363719463,
        -0.08922126144170761,
        -0.15176039934158325,
        0.16630740463733673,
        0.004840834066271782,
        -0.21616731584072113,
        -0.08029553294181824,
        0.08879455924034119,
        -0.05905447527766228,
        -0.03524869680404663,
        -0.0213353019207716,
        -0.060787830501794815,
        -0.03360976278781891,
        0.16245746612548828,
        0.0674910768866539,
        0.09852716326713562,
        -0.24681879580020905,
        -0.05579768121242523,
        0.03951180726289749,
        -0.04591875523328781,
        -0.12114712595939636,
        -0.03779265284538269,
        0.023088037967681885,
        0.1325276792049408,
        -0.09212525188922882,
        -0.1448938101530075,
        -0.10309520363807678,
        -0.03259121999144554,
        -0.20864655077457428,
        -0.07638844102621078,
        -0.043236225843429565,
        -0.003497383091598749,
        0.014530871994793415,
        0.04691223055124283,
        -0.048316121101379395,
        0.2014145404100418,
        0.10443206131458282,
        -0.09827210009098053,
        0.10154786705970764,
        -0.17715518176555634,
        -0.01885814405977726,
        -0.12027104943990707,
        0.21846549212932587,
        -0.027089131996035576,
        -0.2234906554222107,
        0.24365542829036713,
        -0.10801706463098526,
        -0.1555110663175583,
        0.1862599104642868,
        -0.056914813816547394,
        -0.041691362857818604,
        -0.15804627537727356,
        -0.02336164005100727,
        0.004409573506563902,
        -0.023030297830700874,
        0.028304651379585266,
        0.2589666545391083,
        -0.19342774152755737,
        0.10000225901603699,
        0.040350403636693954,
        0.2606661915779114,
        0.04799662530422211,
        0.20134568214416504,
        -0.15181022882461548,
        0.14464902877807617,
        -0.11744792759418488,
        0.08929342031478882,
        -0.1358325034379959,
        0.01212024874985218,
        0.0015655007446184754,
        -0.11120056360960007,
        -0.26935330033302307,
        0.03893009200692177,
        -0.1551995873451233,
        -0.1797822117805481,
        0.2567727267742157,
        0.06627865880727768,
        -0.26358869671821594,
        0.28365638852119446,
        -0.07106194645166397,
        -0.004470400977879763,
        0.06500036269426346,
        -0.11329762637615204,
        -0.12132564932107925,
        -0.18365080654621124,
        -0.13341248035430908,
        -0.008625488728284836,
        0.08915068954229355,
        -0.056263867765665054,
        0.043136075139045715,
        -0.21083439886569977,
        -0.0006964213098399341,
        0.11178797483444214,
        -0.14768846333026886,
        0.14339235424995422,
        0.03930728882551193,
        -0.22237606346607208,
        0.032950375229120255,
        -0.051114752888679504,
        -0.021754849702119827,
        0.0006613369914703071,
        -0.24866020679473877,
        -0.15674294531345367,
        -0.039380673319101334,
        0.11870604753494263,
        0.1287362277507782,
        0.07274644076824188,
        0.009878542274236679,
        -0.1517062783241272,
        -0.035928141325712204,
        -0.09414630383253098,
        0.18093210458755493,
        0.11908417195081711,
        0.0749761313199997,
        -0.20145641267299652,
        0.03840648755431175,
        -0.10160255432128906,
        -0.19019362330436707,
        -0.07572824507951736,
        0.033314090222120285,
        -0.17499858140945435,
        0.0064503964968025684,
        -0.008452160283923149,
        0.004809422418475151,
        -0.1064823791384697,
        -0.12024277448654175,
        -0.17708651721477509,
        0.18533700704574585,
        -0.005661144386976957,
        0.1025502160191536,
        0.020968761295080185,
        -0.0013639202807098627,
        -0.06174759194254875,
        -0.07528624683618546,
        -0.1559510976076126,
        0.07415790110826492,
        0.06375826895236969,
        0.21021471917629242,
        -0.1986267864704132,
        -0.016918953508138657,
        0.30572211742401123,
        -0.21506264805793762,
        -0.012517141178250313,
        0.2577410936355591,
        -0.0938495546579361,
        -0.04917052388191223,
        -0.2291708141565323,
        0.10443706810474396,
        -0.03027532435953617,
        0.10249292850494385,
        -0.04525512829422951,
        -0.08024249970912933,
        -0.18992042541503906,
        0.21868018805980682,
        -0.029220251366496086,
        0.17598234117031097,
        -0.05843402072787285,
        -0.07930703461170197,
        -0.04674629122018814,
        0.055599480867385864,
        -0.04406622052192688,
        0.18787387013435364,
        -0.09012158215045929,
        0.1400914490222931,
        0.051597725600004196,
        -0.057900868356227875,
        0.13635362684726715,
        0.054428957402706146,
        0.008316854946315289,
        -0.06251487880945206,
        0.1891603171825409,
        -0.12414076179265976,
        -0.042871925979852676,
        0.17840859293937683,
        -0.0002650021924637258,
        -0.047036152333021164,
        -0.029223451390862465,
        -0.1731826663017273,
        -0.16252519190311432,
        0.08430953323841095,
        0.0638858824968338,
        -0.08481581509113312,
        0.04262838512659073,
        -0.11944594234228134,
        0.05119790881872177,
        -0.02951996773481369,
        0.2376028448343277,
        -0.06867657601833344,
        -0.17898018658161163,
        0.24006910622119904,
        0.13240811228752136,
        -0.04272178187966347,
        0.14060445129871368,
        0.009421348571777344,
        -0.07871206104755402,
        -0.06187666580080986,
        -0.02381431683897972,
        -0.09423647075891495,
        0.3241071403026581,
        -0.07210858166217804,
        0.1268877238035202,
        -0.15761443972587585,
        0.007634366396814585,
        -0.13699886202812195,
        0.06514538079500198,
        0.08977865427732468,
        0.10270556062459946,
        -0.11004216969013214,
        -0.03655943647027016,
        -0.06032434105873108,
        0.19308879971504211,
        -0.009706216864287853,
        -0.09954625368118286,
        0.17197969555854797,
        0.021634941920638084,
        -0.14790980517864227,
        0.16329288482666016,
        -0.10860065370798111,
        -0.03786110877990723,
        0.09068622440099716,
        0.05814243108034134,
        -0.16197317838668823,
        0.14183339476585388,
        -0.020279034972190857,
        -0.1276070475578308,
        0.19002869725227356,
        -0.024930205196142197,
        -0.09589210152626038,
        -0.053451057523489,
        0.15009012818336487,
        0.28396305441856384,
        -0.13908801972866058,
        -0.22378838062286377,
        -0.26670676469802856,
        0.14711453020572662,
        -0.15289032459259033,
        -0.1875772625207901,
        0.20887835323810577,
        -0.10607372224330902,
        -0.15005552768707275,
        0.2215363085269928,
        0.015531324781477451,
        -0.005759446416050196,
        -0.0406634584069252,
        -0.23124033212661743,
        -0.14060534536838531,
        0.03957058861851692,
        0.230010524392128,
        0.3302382230758667,
        -0.0963025912642479,
        0.18321222066879272,
        -0.0016892937710508704,
        0.14399391412734985,
        -0.11355770379304886,
        0.2856658101081848,
        -0.10034111887216568,
        -0.1542913168668747,
        -0.13706505298614502,
        0.26898083090782166,
        0.07105346769094467,
        0.046350881457328796,
        0.12003090232610703,
        -0.1368544101715088,
        -0.2991202175617218,
        0.229628324508667,
        -0.017773780971765518,
        -0.32741299271583557,
        0.24379782378673553,
        -0.008036608807742596,
        -0.13538208603858948,
        0.038436345756053925,
        0.039153166115283966,
        -0.047601114958524704,
        0.21979738771915436,
        0.0023433775641024113,
        0.027158278971910477,
        0.058288317173719406,
        0.1527925729751587,
        0.08943505585193634,
        0.048770464956760406,
        -0.2052973210811615,
        -0.11931902915239334,
        -0.0922970175743103,
        -0.24606502056121826,
        -0.2689228653907776,
        0.12473644316196442,
        0.03790116682648659,
        0.03855937346816063,
        0.17450310289859772,
        -0.10236842185258865,
        0.044260554015636444,
        -0.018963288515806198,
        -0.02478278987109661,
        0.09761356562376022,
        0.05637957900762558,
        0.03731085732579231,
        0.01626988872885704,
        -0.08979050070047379,
        0.02884024567902088,
        -0.05673647299408913,
        0.04065968096256256,
        0.1640670746564865,
        0.2316761314868927,
        -0.08312102407217026,
        -0.0063439588993787766,
        0.011603479273617268,
        0.08978451788425446,
        0.16181665658950806,
        -0.01765553280711174,
        0.16271229088306427,
        -0.16089391708374023,
        -0.08875743299722672,
        0.02212105691432953,
        -0.13596241176128387,
        -0.23171210289001465,
        -0.06810962408781052,
        -0.1897173970937729,
        -0.03020063042640686,
        0.1345624029636383,
        0.003667231183499098,
        -0.14598560333251953,
        0.19930075109004974,
        0.0895094946026802,
        0.05311397835612297,
        0.08013687282800674,
        0.06940440088510513,
        0.12029970437288284,
        -0.17917391657829285,
        0.19471900165081024,
        0.043928202241659164,
        0.008391088806092739,
        0.14380861818790436,
        -0.15112407505512238,
        0.043596114963293076,
        0.18758532404899597,
        -0.02226048707962036,
        -0.013965871185064316,
        -0.0721253827214241,
        -0.07347294688224792,
        -0.16427676379680634,
        0.05486281216144562,
        0.15664036571979523,
        0.07354183495044708,
        -0.15337562561035156,
        0.08004945516586304,
        0.0051934425719082355,
        0.16072557866573334,
        -0.11808362603187561,
        0.1501840204000473,
        -0.1945062130689621,
        -0.03759801760315895,
        -0.05882168188691139,
        -0.023804888129234314,
        0.0031075002625584602,
        0.2109157294034958,
        0.06348565965890884,
        -0.08285312354564667,
        0.0276130773127079,
        0.09278526902198792,
        -0.18480174243450165,
        0.13248218595981598,
        -0.06822314858436584,
        -0.20677772164344788,
        -0.07472497969865799,
        0.03804939612746239,
        0.043488964438438416,
        -0.06052282452583313,
        0.12223979830741882,
        -0.11659430712461472,
        0.13572566211223602,
        -0.026274224743247032,
        -0.0894147977232933,
        0.34504252672195435,
        0.0780375599861145,
        0.2234802544116974,
        -0.018843377009034157,
        -0.10745559632778168,
        0.030103668570518494,
        0.08375740796327591,
        0.06048670411109924,
        -0.2081679254770279,
        0.04220976307988167,
        -0.12224029004573822,
        -0.10231476277112961,
        0.14702990651130676,
        -0.08270462602376938,
        0.05910845100879669,
        -0.08533494919538498,
        0.16683928668498993,
        0.07996273785829544,
        0.2117447406053543,
        -0.03455277904868126,
        0.15997904539108276,
        0.06322064250707626,
        0.04252015799283981,
        -0.10927437990903854,
        0.1676378846168518,
        -0.16364826261997223,
        -0.07125549018383026,
        -0.053701743483543396,
        -0.06644298881292343,
        0.0014148639747872949,
        0.006434897426515818,
        -0.03980554640293121,
        -0.10976928472518921,
        0.21030071377754211,
        -0.027803923934698105,
        0.011997443623840809,
        0.16522862017154694,
        0.07268857955932617,
        -0.08628926426172256,
        0.039071161299943924,
        -0.0274516511708498,
        -0.05557844415307045,
        0.16717906296253204,
        -0.0691063180565834,
        0.11013685166835785,
        0.20445787906646729,
        -0.16337288916110992,
        -0.09637667238712311,
        0.07145001739263535,
        0.25124210119247437,
        0.0032366476953029633,
        0.02080557867884636,
        -0.06306770443916321,
        -0.06956755369901657,
        0.1794685274362564,
        -0.21241067349910736,
        -0.10748453438282013,
        0.12805289030075073,
        -0.10219092667102814,
        -0.02886437252163887,
        0.08299952000379562,
        0.21505290269851685,
        0.10411188751459122,
        0.0059263077564537525,
        0.0438634492456913,
        0.056073158979415894,
        0.014407838694751263,
        0.14789389073848724,
        0.23842701315879822,
        -0.08552428334951401,
        -0.04373437538743019,
        -0.14462019503116608,
        0.07359430938959122,
        -0.044341079890728,
        -0.005705192685127258,
        -0.20260626077651978,
        0.04175932705402374,
        -0.14721135795116425,
        0.11210383474826813,
        -0.20251847803592682,
        -0.015294281765818596,
        0.11276037245988846,
        -0.24731115996837616,
        -0.27478888630867004,
        -0.04203580319881439,
        -0.13246916234493256,
        -0.18725934624671936,
        -0.02258273959159851,
        -0.15490677952766418,
        -0.09355476498603821,
        0.018863897770643234,
        -0.007066709455102682,
        -0.05256829410791397,
        0.03511574864387512,
        0.014392482116818428,
        0.087301105260849,
        0.0565975084900856,
        -0.035120364278554916,
        -0.046211425215005875,
        0.1100250706076622,
        -0.10785545408725739,
        -0.1546158790588379,
        0.15855824947357178,
        -0.0594928115606308,
        0.008144509047269821,
        0.007474268786609173,
        0.035782307386398315,
        -0.027772076427936554,
        0.15907104313373566,
        -0.0306964460760355,
        -0.10107655823230743,
        -0.21570196747779846,
        -0.09168442338705063,
        -0.01987517438828945,
        -0.015243146568536758,
        0.10379201173782349,
        -0.014240770600736141,
        -0.04227998107671738,
        0.154551163315773,
        0.0026603976730257273,
        0.19723282754421234,
        0.01096541527658701,
        -0.05243967846035957,
        -0.16137655079364777,
        0.047886863350868225,
        0.12068724632263184,
        -0.0014979117549955845,
        -0.05722567066550255,
        0.043038204312324524,
        0.25866439938545227,
        -0.012248131446540356,
        -0.14026372134685516,
        -0.11727799475193024,
        0.06845997273921967,
        -0.029099203646183014,
        -0.053179625421762466,
        0.07760100066661835,
        0.0515960194170475,
        0.1530778557062149,
        0.09394458681344986,
        -0.13557645678520203,
        -0.03633331507444382,
        -0.16314227879047394,
        0.1082538440823555,
        0.04796088859438896,
        0.028642971068620682,
        -0.10274755209684372,
        0.061726029962301254,
        0.1603107452392578,
        0.09910434484481812,
        -0.06624052673578262,
        -0.01829240471124649,
        -0.12428203970193863,
        0.20754455029964447,
        -0.02662138268351555,
        -0.08209839463233948,
        0.16040068864822388,
        -0.06855111569166183,
        -0.031043995171785355,
        -0.0938478410243988,
        -0.2448643445968628,
        -0.3755560517311096,
        -0.07209240645170212,
        -0.10179166495800018,
        0.07565884292125702,
        0.056244511157274246,
        0.1207473874092102,
        0.015148920007050037,
        0.2542068362236023,
        -0.02660449780523777,
        -0.061253540217876434,
        0.03544843569397926,
        0.07800494879484177,
        -0.15547282993793488,
        0.048353735357522964,
        -0.08534159511327744,
        0.08669551461935043,
        0.06913571804761887,
        -0.09556429833173752,
        -0.035153210163116455,
        0.15773485600948334,
        0.07288599014282227,
        0.02068319171667099,
        0.08282315731048584,
        0.08725211769342422,
        -0.05772407352924347,
        0.012968556024134159,
        -0.047026075422763824,
        -0.07725437730550766,
        0.22488857805728912,
        -0.12385399639606476,
        -0.04791233316063881,
        -0.13149821758270264,
        0.036418549716472626,
        -0.10786253958940506,
        0.25895318388938904,
        -0.11228952556848526,
        0.12823285162448883,
        -0.23936901986598969,
        -0.06536644697189331,
        0.09216827899217606,
        -0.18171171844005585,
        0.09201273322105408,
        -0.10690071433782578,
        -0.2471015453338623,
        -0.046686459332704544,
        0.07651545107364655,
        0.254925012588501,
        -0.13455533981323242,
        0.013468309305608273,
        -0.08672567456960678,
        -0.003117605345323682,
        0.0870027020573616,
        0.008874527178704739,
        -0.04786421358585358,
        0.08769910782575607,
        -0.19077865779399872,
        0.14417657256126404,
        -0.04281218349933624,
        0.2555285394191742,
        -0.17083807289600372,
        -0.008995870128273964,
        -0.15338096022605896,
        -0.06243908777832985,
        -0.04726137965917587,
        -0.025019174441695213,
        -0.04956306144595146,
        0.013636213727295399,
        -0.020283443853259087,
        -0.06739954650402069,
        0.14166535437107086,
        -0.2168770730495453,
        -0.04408938065171242,
        0.0006551093538291752,
        -0.06130053102970123,
        0.19116665422916412,
        0.08751270174980164,
        -0.11858619004487991,
        0.06871639937162399,
        -0.003025070996955037,
        -0.20631326735019684,
        -0.057559579610824585,
        0.0016667755553498864,
        0.1261032670736313,
        -0.011746077798306942,
        -0.038677506148815155,
        0.11764161288738251,
        -0.13437575101852417,
        0.13660913705825806,
        0.0408652238547802,
        -0.11358710378408432,
        0.10268492996692657,
        -0.14805933833122253,
        0.026554888114333153,
        -0.09287788718938828,
        0.07601845264434814,
        0.037047531455755234,
        0.15669076144695282,
        -0.147562175989151,
        0.12031746655702591,
        -0.12379316985607147,
        -0.09207876026630402,
        -0.11214977502822876,
        -0.03614218533039093,
        0.09632351994514465,
        0.014348995871841908,
        -0.052560869604349136,
        0.06440520286560059,
        0.05538329482078552,
        0.20656797289848328,
        0.11502121388912201,
        -0.07234121859073639,
        0.06522081792354584,
        -0.01609726995229721,
        -0.10698263347148895,
        0.1422770619392395,
        0.1622457504272461,
        -0.1428399235010147,
        0.1891448050737381,
        -0.054370053112506866,
        -0.057914577424526215,
        0.20435740053653717,
        -0.02427094615995884,
        0.028941165655851364,
        0.007208732422441244,
        0.08868974447250366,
        -0.023148592561483383,
        -0.11776068061590195,
        0.04354824125766754,
        -0.07490251958370209,
        -0.04318232834339142,
        -0.05994098260998726,
        0.0893227756023407,
        -0.10839148610830307,
        0.1448802798986435,
        0.09720068424940109,
        0.024850843474268913,
        0.0010048310505226254,
        -0.04776211827993393,
        -0.10400345176458359,
        -0.07751017808914185,
        -0.018690288066864014,
        0.07730085402727127,
        0.1013602465391159,
        0.14084577560424805,
        0.14665567874908447,
        0.02988341450691223,
        0.13714511692523956,
        0.015593621879816055,
        -0.1837226152420044,
        0.012663662433624268,
        0.07597452402114868,
        -0.0926862359046936,
        0.15978404879570007,
        0.11614181101322174,
        -0.1570001244544983,
        -0.06473489105701447,
        0.048848722130060196,
        -0.04835541173815727,
        -0.004691694863140583,
        0.09231948107481003,
        -0.09510771930217743,
        0.05175147205591202,
        0.00025188157451339066,
        0.17179787158966064,
        -0.11984548717737198,
        0.07152226567268372,
        -0.009216268546879292,
        0.1129826009273529,
        -0.20955084264278412,
        -0.06394863873720169,
        0.12418350577354431,
        0.04596163332462311,
        0.043066322803497314,
        -0.061483729630708694,
        -0.04514835774898529,
        -0.1452265977859497,
        -0.09383611381053925,
        0.04238326475024223,
        0.06546967476606369,
        0.1585792601108551,
        -0.008103356696665287,
        0.0016796464333310723,
        0.06350582838058472,
        -0.11357550323009491,
        -0.021061673760414124,
        -0.03250551596283913,
        -0.004370254930108786,
        -0.033373672515153885,
        -0.0016198249068111181,
        0.49239569902420044,
        -0.39793795347213745,
        0.6404731869697571,
        -0.6189005374908447,
        0.08167703449726105,
        0.7171173095703125,
        0.9013863801956177,
        -0.5698433518409729,
        0.1273765116930008,
        0.05436095967888832,
        -0.517633855342865,
        -0.34713104367256165,
        0.21176880598068237,
        -0.5803749561309814,
        0.13034619390964508,
        0.3431553244590759,
        -0.16045592725276947,
        0.18958330154418945,
        -0.10333807021379471,
        0.1448570042848587,
        0.3017846941947937,
        -0.2717972993850708,
        0.18557313084602356,
        0.10135862976312637,
        -0.02747073955833912,
        0.041920602321624756,
        -0.045159801840782166,
        0.1624106764793396,
        0.04636957496404648,
        0.03839613124728203,
        0.21204811334609985,
        0.030862048268318176,
        -0.20831909775733948,
        0.03190529718995094,
        -0.18618427217006683,
        -0.06459123641252518,
        -0.1783318817615509,
        0.12491218000650406,
        -0.1892327517271042,
        0.039737723767757416,
        0.059322915971279144,
        0.16147056221961975,
        0.037619587033987045,
        -0.07797727733850479,
        0.2134353667497635,
        -0.14729546010494232,
        -0.04430194944143295,
        0.08485227078199387,
        0.08894669264554977,
        0.057945575565099716,
        0.15604770183563232,
        0.14688587188720703,
        0.117890864610672,
        -0.3700121343135834,
        0.4163590967655182,
        -0.4019053876399994,
        0.06657504290342331,
        -0.16593968868255615,
        0.08727949857711792,
        -0.1108132153749466,
        0.04005235433578491,
        -0.007586385123431683,
        0.26930853724479675,
        0.04727914184331894,
        0.35896915197372437,
        -0.1712334305047989,
        0.12197890132665634,
        -0.29946771264076233,
        0.03914235532283783,
        0.28360190987586975,
        0.2521136701107025,
        -0.16011549532413483,
        -0.2300138622522354,
        0.11928379535675049,
        -0.027465928345918655,
        -0.2079937607049942,
        0.11319200694561005,
        0.024846695363521576,
        -0.020828770473599434,
        0.007683271542191505,
        -0.30756285786628723,
        -0.0038499534130096436,
        -0.14508603513240814,
        0.1170792356133461,
        0.08782027661800385,
        0.12773917615413666,
        0.17245091497898102,
        -0.08292874693870544,
        0.08307036012411118,
        0.31980571150779724,
        -0.2711678743362427,
        0.2709650695323944,
        -0.06344690918922424,
        0.20008599758148193,
        -0.22973580658435822,
        -0.0018810195615515113,
        -0.33603817224502563,
        0.09188870340585709,
        0.018015002831816673,
        -0.09979219734668732,
        0.2625811994075775,
        0.041645657271146774,
        0.21122942864894867,
        0.07086902856826782,
        0.023610537871718407,
        -0.20892338454723358,
        -0.34035253524780273,
        0.038894642144441605,
        -0.022865066304802895,
        -0.06611137837171555,
        0.15389399230480194,
        -0.0022948964033275843,
        -0.05557526648044586,
        0.23167981207370758,
        0.27395299077033997,
        0.05193628743290901,
        -0.006182776298373938,
        -0.46350133419036865,
        0.26787370443344116,
        -0.15754540264606476,
        0.01674325205385685,
        -0.37996119260787964,
        -0.41288718581199646,
        0.22923994064331055,
        0.09989157319068909,
        -0.1305261105298996,
        0.3724995255470276,
        -0.040559254586696625,
        0.060212958604097366,
        0.101579949259758,
        0.3048299252986908,
        -0.07552725821733475,
        -0.2175067514181137,
        0.033250097185373306,
        0.2947283387184143,
        0.14998550713062286,
        0.07255144417285919,
        -0.1963256448507309,
        0.26365768909454346,
        -0.16123569011688232,
        0.08711559325456619,
        -0.09114114195108414,
        0.05972195789217949,
        0.08510366082191467,
        -0.007067404687404633,
        -0.005510367918759584,
        -0.3205006420612335,
        -0.20123669505119324,
        0.07497543096542358,
        -0.01589587889611721,
        -0.22591030597686768,
        0.06273975968360901,
        -0.17651434242725372,
        -0.18306122720241547,
        0.19496338069438934,
        -0.017018577083945274,
        0.06260024756193161,
        -0.07134748995304108,
        0.22523966431617737,
        -0.020521346479654312,
        -0.1389979124069214,
        0.04904451221227646,
        0.1678415685892105,
        -0.11373045295476913,
        -0.041546791791915894,
        -0.20297499001026154,
        0.1099981740117073,
        -0.2937108874320984,
        -0.0865585207939148,
        0.06206148490309715,
        -0.06612422317266464,
        0.15498574078083038,
        -0.021681640297174454,
        0.15553070604801178,
        -0.1652214229106903,
        -0.06852616369724274,
        0.1875254064798355,
        0.2032911330461502,
        -0.27616578340530396,
        0.040815696120262146,
        -0.1295754760503769,
        -0.08899498730897903,
        0.026409853249788284,
        -0.041732482612133026,
        0.07276087254285812,
        -0.1415242999792099,
        -0.19625063240528107,
        -0.04558851569890976,
        -0.012987207621335983,
        0.09839027374982834,
        -0.051261164247989655,
        0.07334141433238983,
        -0.03199870139360428,
        -0.025956619530916214,
        0.15151938796043396,
        -0.05120228976011276,
        -0.02850564382970333,
        0.00834660604596138,
        -0.06866379082202911,
        0.0023492297623306513,
        -0.0017887407448142767,
        -0.12588144838809967,
        -0.00849983561784029,
        -0.18145199120044708,
        -0.022382300347089767,
        0.07436028122901917,
        -0.1740402728319168,
        -0.031157976016402245,
        0.1936725676059723,
        -0.11706079542636871,
        0.11330170184373856,
        -0.09226302802562714,
        0.0726800262928009,
        0.07122863829135895,
        0.026043400168418884,
        -0.012716490775346756,
        0.15420934557914734,
        -0.09038718789815903,
        -0.11497684568166733,
        -0.2924076318740845,
        0.13305403292179108,
        -0.2684236168861389,
        0.020987648516893387,
        0.08448990434408188,
        0.1260196417570114,
        -0.18299417197704315,
        -0.06344468891620636,
        0.13842105865478516,
        -0.0450349822640419,
        0.1547527313232422,
        0.31222066283226013,
        -0.04646248742938042,
        0.12156432121992111,
        -0.026358362287282944,
        -0.060934826731681824,
        0.04542585834860802,
        -0.16577328741550446,
        -0.10399898141622543,
        -0.34747132658958435,
        -0.03348184749484062,
        -0.05960194021463394,
        0.24152399599552155,
        -0.05861195549368858,
        -0.12276515364646912,
        0.16197596490383148,
        -0.04070885851979256,
        0.17586249113082886,
        0.09469585120677948,
        -0.1578863114118576,
        0.10438720881938934,
        -0.1245739758014679,
        0.11966763436794281,
        0.09847620129585266,
        0.0850360170006752,
        0.03901088610291481,
        0.05237022042274475,
        0.16149358451366425,
        0.12919355928897858,
        -0.025785084813833237,
        0.07336747646331787,
        -0.0651533305644989,
        0.13641004264354706,
        -0.1546257585287094,
        0.4225642681121826,
        0.017706995829939842,
        -0.13193091750144958,
        -0.13193809986114502,
        0.006996127776801586,
        -0.05008191242814064,
        0.10734438896179199,
        -0.27113020420074463,
        -0.02082838863134384,
        0.13481436669826508,
        -0.10949195921421051,
        0.14058789610862732,
        -0.17525379359722137,
        -0.13170336186885834,
        -0.09588748216629028,
        0.0840008482336998,
        -0.011464431881904602,
        0.08153598755598068,
        -0.1286030113697052,
        0.0769209936261177,
        -0.01669543795287609,
        -0.002033582190051675,
        0.07369516044855118,
        -0.028408322483301163,
        0.04284677654504776,
        -0.09314090013504028,
        -0.0781831368803978,
        -0.10983740538358688,
        0.23877091705799103,
        0.06256691366434097,
        0.1899307668209076,
        -0.07692299038171768,
        -0.2166760265827179,
        -0.0426924042403698,
        -0.16726015508174896,
        0.005130283068865538,
        -0.11135704815387726,
        -0.1842503696680069,
        -0.18906165659427643,
        -0.06198512017726898,
        -0.012094751931726933,
        -0.21827849745750427,
        0.1692233681678772,
        -0.187130406498909,
        -0.3936235010623932,
        0.062466610223054886,
        0.16038937866687775,
        -0.2270716428756714,
        -0.04574279114603996,
        -0.11472171545028687,
        0.247433602809906,
        -0.24303984642028809,
        -0.08059542626142502,
        -0.12526357173919678,
        -0.020227516070008278,
        -0.23505699634552002,
        0.19704769551753998,
        -0.06349138915538788,
        -0.14707791805267334,
        0.08313766866922379,
        -0.20591005682945251,
        -0.2768511474132538,
        0.011354690417647362,
        -0.21576455235481262,
        -0.148822620511055,
        -0.09112823009490967,
        -0.20733103156089783,
        -0.1287703812122345,
        -0.0987880676984787,
        -0.12118741869926453,
        0.036419015377759933,
        0.12607046961784363,
        -0.2369890660047531,
        0.04574685916304588,
        -0.059477679431438446,
        0.2648652493953705,
        -0.15699103474617004,
        0.11415205150842667,
        0.06856802105903625,
        -0.03424767032265663,
        -0.16940848529338837,
        0.12056249380111694,
        -0.24415260553359985,
        -0.08277040719985962,
        -0.23138530552387238,
        -0.07544148713350296,
        -0.009054393507540226,
        0.053034745156764984,
        -0.04442181810736656,
        -0.12480030208826065,
        -0.1024894192814827,
        0.2547774016857147,
        -0.19806510210037231,
        -0.1250925064086914,
        0.422608345746994,
        -0.046377167105674744,
        -0.12014371156692505,
        -0.17643649876117706,
        0.02967909537255764,
        0.061481695622205734,
        0.1705094277858734,
        -0.0016529507702216506,
        -0.23341533541679382,
        -0.1401883214712143,
        0.08789212256669998,
        0.1771862953901291,
        -0.18339407444000244,
        0.000914661621209234,
        -0.061212360858917236,
        -0.27553296089172363,
        0.01414149533957243,
        0.1309322863817215,
        -0.02475321851670742,
        0.09767357259988785,
        0.10352543741464615,
        0.09498150646686554,
        -0.17926795780658722,
        -0.03440498933196068,
        0.02059156261384487,
        0.14205887913703918,
        -0.13436296582221985,
        -0.08197954297065735,
        -0.4253380596637726,
        -0.02341659553349018,
        0.25663018226623535,
        0.47792550921440125,
        0.0743122324347496,
        -0.32228463888168335,
        -0.38753247261047363,
        -0.32908961176872253,
        -0.012561251409351826,
        -0.12030430883169174,
        -0.12387394905090332,
        -0.31178152561187744,
        -0.0013060151832178235,
        0.009581541642546654,
        -0.14304077625274658,
        -0.05998186394572258,
        -0.15206459164619446,
        -0.1427399069070816,
        -0.38711896538734436,
        -0.5078880190849304,
        0.06699781119823456,
        0.09571969509124756,
        0.0768098384141922,
        -0.00975747313350439,
        -0.2500015199184418,
        0.11536973714828491,
        -0.004081341903656721,
        0.2235272228717804,
        -0.22206531465053558,
        -0.2219049334526062,
        -0.3286605179309845,
        0.13587895035743713,
        0.012566247023642063,
        -0.04466506466269493,
        0.14783935248851776,
        -0.057207703590393066,
        -0.1052614152431488,
        0.04105148836970329,
        -0.31184330582618713,
        -0.13906773924827576,
        -0.06066632270812988,
        -0.14617842435836792,
        -0.23350946605205536,
        0.10638054460287094,
        0.06913226842880249,
        0.1051623746752739,
        0.46111592650413513,
        -0.007177079562097788,
        -0.0720447525382042,
        0.045097675174474716,
        -0.145136758685112,
        0.05620616301894188,
        -0.05933373048901558,
        0.037622224539518356,
        -0.13044270873069763,
        -0.10566271841526031,
        0.02447020635008812,
        -0.004215267952531576,
        -0.1585511863231659,
        0.003898855298757553,
        -0.06654037535190582,
        -0.17635680735111237,
        -0.032762907445430756,
        0.2694399654865265,
        0.049183886498212814,
        0.009758305735886097,
        0.26427575945854187,
        0.20307663083076477,
        -0.2655923068523407,
        0.19774991273880005,
        0.18034839630126953,
        0.16353167593479156,
        -0.27017754316329956,
        0.0536438450217247,
        0.08052776753902435,
        -0.044733479619026184,
        0.08071374893188477,
        0.15104877948760986,
        -0.293689101934433,
        -0.10989408940076828,
        -0.038103241473436356,
        -0.11256269365549088,
        0.17338643968105316,
        0.1502341777086258,
        -0.02845536544919014,
        -0.14730550348758698,
        0.13392336666584015,
        -0.11714623123407364,
        -0.10970458388328552,
        -0.03394190967082977,
        -0.024383198469877243,
        0.2086980938911438,
        0.06460877507925034,
        -0.04527346417307854,
        0.11130566895008087,
        -0.10199670493602753,
        -0.13837742805480957,
        0.0347723513841629,
        0.07382342219352722,
        0.26800718903541565,
        -0.03682171180844307,
        -0.2133716642856598,
        -0.1897139996290207,
        -0.13675859570503235,
        -0.19820113480091095,
        -0.006436680443584919,
        0.08004552870988846,
        -0.1771668940782547,
        0.01857617311179638,
        -0.061972811818122864,
        -0.2680390775203705,
        0.024761062115430832,
        -0.18559089303016663,
        -0.14502815902233124,
        -0.19442182779312134,
        -0.07423214614391327,
        -0.17023952305316925,
        0.11832473427057266,
        0.13207197189331055,
        0.20659270882606506,
        0.03278723359107971,
        -0.002046039327979088,
        -0.14998836815357208,
        -0.10292772203683853,
        -0.01586625725030899,
        0.22494332492351532,
        -0.10321599245071411,
        -0.02928946167230606,
        -0.16867972910404205,
        0.09431921690702438,
        0.20766013860702515,
        -0.091221883893013,
        -0.23877166211605072,
        0.05873063579201698,
        0.013424414210021496,
        -0.02428842894732952,
        0.03356176242232323,
        0.033417779952287674,
        -0.26770952343940735,
        -0.03949834406375885,
        0.21426253020763397,
        0.00614418787881732,
        0.16299846768379211,
        0.10084157437086105,
        -0.14061439037322998,
        -0.1222340315580368,
        -0.12710818648338318,
        0.31377455592155457,
        0.04335252195596695,
        0.00772385997697711,
        -0.32289353013038635,
        0.021065067499876022,
        -0.1412828266620636,
        -0.10492786765098572,
        -0.15196654200553894,
        -0.10987148433923721,
        0.07946383208036423,
        -0.36602452397346497,
        0.07463166117668152,
        0.05902790278196335,
        0.055368732661008835,
        -0.03815963864326477,
        -0.257277250289917,
        0.17753168940544128,
        0.08938360959291458,
        -0.08773262053728104,
        0.3226955235004425,
        0.17244145274162292,
        0.14493818581104279,
        -0.13324882090091705,
        0.1461251974105835,
        -0.04469341039657593,
        0.12484825402498245,
        0.024280596524477005,
        0.012274048291146755,
        -0.10308661311864853,
        0.07221726328134537,
        -0.00395952770486474,
        -0.022910287603735924,
        0.06861836463212967,
        -0.0017612178344279528,
        -0.2028520703315735,
        -0.008466767147183418,
        -0.232907235622406,
        -0.23878523707389832,
        0.06667567044496536,
        -0.032058194279670715,
        0.005337318871170282,
        -0.09249848872423172,
        -0.03779187053442001,
        0.008513477630913258,
        0.06963813304901123,
        0.07163078337907791,
        0.047215785831213,
        -0.13597483932971954,
        -0.0968930572271347,
        -0.07809112966060638,
        0.3149549663066864,
        0.37666502594947815,
        0.11849314719438553,
        0.2832423448562622,
        0.26680490374565125,
        0.17307843267917633,
        0.06693624705076218,
        0.20369626581668854,
        0.05496663600206375,
        0.23435534536838531,
        0.11956318467855453,
        0.10751661658287048,
        0.3672879934310913,
        0.18369711935520172,
        0.11007072776556015,
        0.11374948173761368,
        0.2013150453567505,
        -0.08845772594213486,
        -0.06473695486783981,
        -0.2468988597393036,
        -0.07769481092691422,
        0.08957193046808243,
        0.12269298732280731,
        -0.10753116011619568,
        -0.015268774703145027,
        -0.17310960590839386,
        0.20356276631355286,
        0.04280153661966324,
        0.06548680365085602,
        0.2373017966747284,
        0.06118512526154518,
        0.21937189996242523,
        0.2843840718269348,
        0.12041212618350983,
        0.253947377204895,
        -0.05950431153178215,
        -0.04932799190282822,
        0.12543945014476776,
        -0.2737383544445038,
        0.005726336967200041,
        -0.19275116920471191,
        -0.17883916199207306,
        -0.17491403222084045,
        -0.012667486444115639,
        0.07422155886888504,
        0.08091165125370026,
        -0.007595693226903677,
        -0.10020716488361359,
        -0.1114131510257721,
        -0.03753127530217171,
        0.023814789950847626,
        -0.015462207607924938,
        -0.022949952632188797,
        -0.12342958897352219,
        -0.24560679495334625,
        -0.12967872619628906,
        -0.3344895541667938,
        0.04429782181978226,
        -0.06754554808139801,
        0.09396199882030487,
        -0.009676102548837662,
        -0.157347172498703,
        0.1233467236161232,
        0.1912619173526764,
        -0.1500762403011322,
        0.044998738914728165,
        0.08469720184803009,
        0.01172702293843031,
        0.09646684676408768,
        0.12668046355247498,
        0.06355927139520645,
        -0.0037297303788363934,
        0.00977837760001421,
        -0.0291130393743515,
        -0.02596018835902214,
        -0.0004371715767774731,
        -0.007356842514127493,
        -0.04650195315480232,
        -0.15482673048973083,
        0.07760039716959,
        -0.12621258199214935,
        -0.20342805981636047,
        -0.05294235050678253,
        -0.2311982810497284,
        0.09925476461648941,
        -0.018883218988776207,
        -0.07950763404369354,
        0.028568720445036888,
        0.07913318276405334,
        -0.16067807376384735,
        0.18222792446613312,
        0.059939827769994736,
        0.0930110290646553,
        -0.02467210777103901,
        -0.013203872367739677,
        -0.2374171018600464,
        0.12826348841190338,
        -0.19800741970539093,
        0.43025416135787964,
        0.018118446692824364,
        -0.0028720591217279434,
        -0.04108475148677826,
        0.1923239827156067,
        0.12270868569612503,
        0.18152864277362823,
        -0.01675429195165634,
        0.18478533625602722,
        -0.07450693845748901,
        -0.18708667159080505,
        -0.04580197483301163,
        -0.02578061632812023,
        -0.18153060972690582,
        -0.09150993078947067,
        -0.0017744237557053566,
        -0.14897798001766205,
        -0.22432443499565125,
        0.1752466857433319,
        0.12915045022964478,
        0.14043177664279938,
        -0.06474193930625916,
        -0.02478918246924877,
        -0.07901468873023987,
        -0.12457355111837387,
        -0.20486219227313995,
        0.13051064312458038,
        -0.018149008974432945,
        -0.028782948851585388,
        0.05891996994614601,
        0.18336667120456696,
        0.017598599195480347,
        -0.11397485435009003,
        0.0767020583152771,
        0.29373034834861755,
        -0.11846822500228882,
        0.5619708895683289,
        -0.10001548379659653,
        -0.057433079928159714,
        0.1338890790939331,
        0.10882239788770676,
        0.09540483355522156,
        -0.024682821705937386,
        -0.07294519245624542,
        0.08738048374652863,
        0.08967605978250504,
        -0.12773080170154572,
        -0.14441166818141937,
        -0.0798521488904953,
        -0.05853782966732979,
        0.1123025193810463,
        -0.06570843607187271,
        0.15205051004886627,
        0.00396385183557868,
        -0.23692552745342255,
        -0.13003872334957123,
        -0.02335636503994465,
        0.1752154678106308,
        -0.04478909820318222,
        -0.15836690366268158,
        0.10054434090852737,
        0.03242020308971405,
        0.012322187423706055,
        0.2505950629711151,
        -0.013673137873411179,
        0.19351860880851746,
        -0.03508875519037247,
        -0.0702843889594078,
        -0.12056805938482285,
        0.08543834835290909,
        -0.23929107189178467,
        0.05255965515971184,
        0.031637661159038544,
        -0.13162073493003845,
        -0.0859033465385437,
        -0.13058291375637054,
        -0.11313744634389877,
        -0.06285867840051651,
        -0.24163518846035004,
        -0.08006847649812698,
        0.0038190693594515324,
        -0.024573782458901405,
        0.04806196317076683,
        -0.25505030155181885,
        0.02306993491947651,
        0.04428194463253021,
        0.05722520872950554,
        -0.21531285345554352,
        -0.1716805398464203,
        0.17359668016433716,
        -0.3016586899757385,
        0.022353850305080414,
        0.06737831234931946,
        0.0992010235786438,
        -0.09219048172235489,
        0.07532136142253876,
        -0.09135504812002182,
        -0.07935082167387009,
        0.006400407757610083,
        -0.06116495281457901,
        -0.1982845515012741,
        -0.13537129759788513,
        -0.24691618978977203,
        0.12462853640317917,
        -0.11648577451705933,
        -0.03625420480966568,
        0.0065325237810611725,
        -0.12057033181190491,
        0.15408824384212494,
        0.39411789178848267,
        0.026397202163934708,
        0.01414643693715334,
        -0.17046162486076355,
        0.21194176375865936,
        0.1320217102766037,
        0.11034457385540009,
        -0.2281174510717392,
        -0.06712941825389862,
        -0.19521324336528778,
        0.05537794157862663,
        0.04877972602844238,
        0.0868874341249466,
        -0.06710382550954819,
        -0.14824140071868896,
        -0.2742680609226227,
        0.0732855349779129,
        0.02300037071108818,
        -0.1658887267112732,
        -0.23168756067752838,
        -0.17292752861976624,
        -0.07325368374586105,
        0.12647350132465363,
        -0.3243207335472107,
        -0.0024971538223326206,
        0.0625663548707962,
        -0.20744460821151733,
        0.20520886778831482,
        0.04654563218355179,
        -0.012797568924725056,
        -0.1858520656824112,
        -0.23053935170173645,
        -0.3015677332878113,
        0.1843840777873993,
        0.38069725036621094,
        0.18285506963729858,
        0.1196080818772316,
        0.21606433391571045,
        0.0916176587343216,
        0.1604938954114914,
        0.2192140370607376,
        -0.13811859488487244,
        0.07491650432348251,
        0.16357947885990143,
        0.1829322874546051,
        0.12400999665260315,
        0.03536764159798622,
        0.2371709644794464,
        0.25372961163520813,
        0.13659100234508514,
        0.03988570347428322,
        0.05992870777845383,
        -0.17876815795898438,
        -0.13685160875320435,
        -0.13113757967948914,
        0.0756140872836113,
        -0.07452582567930222,
        -0.14429128170013428,
        0.07263162732124329,
        0.020438160747289658,
        -0.11511585116386414,
        0.09669177979230881,
        0.10477122664451599,
        -0.1246899962425232,
        0.07124516367912292,
        0.17485015094280243,
        0.3394344747066498,
        0.2952529788017273,
        0.11312329769134521,
        0.34539324045181274,
        0.04412151873111725,
        -0.35105645656585693,
        -0.045131780207157135,
        -0.018216554075479507,
        -0.13404129445552826,
        -0.004887519869953394,
        0.24138738214969635,
        -0.09492570161819458,
        0.014137769117951393,
        -0.0611453577876091,
        -0.059864483773708344,
        0.25349166989326477,
        0.19884568452835083,
        0.09959418326616287,
        0.0486595593392849,
        0.013834553770720959,
        -0.12220664322376251,
        0.32754310965538025,
        -0.16158078610897064,
        0.03592231497168541,
        -0.017016982659697533,
        -0.05569663271307945,
        0.2388860434293747,
        -0.03078870102763176,
        -0.02359597757458687,
        -0.11124113202095032,
        -0.2603428363800049,
        -0.1423908770084381,
        0.22675155103206635,
        -0.058038774877786636,
        0.15103034675121307,
        -0.04503796622157097,
        -0.06665317714214325,
        -0.001499517704360187,
        0.05767963454127312,
        0.19717128574848175,
        0.17431971430778503,
        -0.19278383255004883,
        0.10455892235040665,
        -0.1999560296535492,
        -0.16553331911563873,
        0.19218067824840546,
        -0.1401219666004181,
        -0.09591926634311676,
        0.17680145800113678,
        -0.05300629884004593,
        -0.060414548963308334,
        0.08171959966421127,
        0.02054135501384735,
        0.13053815066814423,
        -0.06896999478340149,
        0.08790237456560135,
        -0.06856996566057205,
        -0.050405774265527725,
        -0.21576805412769318,
        -0.06792673468589783,
        0.4246926009654999,
        0.341254323720932,
        0.3246791958808899,
        -0.46933671832084656,
        -0.4701651632785797,
        -0.3112301528453827,
        -0.3048388659954071,
        -0.12514366209506989,
        -0.057095643132925034,
        -0.20558735728263855,
        0.0011119225528091192,
        0.037866126745939255,
        -0.20813418924808502,
        -0.10197028517723083,
        -0.09017972648143768,
        -0.4350976347923279,
        -0.28711000084877014,
        0.015790630131959915,
        0.3548087477684021,
        0.2025502473115921,
        -0.06399307399988174,
        0.029686307534575462,
        -0.14874312281608582,
        0.11376142501831055,
        0.06268063932657242,
        -0.08692243695259094,
        0.019100626930594444,
        -0.16530758142471313,
        -0.13034328818321228,
        0.07323309779167175,
        0.04719506949186325,
        0.03379293531179428,
        0.07805147022008896,
        -0.3224734663963318,
        -0.05737066641449928,
        0.014009922742843628,
        -0.20733341574668884,
        -0.02359352819621563,
        -0.2613674998283386,
        -0.23019157350063324,
        -0.15941078960895538,
        -0.4065980315208435,
        0.20197069644927979,
        -0.05607461929321289,
        -0.08972395956516266,
        -0.10133158415555954,
        -0.034318674355745316,
        -0.11203932017087936,
        -0.004769491031765938,
        0.15792052447795868,
        -0.006120003759860992,
        -0.07684777677059174,
        0.07474786043167114,
        -0.024134306237101555,
        -0.015259066596627235,
        -0.03889569640159607,
        0.041579943150281906,
        0.3210008144378662,
        0.12637028098106384,
        0.24632035195827484,
        0.33262327313423157,
        0.04861391708254814,
        -0.07793639600276947,
        0.05126515030860901,
        0.20663940906524658,
        0.05112451687455177,
        -0.20173411071300507,
        0.10118714720010757,
        -0.0959790050983429,
        0.001435015583410859,
        -0.2880346477031708,
        -0.06888532638549805,
        -0.10573441535234451,
        -0.04733932390809059,
        0.08909600973129272,
        0.11222002655267715,
        -0.03543843701481819,
        0.07205270230770111,
        0.12486089020967484,
        0.10986370593309402,
        0.18578340113162994,
        0.2457321733236313,
        -0.014912597835063934,
        0.10322894155979156,
        0.009191323071718216,
        0.006091283168643713,
        0.01802578754723072,
        -0.18472348153591156,
        -0.04350541904568672,
        -0.12075814604759216,
        0.021347858011722565,
        -0.17228859663009644,
        0.13514482975006104,
        -0.048699069768190384,
        0.03405625373125076,
        -0.23927468061447144,
        -0.00014138089318294078,
        -0.022273343056440353,
        0.18040847778320312,
        0.10089082270860672,
        0.2710886597633362,
        -0.00848348531872034,
        0.1380475014448166,
        0.16750381886959076,
        -0.002375335432589054,
        0.07931042462587357,
        0.12363302707672119,
        0.12228681892156601,
        -0.10460317134857178,
        -0.10331041365861893,
        0.11409403383731842,
        0.10870666056871414,
        0.18416836857795715,
        -0.21208424866199493,
        0.06287883967161179,
        -0.03843472898006439,
        -0.08521619439125061,
        -0.1342460811138153,
        -0.2752019762992859,
        -0.1801549345254898,
        -0.16181859374046326,
        0.2188640832901001,
        0.15239250659942627,
        0.06526181846857071,
        -0.016922621056437492,
        -0.08674473315477371,
        0.21943698823451996,
        0.02372710034251213,
        0.3391958475112915,
        -0.03920178487896919,
        -0.005582563579082489,
        0.06475403904914856,
        0.08314132690429688,
        0.26803848147392273,
        -0.02506011538207531,
        -0.08716195821762085,
        -0.030494490638375282,
        -0.277774840593338,
        0.10313141345977783,
        -0.08914273232221603,
        -0.20686088502407074,
        0.11568541824817657,
        0.17146757245063782,
        -0.10785091668367386,
        0.13021649420261383,
        -0.07974959909915924,
        0.1617054045200348,
        0.12467587739229202,
        0.10586526989936829,
        -0.07822540402412415,
        -0.06263095140457153,
        -0.04074651375412941,
        0.1490124613046646,
        0.1464291512966156,
        0.03783256933093071,
        0.07330677658319473,
        -0.04183609038591385,
        -0.20534959435462952,
        0.25497427582740784,
        0.3039233684539795,
        -0.526861310005188,
        0.14030323922634125,
        -0.6198283433914185,
        -0.2200377732515335,
        -0.16399438679218292,
        0.4717315137386322,
        -0.722006618976593,
        -0.48110195994377136,
        -0.8284983038902283,
        0.21837154030799866,
        -0.6051520109176636,
        0.22701400518417358,
        -0.5294497609138489,
        0.05522211268544197,
        -0.1572495996952057,
        0.01214150246232748,
        0.3601064085960388,
        0.3182871341705322,
        0.01882040873169899,
        -0.18002310395240784,
        0.024229178205132484,
        -0.3202670216560364,
        -0.017806222662329674,
        0.1666502058506012,
        0.06673172861337662,
        0.1591467261314392,
        0.10594253987073898,
        0.0136128980666399,
        0.05581009015440941,
        0.2009095549583435,
        0.14473135769367218,
        -0.13318727910518646,
        -0.1414659172296524,
        -0.2625972032546997,
        0.2834334969520569,
        -0.2826339304447174,
        -0.16234467923641205,
        0.28363755345344543,
        -0.1111161857843399,
        0.11653873324394226,
        -0.03516297787427902,
        0.07883107662200928,
        0.012134573422372341,
        0.09104236215353012,
        0.06989586353302002,
        -0.15599510073661804,
        -0.21681320667266846,
        0.1753721684217453,
        0.21050035953521729,
        -0.007176171988248825,
        0.10504321753978729,
        0.17132951319217682,
        0.0010174387134611607,
        0.029922865331172943,
        -0.02767663262784481,
        -0.20952922105789185,
        -0.036621928215026855,
        -0.015387237071990967,
        0.16323933005332947,
        0.15400831401348114,
        0.061262913048267365,
        0.0582321435213089,
        0.17155615985393524,
        -0.10446665436029434,
        -0.1769804060459137,
        -0.19082355499267578,
        0.08294843882322311,
        -0.05936251953244209,
        -0.1660357117652893,
        0.1311473250389099,
        -0.09142642468214035,
        0.047509726136922836,
        0.16228626668453217,
        0.12276400625705719,
        -0.11165334284305573,
        0.06334912776947021,
        0.008644664660096169,
        0.4427109658718109,
        0.1836121380329132,
        -0.2288673371076584,
        -0.05512318015098572,
        0.2826058566570282,
        0.14060652256011963,
        -0.1995009034872055,
        0.254689484834671,
        0.14388804137706757,
        0.16756531596183777,
        -0.13195925951004028,
        0.09623118489980698,
        -0.16041520237922668,
        -0.20310291647911072,
        -0.2295476794242859,
        -0.14749900996685028,
        -0.04105862230062485,
        0.014198769815266132,
        -0.14237961173057556,
        0.14099571108818054,
        0.15515048801898956,
        -0.12468385696411133,
        0.00820981990545988,
        0.06267955899238586,
        -0.12862759828567505,
        0.2144486904144287,
        0.03896600380539894,
        -0.07850140333175659,
        -0.1964743733406067,
        -0.05830966308712959,
        0.07357379794120789,
        0.0956404060125351,
        0.1661277860403061,
        -0.2543362081050873,
        0.22526593506336212,
        -0.36981767416000366,
        0.031135672703385353,
        0.13744884729385376,
        -0.07752879709005356,
        -0.06809474527835846,
        0.08562441915273666,
        -0.04379226639866829,
        -0.20585109293460846,
        0.27890968322753906,
        0.005057516507804394,
        -0.05067846179008484,
        -0.20960558950901031,
        0.2264336496591568,
        0.01888022944331169,
        -0.0020020895171910524,
        -0.07345424592494965,
        0.047187406569719315,
        0.02312072366476059,
        -0.024568574503064156,
        -0.11056587100028992,
        0.048979002982378006,
        0.005695582367479801,
        0.06289680302143097,
        -0.15933623909950256,
        -0.003745804540812969,
        -0.047706764191389084,
        0.022536680102348328,
        0.0603080652654171,
        0.04063815996050835,
        0.01884102076292038,
        0.32207146286964417,
        -0.11066050827503204,
        -0.2009335607290268,
        -0.16495707631111145,
        -0.05408328026533127,
        0.13803260028362274,
        -0.08196957409381866,
        -0.10667239874601364,
        0.07879535853862762,
        0.3150090277194977,
        0.11619120091199875,
        -0.26061394810676575,
        0.29845666885375977,
        -0.038164474070072174,
        0.21019548177719116,
        -0.058162394911050797,
        -0.13086161017417908,
        -0.09449039399623871,
        0.08443780243396759,
        -0.08299629390239716,
        -0.1803111582994461,
        0.0894782617688179,
        0.014469101093709469,
        -0.1245294138789177,
        0.10774615406990051,
        0.1766566038131714,
        0.2183188498020172,
        0.2688789963722229,
        -0.02757650800049305,
        -0.012004251591861248,
        -0.011020337231457233,
        -0.0013565798290073872,
        -0.05101584643125534,
        -0.047938231378793716,
        0.13865356147289276,
        0.22061514854431152,
        0.019495168700814247,
        -0.05374500900506973,
        -0.03208725526928902,
        0.07171690464019775,
        0.31585049629211426,
        -0.1629658192396164,
        0.12440051138401031,
        0.029094845056533813,
        0.09646950662136078,
        -0.021833976730704308,
        0.10605639964342117,
        0.2215883582830429,
        0.3697208762168884,
        -0.39783424139022827,
        -0.26092883944511414,
        -0.12664684653282166,
        0.012720434926450253,
        -0.07784329354763031,
        0.11458895355463028,
        -0.1552686095237732,
        0.05958079546689987,
        0.1886955201625824,
        -0.26211655139923096,
        0.06007974594831467,
        -0.2193198949098587,
        -0.024817513301968575,
        -0.12722499668598175,
        -0.08021876215934753,
        -0.2538653016090393,
        -0.1573205143213272,
        0.1638079136610031,
        0.08221203833818436,
        -0.04060042276978493,
        -0.20649699866771698,
        0.043214648962020874,
        -0.0668012797832489,
        -0.11777672171592712,
        -0.28937456011772156,
        -0.27958589792251587,
        0.2543795108795166,
        -0.2847387492656708,
        0.18527011573314667,
        -0.020488645881414413,
        0.18692582845687866,
        0.01878848299384117,
        -0.17266732454299927,
        0.3955650329589844,
        -0.09306731820106506,
        0.11241959035396576,
        -0.06117822229862213,
        0.044888440519571304,
        -0.020563116297125816,
        0.3989661633968353,
        0.0330982431769371,
        -0.06345438212156296,
        0.18137620389461517,
        0.08816853165626526,
        -0.019453953951597214,
        -0.08584129810333252,
        -0.08273690193891525,
        0.30942201614379883,
        0.07316959649324417,
        -0.10501234233379364,
        -0.19085931777954102,
        -0.09283914417028427,
        0.2516346275806427,
        0.016942627727985382,
        -0.006404473911970854,
        0.034618791192770004,
        -0.1882561892271042,
        0.15311047434806824,
        -0.24620231986045837,
        0.2174699902534485,
        0.2109043300151825,
        0.10598018765449524,
        0.24943619966506958,
        -0.07044544816017151,
        -0.20434729754924774,
        -0.09150494635105133,
        -0.3473565876483917,
        0.011099711991846561,
        0.030319835990667343,
        0.2661474943161011,
        -0.04102567583322525,
        -0.029245201498270035,
        0.319083034992218,
        0.35345950722694397,
        -0.3322368264198303,
        0.36301642656326294,
        -0.283155232667923,
        -0.04574199020862579,
        -0.05382196605205536,
        0.021434441208839417,
        -0.0009856781689450145,
        -0.06980135291814804,
        -0.1111985445022583,
        0.04280655458569527,
        0.0804673284292221,
        0.17650222778320312,
        0.10695236176252365,
        0.021646352484822273,
        0.019540244713425636,
        -0.21087194979190826,
        0.03438354283571243,
        -0.23250636458396912,
        -0.1408039927482605,
        -0.040318794548511505,
        0.039507050067186356,
        -0.03177643194794655,
        -0.09616962820291519,
        -0.1476045846939087,
        -0.24605900049209595,
        -0.2182776927947998,
        0.049168266355991364,
        0.0877918228507042,
        0.08626337349414825,
        0.08350519835948944,
        -0.017178023234009743,
        -0.07120028138160706,
        -0.02222328446805477,
        -0.0659489706158638,
        -0.2121037244796753,
        0.0735134407877922,
        0.16143780946731567,
        0.1360166072845459,
        0.12113472074270248,
        0.15446244180202484,
        -0.0010404783533886075,
        0.14757470786571503,
        -0.010449018329381943,
        -0.17345397174358368,
        -0.1692098081111908,
        0.13087208569049835,
        -0.11473322659730911,
        0.010230443440377712,
        0.21031413972377777,
        0.13157102465629578,
        -0.23001383244991302,
        0.019122252240777016,
        -0.1260479986667633,
        -0.07180996984243393,
        -0.15508122742176056,
        -0.15433305501937866,
        -0.12267663329839706,
        -0.01536478754132986,
        0.0973653718829155,
        -0.14587156474590302,
        0.3112260699272156,
        -0.09739282727241516,
        0.15193000435829163,
        0.06291047483682632,
        -0.183175727725029,
        0.039129942655563354,
        -0.09414883702993393,
        -0.17272460460662842,
        -0.028450805693864822,
        0.018180130049586296,
        0.030127646401524544,
        -0.035655152052640915,
        -0.13090220093727112,
        0.0593101903796196,
        0.14412905275821686,
        0.30845123529434204,
        0.1712924689054489,
        -0.005937994457781315,
        -0.14550736546516418,
        -0.11246297508478165,
        0.3023911118507385,
        -0.1370110660791397,
        0.08155104517936707,
        0.0718022957444191,
        0.0931771844625473,
        -0.16034819185733795,
        0.17656950652599335,
        -0.0740971490740776,
        -0.031927838921546936,
        -0.04868645593523979,
        0.22203677892684937,
        0.031043164432048798,
        0.01498246006667614,
        -0.26358991861343384,
        -0.2533191442489624,
        0.23062632977962494,
        0.33819612860679626,
        0.08354989439249039,
        0.2919278144836426,
        -0.11674800515174866,
        0.06423933058977127,
        0.029872335493564606,
        -0.34096020460128784,
        0.08219459652900696,
        0.09580584615468979,
        -0.0313439778983593,
        -0.04217258468270302,
        0.17962448298931122,
        -0.07548058778047562,
        -0.157436802983284,
        -0.15687155723571777,
        0.11872542649507523,
        -0.04670960083603859,
        0.15517491102218628,
        -0.19077038764953613,
        -0.09957757592201233,
        0.15020599961280823,
        -0.09948907792568207,
        -0.0034877541474997997,
        0.12441778182983398,
        0.15909376740455627,
        -0.12404431402683258,
        0.027737753465771675,
        -0.2248418629169464,
        -0.08990384638309479,
        -0.1224147155880928,
        0.1172739714384079,
        0.1680220663547516,
        -0.1402292400598526,
        -0.09570740908384323,
        0.008432970382273197,
        0.10822254419326782,
        0.030952006578445435,
        0.08892659842967987,
        -0.01911286450922489,
        0.11467267572879791,
        0.00435060728341341,
        -0.256866991519928,
        -0.016630839556455612,
        0.05055214464664459,
        0.012027280405163765,
        0.20138399302959442,
        0.18985465168952942,
        -0.1706707626581192,
        0.17142991721630096,
        -0.09023948013782501,
        -0.014848005026578903,
        0.01913866400718689,
        -0.09005270153284073,
        0.045506551861763,
        0.1614755243062973,
        0.08136139065027237,
        0.334836483001709,
        0.038182418793439865,
        0.01551448181271553,
        -0.09730051457881927,
        0.053406063467264175,
        0.07380624115467072,
        -0.14766018092632294,
        0.10173969715833664,
        0.1530437022447586,
        -0.39476045966148376,
        0.3510247766971588,
        0.3660014569759369,
        -0.08982878923416138,
        0.0017541489796712995,
        0.21437832713127136,
        -0.042100369930267334,
        -0.011564014479517937,
        0.26355794072151184,
        -0.024138234555721283,
        0.3075949251651764,
        -0.15478098392486572,
        0.22314658761024475,
        0.05893614888191223,
        -0.04274008795619011,
        0.14637470245361328,
        -0.07714252173900604,
        0.053961291909217834,
        0.017741352319717407,
        -0.08026982098817825,
        -0.00435262406244874,
        0.24003827571868896,
        0.22348669171333313,
        -0.09958004206418991,
        -0.17346405982971191,
        0.1755460649728775,
        0.102535180747509,
        0.06966804713010788,
        -0.01094286609441042,
        0.13461808860301971,
        -0.1724858283996582,
        0.047624364495277405,
        -0.2724772095680237,
        0.19660155475139618,
        -0.02728491649031639,
        0.102974072098732,
        0.32446810603141785,
        -0.2079005390405655,
        0.08197600394487381,
        0.27895623445510864,
        -0.08140572905540466,
        0.015954386442899704,
        0.31080731749534607,
        0.05927688628435135,
        0.22719600796699524,
        -0.12262452393770218,
        0.06818101555109024,
        -0.011977353133261204,
        -0.077548548579216,
        0.14983108639717102,
        0.10667330026626587,
        -0.03712591156363487,
        -0.3171115517616272,
        -0.17423515021800995,
        -0.004575180821120739,
        0.3142426013946533,
        -0.03025848977267742,
        -0.001819331431761384,
        -0.40731072425842285,
        -0.17228640615940094,
        0.09944067150354385,
        0.177567720413208,
        -0.1262863576412201,
        -0.06599600613117218,
        0.16296052932739258,
        0.020629510283470154,
        0.057277847081422806,
        0.11117654293775558,
        0.07334291934967041,
        -0.0565112829208374,
        -0.3751445710659027,
        0.13058172166347504,
        0.012598643079400063,
        -0.21603266894817352,
        0.22528381645679474,
        -0.03646891191601753,
        0.015065695159137249,
        0.05631492659449577,
        0.26874953508377075,
        0.002698806580156088,
        0.09762466698884964,
        -0.20004406571388245,
        -0.023002779111266136,
        -0.14224393665790558,
        -0.0025244131684303284,
        0.40966248512268066,
        -0.050861600786447525,
        -0.10788639634847641,
        0.13039630651474,
        -0.10667812079191208,
        -0.11038088798522949,
        -0.11515297740697861,
        0.044364333152770996,
        0.03008204698562622,
        -0.24090354144573212,
        0.23457805812358856,
        0.07756797224283218,
        -0.05007550120353699,
        -0.10324075818061829,
        0.015587490983307362,
        -0.31113338470458984,
        -0.40418747067451477,
        -0.02545456402003765,
        0.08567595481872559,
        -0.07683783769607544,
        0.06476164609193802,
        -0.2273607850074768,
        -0.05451497435569763,
        -0.1279311627149582,
        -0.0999235287308693,
        0.17533448338508606,
        -0.04407435655593872,
        0.1653209775686264,
        0.13364961743354797,
        -0.018602726981043816,
        0.01308838464319706,
        -0.11950241774320602,
        -0.12525801360607147,
        0.2262546271085739,
        0.3392390012741089,
        -0.13126511871814728,
        -0.12475824356079102,
        0.118962861597538,
        0.09757394343614578,
        -0.01636825129389763,
        0.04237533360719681,
        -0.051288049668073654,
        -0.06649144738912582,
        -0.11673896014690399,
        0.06804539263248444,
        0.09300068020820618,
        0.019423048943281174,
        -0.1588650494813919,
        0.24298562109470367,
        -0.04024961590766907,
        0.14769020676612854,
        -0.0557161420583725,
        -0.18985261023044586,
        -0.09321144223213196,
        -0.04766242578625679,
        0.05784888193011284,
        0.051015909761190414,
        -0.06561628729104996,
        0.1518375724554062,
        0.11735431849956512,
        0.013089663349092007,
        0.20127446949481964,
        0.05353908985853195,
        -0.13922320306301117,
        0.13941489160060883,
        0.03654612973332405,
        0.05000105872750282,
        -0.13494917750358582,
        0.13188989460468292,
        -0.13093826174736023,
        -0.0005196921993046999,
        -0.09916020184755325,
        0.05423062667250633,
        0.04730890691280365,
        -0.232821986079216,
        -0.061886824667453766,
        0.04731295257806778,
        0.037041548639535904,
        -0.11950905621051788,
        0.12118657678365707,
        0.03572753444314003,
        -0.10897976905107498,
        0.046266186982393265,
        0.19824917614459991,
        0.1825205683708191,
        -0.20651757717132568,
        -0.23389039933681488,
        -0.1392318308353424,
        0.02167722024023533,
        -0.04044176638126373,
        -0.017395516857504845,
        -0.08276379108428955,
        -0.17747026681900024,
        0.028347715735435486,
        0.04082522541284561,
        0.012437143363058567,
        -0.12398122251033783,
        -0.02825145050883293,
        -0.07928415387868881,
        -0.14025987684726715,
        0.25704339146614075,
        -0.0743134468793869,
        -0.20099496841430664,
        0.016395503655076027,
        -0.3951030373573303,
        -0.018718861043453217,
        -0.1933041512966156,
        -0.12513069808483124,
        -0.24517057836055756,
        -0.28012603521347046,
        0.012563670985400677,
        0.09374670684337616,
        -0.10179966688156128,
        0.25832638144493103,
        0.22145496308803558,
        0.17565222084522247,
        -0.16459843516349792,
        0.022677501663565636,
        -0.06682169437408447,
        -0.1500718742609024,
        -0.07621872425079346,
        0.03679905831813812,
        0.15171873569488525,
        0.12138597667217255,
        0.08336645364761353,
        0.11215273290872574,
        0.09442915767431259,
        0.06462547928094864,
        -0.25200849771499634,
        -0.279329389333725,
        0.08842480927705765,
        -0.12185542285442352,
        0.16998057067394257,
        0.11996167153120041,
        0.0007033263682387769,
        0.07441988587379456,
        -0.027940545231103897,
        -0.01797296106815338,
        -0.0745573341846466,
        -0.14468103647232056,
        0.17526617646217346,
        -0.09334419667720795,
        -0.03629905357956886,
        0.16638728976249695,
        0.284885436296463,
        -0.014977135695517063,
        0.13884538412094116,
        0.051780570298433304,
        0.014436657540500164,
        -0.045041829347610474,
        -0.3081482946872711,
        -0.03817148879170418,
        0.004323957487940788,
        -0.08232378214597702,
        0.1200995072722435,
        -0.028288599103689194,
        -0.16281913220882416,
        0.1681976020336151,
        -0.05259054899215698,
        -0.1815461963415146,
        0.03492382541298866,
        0.10296659916639328,
        0.04135659337043762,
        -0.023527946323156357,
        0.052996646612882614,
        -0.10518315434455872,
        -0.15964238345623016,
        0.023424122482538223,
        0.209566131234169,
        0.029116518795490265,
        -0.0610811822116375,
        -0.013244746252894402,
        -0.12221100181341171,
        -0.11458168178796768,
        -0.036190301179885864,
        -0.055649854242801666,
        0.1289396733045578,
        0.01397230476140976,
        0.03125753253698349,
        -0.057571813464164734,
        -0.3256498873233795,
        0.05192607641220093,
        0.1400020569562912,
        0.24317587912082672,
        0.2312929332256317,
        -0.029248926788568497,
        0.04730062186717987,
        0.14216363430023193,
        0.06944891810417175,
        0.10634715855121613,
        -0.25401535630226135,
        -0.03072955831885338,
        0.30929675698280334,
        -0.22533927857875824,
        -0.10583829134702682,
        0.2390766143798828,
        -0.12854456901550293,
        0.11902263760566711,
        -0.08403034508228302,
        0.04192425683140755,
        0.2074653059244156,
        0.0716022402048111,
        0.15707561373710632,
        0.0942811518907547,
        0.1783834546804428,
        0.13451266288757324,
        0.0936504378914833,
        -0.12613295018672943,
        -0.2606753706932068,
        0.08354143053293228,
        -0.16176150739192963,
        0.08582071959972382,
        0.11832346022129059,
        0.1150956004858017,
        0.057049330323934555,
        -0.12395353615283966,
        -0.03546755388379097,
        -0.09727461636066437,
        0.011294031515717506,
        -0.10300808399915695,
        0.06076011806726456,
        0.06364406645298004,
        0.0727764219045639,
        0.06725838035345078,
        -0.05550818145275116,
        0.05150764435529709,
        -0.27118510007858276,
        0.13164187967777252,
        0.02094327285885811,
        -0.03861453756690025,
        -0.26144498586654663,
        -0.18858586251735687,
        -0.06893695145845413,
        0.17153199017047882,
        -0.05221354588866234,
        0.12643805146217346,
        -0.04489741101861,
        -0.1314229816198349,
        -0.19247764348983765,
        -0.09198082238435745,
        -0.0928645059466362,
        -0.03950608894228935,
        0.0522695854306221,
        -0.11438804864883423,
        -0.01511895190924406,
        0.02327742800116539,
        -0.15397916734218597,
        -0.12762975692749023,
        -0.1559133231639862,
        0.2986871302127838,
        -0.1368592381477356,
        -0.08822139352560043,
        -0.06509816646575928,
        -0.2832249402999878,
        -0.0355544351041317,
        0.10227399319410324,
        0.1970755159854889,
        0.1349925845861435,
        -0.1758572906255722,
        0.21943403780460358,
        -0.03229306638240814,
        0.32545343041419983,
        0.20651277899742126,
        -0.06435199826955795,
        -0.0030597306322306395,
        0.23050403594970703,
        0.14393343031406403,
        -0.2863035202026367,
        0.1231551468372345,
        0.028256922960281372,
        0.03762832656502724,
        0.043026670813560486,
        0.07771912962198257,
        0.22664333879947662,
        -0.09148796647787094,
        0.11113877594470978,
        0.191120907664299,
        -0.21331027150154114,
        -0.12976638972759247,
        0.0042137824930250645,
        0.2865976393222809,
        -0.10109247267246246,
        0.075616255402565,
        -0.020434658974409103,
        0.0619610920548439,
        -0.0164620541036129,
        0.3303323984146118,
        0.12615078687667847,
        -0.4018210470676422,
        0.13942086696624756,
        0.1763746589422226,
        0.006053875666111708,
        0.18753312528133392,
        0.026106450706720352,
        -0.14368271827697754,
        0.1984024941921234,
        -0.2943117916584015,
        0.198824942111969,
        -0.2014828622341156,
        -0.1687076985836029,
        -0.21760950982570648,
        0.11095117777585983,
        0.15545322000980377,
        -0.1986069232225418,
        0.1528702676296234,
        0.13811546564102173,
        -0.11194870620965958,
        0.061871979385614395,
        0.09060470759868622,
        0.03806981071829796,
        0.13865144550800323,
        -0.13298574090003967,
        0.005766698624938726,
        0.22711530327796936,
        0.0365014486014843,
        -0.04004080966114998,
        0.021682925522327423,
        -0.017091581597924232,
        -0.05804017558693886,
        0.03275660425424576,
        0.033107396215200424,
        0.30752483010292053,
        0.24658945202827454,
        0.14388081431388855,
        0.0694454237818718,
        -0.3424425721168518,
        -0.24717450141906738,
        -0.020989878103137016,
        -0.017109151929616928,
        -0.12168475240468979,
        -0.022447511553764343,
        -0.15155506134033203,
        -0.09575115144252777,
        -0.22810518741607666,
        0.09677538275718689,
        0.16031315922737122,
        -0.2980019450187683,
        0.11579439043998718,
        0.17023849487304688,
        -0.08973979204893112,
        0.17800459265708923,
        0.030932601541280746,
        -0.23833802342414856,
        0.3106546998023987,
        -0.19039782881736755,
        0.12785251438617706,
        0.18449610471725464,
        -0.19956287741661072,
        -0.16899049282073975,
        -0.12353574484586716,
        -0.09097287058830261,
        -0.07225169241428375,
        0.036241114139556885,
        -0.0654156282544136,
        0.060636505484580994,
        -0.24252736568450928,
        -0.07426783442497253,
        -0.35766875743865967,
        -0.005504960659891367,
        -0.011353845708072186,
        0.1759287267923355,
        0.07394196838140488,
        0.18363870680332184,
        0.22715134918689728,
        0.007617190480232239,
        -0.01821388490498066,
        0.05790204182267189,
        -0.0008500422118231654,
        -0.2242741882801056,
        0.0690494254231453,
        -0.038985125720500946,
        0.05443493649363518,
        -0.319891095161438,
        0.058990929275751114,
        0.08450166136026382,
        0.09588862210512161,
        0.0906660258769989,
        -0.06418870389461517,
        0.22845664620399475,
        0.13557933270931244,
        0.05197251960635185,
        0.20278401672840118,
        -0.12412531673908234,
        -0.0584934763610363,
        0.30640143156051636,
        0.08098645508289337,
        -0.22299189865589142,
        0.11634106189012527,
        -0.17016029357910156,
        -0.07578906416893005,
        0.11061062663793564,
        -0.0741984024643898,
        0.07832573354244232,
        0.014618017710745335,
        -0.053824227303266525,
        0.2542743682861328,
        0.28920477628707886,
        0.20017161965370178,
        0.13227778673171997,
        -0.09195134043693542,
        -0.0002799967478495091,
        0.12713077664375305,
        -0.21061305701732635,
        -0.09184644371271133,
        0.05521862953901291,
        0.037700340151786804,
        -0.14840121567249298,
        -0.11393298953771591,
        0.024852976202964783,
        0.19524610042572021,
        -0.038183365017175674,
        0.036398258060216904,
        0.10231292992830276,
        0.1552172303199768,
        0.0018197261961176991,
        -0.027785729616880417,
        -0.008777177892625332,
        -0.07117453217506409,
        -0.15511071681976318,
        0.0014931203331798315,
        0.16319282352924347,
        -0.02216167561709881,
        -0.1377161741256714,
        -0.007991678081452847,
        -0.0975196436047554,
        -0.05702957138419151,
        0.03737879544496536,
        0.10275294631719589,
        0.04046138748526573,
        -0.14287662506103516,
        -0.13475213944911957,
        0.06798737496137619,
        -0.07464702427387238,
        0.14555837213993073,
        0.122581347823143,
        -0.01752416230738163,
        -0.009816449135541916,
        0.11153557151556015,
        0.08614474534988403,
        -0.1708557903766632,
        -0.3221054673194885,
        0.20263831317424774,
        -0.08657670766115189,
        -0.2409936785697937,
        0.03256973996758461,
        -0.12687623500823975,
        -0.08892262727022171,
        0.13021625578403473,
        0.14745156466960907,
        -0.014704977162182331,
        0.17953267693519592,
        -0.04074016585946083,
        -0.08584809303283691,
        -0.026808369904756546,
        0.2310980260372162,
        -0.07130809873342514,
        -0.03416384384036064,
        0.07894319295883179,
        -0.13627390563488007,
        0.07795702666044235,
        -0.196000874042511,
        0.029149627313017845,
        -0.04843028262257576,
        -0.2193373143672943,
        -0.0751781091094017,
        -0.01330144889652729,
        -0.18254037201404572,
        0.10643140971660614,
        -0.14849220216274261,
        -0.12054715305566788,
        0.1338297575712204,
        -0.07892414182424545,
        0.0537547841668129,
        0.08590094745159149,
        0.09684527665376663,
        0.030780546367168427,
        -0.126132532954216,
        0.09762458503246307,
        0.16054074466228485,
        -0.07998283207416534,
        0.16623929142951965,
        -0.1804284304380417,
        -0.2781409025192261,
        -0.03513742983341217,
        0.020530935376882553,
        -0.1841631978750229,
        0.07652933150529861,
        0.12477602064609528,
        0.06380093097686768,
        -0.2334168404340744,
        -0.18015341460704803,
        0.08871068060398102,
        0.22091332077980042,
        -0.13057157397270203,
        -0.09715823084115982,
        0.09871431440114975,
        0.01120963878929615,
        -0.04197282716631889,
        -0.00895849522203207,
        0.239858940243721,
        -0.06018806993961334,
        0.0802563950419426,
        0.18605414032936096,
        -0.005481070373207331,
        -0.06245681643486023,
        0.11597953736782074,
        -0.002177738817408681,
        -0.012765783816576004,
        0.15668761730194092,
        0.06634589284658432,
        -0.04432908073067665,
        -0.07051015645265579,
        0.11596908420324326,
        -0.22841815650463104,
        0.2153901308774948,
        0.04020647704601288,
        0.09227540343999863,
        0.15791073441505432,
        0.07861988246440887,
        -0.08291179686784744,
        -0.14602382481098175,
        0.08858097344636917,
        -0.17490269243717194,
        -0.02715684473514557,
        -0.01797451637685299,
        -0.10987433791160583,
        0.009961766190826893,
        -0.08957507461309433,
        0.16301612555980682,
        0.09373802691698074,
        -0.1485273391008377,
        0.14503760635852814,
        -0.12323256582021713,
        -0.006143725477159023,
        0.0025778140407055616,
        -0.009500833228230476,
        0.24961945414543152,
        -0.16240383684635162,
        6.41380829620175e-05,
        0.11839327216148376,
        -0.2509133517742157,
        0.04443787410855293,
        0.019714783877134323,
        0.10923508554697037,
        0.003214867552742362,
        0.02057015337049961,
        0.10412782430648804,
        0.04267057776451111,
        -0.04547126591205597,
        -0.04971986636519432,
        0.1462213695049286,
        0.03323855623602867,
        0.20652689039707184,
        0.027806388214230537,
        -0.16668686270713806,
        -0.0014240480959415436,
        -0.03453531488776207,
        0.09451336413621902,
        -0.219468355178833,
        -0.3836984634399414,
        0.7896683216094971,
        0.3518466055393219,
        -0.2508305013179779,
        0.09318773448467255,
        -0.18403172492980957,
        0.05611094832420349,
        0.4729625880718231,
        -0.6854541897773743,
        0.7286104559898376,
        0.4456931948661804,
        0.09219440817832947,
        -0.2941752076148987,
        0.1373709738254547,
        -0.609230101108551,
        0.01577082648873329,
        -0.18518494069576263,
        0.04691306874155998,
        -0.34712955355644226,
        0.3387088179588318,
        0.24302999675273895,
        0.302861750125885,
        0.18122771382331848,
        0.11076562851667404,
        0.15418501198291779,
        -0.05098266527056694,
        0.11193305253982544,
        -0.033296529203653336,
        0.11210200190544128,
        -0.08832032233476639,
        -0.10104785859584808,
        0.2873299717903137,
        -0.25936204195022583,
        0.1137579008936882,
        0.036025289446115494,
        0.1680534929037094,
        0.026443805545568466,
        0.19710621237754822,
        -0.29963862895965576,
        -0.22469565272331238,
        0.10517237335443497,
        0.028301624581217766,
        -0.07856684923171997,
        0.09381643682718277,
        0.3235231339931488,
        0.24054862558841705,
        -0.14426963031291962,
        0.17264825105667114,
        -0.12742821872234344,
        0.1489637941122055,
        -0.15926656126976013,
        0.10994322597980499,
        0.04748062789440155,
        0.055563319474458694,
        -0.2963670790195465,
        -0.051540013402700424,
        0.183405339717865,
        -0.193423330783844,
        0.15360140800476074,
        0.08869604021310806,
        -0.10325166583061218,
        -0.02959447167813778,
        -0.0076387361623346806,
        0.33307531476020813,
        0.15870696306228638,
        0.08437240123748779,
        -0.03132852166891098,
        -0.08896420150995255,
        -0.0037038365844637156,
        -0.1670783907175064,
        0.19501055777072906,
        0.20146013796329498,
        0.0868784487247467,
        0.03441387414932251,
        0.2518638074398041,
        0.15591377019882202,
        0.028520001098513603,
        0.0010436968877911568,
        -0.06131548061966896,
        -0.04754182696342468,
        -0.21927908062934875,
        0.23153063654899597,
        -0.042794398963451385,
        0.2059851586818695,
        -0.14294728636741638,
        0.27140122652053833,
        0.10431645065546036,
        0.08609848469495773,
        -0.08571399748325348,
        -0.061990685760974884,
        -0.05188804864883423,
        -0.19564342498779297,
        -0.05764315277338028,
        0.03553834930062294,
        0.04533367231488228,
        -0.16500267386436462,
        -0.09972061961889267,
        -0.13112929463386536,
        -0.04581345245242119,
        0.04098223149776459,
        -0.0013685167068615556,
        0.24641470611095428,
        0.26327571272850037,
        -0.20580799877643585,
        -0.20516522228717804,
        -0.07364001125097275,
        0.04644627496600151,
        -0.0007148794247768819,
        0.10823895782232285,
        0.17097324132919312,
        0.2079232782125473,
        0.21400125324726105,
        0.08840492367744446,
        -0.10935655981302261,
        0.04830488935112953,
        0.1758575588464737,
        -0.23453067243099213,
        0.19712932407855988,
        0.0308266319334507,
        -0.25733500719070435,
        0.1712750792503357,
        0.08155665546655655,
        -0.11846734583377838,
        0.12914685904979706,
        0.19865550100803375,
        0.22317513823509216,
        0.006737374700605869,
        0.1243579238653183,
        -0.10677444189786911,
        -0.24240434169769287,
        -0.2436082363128662,
        0.2174576371908188,
        -0.014416043646633625,
        -0.044565919786691666,
        -0.18035191297531128,
        0.18810875713825226,
        -0.00398487551137805,
        -0.011680761352181435,
        0.1383356899023056,
        0.11818558722734451,
        -0.08688634634017944,
        0.1889851689338684,
        0.014108218252658844,
        -0.09829960018396378,
        0.2705249786376953,
        -0.24166437983512878,
        0.09862067550420761,
        0.29063794016838074,
        0.09914282709360123,
        -0.22146739065647125,
        0.19441115856170654,
        -0.22105252742767334,
        -0.05530590936541557,
        -0.19826160371303558,
        0.06762207299470901,
        -0.1827888935804367,
        -0.10978537052869797,
        -0.050718165934085846,
        0.27831918001174927,
        -0.03867167979478836,
        -0.05912339314818382,
        -0.10009457916021347,
        0.263302743434906,
        0.030230185016989708,
        0.08291715383529663,
        -0.13793346285820007,
        -0.14419381320476532,
        -0.10616710782051086,
        0.01091955229640007,
        0.06071552261710167,
        -0.14322158694267273,
        -0.09865663200616837,
        -0.053356971591711044,
        -0.007511101197451353,
        -0.004774484317749739,
        0.338909775018692,
        -0.0495229996740818,
        -0.27293097972869873,
        -0.24606378376483917,
        0.17851325869560242,
        -0.12367812544107437,
        0.028731539845466614,
        -0.052197910845279694,
        0.30055177211761475,
        -0.018258357420563698,
        -0.27918222546577454,
        0.03914643079042435,
        0.13402126729488373,
        -0.27334240078926086,
        0.09358379244804382,
        0.271025687456131,
        0.053792137652635574,
        -0.10636872798204422,
        -0.09636444598436356,
        -0.0618656687438488,
        -0.03183453902602196,
        0.04726459085941315,
        0.27228790521621704,
        0.06572890281677246,
        -0.14750146865844727,
        -0.15228621661663055,
        -0.12155983597040176,
        0.24901194870471954,
        -0.11127954721450806,
        -0.21414735913276672,
        0.07498734444379807,
        0.0646127238869667,
        -0.21022401750087738,
        -0.05685068666934967,
        -0.09553330391645432,
        -0.01146299485117197,
        0.0021938749123364687,
        0.04615606367588043,
        -0.17132610082626343,
        -0.1746215671300888,
        0.0889013335108757,
        -0.032005373388528824,
        -0.08565735071897507,
        0.016248274594545364,
        0.03913261741399765,
        0.08300424367189407,
        0.09062238037586212,
        -0.22895124554634094,
        -0.08715593814849854,
        0.1894264817237854,
        -0.0932464450597763,
        0.04172428324818611,
        0.1924785077571869,
        -0.11595018953084946,
        0.11879612505435944,
        -0.03339901193976402,
        -0.010067599825561047,
        0.07657014578580856,
        0.08630062639713287,
        -0.2698575556278229,
        0.06392057240009308,
        0.22053132951259613,
        -0.1392565369606018,
        -0.021367818117141724,
        0.09179980307817459,
        0.15373557806015015,
        -0.05950978025794029,
        0.07970220595598221,
        -0.26888570189476013,
        -0.08189968764781952,
        0.23468801379203796,
        -0.20526215434074402,
        -0.00045116370893083513,
        0.15479309856891632,
        0.16611993312835693,
        0.1738344430923462,
        -0.23410148918628693,
        0.14557430148124695,
        0.03529622033238411,
        -0.26527515053749084,
        0.08899390697479248,
        -0.11682530492544174,
        -0.10704024881124496,
        -0.18679063022136688,
        -0.26728206872940063,
        -0.08359448611736298,
        0.1341291218996048,
        -0.25100743770599365,
        -0.15473966300487518,
        0.20820701122283936,
        0.2068426012992859,
        0.21216388046741486,
        -0.2822997570037842,
        0.045496854931116104,
        -0.011514159850776196,
        -0.11321088671684265,
        0.03060912899672985,
        0.02648981660604477,
        0.06707396358251572,
        -0.022535594180226326,
        -0.039639804512262344,
        0.11567946523427963,
        0.016773484647274017,
        0.021817268803715706,
        -0.1372131109237671,
        -0.11339046061038971,
        0.04914318025112152,
        0.016949791461229324,
        0.14992813766002655,
        0.09585055708885193,
        0.01186660211533308,
        -0.02633875608444214,
        0.004531607031822205,
        -0.13064078986644745,
        0.15508213639259338,
        0.045010391622781754,
        0.0012829324696213007,
        0.10399454832077026,
        0.11393684893846512,
        -0.09937144070863724,
        0.09888599067926407,
        -0.16507035493850708,
        0.0813867524266243,
        0.1906966269016266,
        0.11135613173246384,
        -0.06291061639785767,
        -0.06449481844902039,
        0.12168779969215393,
        0.03216758370399475,
        0.13641664385795593,
        0.14369900524616241,
        -0.0036713944282382727,
        -0.07974382489919662,
        -0.0940055102109909,
        0.029133452102541924,
        -0.0790688693523407,
        -0.16382114589214325,
        -0.21986141800880432,
        0.3790038824081421,
        0.17234131693840027,
        -0.04970480874180794,
        -0.14213119447231293,
        -0.054187316447496414,
        -0.14922501146793365,
        0.37599262595176697,
        -0.03838077187538147,
        -0.07127727568149567,
        0.011720485053956509,
        -0.13287657499313354,
        0.15409131348133087,
        0.08213695883750916,
        -0.08920000493526459,
        -0.03809766471385956,
        0.05340978503227234,
        -0.000455522007541731,
        -0.225245401263237,
        -0.2876250147819519,
        0.1896165907382965,
        -0.23707856237888336,
        0.004880760796368122,
        0.21697060763835907,
        0.1067538633942604,
        0.042327411472797394,
        0.03273678943514824,
        0.1044686883687973,
        0.24023176729679108,
        0.006374884396791458,
        0.07060226798057556,
        0.1499626636505127,
        -0.07891127467155457,
        0.12793639302253723,
        0.11669638007879257,
        -0.019180744886398315,
        0.0986296534538269,
        0.17276696860790253,
        0.07244094461202621,
        0.05245281383395195,
        -0.810430645942688,
        -0.20886246860027313,
        0.243714839220047,
        0.003622697899118066,
        0.1501314640045166,
        -0.29190418124198914,
        -0.0005610394873656332,
        0.2064029723405838,
        0.1022101640701294,
        0.10248767584562302,
        0.055589187890291214,
        -0.02531442604959011,
        -0.13222388923168182,
        -0.10305412858724594,
        0.17573772370815277,
        -0.12981921434402466,
        -0.06021744757890701,
        0.007885297760367393,
        -0.3684792220592499,
        -0.18320521712303162,
        0.16060851514339447,
        -0.055801816284656525,
        -0.3591766655445099,
        0.09739136695861816,
        -0.1362706869840622,
        0.0007780318846926093,
        0.12654615938663483,
        0.15481990575790405,
        0.006802624091506004,
        0.09737639129161835,
        0.14911668002605438,
        0.009502795524895191,
        -0.1454537808895111,
        -0.1482868194580078,
        0.10633422434329987,
        0.11368624866008759,
        -0.1078786626458168,
        -0.17792876064777374,
        0.02792583964765072,
        0.1069178432226181,
        -0.012949703261256218,
        0.09777723997831345,
        0.029576675966382027,
        0.08724607527256012,
        -0.11394321173429489,
        0.011495724320411682,
        -0.15811383724212646,
        -0.09048952162265778,
