{"version": "0.5.1", "metadata": {"date": {"year": 2023, "month": 4, "day": 26, "hour": 1, "minute": 32, "second": 39}, "loudness": -8.50129222869873, "gain": 0.9850041418046411}, "architecture": "WaveNet", "config": {"layers": [{"input_size": 1, "condition_size": 1, "head_size": 8, "channels": 16, "kernel_size": 3, "dilations": [1, 2, 4, 8, 16, 32, 64, 128, 256, 512], "activation": "Tanh", "gated": false, "head_bias": false}, {"input_size": 16, "condition_size": 1, "head_size": 1, "channels": 8, "kernel_size": 3, "dilations": [1, 2, 4, 8, 16, 32, 64, 128, 256, 512], "activation": "Tanh", "gated": false, "head_bias": true}], "head": null, "head_scale": 0.02}, "weights": [-0.018293987959623337, 0.3696464002132416, -0.6164530515670776, -0.5410634875297546, -0.08265776187181473, 0.171325221657753, 0.005349647253751755, 0.8278677463531494, -0.13012009859085083, 0.19076059758663177, -0.03962305933237076, -0.12095606327056885, -0.9956476092338562, -0.6293008923530579, -0.25818392634391785, 0.009399066679179668, 0.09912262856960297, 0.29680654406547546, -0.030449045822024345, -0.04079410061240196, -0.07558024674654007, 0.17874926328659058, -0.046467915177345276, 0.2475903332233429, -0.07217339426279068, -0.003883591154590249, 0.26363393664360046, -0.1889745593070984, -0.08812691271305084, 0.11125694215297699, -0.08118410408496857, 0.1461086869239807, -0.22305677831172943, -0.011055161245167255, -0.017813565209507942, -0.1875941902399063, -0.0935644581913948, 0.13885104656219482, -0.07782981544733047, 0.11936929076910019, -0.005555082578212023, 0.06562565267086029, -0.024223484098911285, -0.1098816841840744, -0.23366309702396393, -0.018815062940120697, 0.048257991671562195, 0.17052990198135376, -0.14288513362407684, -0.02508266270160675, 0.22300152480602264, 0.09399429708719254, 0.04255926236510277, 0.16270782053470612, 0.04802360385656357, -0.10256821662187576, 0.16549548506736755, -0.16422811150550842, -0.10788830369710922, 0.0750005692243576, 0.03046679124236107, 0.0199482049793005, -0.18506751954555511, 0.10970409214496613, -0.11385443806648254, -0.10993383824825287, -0.22150523960590363, 0.15749867260456085, 0.08197799324989319, 0.07553386688232422, -0.23129764199256897, -0.05633137375116348, 0.11521969735622406, -0.00822506658732891, 0.12476254254579544, 0.18766428530216217, -0.07334736734628677, -0.10291334241628647, 0.07280265539884567, 0.036141298711299896, -0.13968534767627716, 0.07952995598316193, 0.0036391951143741608, 0.0031682662665843964, -0.04042205587029457, 0.10446438193321228, -0.014224962331354618, -0.12684036791324615, -0.0799422636628151, -0.07462660223245621, 0.09477134793996811, 0.1833990216255188, 0.09745985269546509, -0.009138577617704868, -0.2683636248111725, -0.09010351449251175, 0.09922181069850922, -0.07971775531768799, -0.1036820188164711, -0.03413829952478409, 0.006504245568066835, 0.08788883686065674, -0.002111968118697405, -0.16223648190498352, -0.1421038955450058, 0.0610828697681427, -0.2398316115140915, -0.1325903981924057, 0.036606598645448685, 0.021191343665122986, -0.15286697447299957, -0.004678207915276289, 0.02372206375002861, 0.03823177516460419, 0.21394911408424377, -0.20517829060554504, 0.03785040229558945, -0.1485251635313034, 0.0985439121723175, -0.04600565508008003, 0.20433788001537323, 0.08878413587808609, -0.14811530709266663, 0.2186918556690216, -0.047229405492544174, -0.14729997515678406, 0.11563636362552643, -0.16667774319648743, 0.014374720863997936, -0.28120413422584534, -0.06340187788009644, -0.010202189907431602, -0.09277620166540146, -0.08719880133867264, 0.1827528029680252, -0.16540901362895966, 0.12415102124214172, -0.059534844011068344, 0.21988102793693542, -0.006078840233385563, 0.19296520948410034, -0.07857950031757355, 0.21594135463237762, -0.06992398202419281, 0.02491544559597969, 0.02403142862021923, 0.03824423626065254, 0.16536590456962585, 0.00643688952550292, -0.19225247204303741, 0.013825196772813797, -0.04057583585381508, -0.10622876137495041, 0.23241595923900604, 0.16767868399620056, -0.20744743943214417, 0.24289605021476746, -0.14179325103759766, 0.02179197035729885, -0.23920032382011414, 0.0023104725405573845, -0.02580474130809307, -0.1789463758468628, -0.20963667333126068, -0.039056334644556046, 0.09954133629798889, 0.022975871339440346, 0.07863791286945343, -0.21966513991355896, 0.08033201843500137, 0.15037423372268677, -0.14933331310749054, 0.19205555319786072, 0.050183698534965515, -0.23502607643604279, 0.016617247834801674, -0.025279399007558823, 0.03833113983273506, 0.12656690180301666, -0.13344262540340424, -0.12062554061412811, -0.12139355391263962, 0.07737267017364502, 0.13010141253471375, 0.13213057816028595, 0.04196932539343834, -0.1584840714931488, -0.09801582992076874, -0.1199442595243454, 0.1897410899400711, 0.19108787178993225, 0.10976170748472214, -0.18709442019462585, 0.07300637662410736, -0.10312031209468842, -0.19112661480903625, 0.008630691096186638, 0.0766541063785553, -0.17484204471111298, 0.08656767010688782, 0.029285209253430367, 3.5582845157478005e-05, -0.02989312633872032, -0.0806012973189354, -0.17400936782360077, 0.0657765343785286, -0.03851318359375, 0.2570118010044098, 0.09898414462804794, -0.2488802969455719, 0.025972140952944756, -0.1335987001657486, 0.23805581033229828, -0.1656646579504013, 0.10049296915531158, -0.20698393881320953, 0.011297832243144512, 0.029840359464287758, -0.10548673570156097, 0.013606773689389229, 0.06544340401887894, -0.09191787242889404, 0.14755958318710327, -0.1042810007929802, 0.0910678282380104, -0.06106024235486984, -0.12041677534580231, -0.015940451994538307, -0.09674723446369171, -0.12258349359035492, 0.233038067817688, -0.009456265717744827, 0.13807670772075653, -0.08620339632034302, 0.23011381924152374, -0.19401411712169647, 0.2837355434894562, -0.2301887720823288, 0.07128780335187912, -0.11735828220844269, 0.2161174863576889, 0.20515991747379303, -0.2640620470046997, 0.12586882710456848, 0.17476963996887207, -0.37190523743629456, 0.23085209727287292, -0.015736784785985947, -0.22481514513492584, 0.10527089238166809, 0.017559878528118134, -0.21391528844833374, 0.2369309663772583, -0.03806944936513901, 0.09313088655471802, -0.17804846167564392, -0.04401155933737755, 0.039186831563711166, 0.06645944714546204, -0.14171990752220154, -0.031039543449878693, 0.0024088420905172825, 0.11858782172203064, 0.058087319135665894, 0.12857192754745483, -0.004369775764644146, -0.09404756128787994, 0.12049433588981628, 0.16654329001903534, -0.0033734862226992846, 0.01625136099755764, -0.12362918257713318, -0.09168526530265808, -0.06106814369559288, -0.008209524676203728, -0.1115659847855568, 0.20928440988063812, -0.13751815259456635, 0.03694859892129898, -0.03638538718223572, 0.0866934061050415, -0.12293761223554611, 0.007542316801846027, 0.060168180614709854, 0.060692038387060165, 0.024612557142972946, -0.0016213002381846309, 0.00572079187259078, 0.06381213665008545, 0.05036930739879608, -0.11975786089897156, 0.15258507430553436, 0.08877065777778625, -0.057519424706697464, 0.04437345266342163, -0.04479323327541351, 0.04736308380961418, -0.028515754267573357, 0.10950129479169846, -0.09150487184524536, 0.01450239960104227, -0.01209085714071989, -0.0812281146645546, -0.11226864904165268, 0.11427546292543411, -0.19047534465789795, 0.12074305862188339, -0.012746111489832401, 0.10614144802093506, -0.173245370388031, -0.05076836794614792, -0.07800809293985367, 0.19729699194431305, 0.017776725813746452, 0.001918457099236548, 0.24640808999538422, -0.002448032610118389, -0.0454990454018116, 0.20413066446781158, -0.06938862800598145, 0.056929558515548706, -0.14075401425361633, -0.1156010851264, -0.020127682015299797, 0.09419625997543335, 0.060180798172950745, 0.138706237077713, -0.1317918449640274, 0.17063771188259125, -0.09696029871702194, 0.06613307446241379, -0.20807258784770966, 0.179790198802948, -0.07459358125925064, -0.02014676108956337, 0.024185139685869217, 0.26537930965423584, 0.22307910025119781, 0.08546403795480728, 0.2740558385848999, 0.03514929860830307, -0.1066211462020874, 0.2680046558380127, 0.15149828791618347, -0.13930654525756836, 0.2825191020965576, 0.1426302194595337, 0.028492849320173264, 0.057093698531389236, 0.009368411265313625, -0.01546615269035101, -0.03795836120843887, -0.030681150034070015, -0.16276070475578308, -0.01924367994070053, 0.09750683605670929, 0.11143369972705841, -0.003793023992329836, -0.14751386642456055, -0.13910336792469025, -0.03737066686153412, -0.18864519894123077, -0.2874443233013153, 0.17720334231853485, 0.05134374275803566, -0.01853814348578453, 0.17442414164543152, -0.09269403666257858, 0.06780492514371872, -0.09197419881820679, 0.013269702903926373, 0.1191943809390068, -0.06094764545559883, -0.020113931968808174, 0.036822360008955, -0.1435127705335617, 0.08979251235723495, -0.04590374231338501, 0.18680182099342346, 0.1444905698299408, 0.28570666909217834, -0.11334417015314102, 0.05392999202013016, -0.0029144135769456625, 0.12857116758823395, 0.11282840371131897, -0.08359812200069427, 0.16201868653297424, -0.10325738042593002, -0.10944927483797073, 0.07625787705183029, -0.08408299088478088, -0.2556763291358948, -0.017061030492186546, -0.15597951412200928, -0.07810208201408386, 0.15556453168392181, -0.09574827551841736, -0.09415148943662643, -0.1390654444694519, 0.10313623398542404, -0.007388060446828604, -0.0058335247449576855, 0.10568550229072571, 0.03757482394576073, -0.1471615433692932, 0.1592252105474472, 0.13223038613796234, -0.019185399636626244, 0.10835462808609009, -0.05900575965642929, 0.014532908797264099, 0.1466900259256363, 0.022797852754592896, -0.06251077353954315, -0.0845479667186737, -0.06626210361719131, -0.07731086015701294, 0.10659772157669067, 0.12580007314682007, 0.06005498766899109, -0.11583991348743439, -0.019761836156249046, 0.032100971788167953, 0.12658925354480743, -0.0905010774731636, 0.04804472625255585, -0.13970911502838135, -0.09476298093795776, 0.0015782916452735662, -0.08132360130548477, 0.06535311788320541, 0.17537172138690948, 0.028667081147432327, -0.07488445192575455, -0.005769397597759962, 0.05684211105108261, -0.08475632965564728, 0.10711783170700073, -0.1036517471075058, -0.11159326136112213, -0.10197515040636063, 0.0022926891688257456, 0.1301577091217041, -0.09191711246967316, 0.1629960983991623, -0.051291707903146744, 0.0063512567430734634, 0.04217447340488434, -0.3036562502384186, 0.1509157419204712, 0.031244060024619102, 0.27539342641830444, -0.009547202847898006, -0.05241459608078003, -0.01609037257730961, 0.08392631262540817, 0.11195200681686401, -0.25047579407691956, 0.03769994154572487, -0.10774359107017517, -0.19246196746826172, 0.09599871933460236, -0.1573840081691742, 0.1812933087348938, -0.0022795044351369143, 0.07166287302970886, 0.0008717555901966989, -0.009298690594732761, -0.08686618506908417, 0.20143279433250427, 0.06407342106103897, 0.15516270697116852, -0.130806103348732, 0.16008806228637695, -0.19359363615512848, 0.0005486581358127296, -0.021195590496063232, -0.017757033929228783, -0.022529946640133858, 0.006470414809882641, -0.01269067544490099, -0.23448263108730316, 0.1722293645143509, 0.027188878506422043, -0.02805127575993538, 0.16683223843574524, 0.12391046434640884, -0.13099288940429688, 0.035678766667842865, 0.006354648154228926, -0.12000877410173416, 0.14240340888500214, -0.10875600576400757, 0.23137739300727844, -0.07782769203186035, -0.1738145649433136, -0.11024458706378937, 0.013746200129389763, 0.17490844428539276, -0.14950533211231232, 0.052842896431684494, 0.029073527082800865, 0.08545631170272827, 0.16023850440979004, -0.12711665034294128, 0.049204614013433456, 0.10071569681167603, -0.08123753219842911, 0.07667908817529678, 0.0026354598812758923, 0.13227017223834991, -0.05189090967178345, -0.09312336891889572, -0.029500247910618782, 0.21812652051448822, 0.11425872147083282, 0.06095627322793007, 0.08910784870386124, -0.05230523273348808, -0.0022628025617450476, -0.022055547684431076, 0.08877737075090408, -0.07434915006160736, -0.10187486559152603, -0.12410807609558105, 0.08329509198665619, -0.005425016395747662, 0.03435049206018448, -0.0962730348110199, 0.1738995760679245, 0.18899478018283844, -0.1566196233034134, -0.1231849417090416, -0.0709548071026802, -0.04670390114188194, -0.037404224276542664, -0.05200282484292984, -0.10286249220371246, 0.018020428717136383, -0.04819127544760704, 0.009545211680233479, -0.08690927922725677, -0.11891446262598038, 0.13034187257289886, 0.20861013233661652, 0.001183386193588376, -0.06649888306856155, -0.05001949891448021, 0.18821081519126892, -0.05415891855955124, -0.13535858690738678, 0.10378848761320114, -0.016887055709958076, 0.025734255090355873, -0.05800767242908478, 0.03084840625524521, -0.038097549229860306, 0.04764692112803459, -0.05676361173391342, -0.1332438886165619, -0.036297813057899475, -0.2588699460029602, 0.03079487569630146, -0.20813876390457153, 0.060555290430784225, -0.028243806213140488, 0.022284705191850662, 0.16227789223194122, 0.05211120471358299, 0.059665851294994354, 0.016238639131188393, -0.03520698845386505, -0.04544023424386978, 0.060324691236019135, 0.1336437463760376, -0.07798358798027039, -0.045894745737314224, 0.07346280664205551, 0.11411168426275253, 0.037393663078546524, -0.12112148106098175, -0.1768495738506317, 0.11116167157888412, -0.015610517002642155, -0.12178629636764526, 0.10045038163661957, 0.05156262591481209, 0.06946595758199692, 0.14574034512043, 0.052369777113199234, -0.009278159588575363, -0.17029419541358948, 0.035035762935876846, 0.06558407843112946, 0.13279393315315247, -0.07045873999595642, 0.0008353362209163606, 0.054809700697660446, 0.06056767702102661, -0.004229456186294556, -0.13362669944763184, -0.16268403828144073, 0.2603072226047516, -0.12422286719083786, -0.11957496404647827, 0.1932511031627655, 0.0023696443531662226, -0.014764050953090191, -0.13912566006183624, -0.15944597125053406, -0.22437253594398499, 0.0964970514178276, 0.01750156469643116, 0.11775171756744385, 0.0017634916584938765, 0.012251612730324268, -0.02450828067958355, 0.26274049282073975, 0.0765976756811142, -0.022541724145412445, -0.002212407998740673, -0.008952649310231209, -0.17041157186031342, 0.08864366263151169, -0.15535865724086761, 0.0774955078959465, 0.10749733448028564, -0.21563640236854553, -0.07849236577749252, 0.21243518590927124, -0.04191014915704727, -0.01837342232465744, 0.13994909822940826, -0.024110257625579834, -0.10553772747516632, 0.054548632353544235, -0.21006333827972412, -0.20173634588718414, -0.19843758642673492, -0.21875865757465363, 0.02648351714015007, -0.19646470248699188, 0.125522643327713, -0.13519427180290222, 0.2465757131576538, -0.19285905361175537, 0.16231437027454376, -0.21866437792778015, -0.15179887413978577, 0.11876190453767776, -0.1656811684370041, 0.01803262159228325, -0.055609673261642456, -0.22683437168598175, 0.05292414873838425, -0.017248930409550667, 0.24770955741405487, 0.01535187941044569, 0.13639526069164276, 0.06778786331415176, 0.08704358339309692, 0.06805544346570969, -0.004643572028726339, -0.11948563158512115, 0.16888387501239777, -0.15696032345294952, 0.22121939063072205, -0.08458709716796875, 0.22600670158863068, -0.2539588212966919, 0.0015071654925122857, -0.16050951182842255, -0.05530794709920883, 0.09725742042064667, -0.006615171208977699, -0.13852359354496002, 0.034211669117212296, -0.0070737567730247974, -0.15516678988933563, 0.16660018265247345, -0.20203813910484314, -0.13613025844097137, 0.021141771227121353, -0.0494249165058136, 0.05441390350461006, -0.1326066255569458, -0.07516086846590042, 0.006279660854488611, -0.010631589218974113, 0.09069683402776718, -0.005524024832993746, 0.12207739800214767, 0.0010544658871367574, -0.0731792002916336, -0.1723257601261139, 0.22799795866012573, -0.19467614591121674, -0.0016596284694969654, 0.1492474526166916, -0.12998244166374207, 0.03771912306547165, 0.008597238920629025, 0.10460147261619568, -0.07291484624147415, -0.1556846797466278, -0.07117952406406403, 0.18462564051151276, 0.028978640213608742, 0.18056651949882507, 0.02026349864900112, -0.19562116265296936, -0.18183182179927826, -0.128892183303833, 0.30383172631263733, 0.030775006860494614, 0.022270912304520607, -0.10825704783201218, 0.009955715388059616, 0.0985666811466217, 0.23777849972248077, -0.17382828891277313, -0.038290172815322876, 0.061564162373542786, -0.17234958708286285, -0.006331850774586201, 0.2613202631473541, -0.20229850709438324, 0.05151420831680298, 0.05584130808711052, -0.1040450781583786, 0.08268444240093231, 0.09394202381372452, 0.0884661078453064, -0.11316870898008347, -0.0726013109087944, -0.0038212693762034178, 0.04302939027547836, 0.17825688421726227, -0.019872862845659256, -0.1940823793411255, -0.02412065863609314, 0.026445215567946434, 0.03809891641139984, 0.09333355724811554, 0.03769529610872269, 0.1732635200023651, -0.049827318638563156, -0.09130699932575226, 0.03329458460211754, -0.07119999825954437, 0.07598359137773514, 0.02226576954126358, 0.0794593095779419, 0.3872762620449066, 0.32330361008644104, 0.39221322536468506, 0.195725679397583, -0.14262564480304718, -0.12582242488861084, -0.046481113880872726, 0.18301714956760406, -0.07666818052530289, 0.2148832082748413, -0.03140862658619881, -0.13667523860931396, -0.1368231475353241, 0.15761643648147583, -0.10434173792600632, -0.11335666477680206, 0.13921357691287994, -0.06937981396913528, -0.009096573106944561, 0.15667450428009033, 0.11406637728214264, -0.18126767873764038, 0.22319328784942627, -0.06090599671006203, 0.06082143634557724, -0.05520462244749069, -0.09681320190429688, 0.12806592881679535, -0.07805635035037994, -0.11257943511009216, -0.01492105983197689, -0.11547726392745972, -0.08270245045423508, -0.05925936996936798, -0.03433899208903313, 0.07933724671602249, 0.0067225913517177105, -0.00500835245475173, 0.02912822552025318, 0.01341903768479824, -0.08857225626707077, 0.025723936036229134, -0.02974778413772583, 0.07532838732004166, -0.09910120815038681, -0.010892923921346664, 0.4929901659488678, -0.49016913771629333, 0.6586363315582275, -0.6216981410980225, -0.1212519034743309, 0.8315168023109436, 0.8537265062332153, -0.6327381134033203, 0.15067754685878754, 0.047491151839494705, -0.5050935745239258, -0.3035430610179901, 0.15448442101478577, -0.595517635345459, 0.04896814376115799, 0.4109569489955902, -0.2837923467159271, 0.5098530650138855, -0.15214283764362335, -0.06956072896718979, 0.0782342404127121, -0.32147613167762756, 0.0789925754070282, 0.42227259278297424, -0.19626638293266296, 0.0785004124045372, 0.34748294949531555, 0.05193808674812317, 0.31338778138160706, 0.34723272919654846, 0.6035354733467102, -0.04953928291797638, 0.023580022156238556, -0.25627729296684265, -0.22587299346923828, 0.1791449636220932, 0.19175374507904053, -0.08129233866930008, -0.17076177895069122, -0.020111192017793655, 0.02168823964893818, 0.15579509735107422, -0.2713860869407654, 0.02547977864742279, -0.11095625162124634, -0.12853768467903137, -0.03937087208032608, 0.02334476262331009, 0.1448429524898529, -0.0012927455827593803, 0.10007710009813309, 0.10351313650608063, -0.2296081781387329, 0.016707666218280792, 0.1160314753651619, -0.19991743564605713, 0.03468231484293938, -0.05580072104930878, 0.07469996064901352, -0.1886257380247116, 0.0970177873969078, 0.14142245054244995, 0.11978065967559814, 0.0651564672589302, 0.29814210534095764, -0.14945150911808014, 0.12267974019050598, -0.3026398718357086, -0.23316536843776703, 0.31300103664398193, 0.17998585104942322, -0.07827446609735489, -0.12251962721347809, 0.06392965465784073, -0.13177888095378876, -0.21217884123325348, 0.16938869655132294, 0.22808438539505005, -0.11429722607135773, 0.07318566739559174, -0.16411030292510986, -0.3437528908252716, -0.043970994651317596, 0.040150631219148636, 0.3452407121658325, 0.29958978295326233, 0.20349495112895966, -0.049291856586933136, 0.2187327742576599, 0.36601871252059937, -0.2210257202386856, 0.12444451451301575, 0.01800568401813507, -0.07610447704792023, -0.12927423417568207, -0.01068814005702734, -0.21135027706623077, -0.06823362410068512, -0.005385859403759241, 0.14977319538593292, 0.2185230404138565, 0.16830508410930634, 0.14473630487918854, 0.047244712710380554, 0.15214291214942932, -0.07562996447086334, -0.22150908410549164, -0.0037179121281951666, -0.07527568936347961, -0.13097333908081055, 0.057919953018426895, 0.11158309131860733, -0.12456458806991577, 0.011898643337190151, 0.37330523133277893, 0.16533221304416656, 0.578669011592865, -0.018283747136592865, 0.3103945553302765, 0.13585931062698364, 0.09554270654916763, -0.040995042771101, -0.28333067893981934, 0.04857119172811508, 0.09396743029356003, -0.19379593431949615, 0.003096506465226412, -0.3808444142341614, 0.20727171003818512, 0.06940966844558716, 0.24332410097122192, -0.16751502454280853, -0.1223568245768547, 0.10964653640985489, 0.1639021635055542, 0.09716777503490448, 0.08936984837055206, -0.2768007814884186, 0.10391740500926971, -0.20022954046726227, 0.1062273308634758, -0.07879368215799332, -0.12472064793109894, 0.16132976114749908, -0.08231809735298157, 0.14339129626750946, -0.23190940916538239, -0.24494552612304688, 0.05263351649045944, -0.10628333687782288, -0.10847599059343338, -0.06981644034385681, -0.25480592250823975, -0.06682749837636948, 0.27083855867385864, 0.1497509926557541, 0.014123215340077877, -0.04892536997795105, 0.11548913270235062, -0.18001237511634827, -0.1319076120853424, 0.060997508466243744, 0.06347213685512543, -0.15749764442443848, -0.18113140761852264, -0.1351502388715744, 0.08631668239831924, -0.19031545519828796, -0.0116121219471097, 0.13372813165187836, 0.19636313617229462, 0.12267609685659409, 0.19845812022686005, 0.25514137744903564, -0.14500516653060913, -0.05937109887599945, 0.29999274015426636, 0.24311473965644836, -0.1943971961736679, 0.04145490750670433, -0.4177952706813812, -0.11608864367008209, 0.2053198516368866, -0.09496115893125534, 0.042935535311698914, -0.11363404244184494, -0.17004477977752686, -0.14258496463298798, 0.08007489889860153, 0.12498969584703445, 0.1896103322505951, 0.03562666475772858, 0.005895348731428385, -0.09081252664327621, 0.1887425035238266, -0.04867963120341301, 0.06392871588468552, 0.03560907766222954, 0.01929544471204281, 0.030775103718042374, 0.005052890162914991, 0.027355045080184937, -0.07641970366239548, -0.13206452131271362, -0.09815032035112381, 0.042896099388599396, -0.2886296212673187, -0.024327730759978294, -0.013623914681375027, 0.016537358984351158, 0.06015704572200775, -0.022396596148610115, 0.07289762049913406, -0.1039547547698021, -0.05056315287947655, 0.13647811114788055, 0.22788019478321075, 0.022509317845106125, -0.09026394039392471, 0.11622044444084167, 0.07929868251085281, -0.17418736219406128, -0.10893814265727997, 0.0221807062625885, 0.028290102258324623, -0.14254923164844513, -0.057615648955106735, 0.08260702341794968, -0.019055601209402084, 0.2816762328147888, 0.20786097645759583, -0.041143711656332016, 0.03222842887043953, -0.10949333012104034, -0.027063563466072083, -0.07012294232845306, -0.20119047164916992, -0.10084040462970734, -0.21421140432357788, 0.04913393780589104, -0.13902045786380768, 0.0291791670024395, 0.1703084260225296, -0.25974565744400024, 0.2699955701828003, 0.14752031862735748, 0.3366647958755493, 0.2370535433292389, -0.14369413256645203, 0.3567265570163727, -0.13378512859344482, -0.06772672384977341, 0.17900237441062927, 0.018946228548884392, -0.025427447631955147, -0.20875853300094604, 0.15200960636138916, 0.2002040445804596, 0.3273146152496338, -0.23127281665802002, 0.12267204374074936, 0.19781455397605896, 0.17437943816184998, 0.43218421936035156, -0.10581613332033157, -0.03466106206178665, 0.08664360642433167, -0.23444850742816925, 0.22988997399806976, 0.3193656802177429, 0.37845441699028015, 0.060626327991485596, 0.13021352887153625, -0.07100971043109894, 0.1865977793931961, -0.09933551400899887, -0.10397801548242569, -0.0038328494410961866, 0.0687008649110794, -0.018979692831635475, 0.0031458695884793997, -0.08321963250637054, 0.03155236318707466, -0.037091564387083054, 0.05125659331679344, 0.10297901928424835, -0.01280379481613636, 0.03356212005019188, 0.0571550652384758, 0.004937535151839256, -0.2025557905435562, 0.19454334676265717, -0.04786547273397446, 0.1836324781179428, -0.19184325635433197, -0.08644028007984161, 0.00041105839773081243, -0.24328455328941345, -0.01560829859226942, 0.03549562394618988, -0.20920723676681519, 0.07248187065124512, 0.27111679315567017, 0.18895797431468964, -0.08426983654499054, 0.04004950076341629, -0.16296637058258057, -0.015081343241035938, 0.14065146446228027, 0.16819633543491364, -0.049739375710487366, -0.2067723423242569, -0.08144358545541763, 0.08915302157402039, -0.05694961175322533, 0.011698716320097446, 0.08758963644504547, -0.16300378739833832, -0.084788478910923, -0.17095951735973358, -0.0030995772685855627, -0.19832251965999603, -0.05681372806429863, 0.16820602118968964, -0.3269325792789459, -0.04793723672628403, 0.01514960452914238, -0.3220967650413513, -0.010863369330763817, -0.043313778936862946, -0.2374120056629181, 0.101253941655159, -0.22965766489505768, 0.32013577222824097, -0.006766521837562323, -0.17247729003429413, 0.2392909824848175, 0.48340097069740295, 0.13959521055221558, 0.05663847550749779, -0.27901342511177063, 0.029940759763121605, -0.11433418095111847, 0.29550901055336, 0.22511018812656403, -0.23743852972984314, 0.18995161354541779, -0.05484349653124809, -0.12089700251817703, -0.232643261551857, 0.12338490039110184, 0.11560394614934921, -0.39751020073890686, -0.04926023259758949, 0.11987307667732239, -0.043033670634031296, -0.04432859644293785, 0.3478795289993286, -0.3075804114341736, -0.005963659379631281, -0.3020595908164978, 0.313409686088562, 0.005043664947152138, 0.17161613702774048, -0.03799142315983772, -0.2517378628253937, -0.061866309493780136, 0.28697580099105835, 0.14126846194267273, -0.2876759171485901, 0.1181074008345604, 0.3142601549625397, -0.24214309453964233, 0.19473735988140106, 0.11000479757785797, -0.10373809188604355, 0.15525473654270172, 0.16195866465568542, 0.16974389553070068, 0.10473217815160751, -0.26619479060173035, 0.29885515570640564, -0.006859681103378534, -0.225891575217247, -0.025535695254802704, -0.1926725208759308, 0.03860005736351013, 0.044716984033584595, 0.18499302864074707, -0.17791803181171417, -0.029806405305862427, -0.057133208960294724, 0.05442170426249504, 0.135868638753891, -0.0712951123714447, -0.029530325904488564, 0.21260713040828705, 0.10408362746238708, 0.1582631766796112, -0.1038963571190834, 0.15967686474323273, 0.026398304849863052, 0.17654500901699066, 0.028916213661432266, -0.09737440943717957, -0.16903576254844666, -0.06270407140254974, -0.0031188626307994127, 0.05658351257443428, -0.17870675027370453, 0.044866930693387985, -0.036199215799570084, 0.11055301129817963, -0.10217192769050598, -0.147163525223732, -0.26646819710731506, 0.17029878497123718, 0.19250117242336273, 0.05893934518098831, 0.2274583876132965, 0.14598877727985382, -0.060779694467782974, 0.021446537226438522, -0.01034556794911623, -0.0717337355017662, 0.0636250451207161, 0.011182727292180061, -0.002043514745309949, 0.08045683801174164, -0.17356997728347778, 0.11634424328804016, 0.015587305650115013, -0.12976130843162537, -0.4090844690799713, 0.16632713377475739, -0.15510740876197815, 0.24968576431274414, 0.05475228652358055, 0.1676984578371048, -0.24856281280517578, -0.1562591940164566, 0.16260842978954315, 0.01737464964389801, -0.14795301854610443, -0.05670783296227455, -0.136550173163414, -0.18262879550457, -0.2421945482492447, 0.19774077832698822, -0.05929521843791008, 0.06352338939905167, 0.025310512632131577, 0.0480647012591362, -0.29414457082748413, 0.18100452423095703, 0.05402133986353874, 0.1958179920911789, -0.33014413714408875, 0.0367361381649971, 0.04556027799844742, -0.157426118850708, 0.0790332481265068, 0.259311705827713, -0.09771394729614258, 0.040197160094976425, 0.11150354146957397, -0.003960315603762865, 0.010327767580747604, 0.16817978024482727, -0.027990324422717094, -0.16388605535030365, 0.17327240109443665, -0.19541887938976288, -0.21389490365982056, -0.03837451711297035, -0.26478761434555054, 0.43007156252861023, -0.11508297175168991, 0.08658996969461441, 0.13421475887298584, 0.014517970383167267, -0.24288734793663025, 0.10762231796979904, 0.006071873474866152, 0.22037601470947266, -0.07236440479755402, -0.05541718006134033, 0.01049508061259985, 0.039070188999176025, -0.1850200891494751, 0.04384724795818329, 0.13602833449840546, 0.016388263553380966, 0.22177255153656006, -0.051033128052949905, -0.14656777679920197, 0.18004702031612396, -0.1668611466884613, 0.3425472676753998, 0.2160804569721222, 0.1182761937379837, -0.009103299118578434, 0.1334930956363678, -0.002036815509200096, 0.18052677810192108, -0.04793206974864006, 0.09103100746870041, -0.12262951582670212, -0.22828719019889832, -0.10543544590473175, -0.032704632729291916, -0.3125196099281311, 0.0028111450374126434, -0.11738606542348862, 0.1853780448436737, 0.17918063700199127, -0.16570013761520386, -0.16439546644687653, 0.21146969497203827, 0.017455853521823883, 0.021723316982388496, 0.1218193992972374, 0.34669628739356995, -0.020434902980923653, 0.08253856003284454, 0.11324155330657959, -0.05193043500185013, -0.190028116106987, -0.10620176792144775, 0.06358512490987778, -0.1419108659029007, -0.16596835851669312, 0.025930140167474747, 0.09247278422117233, -0.0716354101896286, -0.058359477669000626, -0.14696863293647766, -0.018543697893619537, 0.007660671602934599, -0.05238119512796402, -0.018856223672628403, 0.017809372395277023, 0.029410500079393387, 0.1777704805135727, 0.026972079649567604, 0.22069033980369568, 0.2159705013036728, 0.10043751448392868, 0.01846313662827015, 0.07357674837112427, -0.09714648872613907, 0.3233194351196289, 0.11171228438615799, 0.13208547234535217, -0.296893835067749, 0.11988773941993713, 0.03334663808345795, 0.14947867393493652, 0.02358347550034523, -0.18289227783679962, -0.1699291318655014, 0.2200142741203308, -0.15500789880752563, -0.03696499392390251, 0.16276384890079498, 0.12869907915592194, -0.13231007754802704, 0.04371695592999458, -0.12868954241275787, -0.049817658960819244, -0.21136654913425446, 0.21660782396793365, -0.13358817994594574, -0.08128108829259872, 0.1302533894777298, 0.318586140871048, 0.026643479242920876, -0.0016536785988137126, -0.08149861544370651, 0.17145009338855743, 0.1987997144460678, -0.059990108013153076, -0.19966048002243042, -0.1526453047990799, 0.21905814111232758, 0.00867096334695816, 0.02185344509780407, 0.09516556560993195, -0.2521299719810486, 0.16477544605731964, 0.05190727487206459, 0.2599465548992157, 0.13692912459373474, 0.004915008787065744, 0.14312238991260529, -0.11586263030767441, 0.08380696922540665, 0.193694606423378, 0.1730581820011139, -0.13100293278694153, -0.0946870967745781, -0.14672468602657318, 0.027545593678951263, 0.1929580122232437, 0.05189269036054611, -0.12995004653930664, 0.09037382155656815, -0.11644383519887924, 0.2133033126592636, -0.20289595425128937, 0.020311888307332993, 0.11037244647741318, -0.18962429463863373, 0.05138445645570755, 0.28045740723609924, -0.284027099609375, -0.010373196564614773, -0.038739144802093506, -0.19260680675506592, -0.060861267149448395, -0.24705909192562103, 0.1045946404337883, 0.005762242712080479, -0.2876787483692169, -0.0834459736943245, -0.10109381377696991, 0.11582838743925095, 0.17679007351398468, 0.0020429235883057117, -0.10357226431369781, -0.18298956751823425, 0.019754460081458092, 0.23035217821598053, -0.17739515006542206, -0.07575110346078873, -0.06783922016620636, -0.16015949845314026, -0.05855995789170265, 0.02403492107987404, 0.21859554946422577, -0.1084795594215393, -0.10526800900697708, 0.04138457402586937, 0.0034719721879810095, 0.2879253625869751, 0.2274690717458725, -0.018589163199067116, -0.10769052803516388, -0.043129514902830124, -0.09390191733837128, 0.2568560540676117, 0.1444387286901474, -0.029624097049236298, -0.2388770878314972, 0.10422902554273605, -0.07043987512588501, -0.06636091321706772, -0.1317651867866516, 0.11887834221124649, 0.2112785279750824, -0.29796627163887024, -0.0754106193780899, 0.12975087761878967, -0.27554500102996826, 0.027263419702649117, 0.043532755225896835, 0.046792659908533096, -0.17134004831314087, 0.1793198436498642, 0.15768682956695557, -0.12057138234376907, -0.1282479166984558, 0.10062502324581146, -0.06723155081272125, 0.190219908952713, -0.29109567403793335, -0.034534383565187454, -0.19580300152301788, 0.22915877401828766, -0.12809988856315613, 0.20438271760940552, 0.18561962246894836, -0.13276144862174988, -0.061956752091646194, 0.22445017099380493, 0.03490826115012169, -0.0672549158334732, -0.27805474400520325, 0.22762782871723175, -0.13135188817977905, 0.05367814004421234, -0.06691387295722961, -0.02433575689792633, -0.29138457775115967, 0.10499928146600723, -0.0027663710061460733, 0.1366308033466339, -0.28886809945106506, 0.27203622460365295, -0.12187772244215012, 0.13300852477550507, -0.1195991262793541, 0.1516885757446289, -0.12646201252937317, -0.01619858853518963, 0.21894189715385437, -0.0910724550485611, 0.09290220588445663, 0.10816024243831635, -0.07114458829164505, 0.07003139704465866, 0.09645714610815048, -0.14815384149551392, -0.16031105816364288, -0.10322856903076172, -0.21296265721321106, 0.3031865358352661, -0.31695979833602905, -0.008471865206956863, -0.15754517912864685, 0.21541041135787964, 0.2835652828216553, -0.03362865746021271, 0.016912026330828667, 0.009533903561532497, 0.16728150844573975, -0.10392048209905624, 0.1706518828868866, -0.06791587173938751, -0.0882154330611229, 0.1602943390607834, -0.17474278807640076, 0.028203582391142845, -0.12785840034484863, -0.12041298300027847, 0.005167730618268251, -0.18107479810714722, 0.21481291949748993, -0.07530632615089417, -0.13237830996513367, 0.070382259786129, -0.026039646938443184, -0.042468298226594925, 0.32389378547668457, -0.08676207810640335, 0.2898242473602295, -0.16226501762866974, -0.0836215391755104, -0.10122029483318329, 0.11358741670846939, -0.11780982464551926, 0.22164183855056763, 0.013349576853215694, -0.11670536547899246, -0.08097351342439651, -0.17548908293247223, -0.0926637202501297, -0.004580980632454157, -0.24803213775157928, -0.11756423115730286, 0.09568282216787338, -0.016488490626215935, -0.007375255227088928, -0.14015723764896393, 0.009893795475363731, 0.04535362869501114, -0.05158078297972679, 0.10741984844207764, 0.2856834828853607, -0.18668429553508759, -0.3079844117164612, -0.3205714225769043, 0.11949387192726135, -0.012392095290124416, 0.23596788942813873, 0.09085243940353394, 0.20463475584983826, -0.181677907705307, -0.15295764803886414, -0.020013295114040375, -0.20100553333759308, 0.2482912242412567, -0.15408959984779358, -0.006459359545260668, 0.18536992371082306, 0.0779489129781723, -0.011050096713006496, 0.5520316958427429, -0.10943618416786194, -0.1338706761598587, 0.12860126793384552, 0.20464926958084106, 0.045379433780908585, -0.1556207239627838, -0.056267932057380676, -0.11931657046079636, -0.3186761736869812, -0.0936376228928566, 0.15414071083068848, -0.26419132947921753, 0.14984315633773804, -0.09403898566961288, 0.12881655991077423, -0.11414383351802826, 0.17428049445152283, 0.02059836871922016, -0.07923643290996552, 0.16537469625473022, 0.06459267437458038, 0.06666308641433716, 0.4599117636680603, 0.07714809477329254, -0.18997883796691895, -0.010415979661047459, -0.12522262334823608, 0.04442891478538513, 0.04092584550380707, -0.2744069993495941, -0.10641895234584808, -0.06072410196065903, 0.17916345596313477, -0.12877333164215088, -0.02257074974477291, 0.011936483904719353, 0.08785402029752731, 0.0344696044921875, -0.1431727558374405, -0.11483102291822433, 0.12700198590755463, 0.13524682819843292, -0.12629957497119904, -0.10502999275922775, 0.3260153532028198, 0.0580771341919899, -0.1464003324508667, 0.014311760663986206, 0.0304171871393919, 0.04233446717262268, 0.3642728626728058, 0.14949777722358704, 0.16581115126609802, -0.34256306290626526, -0.1506744772195816, -0.24331887066364288, 0.07855607569217682, 0.008917980827391148, -0.014165780507028103, -0.11535374820232391, -0.07917192578315735, 0.0006570710684172809, 0.03799376264214516, -0.053715988993644714, -0.026578759774565697, -0.27681776881217957, -0.05110296607017517, 0.21191377937793732, 0.0070684682577848434, -0.10337340831756592, 0.11355140805244446, -0.08833923190832138, -0.07670354098081589, -0.30034109950065613, 0.028892267495393753, 0.08818487823009491, -0.061973534524440765, 0.07465686649084091, -0.033117130398750305, 0.058962151408195496, 0.010447448119521141, -0.03657647222280502, 0.1918877214193344, 0.1773308366537094, -0.1540365070104599, 0.1728551983833313, 0.12946099042892456, -0.1530931442975998, 0.20347638428211212, -0.13326537609100342, -0.16077205538749695, -0.08421643078327179, -0.23990006744861603, 0.23374439775943756, -0.16835424304008484, -0.2209983617067337, 0.05911015719175339, -0.23202821612358093, -0.19170185923576355, 0.14691998064517975, -0.09868909418582916, 0.15920166671276093, -0.019881460815668106, -0.0334341935813427, 0.08642017841339111, 0.08046974241733551, 0.098700150847435, 0.3030703365802765, -0.1821257770061493, 0.15084560215473175, -0.155337393283844, -0.165675550699234, 0.22913305461406708, 0.0005046539008617401, -0.012298474088311195, 0.10187540203332901, 0.01335792988538742, -0.23410120606422424, 0.03162212669849396, -0.19110435247421265, 0.19453991949558258, -0.01625058427453041, 0.050269681960344315, 0.26198047399520874, -0.0756746158003807, -0.4680105745792389, -0.028620902448892593, -0.0742713212966919, 0.36403778195381165, 0.12964582443237305, 0.15910404920578003, -0.35749390721321106, 0.09475691616535187, 0.004307320341467857, -0.10106607526540756, 0.04515622556209564, -0.06968563050031662, 0.1524878591299057, 0.14979973435401917, -0.2702522277832031, 0.3337192237377167, -0.1640137881040573, 0.004382122773677111, 0.22638022899627686, 0.17231255769729614, 0.006931059993803501, 0.354541152715683, -0.0534970723092556, 0.16737763583660126, -0.374691903591156, 0.14277002215385437, 0.025043927133083344, -0.11261910945177078, 0.08138742297887802, 0.16847369074821472, -0.27161237597465515, -0.02638929709792137, 0.07129073888063431, 0.04585736244916916, 0.02163095958530903, -0.10530711710453033, -0.2988886833190918, -0.044125743210315704, 0.0985705628991127, 0.034558892250061035, -0.12627439200878143, -0.020886046811938286, -0.28632453083992004, -0.1226017102599144, -0.19005507230758667, -0.010198037140071392, -0.0029939385131001472, -0.24187275767326355, 0.09271035343408585, -0.18432387709617615, 0.10470535606145859, 0.0756632387638092, -0.0570995919406414, -0.22196264564990997, 0.07376379519701004, 0.053164541721343994, -0.05058807134628296, 0.068702332675457, 0.14757296442985535, 0.40895771980285645, 0.12386319041252136, 0.0719471126794815, 0.3707226514816284, -0.10617458075284958, -0.1594638228416443, 0.4310687482357025, -0.23301205039024353, -0.03371322900056839, 0.1729872226715088, -0.021764609962701797, -0.2197488397359848, -0.11222943663597107, -0.04375196993350983, 0.0785452127456665, -0.03071822226047516, -0.015297412872314453, 0.06579373776912689, -0.4147827625274658, 0.28745195269584656, 0.4350140690803528, 0.1948157548904419, 0.01597350835800171, 0.08646056056022644, -0.09148027002811432, 0.04450591653585434, 0.14709876477718353, -0.17198485136032104, -0.06442739814519882, 0.0561845600605011, -0.24722284078598022, -0.08048278838396072, -0.41640812158584595, 0.22992299497127533, -0.013521776534616947, -0.15113292634487152, -0.20785389840602875, 0.2313167303800583, -0.2933466136455536, 0.04338599741458893, -0.0334538072347641, 0.11432650685310364, 0.048381906002759933, 0.1269448846578598, -0.04856964573264122, 0.08416011184453964, 0.08087070286273956, -0.1487189680337906, 0.11101804673671722, 0.026446256786584854, 0.07178259640932083, 0.026162253692746162, -0.10312223434448242, 0.16422945261001587, 0.1512511819601059, 0.13947366178035736, -0.23083747923374176, -0.0013142091920599341, -0.2050943672657013, 0.009229841642081738, -0.14391310513019562, 0.004376547876745462, -0.19213323295116425, -0.15019449591636658, 0.1768360137939453, 0.27800026535987854, -0.08332692086696625, 0.054811324924230576, -0.17531098425388336, 0.05097053945064545, -0.07084553688764572, -0.042216069996356964, 0.05346090719103813, -0.0038090520538389683, -0.0784807950258255, 0.16491621732711792, 0.17697635293006897, -0.1539200246334076, -0.0877397209405899, -0.041449155658483505, -0.11080778390169144, -0.06676878780126572, 0.20109231770038605, 0.2911907732486725, 0.0878644585609436, 0.11124390363693237, -0.029704350978136063, 0.11322817206382751, -0.05700303241610527, 0.09265881031751633, 0.13126643002033234, 0.22390811145305634, -0.06707831472158432, -0.00019753919332288206, 0.21585474908351898, 0.14542774856090546, 0.01065866369754076, 0.04454131796956062, 0.014843548648059368, -0.07515431940555573, -0.4056878387928009, 0.1913473755121231, 0.29854023456573486, -0.5139334201812744, 0.0953521877527237, -0.647412896156311, -0.38948124647140503, -0.46809935569763184, 0.9176974296569824, -0.8159918785095215, -0.45323261618614197, -0.6982414722442627, 0.23342964053153992, -0.6840659379959106, 0.21443906426429749, -0.6494013071060181, -0.20992566645145416, -0.31839632987976074, 0.10189153254032135, 0.437358558177948, 0.07908142358064651, 0.059268757700920105, -0.08926311135292053, -0.1457778662443161, 0.14699314534664154, -0.11426140367984772, 0.1354575753211975, 0.2638716399669647, 0.09987334161996841, 0.24065692722797394, 0.030167551711201668, 0.009745372459292412, -0.4691343903541565, -0.203017458319664, 0.32067206501960754, 0.18494386970996857, -0.2884678840637207, 0.19368518888950348, -0.2463962435722351, -0.383567750453949, 0.6274750828742981, -0.40573278069496155, 0.005575301591306925, 0.44096535444259644, 0.29358088970184326, 0.04825160279870033, 0.17262296378612518, 0.13740791380405426, -0.10860010981559753, -0.32687950134277344, 0.12652093172073364, 0.2856104373931885, 0.0060861315578222275, 0.10088402777910233, -0.1038975715637207, -0.17074190080165863, 0.12257649749517441, -0.0218021459877491, -0.16542817652225494, -0.025811444967985153, 0.08380799740552902, 0.08064696192741394, 0.01226883102208376, -0.03400134667754173, 0.06738177686929703, 0.2242884635925293, -0.1387987732887268, -0.0848325565457344, -0.15065181255340576, -0.007583351340144873, -0.1576744019985199, -0.02695215865969658, -0.04370305687189102, 0.026199601590633392, 0.07739561796188354, 0.36995357275009155, 0.1932283639907837, -0.10179021954536438, 0.38068869709968567, -0.02841978892683983, 0.2461003214120865, 0.09853224456310272, -0.15696242451667786, -0.006205188110470772, 0.2459707409143448, 0.1774890124797821, -0.10094142705202103, 0.18420644104480743, 0.06753954291343689, -0.06435279548168182, 0.15137985348701477, 0.19073200225830078, -0.09548327326774597, 0.10208220034837723, -0.3561927378177643, -0.048846788704395294, -0.14049187302589417, -0.11181436479091644, -0.29112401604652405, -0.10600024461746216, -0.008525805547833443, -0.17705875635147095, 0.06334520876407623, -0.035557013005018234, 0.17278406023979187, 0.21255934238433838, -0.1485459953546524, -0.1712774634361267, -0.0964931845664978, -0.06008030101656914, -0.07691209763288498, 0.13301800191402435, 0.03947555646300316, 0.032604411244392395, 0.1847730576992035, -0.26003679633140564, 0.19689984619617462, 0.04595869034528732, -0.26812994480133057, -0.2932804822921753, 0.20598571002483368, -0.11378870159387589, -0.009946156293153763, 0.12548168003559113, 0.05804715305566788, -0.3378971219062805, -0.19221040606498718, 0.1269085854291916, 0.22495250403881073, -0.009764328598976135, -0.04749324545264244, -0.04918184503912926, 0.08283860236406326, -0.23880676925182343, -0.02944117970764637, 0.07555235177278519, -0.05068952217698097, 0.16205619275569916, -0.3201383352279663, -0.049510009586811066, -0.1601978838443756, 0.08863602578639984, 0.1287883222103119, -0.04684380814433098, -0.1332659274339676, 0.15012791752815247, -0.1311333179473877, -0.01703021116554737, -0.2171820104122162, -0.12349683791399002, -0.03477185592055321, -0.2371883988380432, 0.009310190565884113, 0.13150246441364288, 0.4112192392349243, -0.10557416081428528, -0.07276231050491333, 0.028470845893025398, -0.04446767270565033, 0.3973824679851532, -0.11995492875576019, -0.11387624591588974, -0.050342757254838943, 0.1292475163936615, 0.06538032740354538, -0.04711490496993065, 0.08777925372123718, -0.12610730528831482, 0.04454770311713219, 0.13469505310058594, 0.08054244518280029, 0.15591348707675934, 0.14159618318080902, 0.14440807700157166, 0.07248402386903763, -0.0881590023636818, -0.2895585894584656, -0.15435709059238434, -0.16541455686092377, 0.10162635147571564, -0.07978527992963791, -0.1966124176979065, -0.18154558539390564, -0.1841275840997696, 0.3537723124027252, 0.26075538992881775, -0.28535982966423035, 0.08653447031974792, 0.33209699392318726, -0.1361764818429947, 0.02089029736816883, -0.05142936855554581, 0.2745603621006012, 0.2989658713340759, -0.3145897388458252, -0.2059420794248581, -0.18643847107887268, -0.09001753479242325, 0.07907062768936157, 0.1578403115272522, -0.38073471188545227, 0.18763132393360138, 0.3448578119277954, -0.060413192957639694, 0.03530341759324074, -0.14534375071525574, -0.18389137089252472, -0.09956440329551697, 0.03216417133808136, -0.24313794076442719, -0.06626103073358536, 0.10504411160945892, 0.013601341284811497, -0.030110476538538933, -0.06412923336029053, 0.0778537392616272, -0.18376176059246063, -0.055526457726955414, -0.08369132876396179, -0.10437136143445969, 0.09492906928062439, -0.1555318981409073, 0.06553122401237488, 0.08058945089578629, 0.030988367274403572, 0.07592008262872696, -0.17476260662078857, 0.4295562505722046, -0.08563627302646637, -0.13484327495098114, -0.0031810880172997713, -0.1337732970714569, 0.20155416429042816, 0.24695439636707306, 0.15713807940483093, -0.010238788090646267, 0.12450063973665237, 0.1343403458595276, -0.1453309953212738, -0.11851997673511505, 0.36596837639808655, 0.3206714391708374, -0.015030761249363422, -0.3258201479911804, -0.07227079570293427, -0.10152335464954376, 0.4234348237514496, 0.42051249742507935, -0.20554806292057037, -0.060356490314006805, -0.12313493341207504, 0.051745980978012085, -0.31294628977775574, 0.21422280371189117, 0.3817596137523651, 0.04163283482193947, 0.35371464490890503, -0.3647783100605011, -0.015307581052184105, -0.024766849353909492, -0.12498494982719421, -0.06258047372102737, 0.03966791182756424, 0.28030461072921753, 0.4062750041484833, -0.270739883184433, -0.08210817724466324, 0.18425843119621277, -0.3914767801761627, 0.500218391418457, -0.19098307192325592, -0.34328708052635193, -0.017837194725871086, 0.0660933405160904, 0.10071928054094315, -0.1057211235165596, -0.11256914585828781, 0.10615959763526917, 0.053658757358789444, 0.1805255264043808, -0.023587731644511223, 0.03902414068579674, 0.12051445990800858, -0.1818273365497589, 0.10791368037462234, -0.20239345729351044, -0.10533759742975235, 0.0027972294483333826, -0.18639995157718658, -0.15755750238895416, -0.048111461102962494, -0.003786670509725809, -0.3825734257698059, 0.05694273114204407, -0.09755506366491318, 0.029210438951849937, -0.0884513333439827, -0.016059130430221558, -0.03626073896884918, -0.16293418407440186, 0.19911925494670868, 0.059591811150312424, 0.10985638946294785, 0.1474626362323761, -0.04647073149681091, 0.022824108600616455, -0.09530191123485565, -0.12030643969774246, 0.038680318742990494, 0.12351066619157791, -0.00936775654554367, -0.10453808307647705, -0.1665407121181488, 0.24197420477867126, 0.04427937790751457, 0.12711946666240692, -0.05665578320622444, 0.043099429458379745, -0.15712949633598328, -0.11063329875469208, -0.06397931277751923, -0.14484918117523193, 0.2774302661418915, 0.009488618932664394, -0.08841412514448166, 0.09780321270227432, 0.011601005680859089, -0.19415457546710968, 0.19039428234100342, -0.0462435744702816, 0.24959659576416016, 0.08277298510074615, -0.2195303589105606, 0.23232369124889374, -0.28192758560180664, -0.048737045377492905, 0.05862637236714363, 0.1240600124001503, 0.03967161476612091, 0.08448000997304916, 0.25724074244499207, -0.2663147747516632, 0.2945151627063751, 0.10215397924184799, 0.24989643692970276, 0.051694247871637344, -0.18358920514583588, -0.07242482155561447, 0.11962109059095383, -0.043250203132629395, 0.004562012851238251, -0.10245908796787262, 0.15827971696853638, -0.1590360403060913, 0.126655712723732, -0.15309534966945648, -0.03370150923728943, -0.19058963656425476, 0.03180653601884842, -0.031109681352972984, 0.16538465023040771, -0.11956117302179337, -0.14685799181461334, -0.050106242299079895, 0.1935989260673523, 0.06712780892848969, 0.3064049184322357, -0.038595862686634064, -0.11543388664722443, 0.07571768015623093, -0.25319817662239075, -0.00734090618789196, 0.10038494318723679, 0.02754160761833191, -0.042180951684713364, 0.16511353850364685, -0.11031739413738251, -0.14066867530345917, -0.4348422586917877, 0.20917220413684845, 0.21048563718795776, -0.07224613428115845, 0.16036225855350494, 0.061573829501867294, 0.16827230155467987, -0.5088875889778137, -0.09154623001813889, 0.15046222507953644, 0.019922740757465363, -0.20366500318050385, 0.1400263011455536, -0.033052679151296616, 0.0020447394344955683, -0.1895449310541153, 0.07860344648361206, 0.09536725282669067, -0.0952620729804039, -0.08468285948038101, 0.19032609462738037, 0.04477233812212944, 0.1930658519268036, 0.0630607008934021, 0.10461964458227158, 0.31939697265625, 0.15829993784427643, -0.1357852667570114, 0.07647138088941574, 0.025124335661530495, 0.10439199954271317, 0.005232356023043394, 0.019001636654138565, -0.08088859915733337, -0.0174428541213274, -0.13203366100788116, -0.1786326915025711, 0.12328571081161499, -0.15027526021003723, -0.0961490273475647, 0.17919670045375824, 0.1452028602361679, 0.15534564852714539, -0.05241043493151665, 0.04384464770555496, -0.017137842252850533, 0.15924310684204102, 0.10737662017345428, 0.2466391921043396, -0.3800777196884155, 0.1553785800933838, -0.21129745244979858, -0.27909451723098755, 0.03613034635782242, -0.577221691608429, 0.013326752930879593, -0.018216051161289215, -0.30009719729423523, 0.2071157842874527, 0.04169870540499687, 0.20751550793647766, 0.32269856333732605, -0.031900759786367416, 0.1451525241136551, -0.00677888747304678, -0.19341231882572174, -0.1316002458333969, 0.09470073878765106, -0.001486950321123004, -0.12162013351917267, 0.059936173260211945, 0.22999589145183563, 0.13709084689617157, 0.10027521103620529, -0.16004838049411774, -0.05060695484280586, -0.010577377863228321, 0.17305722832679749, 0.11559822410345078, 0.07273730635643005, -0.05641244724392891, -0.2740565836429596, -0.24722638726234436, -0.1690855324268341, -0.0869087353348732, 0.10704506188631058, -0.15188701450824738, 0.38336026668548584, 0.026105714961886406, -0.1386776715517044, 0.17736724019050598, 0.08478375524282455, -0.02858813852071762, 0.1894325464963913, 0.03314110264182091, 0.0272222850471735, -0.17776192724704742, -0.2486303746700287, 0.24446414411067963, -0.2040775567293167, -0.02418491616845131, 0.12074250727891922, -0.09632429480552673, -0.15899458527565002, -0.007324534002691507, 0.0413062646985054, -0.11704320460557938, 0.1210191622376442, -0.08665017783641815, 0.14764268696308136, -0.13686083257198334, -0.027255278080701828, 0.25343987345695496, -0.15197061002254486, -0.03057592548429966, 0.08030202239751816, -0.013214400969445705, 0.10301516205072403, -0.08872668445110321, 0.053800903260707855, -0.09335457533597946, -0.05665456876158714, 0.1839030683040619, 0.07440530508756638, -0.18798606097698212, 0.07410143315792084, -0.12394117563962936, 0.05379712954163551, 0.09133225679397583, 0.20707155764102936, -0.038490179926157, 0.1752517968416214, -0.11082544177770615, -0.12355031818151474, 0.07081329077482224, -0.11535758525133133, 0.27336275577545166, -0.2196967899799347, -0.17639517784118652, 0.2573751211166382, -0.031387124210596085, -0.17067767679691315, 0.0038027316331863403, 0.09416508674621582, 0.05774390697479248, -0.07214108854532242, 0.09038150310516357, 0.21279315650463104, -0.2662314176559448, -0.11452478170394897, -0.15886545181274414, -0.11014513671398163, -0.07057945430278778, 0.3195486068725586, -0.0239670779556036, 0.05384517461061478, -0.1311081200838089, -0.03593077510595322, -0.11491984874010086, -0.03853057697415352, -0.09123750776052475, 0.011394817382097244, -0.12454492598772049, 0.19070559740066528, 0.13807313144207, -0.1611185520887375, -0.22059199213981628, 0.09440602362155914, 0.0941222608089447, 0.20110878348350525, 0.09987243264913559, -0.038999345153570175, -0.18893559277057648, 0.10886199027299881, 0.006470103282481432, 0.10352170467376709, -0.1590089350938797, -0.04782351106405258, -0.014285027980804443, 0.024619247764348984, 0.11250250041484833, 0.037701256573200226, 0.029547343030571938, -0.10359062254428864, 0.2193029522895813, -0.008067790418863297, 0.09777750819921494, 0.060915812849998474, -0.04167953133583069, -0.1373932808637619, 0.11571136116981506, -0.015342663042247295, 0.07654824107885361, -0.10918531566858292, -0.01884651370346546, 0.1902334839105606, -0.18855667114257812, 0.0021992207039147615, -0.3315722942352295, -0.09946764260530472, 0.2440936118364334, 0.14695174992084503, -0.08017513155937195, -0.05993114411830902, -0.06543006002902985, -0.16143518686294556, -0.01464469637721777, -0.16967763006687164, 0.05823838338255882, 0.037430405616760254, -0.07724954187870026, -0.05825569108128548, 0.2596939504146576, 0.11433812230825424, 0.0681183710694313, -0.06756028532981873, -0.028213176876306534, -0.10562247037887573, 0.019797949120402336, 0.2659911513328552, 0.10735345631837845, -0.23127073049545288, -0.2471047341823578, -0.020234953612089157, 0.2728724479675293, 0.09123021364212036, 0.31829291582107544, -0.06958619505167007, -0.09150085598230362, 0.005160803906619549, 0.0665854886174202, -0.17171970009803772, -0.09047117829322815, 0.07229223102331161, -0.2730574607849121, -0.1692013442516327, 0.2149192839860916, -0.13895244896411896, -0.10405547171831131, 0.17607593536376953, -0.09773948788642883, -0.012329417280852795, -0.2814115285873413, 0.26953497529029846, -0.07417061179876328, -0.17223480343818665, -0.03608796373009682, -0.2782273292541504, -0.06971146911382675, 0.2441451996564865, -0.018582629039883614, -0.03264855220913887, -0.08620786666870117, 0.21265466511249542, 0.016186915338039398, -0.3764336407184601, -0.007395324297249317, 0.03185742348432541, 0.14249180257320404, 0.175326868891716, -0.10748958587646484, 0.19334712624549866, 0.029415013268589973, 0.12487229704856873, -0.09714680910110474, 0.12120892107486725, -0.1381627917289734, 0.038148265331983566, 0.027711918577551842, -0.0264988224953413, -0.1773299276828766, 0.12092320621013641, -0.14851908385753632, 0.08746911585330963, -0.04378402233123779, -0.05462006852030754, 0.1100674718618393, -0.2073799967765808, 0.05149708315730095, -0.15823796391487122, 0.19572314620018005, -0.16113831102848053, -0.08254817873239517, 0.16632187366485596, 0.21326346695423126, -0.1958664208650589, -0.030507447198033333, 0.029450584203004837, 0.021421466022729874, 0.01718628779053688, 0.10975232720375061, 0.10208618640899658, -0.18022969365119934, -0.01201610080897808, -0.5640636682510376, 0.08228017389774323, 0.02197571098804474, -0.16288112103939056, 0.495903342962265, -0.09365895390510559, -0.22535644471645355, 0.1184050589799881, -0.1299365758895874, -0.0012258511269465089, 0.14927233755588531, 0.08474784344434738, 0.6668803691864014, 0.7381258010864258, -0.46549779176712036, 0.03619515895843506, -0.1253853440284729, -0.1614767163991928, -0.027740785852074623, 0.3162399232387543, -6.813187792431563e-05, 0.04328729957342148, -0.23209844529628754, -0.07519426196813583, 0.10367199778556824, 0.06979480385780334, 0.11179160326719284, 0.039296407252550125, 0.1316540241241455, 0.1669839322566986, -0.7651488184928894, -0.34377479553222656, -0.20702022314071655, 0.23629231750965118, 0.07533761113882065, -0.10400718450546265, -0.2797602415084839, 0.03331296890974045, -0.11374545842409134, 0.0695006400346756, 0.22089126706123352, 0.1654817759990692, 0.4364365041255951, -0.42570969462394714, -0.02116600051522255, 0.21683715283870697, 0.033304233103990555, 0.025430360808968544, -0.22696341574192047, -0.10788193345069885, -0.18862329423427582, 0.04918549582362175, -0.04661122336983681, 0.19228187203407288, -0.08015856891870499, 0.0653097927570343, -0.0032206971663981676, -0.16060420870780945, 0.0331418514251709, -0.2302405685186386, 0.06102237105369568, 0.1323738396167755, 0.11046349257230759, -0.04475206136703491, -0.15053856372833252, 0.009605019353330135, -0.1445561945438385, 0.02780991420149803, -0.08235429227352142, 0.17406857013702393, -0.20941559970378876, -0.013509208336472511, -0.12931668758392334, 0.030866306275129318, 0.04589347541332245, 0.2120034396648407, -0.16690360009670258, 0.16188672184944153, -0.08928059041500092, -0.09304110705852509, -0.12275172770023346, -0.1754661500453949, 0.40492644906044006, -0.16708433628082275, -0.06295046210289001, 0.24348679184913635, -0.08247461915016174, -0.18904554843902588, 0.004117045551538467, -0.04256514087319374, 0.036853235214948654, -0.036971356719732285, -0.19645832479000092, 0.22742365300655365, -0.18090082705020905, -0.06770419329404831, 0.1141047477722168, 0.06362799555063248, -0.01739656738936901, -0.10588324069976807, 0.12343871593475342, -0.044946491718292236, 0.08090551197528839, -0.048952873796224594, 0.1329226940870285, -0.024606935679912567, -0.15370745956897736, -0.048337168991565704, 0.12530528008937836, -0.01975255087018013, 0.3203219771385193, 0.04838188737630844, 0.2388448268175125, -0.142388716340065, -0.046884745359420776, 0.008932984434068203, -0.2244982272386551, 0.026387838646769524, 0.2299136221408844, -0.048596225678920746, 0.040063537657260895, -0.028173990547657013, 0.05698681250214577, -0.04480188712477684, 0.12058179825544357, 0.01765439100563526, 0.1490890234708786, 0.010891558602452278, -0.018694480881094933, 0.07128800451755524, -0.2496436983346939, 0.1865711361169815, 0.11208955198526382, -0.1411544382572174, 0.015299390070140362, 0.12834522128105164, -0.26517561078071594, -0.002846292220056057, -0.08339668810367584, 0.12345448136329651, -0.07721171528100967, -0.02591966651380062, 0.06117039546370506, 0.028597328811883926, -0.07653146982192993, -0.11376442760229111, 0.1311323344707489, 0.10941818356513977, -0.13168051838874817, 0.046614665538072586, -0.04910650476813316, -0.008781574666500092, 0.04262528195977211, -0.09230533242225647, 0.08687761425971985, 0.046734295785427094, -0.014042222872376442, 0.12011384963989258, -0.12408959120512009, -0.09914539754390717, -0.2747381925582886, -0.10420593619346619, -0.0017589293420314789, 0.17540208995342255, 0.15820886194705963, 0.2543259561061859, -0.07467316836118698, -0.10536157339811325, -0.19706286489963531, 0.1649760603904724, -0.06752488762140274, -0.026400914415717125, -0.08967588096857071, -0.03707447275519371, -0.006743753794580698, -0.26923757791519165, 0.018113600090146065, -0.003143283072859049, 0.0631684958934784, 0.049081768840551376, -0.0976659506559372, 0.05791857838630676, -0.034710150212049484, -0.21466828882694244, -0.04182006046175957, 0.11633533984422684, 0.04489393159747124, -0.22966961562633514, 0.10923566669225693, 0.10587256401777267, -0.1958494782447815, -0.1445985585451126, 0.24391168355941772, -0.8902008533477783, 0.397845983505249, 0.10899325460195541, -0.21995942294597626, 0.19394096732139587, -0.10218241065740585, -0.11649128794670105, 0.037007588893175125, -0.08277174085378647, 0.04496173560619354, -0.04357973858714104, -0.11438864469528198, 0.11925088614225388, -0.12778553366661072, 0.054930977523326874, -0.0969279557466507, 0.056444764137268066, -0.13563361763954163, 0.3431876301765442, 0.22378425300121307, 0.1794973909854889, -0.11367437988519669, 0.02327878586947918, -0.0290805846452713, -0.01760951802134514, 0.0774943009018898, -0.07611669600009918, -0.18002097308635712, -0.03199629485607147, 0.011746037751436234, 0.05350734293460846, 0.24261830747127533, -0.10160784423351288, 0.17810635268688202, 0.01832016371190548, -0.05643535032868385, 0.24788367748260498, 0.004926905035972595, -0.06331057846546173, 0.183284193277359, 0.10911823064088821, 0.17849552631378174, -0.12860561907291412, -0.49221906065940857, 0.19151920080184937, -0.29024580121040344, -0.03790633752942085, 0.19795334339141846, 0.18365371227264404, 0.06927227973937988, 0.05563684552907944, 0.3558824062347412, 0.09191211313009262, 0.20455491542816162, -0.009414223954081535, -0.15680232644081116, -0.08372301608324051, -0.15689201653003693, -0.002066993620246649, -0.0036317561753094196, 0.19288849830627441, 0.19424058496952057, -0.1856406182050705, 0.20518121123313904, -0.03738361969590187, 0.12936988472938538, 0.05549325793981552, -0.059369154274463654, -0.1035747155547142, 0.11148200184106827, 0.049601729959249496, 0.16984418034553528, -0.08923573791980743, -0.13850188255310059, -0.09039267897605896, 0.10885750502347946, 0.2609791159629822, 0.04109293222427368, 0.1902472823858261, -0.15709519386291504, 0.07992388308048248, -0.1301337480545044, -0.14415574073791504, 0.059008482843637466, -0.03521643579006195, -0.19858743250370026, 0.2577110230922699, 0.1497754007577896, -0.1896478831768036, -0.459160178899765, -0.45793819427490234, 0.016205135732889175, -0.278599351644516, 0.053526487201452255, 0.17662498354911804, 0.019242145121097565, 0.10926106572151184, 0.07078145444393158, 0.06317607313394547, 0.18706578016281128, 0.057293400168418884, 0.07129179686307907, -0.0348956361413002, 0.15488216280937195, -0.15099555253982544, -0.2518158555030823, -0.02663678303360939, -0.024926137179136276, -0.3077656328678131, -0.12842318415641785, 0.07594655454158783, 0.07080412656068802, -0.19817008078098297, 0.03600434586405754, 0.13003471493721008, 0.0034696212969720364, -0.05261332541704178, 0.09847428649663925, -0.007904413156211376, 0.1392589509487152, -0.17993400990962982, 0.16571064293384552, 0.01916043646633625, 0.03668315336108208, -0.049214303493499756, 0.047745369374752045, 0.14901000261306763, 0.14405205845832825, -0.06574643403291702, -0.09503256529569626, -0.03304360806941986, -0.035418298095464706, -0.21720165014266968, -0.0064559997990727425, -0.02893374301493168, -0.21757660806179047, 0.14918886125087738, -0.0729420855641365, -0.17211796343326569, -0.06270233541727066, -0.1260933130979538, 0.1674274057149887, -0.17205284535884857, -0.03019624948501587, -0.1259632259607315, -0.06291903555393219, 0.025644050911068916, -0.19389581680297852, 0.13791121542453766, -0.18800055980682373, 0.10271980613470078, 0.03151760250329971, -0.1441972255706787, 0.18638594448566437, 0.09296023100614548, -0.01819578930735588, 0.10322820395231247, 0.0446583516895771, 0.17690815031528473, -0.16090497374534607, -0.023747103288769722, -0.005582341458648443, -0.030583510175347328, 0.1168491467833519, 0.12658768892288208, -0.02387753687798977, 0.08186693489551544, -0.10851167887449265, 0.09867782890796661, 0.002234905958175659, 0.04440944269299507, -0.1015322282910347, 0.035632822662591934, -0.09371449053287506, -0.2323867678642273, 0.018949175253510475, -0.22044901549816132, 0.28913387656211853, 0.0664936751127243, -0.21337516605854034, 0.2851807773113251, -0.10728932917118073, -0.1275576502084732, 0.16843141615390778, -0.04981403425335884, 0.26441138982772827, 0.007841348648071289, -0.028721710667014122, 0.0541260689496994, -0.20898647606372833, 0.10807356238365173, 0.16752798855304718, 0.04542592912912369, -0.0626877024769783, -0.050048813223838806, 0.1770906150341034, 0.024445390328764915, -0.021308591589331627, -0.08567749708890915, 0.03842421621084213, 0.20400676131248474, 0.020634381100535393, 0.10764800012111664, -0.05287889763712883, 0.0441700741648674, -0.01911170221865177, 0.09115206450223923, -0.1350618302822113, -0.6783525943756104, 0.9304686188697815, 0.15533316135406494, -0.3913893699645996, 0.1580282747745514, -0.19093728065490723, -0.279842734336853, 0.5118043422698975, -0.6383682489395142, 1.0677030086517334, 0.7051976919174194, 0.18830735981464386, -0.25774693489074707, 0.40228724479675293, -0.7211922407150269, 0.37879008054733276, -0.26776453852653503, 0.1824100911617279, -0.13092805445194244, 0.29900211095809937, 0.4889437258243561, 0.17402362823486328, 0.02880435809493065, 0.25885558128356934, 0.2836538255214691, 0.16168345510959625, 0.29118263721466064, -0.31177544593811035, 0.001098550041206181, -0.22833125293254852, 0.023071816191077232, 0.5220467448234558, -0.2620193660259247, 0.37937939167022705, 0.21108378469944, 0.4027992784976959, 0.35990914702415466, 0.007235461380332708, -0.240391343832016, -0.1390133500099182, 0.28530025482177734, 0.03144175186753273, 0.18552128970623016, 0.12546424567699432, 0.2705126106739044, 0.15733602643013, 0.11134864389896393, 0.3941502273082733, -0.4514457881450653, -0.23788397014141083, -0.13959480822086334, 0.43839144706726074, 0.04046244919300079, -0.0967058539390564, -0.061686523258686066, -0.10068859905004501, 0.17854560911655426, -0.15039345622062683, 0.38394027948379517, 0.3741455376148224, -0.27129659056663513, -0.04598753899335861, 0.3034972548484802, 0.4746044874191284, 0.0019982345402240753, 0.027814367786049843, 0.03653842955827713, 0.007388792932033539, 0.14521075785160065, -0.21462252736091614, 0.11583749204874039, 0.2411709874868393, 0.033331893384456635, 0.006083100568503141, 0.23143665492534637, -0.07452496141195297, 0.05319808050990105, -0.013384940102696419, -0.011563833802938461, 0.000632575829513371, 0.042823608964681625, 0.10216773301362991, -0.205204039812088, 0.11459274590015411, -0.01936296932399273, 0.18022802472114563, 0.1579057276248932, -0.1079878881573677, -0.048572514206171036, -0.15684637427330017, 0.056718915700912476, -0.2167460024356842, -0.23749643564224243, 0.1525530070066452, -0.08945430815219879, -0.350504606962204, -0.12336708605289459, -0.039559256285429, -0.16204050183296204, -0.25337404012680054, -0.05729924887418747, 0.29316213726997375, 0.14841854572296143, -0.0766868144273758, -0.2644995152950287, 0.17043136060237885, 0.1144670844078064, 0.009568032808601856, 0.2745908498764038, 0.27744731307029724, -0.11859191209077835, 0.02601035125553608, 0.025676241144537926, -0.2229079008102417, 0.1130509153008461, 0.09310618788003922, -0.1884593516588211, 0.007753671612590551, -0.16663867235183716, -0.2645071744918823, 0.154899001121521, 0.13337203860282898, -0.2477070689201355, 0.12068502604961395, 0.11182034760713577, -0.04176131635904312, 0.051961615681648254, -0.12171381711959839, 0.028959719464182854, -0.20236678421497345, -0.08476734161376953, -0.15197479724884033, -0.24562658369541168, 0.011412465013563633, -0.212906152009964, 0.07628821581602097, -0.14815261960029602, 0.39966192841529846, 0.08267373591661453, 0.013788292184472084, 0.16009730100631714, 0.2759229242801666, -0.4250144064426422, -0.03119782730937004, 0.6206852197647095, -0.041438981890678406, 0.2840476334095001, 0.28528711199760437, -0.1050124391913414, -0.38676193356513977, -0.13762906193733215, -0.2285136729478836, 0.262238472700119, -0.18754535913467407, 0.0595330074429512, -0.2179325819015503, 0.12444054335355759, -0.035317279398441315, 0.19542311131954193, -0.06155849248170853, -0.261816143989563, 0.3604440987110138, 0.12197913974523544, -0.14156043529510498, 0.29075130820274353, -0.27624639868736267, -0.11956067383289337, -0.13328202068805695, -0.14030061662197113, 0.16076508164405823, -0.0981602668762207, 0.37069517374038696, 0.03542878106236458, 0.23953402042388916, -0.31678155064582825, 0.5055343508720398, -0.3289754390716553, -0.13067786395549774, -0.21235451102256775, 0.36707603931427, 0.017535140737891197, 0.22702431678771973, 0.09530714899301529, 0.28620997071266174, 0.21175214648246765, -0.2641475796699524, 0.19969673454761505, 0.04312683269381523, -0.36238816380500793, -0.02685622125864029, 0.3684364855289459, 0.16824054718017578, 0.21923744678497314, -0.5046994090080261, 0.041640762239694595, -0.06791699677705765, 0.13232026994228363, 0.37070131301879883, 0.060063205659389496, 0.07037708163261414, -0.08285760134458542, -0.14337338507175446, 0.23387371003627777, -0.4739426076412201, -0.2515416443347931, -0.016317114233970642, 0.14176766574382782, -0.2830713391304016, 0.05035039037466049, 0.28058484196662903, 0.10574855655431747, 0.17958205938339233, 0.22570110857486725, -0.4332955777645111, -0.2914092540740967, 0.21083708107471466, 0.011191358789801598, -0.059623245149850845, -0.04040694609284401, -0.3290584981441498, 0.3615926206111908, -0.04741104319691658, -0.03540979325771332, -0.11854036897420883, 0.24020807445049286, -0.40925467014312744, -0.17291101813316345, 0.04038754105567932, -0.20963425934314728, 0.11577383428812027, -0.3119000196456909, -0.15549056231975555, 0.05021442100405693, -0.03730233758687973, -0.40677282214164734, -0.0006376560777425766, 0.06916297972202301, -0.042680028825998306, 0.06213826313614845, -0.14482702314853668, 0.25777745246887207, -0.30645862221717834, -0.027761947363615036, -0.24294419586658478, -0.13327740132808685, 0.07176267355680466, -0.3496931195259094, 0.14682099223136902, 0.06360296905040741, 0.24828383326530457, 0.17217929661273956, -0.0871664360165596, 0.05798241123557091, 0.2005443423986435, -0.2837977409362793, -0.3263166546821594, -0.31935325264930725, 0.03130953013896942, -0.3967934250831604, -0.35994622111320496, -0.04404304176568985, 0.10635066032409668, -0.16637255251407623, 0.0918363481760025, -0.16036325693130493, 0.3466256558895111, 0.19570417702198029, -0.21467788517475128, -0.10140576213598251, -0.06447349488735199, -0.24101392924785614, 0.12370499968528748, 0.12534193694591522, 0.21051768958568573, -0.16917823255062103, -0.020244602113962173, 0.33203816413879395, 0.20090892910957336, 0.4743739366531372, -0.24570143222808838, -0.31690967082977295, 0.06262296438217163, 0.12104608863592148, 0.4521835446357727, -0.027928758412599564, 0.0708225816488266, 0.005575717892497778, -0.15782462060451508, 0.23489591479301453, 0.0910332202911377, -0.266122430562973, 0.20258496701717377, 0.09638719260692596, -0.08191168308258057, 0.38730305433273315, 0.03948751464486122, -0.21545957028865814, 0.491136759519577, 0.07120633125305176, 0.151009663939476, -0.14797604084014893, -0.24499179422855377, 0.23370316624641418, -0.23777717351913452, 0.17742875218391418, 0.07141604274511337, 0.04999475181102753, -0.02333112061023712, -0.037476107478141785, -0.04280296713113785, 0.1587771475315094, 0.03705260157585144, 0.007369818165898323, 0.029258273541927338, 0.02706468477845192, -0.12543423473834991, -0.06786452978849411, -0.33242785930633545, 0.3932419419288635, 0.0070104533806443214, 0.1613798588514328, 0.2654372751712799, -0.24912552535533905, -0.09090077131986618, 0.08372411876916885, 0.08084021508693695, -0.0011386758415028453, 0.005683369003236294, -0.1477215439081192, 0.08582185208797455, -0.5013005137443542, -0.10343320667743683, 0.11198963224887848, -0.3241692781448364, 0.006855928339064121, 0.050762612372636795, 0.2250177413225174, -0.27399832010269165, 0.07083235681056976, -0.3432333469390869, -0.15271823108196259, 0.04123522713780403, -0.09682460129261017, -0.08685336261987686, 0.07599031925201416, 0.13749787211418152, 0.014231685549020767, 0.054605867713689804, 0.27013954520225525, 0.2610560655593872, -0.09890004992485046, -0.3985995650291443, 0.10181611776351929, -0.14199860394001007, 0.05587848275899887, -0.05149054899811745, -0.23189254105091095, -0.6381589770317078, -0.13941887021064758, 0.05910740792751312, 0.15321101248264313, -0.30657660961151123, -0.035256773233413696, 0.04742153361439705, 0.17785166203975677, 0.08394365012645721, 0.3697212338447571, -0.04734637215733528, 0.2055377960205078, 0.3686630427837372, -0.11235295981168747, -0.16889171302318573, -0.14936813712120056, -0.20994539558887482, 0.06919942796230316, 0.37539780139923096, -0.16865962743759155, 0.20022161304950714, -0.3102767765522003, 0.02280162088572979, -0.11507775634527206, -0.036669276654720306, 0.07690347731113434, -0.3872542977333069, 0.0021341985557228327, 0.1188615933060646, -0.09817687422037125, 0.011093421839177608, -0.2061721682548523, -0.37785184383392334, 0.1431657373905182, 0.12129367142915726, -0.20342586934566498, 0.14351892471313477, 0.17946100234985352, 0.19876664876937866, 0.0415458008646965, -0.014242413453757763, -0.023579616099596024, -0.1458313763141632, -0.044907938688993454, 0.03130170330405235, 0.1446087509393692, -0.05907423049211502, 0.1388375163078308, 0.03737947344779968, 0.1225963681936264, -0.0792708769440651, 0.08347832411527634, 0.060840342193841934, 0.10698091983795166, -0.19840827584266663, -0.014446091838181019, -0.34409263730049133, 0.0843900814652443, 0.011125151999294758, -0.14699211716651917, 0.2753317058086395, 0.1242310106754303, -0.10225103050470352, -0.0003116779262199998, -0.04827796295285225, -0.07195940613746643, 0.0054198987782001495, -0.10701610893011093, 0.2921273410320282, 0.06662477552890778, -0.06286416202783585, 0.04676537960767746, -0.03346564620733261, 0.013050519861280918, 0.06650093197822571, 0.34570232033729553, -0.02820143662393093, -0.00859050452709198, 0.16786924004554749, 0.1635911762714386, 0.19411249458789825, 0.24340766668319702, 0.017845187336206436, 0.0429140105843544, 0.14556217193603516, -0.09919892996549606, 0.029918402433395386, 0.08560259640216827, -0.040733952075242996, -0.04091210663318634, -0.14190682768821716, 0.23411162197589874, 0.11540751904249191, 0.0653190016746521, 0.06016230955719948, 0.07657802104949951, 0.011279020458459854, 0.2345171421766281, 0.15623867511749268, 0.04630222171545029, -0.25134992599487305, -0.2319813370704651, -0.15864479541778564, 0.016273871064186096, 0.02024916745722294, 0.24990099668502808, 0.006610526237636805, 0.11343686282634735, 0.2866557240486145, 0.04021375998854637, 0.18208499252796173, 0.2730802297592163, -0.07088319957256317, 0.13243508338928223, 0.1440032720565796, -0.21829929947853088, 0.006684427615255117, -0.05321524664759636, -0.01664082705974579, -0.1188901886343956, -0.09124002605676651, -0.01375473104417324, 0.27813422679901123, -0.15818962454795837, -0.044717464596033096, 0.2842988669872284, 0.059863828122615814, 0.036120884120464325, 0.033098794519901276, 0.07073445618152618, 0.05579763650894165, 0.4187205731868744, -0.16355468332767487, -0.10618236660957336, -0.0974775105714798, 0.03507131710648537, -0.09816783666610718, -0.4280758500099182, 0.16193662583827972, 0.13272696733474731, -0.06537193804979324, 0.014958291314542294, -0.08099237829446793, -0.04467250406742096, 0.026379941031336784, -0.04215638339519501, 0.18896593153476715, 0.1855347454547882, -0.10691313445568085, -0.2838936150074005, -0.0017622971208766103, 0.039905160665512085, 0.17436107993125916, -0.04524935036897659, 0.028349755331873894, 0.13502152264118195, -0.16492803394794464, -0.06080230697989464, 0.1949593722820282, 0.11348407715559006, -0.029837913811206818, 0.04023658111691475, 0.04638634994626045, -0.003959334921091795, -0.07280830293893814, -0.006401035934686661, 0.08882242441177368, -0.22662223875522614, -0.1254366785287857, 0.04478112980723381, -0.13366349041461945, -0.05190254747867584, -0.013322542421519756, 0.08589274436235428, 0.02453770488500595, -0.03986653685569763, 0.005727866198867559, 0.2423815131187439, 0.16235314309597015, 0.18765409290790558, 0.0335969403386116, -0.23954720795154572, -0.04279892146587372, -0.025756552815437317, 0.05508330464363098, -0.29233092069625854, -0.09557352215051651, 0.13678382337093353, -0.0027824011631309986, 0.07620789855718613, -0.10675407201051712, -0.11197017133235931, -0.10533478856086731, -0.027413439005613327, 0.2182491570711136, 0.06516990810632706, -0.25393155217170715, -0.05914740264415741, 0.002064518164843321, -0.02957669459283352, -0.13587522506713867, -0.06991265714168549, -0.051729101687669754, -0.020291553810238838, 0.07140323519706726, 0.13069185614585876, 0.18749471008777618, -0.026094412431120872, -0.3023705780506134, 0.14196652173995972, -0.0036243628710508347, -0.21424850821495056, -0.1139681488275528, 0.06835021078586578, 0.09800597280263901, -0.24081885814666748, 0.10837273299694061, 0.17526240646839142, 0.10075018554925919, -0.005542378406971693, -0.05616673082113266, -0.10125556588172913, 0.038130585104227066, 0.18245157599449158, 0.006925664842128754, 0.15970344841480255, 0.16088013350963593, -0.22239793837070465, -0.0031593425665050745, 0.041593361645936966, 0.027192484587430954, -0.02142208069562912, -0.2562492787837982, 0.04159100726246834, -0.12798097729682922, -0.11607035249471664, -0.20102210342884064, -0.09694045782089233, -0.05210544168949127, 0.2998321056365967, 0.07003673911094666, -0.14538279175758362, -0.2851465344429016, 0.20990455150604248, 0.24796704947948456, 0.08798888325691223, -0.005934321321547031, 0.03230956941843033, 0.16450688242912292, 0.018116913735866547, 0.012385758571326733, 0.11174909770488739, 0.02200741320848465, -0.18073222041130066, 0.09293019771575928, 0.02999408170580864, 0.22015129029750824, -0.43292346596717834, 0.0170255396515131, 0.025920020416378975, -0.0073719327338039875, 0.3003288209438324, -0.2647649943828583, 0.24039363861083984, -0.02554483711719513, -0.3162394165992737, -0.02803918905556202, 0.017187561839818954, 0.2644961476325989, 0.0342191718518734, -0.09127572178840637, -0.027351655066013336, 0.008153783157467842, -0.241037979722023, 0.27974793314933777, -0.26619380712509155, -0.10560256987810135, -0.26557061076164246, -0.11707143485546112, 0.005650033708661795, 0.17848573625087738, -0.0012505019549280405, -0.016360098496079445, 0.03702053055167198, 0.19018155336380005, -0.1434105783700943, -0.0004229963233228773, -0.08056116104125977, 0.1175559014081955, 0.002136248629540205, 0.14237500727176666, -0.03664589673280716, -0.17641933262348175, -0.09957532584667206, -0.01308997068554163, -0.059454549103975296, -0.03305397182703018, -0.16138334572315216, 0.21257686614990234, -0.01696164906024933, -0.5463095903396606, 0.32685694098472595, 0.1996336430311203, 0.13874635100364685, -0.023151006549596786, 0.4041459560394287, -0.26440855860710144, -0.10420773178339005, -0.11394385993480682, -0.022320812568068504, 0.12172301113605499, -0.12437491863965988, 0.06170155107975006, 0.21418841183185577, -0.16118153929710388, 0.1936645805835724, 0.028217220678925514, 0.14110004901885986, 0.07251035422086716, -0.08247219026088715, -0.2721756398677826, -0.11311245709657669, -0.05866478756070137, -0.2692968249320984, 0.10682911425828934, 0.09663127362728119, -0.13410471379756927, 0.05318331718444824, -0.045791253447532654, 0.04907314106822014, 0.07285326719284058, 0.0027890601195394993, 0.0895622968673706, 0.08232717961072922, 0.051139652729034424, 0.005213725846260786, -0.09085090458393097, -0.04399867355823517, -0.06496097892522812, 0.025586934760212898, -0.05715996399521828, 0.19311141967773438, 0.028715362772345543, -0.1310674399137497, -0.16465520858764648, -0.051266688853502274, -0.11644797772169113, -0.11863210797309875, 0.17610132694244385, 0.02140294946730137, 0.15693879127502441, -0.011693730019032955, -0.03511132299900055, 0.04644180089235306, 0.21546335518360138, 0.10612514615058899, -0.004957106430083513, -0.026719549670815468, -0.03409654647111893, 0.1632271260023117, -0.14002911746501923, 0.10000202804803848, -0.25656694173812866, 0.08265722543001175, -0.04382339492440224, -0.08957738429307938, -0.15016867220401764, -0.12520921230316162, -0.043258026242256165, 0.044299107044935226, -0.04043818637728691, -0.028811898082494736, 0.09034939110279083, 0.15341326594352722, 0.1339346468448639, -0.04052983969449997, 0.11094948649406433, 0.001500088139437139, -0.048380449414253235, -0.1661922037601471, 1.251039793714881e-05, -0.023693036288022995, 0.1540888100862503, 0.04748337343335152, 0.07809998095035553, 0.035196613520383835, 0.025004053488373756, 0.14493447542190552, 0.09211425483226776, -0.13502894341945648, -0.08809259533882141, -0.03782446309924126, -0.2226644605398178, 0.15240593254566193, -0.03042019158601761, 0.03130911663174629, 0.15140314400196075, -0.03056744672358036, -0.019113223999738693, -0.07319002598524094, -0.07666068524122238, 0.11014734208583832, 0.21312491595745087, -0.016888881102204323, 0.09008738398551941, 0.19022007286548615, -0.24629341065883636, 0.17882077395915985, -0.18957000970840454, 0.04080924019217491, 0.4524419903755188, 0.09289267659187317, 0.04973967373371124, 0.7366500496864319, 0.15374253690242767, 0.2951740622520447, 0.23600095510482788, 0.0901779979467392, 0.2541993260383606, 0.41632863879203796, 0.11782447248697281, 0.13766662776470184, -0.16118298470973969, -0.13403518497943878, -0.08371515572071075, -0.054308973252773285, -0.026031583547592163, 0.06480768322944641, 0.34727659821510315, 0.15301184356212616, 0.07934451848268509, -0.04463805630803108, 0.20873132348060608, 0.386691153049469, 0.606960654258728, -0.13253232836723328, -0.023862265050411224, -0.5348750352859497, -0.051323313266038895, -0.18933485448360443, 0.1426582932472229, 0.17091572284698486, 0.014451912604272366, 0.2369013875722885, 0.0739523395895958, 0.028231272473931313, 0.3908957839012146, 0.05443625524640083, 0.23279665410518646, -0.012072804383933544, -0.17815165221691132, -0.07100241631269455, -0.18416045606136322, 0.3566409647464752, 0.3102423846721649, -0.3902583122253418, 0.13880673050880432, -0.0736006647348404, -0.08499013632535934, 0.05691221356391907, 0.09464077651500702, -0.21674326062202454, 0.015296516939997673, -0.22746425867080688, -0.04884592443704605, -0.015339324250817299, 0.06768765300512314, -0.31873342394828796, 0.03511698916554451, -0.014031238853931427, 0.09403537213802338, -0.1963474154472351, -0.1309012472629547, 0.1286056488752365, -0.13511626422405243, -0.18800050020217896, -0.006308760493993759, -0.043487370014190674, -0.04290580376982689, 0.16307827830314636, 0.02931095100939274, 0.05255046859383583, -0.3375447988510132, -0.04078983515501022, 0.23600558936595917, -0.04269501566886902, 0.06176536902785301, 0.0829509049654007, 0.1326189786195755, -0.08691740036010742, 0.04052309691905975, 0.1509975790977478, -0.01862926222383976, 0.04369024559855461, -0.20381741225719452, 0.1045776829123497, -0.014256973750889301, 0.015603853389620781, -0.09098702669143677, 0.24879679083824158, 0.04500478133559227, -0.17858627438545227, -0.14753977954387665, 0.31486809253692627, -0.12484702467918396, -0.03817739710211754, 0.0025819651782512665, 0.17383038997650146, 0.0948576033115387, -0.16000930964946747, 0.1335839331150055, -0.012177100405097008, 0.18950796127319336, 0.16076518595218658, 0.13134272396564484, -0.15710853040218353, 0.061960749328136444, -0.15234553813934326, 0.16755473613739014, 0.05719462409615517, -0.13522587716579437, 0.15379564464092255, -0.030048945918679237, -0.210317000746727, -0.1691189557313919, 0.15076260268688202, -0.023244427517056465, 0.2532542943954468, 0.21723875403404236, 0.11232168972492218, -0.3709803819656372, 0.17552831768989563, 0.017620554193854332, -0.14894218742847443, -0.013995817862451077, -0.07305534929037094, 0.11509153991937637, 0.02076004631817341, -0.0638422966003418, 0.24586708843708038, 0.053601834923028946, 0.1785161793231964, -0.09086140990257263, 0.08432886749505997, 0.10780911892652512, -0.10250776261091232, -0.11785455048084259, 0.19128632545471191, 0.17421989142894745, 0.219464510679245, 0.02905137836933136, 0.3249565064907074, 0.11287689208984375, -0.007345679681748152, -0.16955773532390594, -0.03277113661170006, 0.017411839216947556, -0.1375216245651245, 0.3505994379520416, 0.012338363565504551, -0.33179348707199097, -0.19692029058933258, -0.07497953623533249, 0.40596431493759155, 0.01882430724799633, 0.16411657631397247, 0.16317720711231232, 0.030747972428798676, 0.22284641861915588, -0.22698050737380981, 0.16858826577663422, 0.005547200329601765, -0.1316116601228714, 0.010257340967655182, 0.1292603313922882, -0.2810336947441101, 0.004353064578026533, -0.16688987612724304, 0.17217622697353363, -0.3791581988334656, -0.08035875856876373, 0.06455603986978531, 0.0904332846403122, 0.17428791522979736, -0.02261999063193798, -0.06893734633922577, 0.14017294347286224, -0.06445817649364471, -0.7294833660125732, 0.17738501727581024, -0.0854126438498497, -0.2683253586292267, -0.2976197600364685, 0.2677794098854065, -0.3012542724609375, 0.21656537055969238, -0.3869125545024872, -0.1791864037513733, 0.000738086411729455, -0.1766199916601181, 0.5166606903076172, 0.17447948455810547, 0.26158446073532104, -0.012376509606838226, -0.005178447347134352, 0.09649825096130371, -0.13000738620758057, 0.1064615473151207, 0.28510746359825134, 0.0429685041308403, -0.0377856008708477, 0.07330730557441711, -0.017119979485869408, -0.015898043289780617, -0.13710245490074158, -0.09543800354003906, -0.08325710147619247, -0.04334487393498421, -0.1299172341823578, 0.07915961742401123, 0.13021709024906158, -0.11441776901483536, 0.09357018023729324, -0.11979704350233078, -0.023694122210144997, 0.1190740093588829, 0.014717036858201027, 0.06927238404750824, 0.007215016055852175, -0.2088896632194519, 0.07690781354904175, 0.07782576978206635, 0.34824755787849426, -0.09155481308698654, -0.13765516877174377, 0.3404330313205719, -0.13562077283859253, -0.2714090347290039, -0.13389162719249725, 0.08872660994529724, -0.03718968853354454, -0.06475771963596344, 0.08550801873207092, -0.1072729229927063, -0.0817856565117836, 0.060791946947574615, 0.10608969628810883, -0.1946701854467392, 0.04794921353459358, 0.14124885201454163, -0.13911636173725128, 0.2172149121761322, 0.11210580915212631, -0.09533035010099411, 0.07671724259853363, 0.0008191920351237059, -0.23008272051811218, -0.08874716609716415, -0.04906480386853218, -0.04676232486963272, 0.07345876097679138, 0.20923757553100586, 0.014993139542639256, 0.0950363427400589, 0.04447837546467781, -0.06616099923849106, -0.021812567487359047, 0.09063015133142471, 0.14388571679592133, 0.07355677336454391, 0.0037915874272584915, -0.06426192075014114, 0.1851641982793808, -0.037655461579561234, 0.10129015892744064, 0.040194958448410034, -0.05422968417406082, -0.06098908185958862, -0.11022399365901947, 0.1224634051322937, -0.198924720287323, 0.06615085154771805, 0.02490396611392498, -0.030455200001597404, -0.0043830848298966885, 0.13144192099571228, -0.08459457755088806, -0.015782702714204788, 0.034115880727767944, 0.15417109429836273, 0.16706770658493042, 0.14293470978736877, -0.19316387176513672, 0.09975911676883698, -0.08064708113670349, 0.04666082561016083, -0.06405500322580338, 0.07608970999717712, 0.10028138011693954, -0.15137314796447754, 0.15306104719638824, -0.027607358992099762, 0.17264537513256073, 0.05285866558551788, -0.04933733493089676, -0.03157896548509598, 0.1398145854473114, 0.17464293539524078, 0.18967051804065704, -0.02974715083837509, 0.15807108581066132, -0.03287564963102341, -0.011132082901895046, 0.1653490662574768, 0.8404054641723633, 0.4295433461666107, 0.4897608757019043, -0.965565025806427, -0.5239328145980835, 0.033918045461177826, 0.2651917636394501, -0.004770580213516951, 0.23131942749023438, 0.10208594053983688, -0.500982940196991, 0.21916258335113525, 0.09966614097356796, -0.6308202743530273, 0.31563615798950195, -0.406171977519989, -0.19343219697475433, -0.09681250900030136, 0.1828678846359253, -0.11039596050977707, 0.13176463544368744, 0.19894440472126007, -0.06183808669447899, -0.4467103183269501, -0.42554041743278503, 0.06073291227221489, -0.05792999640107155, 0.00019281695131212473, 0.0962674468755722, 0.04018048569560051, 0.19074536859989166, -0.19363242387771606, -0.017150549218058586, -0.27633172273635864, 0.17071451246738434, -0.42738014459609985, -0.09045959264039993, 0.03768376633524895, 0.30191758275032043, -0.26827284693717957, -0.04359937086701393, 0.09207748621702194, -0.35234150290489197, 0.1413981169462204, -0.05015796795487404, 0.19451381266117096, 0.06045079603791237, 0.310840904712677, -0.18072400987148285, 0.11965910345315933, -0.11983629316091537, -0.45443007349967957, -0.1391473263502121, -0.08912152051925659, -0.15003462135791779, 0.2661825120449066, 0.12711496651172638, -0.016628041863441467, -0.1643054336309433, -0.14186708629131317, -0.02161598950624466, 0.17963741719722748, -0.05967888608574867, 0.039275869727134705, -0.06661586463451385, 0.08844047784805298, -0.283174067735672, 0.26797717809677124, 0.26560497283935547, 0.3363461494445801, 0.13906358182430267, 0.1958686113357544, -0.03629983216524124, -0.23842084407806396, 0.2968190312385559, -0.3360940217971802, -0.03174012899398804, 0.11933833360671997, 0.07304958254098892, -0.07798825949430466, 0.06074493005871773, -0.2056930810213089, -0.06972647458314896, 0.081571564078331, -0.30200308561325073, -0.30134889483451843, 0.1473422646522522, -0.15299993753433228, 0.3969634771347046, 0.23013415932655334, -0.006539718713611364, 0.21809792518615723, -0.19471031427383423, -0.25267618894577026, -0.15846069157123566, -0.1635833978652954, -0.22631070017814636, 0.12461292743682861, 0.2930395305156708, 0.0891779288649559, -0.10984834283590317, 0.027861179783940315, 0.05656716227531433, -0.12670713663101196, 0.11315315216779709, 0.1664828062057495, -0.36459216475486755, 0.3112185597419739, 0.3081626892089844, 0.06929808109998703, -0.2800852358341217, 0.09932579100131989, 0.014098183251917362, -0.12153048813343048, -0.2222435623407364, -0.025765731930732727, 0.02120945230126381, -0.07746262103319168, 0.0569128692150116, -0.002029579831287265, -0.23899324238300323, 0.06565000116825104, 0.16262750327587128, -0.06641289591789246, -0.016353227198123932, 0.019196346402168274, 0.16549041867256165, -0.031126944348216057, -0.19989013671875, 0.25355762243270874, -0.21061086654663086, 0.018298711627721786, 0.3283938765525818, 0.049994390457868576, -0.24167975783348083, 0.14720094203948975, -0.16403864324092865, -0.07160127907991409, 0.04572594538331032, 0.03713791444897652, -0.14671163260936737, 0.13765902817249298, 0.27027401328086853, -0.1792825609445572, -0.21017292141914368, 0.07921075075864792, -0.049186062067747116, 0.0883343368768692, 0.03335156664252281, 0.088554248213768, 0.027322011068463326, 0.09523354470729828, -0.12432508915662766, 0.023895075544714928, -0.11120977997779846, 0.01828252710402012, 0.22579166293144226, -0.11652281135320663, -0.021871449425816536, 0.24444635212421417, 0.037900250405073166, 0.22571711242198944, 0.09509412944316864, 0.2269759327173233, -0.10009698569774628, 0.0733073502779007, -0.3108986020088196, 0.12375931441783905, -0.13576747477054596, -0.008048259653151035, 0.25407177209854126, -0.23012037575244904, 0.09584265202283859, -0.27753573656082153, 0.3154345750808716, -0.10804286599159241, -0.018432915210723877, 0.18227072060108185, -0.1946575790643692, -0.07992958277463913, -0.053115908056497574, -0.021144181489944458, 0.10712597519159317, -0.35690784454345703, -0.010955716483294964, -0.006897857412695885, -0.05691716447472572, 0.002793462947010994, -0.0684131532907486, 0.13836590945720673, 0.11945056170225143, -0.25235456228256226, -0.014721337705850601, 0.21643692255020142, -0.18759042024612427, -0.031040942296385765, 0.06787918508052826, -0.29115238785743713, -0.029109124094247818, -0.1737796664237976, -0.43507280945777893, 0.09025587886571884, 0.28482869267463684, 0.1700422465801239, -0.09159374237060547, 0.26171016693115234, -0.22234763205051422, -0.3039526045322418, 0.09968466311693192, 0.4108275771141052, 0.2200487107038498, 0.2786751687526703, -0.06707227230072021, 0.2183808833360672, -0.3585759401321411, 0.13483725488185883, 0.055929943919181824, 0.09413424134254456, -0.2877722680568695, -0.12064379453659058, -0.3122462034225464, 0.26747778058052063, 0.024194272235035896, -0.06539527326822281, -0.06488591432571411, 0.11822912842035294, -0.03817973658442497, 0.35096386075019836, 0.09331997483968735, 0.1532706618309021, -0.15807175636291504, 0.09915366023778915, 0.059275347739458084, 0.197805717587471, 0.2807368040084839, -0.19190643727779388, -0.48788967728614807, -0.3636603057384491, 0.01044517196714878, 0.09224797785282135, 0.3831240236759186, -0.23027761280536652, 0.14169307053089142, 0.054345063865184784, -0.3560110032558441, -0.24365152418613434, 0.19748803973197937, 0.2522275149822235, 0.17752008140087128, 0.08189252763986588, -0.4960062801837921, 0.07671286910772324, 0.12223878502845764, -0.10302311182022095, -0.04811345040798187, 0.3478544354438782, -0.2665153443813324, 0.2932215929031372, -0.23131439089775085, -0.001456973608583212, 0.10817807912826538, -0.06319122761487961, 0.01998205855488777, -0.07183191925287247, -0.5101231932640076, -0.30023109912872314, 0.21897728741168976, -0.3679043650627136, -0.014496669173240662, -0.025619782507419586, 0.36524853110313416, -0.6538445949554443, -0.060026295483112335, 0.25872084498405457, 0.19287623465061188, -0.3698575496673584, 0.012673730961978436, 0.30761927366256714, 0.2724316418170929, 0.2737903594970703, -0.2459925264120102, -0.014200498349964619, 0.19815541803836823, 0.12623846530914307, 0.27298396825790405, -0.36419135332107544, -0.0016525774262845516, -0.04006711766123772, 0.007204112131148577, -0.15477904677391052, -0.00879580620676279, -0.26785990595817566, -0.05333910882472992, -0.04964981973171234, 0.017349647358059883, -0.20738531649112701, -0.008433796465396881, -0.011803067289292812, -0.01625785045325756, 0.062229424715042114, -0.00892871618270874, 0.0835876390337944, -0.2711426913738251, -0.006346127483993769, 0.05963408201932907, 0.03263251110911369, 0.08505476266145706, -0.12306766957044601, 0.08182233572006226, 0.06881412863731384, 0.28005966544151306, -0.12910649180412292, 0.06188657134771347, -0.20407943427562714, 0.22679764032363892, 0.02726961113512516, -0.07374781370162964, -0.07239202409982681, 0.040965914726257324, -0.00020148136536590755, 0.04713006690144539, 0.17307503521442413, -0.03754308074712753, -0.028603632003068924, -0.027628475800156593, -0.08677905797958374, 0.5084299445152283, -0.1529712975025177, -0.16390414535999298, -0.033749405294656754, 0.2498435527086258, -0.04502115771174431, -0.18648439645767212, -0.02890729531645775, 0.203396275639534, 0.033701684325933456, -0.07279224693775177, 0.034663207828998566, -0.0011384297395125031, 0.10211344808340073, 0.18385262787342072, -0.17022225260734558, 0.11316674202680588, 0.39442577958106995, -0.02572670951485634, -0.15455684065818787, 0.1548297107219696, 0.01913444511592388, 0.1822713315486908, -0.06124376133084297, -0.04356320947408676, 0.10429565608501434, -0.06830041110515594, -0.05188300088047981, -0.21638032793998718, 0.12015081197023392, 0.07627680152654648, -0.04698120057582855, -0.23448596894741058, -0.09000857174396515, -0.14099568128585815, 0.1739879846572876, 0.08335039764642715, -0.048562027513980865, -0.13459131121635437, 0.20951393246650696, 0.0751253068447113, 0.09788516163825989, -0.26114585995674133, -0.08662888407707214, -0.14864765107631683, -0.33260297775268555, -0.1528272181749344, -0.13809612393379211, 0.09217017143964767, -0.05959698557853699, -0.02144620753824711, 0.1299436241388321, 0.06897225975990295, -0.14229945838451385, -0.11121511459350586, 0.16724656522274017, -0.2987077534198761, -0.0680774599313736, -0.1531851589679718, -0.19757740199565887, 0.28332775831222534, -0.30285418033599854, -0.38003021478652954, 0.25358596444129944, 0.017772266641259193, -0.27357110381126404, 0.09750045835971832, 0.016502173617482185, 0.1000831127166748, -0.11673607677221298, -0.2681262195110321, -0.20922279357910156, -0.05408789590001106, -0.14927829802036285, 0.191056489944458, 0.18127654492855072, 0.037413984537124634, -0.1391707956790924, -0.01252120453864336, 0.07698588073253632, 0.32394957542419434, -0.014083193615078926, 0.28909868001937866, -0.3135371804237366, -0.24821797013282776, 0.05694212019443512, 0.18350331485271454, -0.20638009905815125, -0.046121370047330856, 0.08736048638820648, 0.04319451376795769, 0.15596552193164825, 0.11839091032743454, 0.3215573728084564, 0.35560929775238037, 0.03199146315455437, -0.2815835177898407, 0.28456875681877136, 0.027009744197130203, -0.2413903772830963, -0.12269525229930878, -0.051870085299015045, 0.33423054218292236, -0.3076818287372589, 0.12306645512580872, 0.06781256943941116, 0.023750165477395058, -0.17845238745212555, 0.1639813780784607, -0.12197207659482956, -0.2773934006690979, -0.009398562833666801, -0.0017719740280881524, -0.4459742307662964, 0.053938787430524826, 0.11848083138465881, -0.1612708568572998, 0.08706410229206085, 0.03605467453598976, 0.08638647943735123, 0.041476063430309296, -0.12483007460832596, -0.0344865582883358, 0.1416739672422409, 0.20017856359481812, -0.1453486829996109, 0.1766154170036316, 0.038761790841817856, 0.2279747724533081, -0.04846475273370743, 0.17997854948043823, -0.08098776638507843, 0.03013087622821331, -0.35445842146873474, 0.3861149847507477, -0.10705439746379852, 0.07932854443788528, -0.17274385690689087, 0.08250783383846283, 0.19209471344947815, -0.042656973004341125, 0.10459922254085541, 0.20334182679653168, 0.24125544726848602, 0.11764057725667953, 0.011137126944959164, 0.13018380105495453, -0.19542168080806732, 0.17005112767219543, 0.036660097539424896, 0.1554958075284958, -0.19340792298316956, 0.17796626687049866, 0.08189530670642853, 0.014621746726334095, 0.08379589766263962, 0.22513964772224426, -0.027746081352233887, -0.24580499529838562, 0.4443223178386688, 0.034888867288827896, -0.274789035320282, -0.340895414352417, 0.0010047111427411437, 0.16504426300525665, -0.014542904682457447, -0.04617703706026077, 0.05008769407868385, 0.2386564314365387, 0.023719998076558113, -0.03277553245425224, -0.023837292566895485, 0.0732288658618927, -0.12272489815950394, -0.16970959305763245, -0.05021960660815239, -0.12482589483261108, 0.06380895525217056, 0.25576838850975037, 0.13345877826213837, -0.11373977363109589, 0.13722869753837585, 0.09769858419895172, 0.842377781867981, -0.022807084023952484, 0.20736142992973328, -8.04833780421177e-06, 0.09319425374269485, 0.07273910194635391, -0.6360824108123779, 0.01096539106220007, 0.1707991510629654, -0.2742569148540497, 0.22044003009796143, 0.13906200230121613, -0.16239944100379944, -0.18480806052684784, -0.029496507719159126, 0.054088179022073746, -0.21753324568271637, -0.1446240246295929, 0.4657484292984009, -0.16745686531066895, 0.035200998187065125, -0.2672748267650604, 0.03022056259214878, 0.3681010603904724, 0.11107839643955231, 0.4043717384338379, 0.4478495717048645, -0.04783258214592934, -0.10029815882444382, -0.034576188772916794, -0.058082036674022675, -0.0851602852344513, -0.26823171973228455, -0.07360492646694183, -0.1331489086151123, 0.007327243685722351, -0.07814496755599976, 0.07748325914144516, -0.10380927473306656, -0.18311730027198792, -0.027561835944652557, 0.04215700179338455, -0.1015557125210762, 0.06324052065610886, -0.03972562402486801, 0.05967089906334877, -0.10261555761098862, -0.27765265107154846, -0.15567171573638916, 0.1030142530798912, 0.37474456429481506, -0.18667642772197723, -0.1524510532617569, 0.2575157582759857, -0.19958439469337463, 0.45670250058174133, 0.5112523436546326, -0.1768556386232376, -0.10436148941516876, -0.2876732349395752, -0.09648909419775009, 0.06602340936660767, 0.3033970296382904, 0.09796102344989777, 0.11012566089630127, 0.02890220284461975, -0.16847816109657288, 0.011197741143405437, 0.004545450676232576, -0.06473153829574585, 0.27559152245521545, -0.009947596117854118, -0.20687922835350037, 0.38974815607070923, 0.21106936037540436, -0.00950245838612318, -0.18140195310115814, -0.09421782940626144, 0.06576301902532578, 0.20407503843307495, 0.16460242867469788, -0.29727619886398315, 0.27174288034439087, 0.22871604561805725, 0.06634612381458282, -0.10079798102378845, 0.019519103690981865, -0.05263621732592583, -0.08902526646852493, -0.30347099900245667, -0.17364723980426788, -0.24030400812625885, 0.20601020753383636, 0.3608807623386383, -0.053437575697898865, -0.5082834362983704, -0.01294858567416668, -0.0020251476671546698, 0.2907262444496155, -0.22692334651947021, -0.04275310039520264, 0.1933005303144455, -0.02622915431857109, -0.33856016397476196, 0.2141953408718109, 