{"version":"0.7.0","architecture":"SlimmableContainer","config":{"submodels":[{"max_value":0.5,"model":{"version":"0.7.0","metadata":{"date":{"year":2026,"month":4,"day":10,"hour":22,"minute":25,"second":55},"loudness":-24.256994247436523,"gain":0.8190637369193826},"architecture":"WaveNet","config":{"layers":[{"input_size":1,"condition_size":1,"head":{"out_channels":1,"kernel_size":16,"bias":true},"channels":3,"kernel_sizes":[6,6,6,6,6,6,6,6,6,6,6,6,6,6,15,15,6,6,6,6,6,6,6],"dilations":[1,3,7,17,41,101,239,1,3,7,17,41,101,239,1,13,1,3,7,17,41,101,239],"activation":[{"type":"LeakyReLU","negative_slope":0.01},{"type":"LeakyReLU","negative_slope":0.01},{"type":"LeakyReLU","negative_slope":0.01},{"type":"LeakyReLU","negative_slope":0.01},{"type":"LeakyReLU","negative_slope":0.01},{"type":"LeakyReLU","negative_slope":0.01},{"type":"LeakyReLU","negative_slope":0.01},{"type":"LeakyReLU","negative_slope":0.01},{"type":"LeakyReLU","negative_slope":0.01},{"type":"LeakyReLU","negative_slope":0.01},{"type":"LeakyReLU","negative_slope":0.01},{"type":"LeakyReLU","negative_slope":0.01},{"type":"LeakyReLU","negative_slope":0.01},{"type":"LeakyReLU","negative_slope":0.01},{"type":"LeakyReLU","negative_slope":0.01},{"type":"LeakyReLU","negative_slope":0.01},{"type":"LeakyReLU","negative_slope":0.01},{"type":"LeakyReLU","negative_slope":0.01},{"type":"LeakyReLU","negative_slope":0.01},{"type":"LeakyReLU","negative_slope":0.01},{"type":"LeakyReLU","negative_slope":0.01},{"type":"LeakyReLU","negative_slope":0.01},{"type":"LeakyReLU","negative_slope":0.01}],"bottleneck":3,"head1x1":{"active":false,"out_channels":1,"groups":1},"layer1x1":{"active":true,"groups":1},"groups_input":1,"groups_input_mixin":1,"conv_pre_film":{"active":false,"shift":true,"groups":1},"conv_post_film":{"active":false,"shift":true,"groups":1},"input_mixin_pre_film":{"active":false,"shift":true,"groups":1},"input_mixin_post_film":{"active":false,"shift":true,"groups":1},"activation_pre_film":{"active":false,"shift":true,"groups":1},"activation_post_film":{"active":false,"shift":true,"groups":1},"layer1x1_post_film":{"active":false,"shift":true,"groups":1},"head1x1_post_film":{"active":false,"shift":true,"groups":1},"gating_mode":["none","none","none","none","none","none","none","none","none","none","none","none","none","none","none","none","none","none","none","none","none","none","none"],"secondary_activation":[null,null,null,null,null,null,null,null,null,null,null,null,null,null,null,null,null,null,null,null,null,null,null],"slimmable":null}],"head":null,"head_scale":0.01},"weights":[0.376230388879776,0.4796854555606842,-0.9931497573852539,-0.08866017311811447,-0.20364722609519958,-0.32665175199508667,-0.054916515946388245,0.2877817749977112,0.14824321866035461,-0.08742545545101166,-0.2420710325241089,-0.37813952565193176,-0.11320969462394714,0.24198918044567108,0.13086986541748047,0.11605259031057358,0.348455011844635,0.5503106117248535,0.0709971934556961,-0.34723299741744995,-0.16766978800296783,0.04201323539018631,-0.06803574413061142,0.35741159319877625,0.42049843072891235,0.25870469212532043,0.17404334247112274,-0.04318707063794136,-0.10959191620349884,0.3508548438549042,0.43986913561820984,0.3325820863246918,0.1205216571688652,-0.0781342089176178,-0.013642949983477592,-0.6131483912467957,-0.7187062501907349,-0.3072470426559448,-0.20536626875400543,0.08834601938724518,-0.0126723637804389,-0.27309417724609375,-0.5623307228088379,-0.7285181879997253,-0.097899429500103,0.002657296834513545,0.056740641593933105,-0.17426815629005432,-0.641150712966919,-0.6827229857444763,0.04489565268158913,0.17055802047252655,0.16187509894371033,0.37722572684288025,0.8588696122169495,0.7325470447540283,0.1636858731508255,-0.0483325719833374,-0.1159859150648117,0.14928455650806427,0.40506255626678467,0.4058188498020172,-0.5390900373458862,0.7455375790596008,0.8238476514816284,-0.7410122752189636,-0.5074380040168762,-0.8914598226547241,0.7800419330596924,0.194777250289917,-0.00199788436293602,0.04590115696191788,0.21937653422355652,0.45053398609161377,0.39747124910354614,0.34406161308288574,0.2036537379026413,0.129047691822052,0.1509838104248047,-0.29098010063171387,-0.4689450263977051,0.14526133239269257,0.18950827419757843,-0.2505705654621124,0.03014705702662468,0.08070820569992065,0.16425536572933197,-0.04979492723941803,0.05864708870649338,-0.16223135590553284,0.1466631144285202,0.17899654805660248,0.24002355337142944,0.14758221805095673,-0.10956169664859772,0.20445616543293,0.17861486971378326,-0.03264272212982178,0.2655301094055176,-0.13201268017292023,0.09026685357093811,-0.08281758427619934,-0.12578503787517548,0.17978546023368835,-0.25677675008773804,-0.11595693975687027,-0.10912193357944489,-0.22583357989788055,0.048445187509059906,-0.05411811172962189,-0.3878529667854309,-0.16544465720653534,-0.2599097490310669,-0.0258217453956604,-0.07113832980394363,-0.01170092448592186,-0.11199534684419632,0.10834913700819016,0.13644804060459137,0.15663214027881622,0.19255830347537994,0.07129082083702087,-0.020031249150633812,0.28480908274650574,-0.10029644519090652,-0.01831316389143467,0.029123827815055847,-0.048358362168073654,0.0018702048109844327,-0.12870974838733673,-0.01520448736846447,0.10601247847080231,0.0793711245059967,0.42194893956184387,-0.2585618793964386,-0.3657047748565674,-0.33574342727661133,-0.0006287670112214983,0.2933520972728729,-0.3631376028060913,0.35734787583351135,0.5465570688247681,0.5894630551338196,-0.2591610848903656,-0.3181837201118469,-0.2184174507856369,0.30932965874671936,-0.08234698325395584,-0.12988176941871643,-0.3512522876262665,-0.235899418592453,-0.23242196440696716,0.3365359902381897,0.32294201850891113,0.21749019622802734,-0.01857919991016388,0.18403023481369019,-0.15411503612995148,-0.46914032101631165,-0.03197918087244034,0.05939106643199921,0.20272910594940186,0.015650173649191856,-0.0014075408689677715,-0.038224369287490845,-0.059868380427360535,-0.07184027135372162,-0.17797157168388367,-0.42624905705451965,-0.2741139531135559,0.4822559654712677,0.016716979444026947,0.16883119940757751,0.2599157691001892,0.004440647549927235,0.2488987296819687,-0.3708922564983368,-0.2345641553401947,0.1084902286529541,0.06153573840856552,0.35282906889915466,0.2896738350391388,0.08848120272159576,0.1105709820985794,0.18622952699661255,0.2635447382926941,0.017633851617574692,0.04254957661032677,-0.5667980909347534,-0.36579999327659607,0.04562501236796379,0.14010265469551086,-0.0521126389503479,0.02834344282746315,0.3578183650970459,0.2639743387699127,-0.15202131867408752,-0.14437097311019897,-0.20155926048755646,-0.08103185147047043,0.29469314217567444,0.4263787567615509,0.09354913979768753,-0.14350520074367523,0.8335868716239929,0.7370571494102478,-0.4380447268486023,0.44781550765037537,0.35730767250061035,0.6582552790641785,-0.29837164282798767,-0.1171003133058548,-0.6525477170944214,-0.35018911957740784,-0.16427184641361237,-0.5503919124603271,-0.31127771735191345,-0.23005226254463196,0.4228944480419159,-0.06007836014032364,0.24728988111019135,0.2917599380016327,0.31087204813957214,0.18619874119758606,-0.3945864737033844,-0.254481703042984,-0.2196471095085144,-0.23724521696567535,0.018731823191046715,0.006894940976053476,1.2827719449996948,0.11389442533254623,-0.07551518082618713,0.12796419858932495,0.08039888739585876,-0.20747587084770203,0.09942953288555145,-0.1901426911354065,-0.21893367171287537,-0.20794562995433807,0.08201439678668976,-0.01824796199798584,-0.6855528354644775,-0.07607223093509674,-0.016085371375083923,-0.32292190194129944,-0.1742962747812271,-0.08702705800533295,0.6131152510643005,-0.16978082060813904,-0.09095586836338043,0.19463695585727692,0.39900627732276917,0.24908097088336945,0.07006946206092834,0.10930359363555908,-0.07160287350416183,0.04789323732256889,-0.033527523279190063,0.013198776170611382,0.44053733348846436,0.16484300792217255,-0.025741050019860268,0.10285738110542297,0.08488000184297562,0.061531610786914825,-0.7784295678138733,0.053264934569597244,-0.003978305496275425,0.04794444516301155,-0.11046227812767029,-0.03135845437645912,-0.5117296576499939,0.0778731256723404,-0.16321061551570892,0.22898650169372559,0.052177220582962036,-0.6267886757850647,-0.8998758792877197,-0.22262164950370789,-0.3804142475128174,-0.7177069187164307,-0.4933186173439026,0.5756075978279114,0.737299919128418,0.6756869554519653,0.21125905215740204,0.27696049213409424,-0.11723912507295609,0.0443275161087513,-0.32364463806152344,0.10193484276533127,-0.02123674750328064,-0.22156712412834167,-0.09256649017333984,-0.061519868671894073,0.07679381221532822,-0.11908385902643204,-0.23992380499839783,0.0603233277797699,0.12005459517240524,-0.07852460443973541,0.2416137009859085,0.0729752629995346,0.06053287535905838,0.030118241906166077,-0.11406966298818588,-0.09651187807321548,-0.17890270054340363,0.015592259354889393,-0.20036675035953522,-0.11071669310331345,-0.03588663786649704,-0.11462768167257309,0.11429283022880554,0.14999370276927948,0.08484981209039688,0.24631986021995544,0.22431160509586334,0.6414845585823059,-0.6709712743759155,-0.017197182402014732,-0.10781493782997131,0.055763520300388336,0.2378772348165512,0.18981830775737762,0.17074717581272125,0.06324663013219833,0.045907046645879745,-0.06853128969669342,-0.09478552639484406,-0.16091351211071014,0.3958646357059479,0.08163661509752274,0.08013585954904556,0.10942909121513367,0.19804012775421143,0.4134938418865204,-0.2985607087612152,0.041257549077272415,0.06716903299093246,0.041634608060121536,0.09716133028268814,0.06257561594247818,-0.1251409947872162,0.010752517729997635,0.07158401608467102,0.1551203727722168,-0.1040956899523735,-0.10038156807422638,0.17529702186584473,-0.10135295242071152,0.021033182740211487,0.22679968178272247,-0.35782763361930847,0.6624277830123901,-0.3733064532279968,0.3260372579097748,-0.4668746888637543,-0.07823050767183304,-0.44068676233291626,-0.3220154345035553,-0.40588217973709106,0.06174904853105545,0.05933314934372902,0.04974918067455292,0.0002510238846298307,-0.06329067051410675,0.281625896692276,-0.02879503183066845,-0.03018973581492901,0.013455584645271301,0.07366766035556793,0.12229807674884796,-0.16096952557563782,0.06248180940747261,0.06243416294455528,0.027253421023488045,0.008571546524763107,-0.10087539255619049,-0.5843192934989929,-0.16409263014793396,0.005248728208243847,0.056039512157440186,-0.002494824817404151,0.01921403594315052,0.0358801893889904,0.03682667389512062,0.16090182960033417,0.18768738210201263,0.2034255862236023,0.4438486695289612,-0.1678362935781479,-0.16932524740695953,-0.02568644843995571,0.052574221044778824,0.025075655430555344,-0.005305328872054815,0.5447388887405396,0.03726516291499138,0.04559909924864769,-0.04497557133436203,-0.12382019311189651,0.12701459228992462,0.06037287414073944,-0.04484933987259865,-0.18580235540866852,-0.2793310880661011,-0.39154431223869324,-0.6953607201576233,0.24807524681091309,0.037337180227041245,0.05624845623970032,-0.01698126271367073,-0.10035715252161026,0.21165154874324799,-0.4622785747051239,-0.018456030637025833,-0.11945254355669022,0.3215269446372986,0.6285080909729004,-0.14637239277362823,-0.35409656167030334,-0.2442166805267334,0.1899956911802292,-0.16592341661453247,0.13881981372833252,0.49169838428497314,-0.3709622621536255,0.2572011351585388,-0.46079471707344055,0.3146809935569763,0.40126317739486694,0.18065014481544495,-0.32636821269989014,-0.12853582203388214,0.004118407145142555,-0.2270580381155014,-0.08841285109519958,-0.18099741637706757,-0.4942019581794739,-0.08773452788591385,-0.00025023467605933547,-0.15567927062511444,-0.08521988987922668,-0.20165985822677612,0.2815153896808624,-0.08007475733757019,9.892883826978505e-05,-0.1204923540353775,-0.018490685150027275,-0.08532251417636871,0.5262786746025085,0.016555873677134514,-0.1293368637561798,0.047659169882535934,-0.19501452147960663,-0.012627961114048958,-0.41393300890922546,0.008240044116973877,-0.1042928472161293,-0.040228214114904404,-0.13856565952301025,0.020741526037454605,0.10391349345445633,0.012351682409644127,-0.06714022904634476,0.05159098654985428,-0.1402939110994339,-0.0011908219894394279,0.3660711944103241,0.025493504479527473,0.07415925711393356,0.010210149921476841,0.130373015999794,-0.12285307794809341,0.13795872032642365,-0.04952967166900635,-0.014856593683362007,-0.056081339716911316,-0.08565550297498703,-0.11758536100387573,-0.3034937083721161,0.16001905500888824,0.009169462136924267,0.16005416214466095,0.07312192022800446,0.00824038591235876,0.08961767703294754,0.06170367822051048,0.0731998011469841,-0.09201028943061829,0.18893225491046906,-0.3430462181568146,0.011744461953639984,0.18560850620269775,-0.15652237832546234,-0.363802433013916,0.4650048017501831,0.49193987250328064,-0.21570514142513275,0.37684282660484314,0.31151777505874634,-0.1136852279305458,0.3256668448448181,-0.19461748003959656,0.17521007359027863,-0.229407399892807,-0.2616015374660492,-0.17542791366577148,-0.367916077375412,-0.20172792673110962,-0.5375657677650452,0.18175670504570007,0.0875105932354927,0.031909190118312836,-0.18400223553180695,-0.31170201301574707,-0.3968124985694885,-0.24426822364330292,-0.29666659235954285,-0.21963368356227875,0.13336555659770966,0.02952919341623783,0.31334468722343445,-0.15564560890197754,-0.03231083229184151,-0.3123890459537506,-0.07197526097297668,0.08063700795173645,0.3980295658111572,0.3960798382759094,0.17632482945919037,0.04680658131837845,-0.3032875061035156,-0.38378170132637024,-0.40718546509742737,-0.3386680781841278,0.11320595443248749,0.14681679010391235,-0.2585057020187378,-0.2913060188293457,-0.34333688020706177,-0.17408907413482666,-0.10869150608778,0.10857997834682465,-0.11353429406881332,0.041927091777324677,-0.3243994414806366,0.12235452979803085,-0.22990751266479492,-0.37429049611091614,-0.08595608174800873,-0.40908530354499817,0.2885086238384247,-0.3697211444377899,-0.10858191549777985,-0.2501021921634674,-0.19078627228736877,-0.3701658546924591,-0.12903010845184326,0.3692226707935333,0.05412200465798378,0.17741969227790833,0.4206594228744507,0.3695281744003296,-0.5453285574913025,0.4631481468677521,0.7040198445320129,0.596626341342926,0.6434373259544373,-0.036560043692588806,-0.379201740026474,-0.5625904202461243,0.4589186906814575,0.20860923826694489,-0.09051048010587692,-0.4968257248401642,0.12282872945070267,-0.06354348361492157,-0.12301060557365417,-0.06231860816478729,0.01750653050839901,-0.34050264954566956,-0.2916215658187866,-0.10481119900941849,-0.11920125782489777,-0.10541184991598129,-0.05183413624763489,0.2304004579782486,-0.0954720750451088,0.24877844750881195,0.01206293422728777,0.05930547043681145,0.22821174561977386,-0.25630834698677063,-0.41439300775527954,-0.060961298644542694,-0.10028279572725296,0.01834973879158497,0.12734472751617432,-0.6316388845443726,0.07062407582998276,-0.17542961239814758,-0.20931558310985565,-0.229273721575737,-0.16334028542041779,0.025957321748137474,-0.41510942578315735,0.07716534286737442,0.18828529119491577,0.005763527937233448,0.19186744093894958,-0.2952784597873688,0.038147564977407455,-0.02165764942765236,-0.007825423032045364,0.047773588448762894,-0.04071936383843422,0.17147961258888245,0.1430250108242035,-0.09160661697387695,-0.01029273308813572,-0.05707835406064987,0.06685177236795425,-0.023327644914388657,0.5652863383293152,-0.0010474611772224307,0.10842730849981308,0.10685357451438904,0.023188145831227303,0.03459480404853821,0.6700414419174194,0.18297655880451202,0.3730802536010742,-0.19375188648700714,-0.5550164580345154,-0.21565906703472137,-0.6637256741523743,-0.05300196632742882,-0.11514229327440262,0.5093843936920166,0.4257356822490692,0.4559052288532257,-0.7319710850715637,0.3716908395290375,-0.4461483657360077,-0.499467134475708,-0.3621175289154053,-0.05057017505168915,0.29435253143310547,0.025149933993816376,-0.07472970336675644,-0.12359245866537094,-0.23539666831493378,-0.43968576192855835,-0.3425999879837036,-0.11338557302951813,-0.18714174628257751,-0.1958005726337433,-0.126324862241745,0.0979405865073204,0.09532040357589722,-0.02181467041373253,0.1002473533153534,-0.026729535311460495,-0.11755917221307755,0.3456162214279175,-0.014410246163606644,-0.09916510432958603,-0.1406152993440628,-0.13364319503307343,-0.09128676354885101,-0.32670965790748596,-0.3185204565525055,-0.07491204142570496,-0.19569134712219238,-0.0698392316699028,0.10638576000928879,0.16590476036071777,0.3951621949672699,-0.01275937631726265,-0.13429376482963562,-0.0538942925632,-0.11224937438964844,-0.127243310213089,-0.6359902024269104,-0.1261029839515686,-0.09822677075862885,-0.05965955927968025,-0.10603952407836914,-0.27622905373573303,-0.3279034495353699,-0.1086781919002533,-0.05931787192821503,-0.04315001517534256,0.045995984226465225,0.1442706435918808,0.7344267964363098,-0.20495882630348206,-0.056922100484371185,0.07157617807388306,-0.058706898242235184,0.038699593394994736,-0.04542391374707222,-0.017084315419197083,0.4653303325176239,-0.1400441974401474,-0.37278833985328674,0.0221016313880682,0.7062830328941345,-0.37920111417770386,-0.6281462907791138,-0.3558729290962219,0.8238890767097473,0.2757098078727722,-0.08084389567375183,-0.10303062945604324,0.7028180956840515,0.6963363289833069,0.6122496724128723,-0.3541184365749359,-0.17620833218097687,-0.06167520210146904,0.022825069725513458,0.06890527904033661,0.054361723363399506,-0.1275513619184494,0.5035001635551453,-0.07059924304485321,0.07551559805870056,0.17884427309036255,0.19186025857925415,0.00014218325668480247,-0.3727150857448578,0.10647760331630707,0.34753620624542236,0.16840419173240662,0.05672904849052429,0.02250008098781109,-0.6726962924003601,0.12975770235061646,-0.0026264432817697525,-0.06281279772520065,0.055650386959314346,0.2297864556312561,-0.04575996845960617,0.12390182167291641,0.007978790439665318,-0.08445897698402405,0.06926855444908142,0.1780548393726349,0.8208364248275757,-0.039927564561367035,-0.1509445607662201,-0.1590016782283783,-0.12823079526424408,0.04976817965507507,0.4337450861930847,-0.022704895585775375,0.13876937329769135,0.2904609441757202,0.08436494320631027,0.3719030022621155,-0.019295617938041687,-0.25716084241867065,-0.3120745122432709,0.02633208967745304,-0.27016541361808777,-0.20207838714122772,0.17575007677078247,0.04532548040151596,0.15426430106163025,0.11940138787031174,0.13148343563079834,-0.051030099391937256,0.648986279964447,0.47012561559677124,-0.12095817178487778,0.2545376420021057,-0.1046331524848938,0.9454699754714966,-0.05392356589436531,0.5138276219367981,-0.165294349193573,-0.5157241821289062,-0.6125127673149109,-1.0106281042099,-0.05827098339796066,0.35868239402770996,-0.48278072476387024,-0.4038645029067993,0.4581851661205292,0.3814266622066498,-0.2049439400434494,0.0016585795674473047,0.010290606878697872,0.0012355070794001222,0.021246865391731262,0.06496971100568771,-0.02911609224975109,0.023105844855308533,0.031426385045051575,0.02964227832853794,0.05760727822780609,0.07582234591245651,0.5300726890563965,0.11041919142007828,0.03737609460949898,0.029741618782281876,0.019432155415415764,-0.19279411435127258,0.08190368115901947,0.06382075697183609,-0.059607576578855515,-0.06510309875011444,-0.044733647257089615,0.027152635157108307,0.14302903413772583,0.05956950783729553,-0.011340884491801262,0.022730275988578796,0.03512836620211601,0.05279653146862984,0.16903634369373322,0.1724296659231186,0.12376842647790909,0.2725621163845062,0.17218022048473358,0.17338450253009796,-0.2942347824573517,-0.059545982629060745,0.03408214449882507,-0.015164798125624657,-0.006610594689846039,0.028592586517333984,0.15198500454425812,-0.15587234497070312,-0.08686058968305588,-0.10746852308511734,-0.10426918417215347,-0.172983780503273,-0.07827157527208328,-0.18883101642131805,-0.319591760635376,-0.2982931137084961,-0.28507691621780396,-0.4679116904735565,0.6126899123191833,0.26939353346824646,0.21043607592582703,0.4933830797672272,0.17854121327400208,-0.5845384001731873,-0.10409820824861526,-0.9177916049957275,-0.19263096153736115,-0.13550423085689545,0.2603166997432709,-0.5597549080848694,0.5564903616905212,0.0480756014585495,0.14959663152694702,-0.5781329274177551,0.47431227564811707,-0.02410038933157921,0.11125142872333527,-0.0571913905441761,0.0050394353456795216,-0.009007434360682964,-0.015581075102090836,-0.02664473094046116,1.0496820211410522,-0.09407520294189453,0.018216989934444427,-0.021801915019750595,-0.02609197609126568,-0.005307755433022976,-1.136022925376892,0.2240399867296219,0.10876508802175522,0.16053979098796844,0.20211084187030792,0.43151694536209106,-0.3948567807674408,-0.07416169345378876,0.027671903371810913,-0.032405853271484375,0.08190838992595673,0.09800629317760468,-0.0274080578237772,-0.18031376600265503,-0.0006847280892543495,0.1286400854587555,0.3021075129508972,-0.024909628555178642,-0.2594326436519623,0.0757736936211586,-0.08806373924016953,-0.11229056864976883,0.3133805990219116,0.43966397643089294,-0.35392245650291443,-0.07124847918748856,0.006242590490728617,-0.012313897721469402,-0.025508539751172066,-0.0381791926920414,1.1878718137741089,-0.12152767181396484,0.024848412722349167,-0.02945239655673504,-0.04022346809506416,-0.008464949205517769,-0.9080482125282288,0.290725439786911,0.11885498464107513,0.19387753307819366,0.21961598098278046,0.5188385844230652,-0.45678260922431946,-0.17061537504196167,0.0551929771900177,0.2586580514907837,0.3231118619441986,-0.25120237469673157,0.43047523498535156,-1.2624369859695435,-0.5663343071937561,0.5471103191375732,1.941110610961914,-0.16076962649822235,-1.6246789693832397,0.22211943566799164,-0.3957993984222412,-0.18626412749290466,0.30124515295028687,0.036221977323293686,0.7461056709289551,0.06727123260498047,0.0975051075220108,0.11665739119052887,0.148419588804245,0.09665456414222717,-0.7745623588562012,-0.06122908368706703,0.2017258107662201,-0.08796258270740509,0.32259154319763184,-0.00897506345063448,-0.33687886595726013,-0.0168102215975523,-0.1267034411430359,-0.05451640859246254,-0.05332741513848305,0.3211730122566223,-0.21941159665584564,-0.025845453143119812,-0.01663973368704319,-0.015244664624333382,-0.005937452893704176,-0.015490749850869179,0.5315950512886047,-0.03686043620109558,-0.000942547747399658,-0.02707047574222088,0.007396702188998461,-0.009106693789362907,-1.5038566589355469,0.04870833829045296,0.01191999763250351,0.04328653961420059,-0.01582454703748226,0.04987671226263046,-0.13968592882156372,0.013080830685794353,0.07927986979484558,0.08247461915016174,0.12614706158638,-0.0516328439116478,-0.16671082377433777,-0.19262470304965973,0.28377506136894226,-0.19823969900608063,0.3687994182109833,-0.07465169578790665,0.0135061489418149,0.1861627995967865,-0.02453596144914627,-0.07865849882364273,0.2265869677066803,-0.2753739058971405,0.005758796818554401,-0.009295688010752201,-0.2431628704071045,0.11623971909284592,-0.06714898347854614,-0.11285576969385147,-0.28751733899116516,0.35288169980049133,0.18075479567050934,-0.8720369935035706,-0.031996894627809525,-1.5343016386032104,-0.1584620177745819,0.5735472440719604,-0.2521297335624695,-0.44567573070526123,-0.09406299889087677,0.568913459777832,0.6419444680213928,-0.09617289155721664,0.14963728189468384,0.0033655285369604826,-0.013655757531523705,-0.031092844903469086,0.08185770362615585,0.018300147727131844,-0.15112681686878204,-0.04664887115359306,-0.045942459255456924,-0.15873658657073975,-0.06321582198143005,0.009242457337677479,-0.0795406773686409,0.627721905708313,-0.2555089294910431,0.013443268835544586,0.087531179189682,0.12383680045604706,0.19502079486846924,0.3947561979293823,-0.2703121602535248,-0.20177435874938965,-0.01388478558510542,0.10790751129388809,0.0054113478399813175,0.17846164107322693,-0.2253793179988861,0.05084525793790817,-0.0651194229722023,0.012905838899314404,-0.057699769735336304,-0.03720603510737419,0.0792262852191925,0.1149086281657219,0.1752462536096573,0.025856124237179756,-0.20002393424510956,-0.10672400891780853,-0.12408039718866348,-0.07217730581760406,0.07897736132144928,0.09978741407394409,0.08607941120862961,0.302493155002594,-0.0041635166853666306,0.00901542417705059,-0.2261466383934021,-0.03579898923635483,0.8131693005561829,0.4475567638874054,0.14057686924934387,0.01106703095138073,-0.1617683619260788,-0.018733611330389977,0.07438714057207108,-0.07631667703390121,-0.03993789106607437,0.04406585171818733,-0.29406726360321045,0.15544186532497406,0.1627514809370041,-0.3515227437019348,-0.2760516107082367,-1.3959659337997437,-0.9732130765914917,0.11656593531370163,0.020857490599155426,-0.12810346484184265,-0.030694009736180305,-0.13951437175273895,-0.08900165557861328,0.06455057859420776,-0.05501352995634079,-0.08265974372625351,0.33042025566101074,0.22757889330387115,0.11174924671649933,-0.05285768583416939,-0.4243590533733368,-0.10441534221172333,0.16848869621753693,0.250524640083313,0.24655432999134064,0.2287185937166214,0.14974230527877808,0.06324715912342072,0.12153659015893936,-0.05409029498696327,-0.16637463867664337,0.22087258100509644,-0.027770454064011574,-0.008136589080095291,-0.08402931690216064,0.08552085608243942,0.11473068594932556,0.16225814819335938,0.07309532910585403,0.10287340730428696,0.14767314493656158,0.0805944949388504,0.01523851603269577,0.13916519284248352,-0.1268114447593689,-0.20409226417541504,-0.19387677311897278,-0.029133638367056847,-0.019906330853700638,0.005947277881205082,0.3791627287864685,-0.03797249123454094,-0.020202478393912315,-0.23881922662258148,-0.18842080235481262,-0.042458854615688324,-0.035368967801332474,0.1452547311782837,-0.21050015091896057,-0.28238946199417114,-0.349941611289978,0.06735268980264664,0.054438259452581406,0.11000534147024155,-0.0016420360188931227,0.07666823267936707,0.016982244327664375,0.0031007160432636738,0.05187457427382469,-0.03704315051436424,0.09868396818637848,0.17577938735485077,0.12401271611452103,0.11721596121788025,0.355928897857666,0.40691426396369934,-0.4175611436367035,0.052326153963804245,0.46536582708358765,-0.23876085877418518,-7.434505096171051e-05,-0.07787679880857468,-0.6795486807823181,0.18943162262439728,0.3747251331806183,-0.1428225040435791,-0.41243976354599,0.0644235908985138,-0.13122966885566711,0.7044397592544556,-0.43618136644363403,-0.13226108253002167,0.6370840072631836,1.0364235639572144,0.29082193970680237,0.14697395265102386,0.031249236315488815,0.04200638458132744,0.007710559759289026,0.02249201200902462,-0.030334200710058212,-0.025609416887164116,-0.18654081225395203,-0.171710804104805,-0.12707734107971191,-0.1454000622034073,-0.16183945536613464,-0.14539256691932678,-0.1692270040512085,0.25250130891799927,0.18108497560024261,0.11769687384366989,0.1474546492099762,0.10163319110870361,0.07693435996770859,0.10026343911886215,0.12343721836805344,0.22051967680454254,0.23844291269779205,-0.14638935029506683,-0.11676379293203354,-0.13899962604045868,-0.019058067351579666,0.1324400156736374,0.028797611594200134,0.05489807575941086,0.08336639404296875,0.09681738913059235,0.05200066417455673,0.04732989892363548,0.06820384413003922,0.017862632870674133,0.07794716209173203,-0.20290087163448334,-0.22965410351753235,-0.12624795734882355,-0.17206594347953796,-0.12316121906042099,-0.25355204939842224,0.10808157920837402,0.037811506539583206,0.10509683191776276,0.08158235996961594,0.028638677671551704,-0.007285943254828453,-0.0318908654153347,0.02993466705083847,-0.12699997425079346,-0.13841746747493744,-0.03378073126077652,-0.1713581085205078,-0.15311923623085022,-0.15706755220890045,0.5770990252494812,0.10655408352613449,0.10430126637220383,0.08640588819980621,0.07983747869729996,0.10346357524394989,0.10753124207258224,0.05845246836543083,0.1215938851237297,-0.006844293791800737,-0.18600061535835266,0.2921540141105652,-0.10372335463762283,0.14501382410526276,-0.12121729552745819,0.5224872827529907,0.056607574224472046,-0.03206620737910271,0.007782074622809887,0.06848909705877304,0.0300140380859375,0.08449019491672516,0.007165357004851103,0.13972212374210358,0.1581316739320755,-0.10051584243774414,0.13834267854690552,0.11345814168453217,0.07495882362127304,-0.07768052816390991,0.03286578878760338,0.2310943603515625,0.19927924871444702,0.08204802870750427,0.06219768151640892,0.1899835169315338,0.19522394239902496,0.1317179799079895,0.01060070563107729,0.15676140785217285,0.1326468586921692,0.2225521355867386,0.10138263553380966,0.16085360944271088,0.17387592792510986,0.1372985988855362,-0.09257403761148453,0.034657057374715805,0.03803867846727371,0.033334024250507355,0.14483103156089783,0.10713132470846176,0.08132941275835037,0.09961867332458496,0.17009125649929047,0.3842523992061615,0.02972126565873623,-0.0034829669166356325,0.27700838446617126,-0.005592301953583956,-0.0788511261343956,-0.07942970097064972,0.07209987193346024,0.06126990541815758,-0.10211282968521118,0.07723929733037949,-0.023471953347325325,0.053128164261579514,0.07762369513511658,0.08486741036176682,0.3605852723121643,-0.14029641449451447,-0.22678273916244507,-0.07668020576238632,-0.06504295766353607,0.28539586067199707,0.14646637439727783,0.6052812933921814,0.6513321995735168,-0.4192489981651306,0.3350406885147095,0.29293450713157654,-0.22314779460430145,-0.7381492257118225,-0.14736907184123993,-0.8293951153755188,0.16837948560714722,0.3671325147151947,0.3348727822303772,-0.16901946067810059,-0.4801400601863861,-0.1339927613735199,0.3411169946193695,0.0708545595407486,-0.015588673762977123,0.0009276702185161412,-0.09791768342256546,0.06252707540988922,0.17015790939331055,0.2444263994693756,0.11740651726722717,-0.10074067860841751,0.0353037491440773,0.010542361065745354,-0.30851542949676514,-0.384424090385437,0.07468906044960022,0.02678910456597805,-0.06999197602272034,-0.06519052386283875,-0.0015377375530079007,-0.3297521770000458,-0.18083146214485168,0.08868470788002014,0.05111950263381004,0.129912331700325,0.26351484656333923,0.0781189426779747,0.01917029730975628,0.08881882578134537,0.18658949434757233,-0.0029298141598701477,-0.11408743262290955,0.28426527976989746,0.22886282205581665,0.1368609219789505,0.22490158677101135,0.006604494992643595,0.1535220742225647,-0.01830768957734108,-0.04997745901346207,-0.18286067247390747,0.1766754686832428,0.1166318878531456,-0.08930502831935883,-0.03832127898931503,-0.04641180485486984,0.10881296545267105,0.08370261639356613,-0.02058218978345394,0.1382281482219696,-0.025287827476859093,-0.2794524133205414,0.08280588686466217,0.04582745581865311,0.17207826673984528,0.3201221823692322,-0.18157750368118286,-0.01794101856648922,-0.10341853648424149,0.4816591143608093,-0.06434853374958038,-0.03631739318370819,0.3512476980686188,-0.5923675298690796,-0.496478796005249,0.2050512433052063,0.5274345278739929,-0.6345739364624023,-0.08611808717250824,0.0827522873878479,-0.012808977626264095,0.8620845079421997,-0.36243703961372375,-0.12991856038570404,0.7234511971473694,0.23392923176288605,0.1845937967300415,0.21419855952262878,0.2027253955602646,0.29660123586654663,0.14936509728431702,0.06033429130911827,0.03639936447143555,0.1599302887916565,0.213388592004776,0.1399267464876175,0.22353556752204895,0.05152743309736252,-0.004403019789606333,0.09207198768854141,0.10201223194599152,-0.0030335476621985435,-0.11835804581642151,-0.17578621208667755,0.03862585127353668,0.28172242641448975,-0.0704512968659401,-0.06282708793878555,0.06592565774917603,0.11409427225589752,0.27979230880737305,-0.4687802791595459,-0.037284839898347855,0.03325521573424339,0.10091572999954224,0.12497923523187637,0.10334297269582748,-0.4195934236049652,0.04828132316470146,0.08362723141908646,-0.06140156462788582,-0.03862271457910538,-0.22005601227283478,-0.17252670228481293,-0.02670268714427948,-0.06462261080741882,-0.4206867814064026,0.2507788836956024,0.016109080985188484,0.013040542602539062,-0.1012958511710167,-0.23054009675979614,-0.5858783721923828,0.2034999132156372,-0.43405935168266296,0.21267154812812805,0.12919573485851288,0.04434679076075554,0.4383049011230469,-0.03739168122410774,-0.024860117584466934,0.5664914846420288,0.11861536651849747,0.1634320765733719,0.17202234268188477,-0.06390545517206192,0.25229865312576294,0.37045347690582275,0.5601538419723511,-0.06367331743240356,0.15608397126197815,-0.4892720580101013,0.4017027020454407,-0.283849835395813,-0.5553306341171265,0.31695476174354553,0.7592579126358032,-0.08608019351959229,-0.13199126720428467,0.2104850560426712,0.11477068066596985,-0.09139943867921829,-0.0248604454100132,0.20410317182540894,0.3223312199115753,0.32166898250579834,0.22812065482139587,0.19217555224895477,-0.027095701545476913,0.12800708413124084,0.33826300501823425,0.24017077684402466,0.2627559304237366,-0.3013491928577423,-0.031521257013082504,0.17412453889846802,0.21610066294670105,0.17771382629871368,0.18890520930290222,-0.001024197437800467,-0.004660222679376602,0.2029348611831665,0.22783330082893372,0.05605298653244972,0.11482682824134827,0.18441632390022278,0.41030555963516235,-0.4659179449081421,-0.1899811178445816,-0.29515910148620605,-0.22745531797409058,-0.17279207706451416,0.1540241539478302,-0.34437090158462524,-0.1669265180826187,-0.11250191926956177,0.07625190168619156,0.012576322071254253,0.2230287343263626,-0.1698784977197647,-0.02866341732442379,0.06871319562196732,-0.10577907413244247,0.048259515315294266,0.29933181405067444,0.15891745686531067,0.12043581157922745,0.3540785312652588,-0.0011316722957417369,0.11151421070098877,-0.13533154129981995,0.11943923681974411,-0.03692759573459625,0.11009274423122406,0.19019809365272522,0.19273194670677185,0.5476312637329102,-0.03723848611116409,0.010303616523742676,-0.8959482908248901,0.6250075101852417,0.45702528953552246,-0.6797457337379456,-0.09288010001182556,-0.4266994595527649,-0.43698105216026306,-0.003958319313824177,0.10618169605731964,1.1714271306991577,-0.17734433710575104,-0.041720014065504074,-0.23839345574378967,0.001108602387830615,-0.10182049125432968,0.06216970086097717,-0.23977109789848328,0.04749659076333046,-0.08158229291439056,-0.1961812525987625,0.0030779445078223944,0.39959606528282166,0.049519579857587814,0.11760441958904266,0.09281480312347412,0.17185963690280914,0.28930699825286865,-0.07441935688257217,-0.16461165249347687,-0.024606455117464066,0.08433128148317337,0.14832724630832672,0.26893872022628784,-0.23467011749744415,-0.3094615340232849,0.03404818847775459,-0.10542456060647964,-0.08924872428178787,0.030360523611307144,0.2680543065071106,0.01542555633932352,-0.040293481200933456,-0.09550783783197403,-0.12958750128746033,-0.1325140744447708,0.19171850383281708,-0.13690926134586334,-0.2637896239757538,-0.23699359595775604,0.13034939765930176,-0.14085303246974945,0.25319904088974,-0.06693634390830994,0.22226884961128235,0.22775627672672272,0.08323949575424194,0.3658055067062378,-0.25878846645355225,0.11786340922117233,0.30340561270713806,0.08196031302213669,0.20193704962730408,0.38060715794563293,-0.251569002866745,0.5447379946708679,-0.09838972985744476,0.1493542194366455,-0.012980964034795761,0.05566813424229622,0.06635630875825882,-0.3370385766029358,0.5200897455215454,-0.2770208418369293,-1.0401703119277954,-0.08683263510465622,0.6048088669776917,0.7732120752334595,-0.5859247446060181,0.09521309286355972,0.0014757246244698763,0.022827045992016792,0.808140218257904,-0.03148430213332176,-0.1534416228532791,-0.06904938071966171,0.015716765075922012,0.15424703061580658,0.2841149866580963,0.1556934416294098,-0.1746043562889099,-0.19076219201087952,-0.158830925822258,-0.016761209815740585,0.0024880762211978436,-0.12555094063282013,0.11220565438270569,0.06406652927398682,-0.05011462792754173,-0.1740044355392456,0.09164469689130783,0.052939631044864655,-0.04509798064827919,-0.1323184221982956,-0.061901453882455826,-0.17836201190948486,0.6779797673225403,0.045282330363988876,0.048536449670791626,-0.238432377576828,-0.1985333114862442,0.555916965007782,-0.1850683093070984,-0.01421135850250721,0.0006301426328718662,-0.012340779416263103,0.06529992818832397,0.5234585404396057,0.7979679107666016,-0.07025494426488876,-0.04682668671011925,-0.17267414927482605,-0.217621847987175,-0.08841992169618607,-0.2781510651111603,-0.39892545342445374,-0.28337499499320984,0.08419633656740189,0.4039750397205353,0.25924938917160034,-0.6080072522163391,-0.021186329424381256,0.11678730696439743,0.09429799765348434,0.10453291237354279,-0.008873000741004944,0.3882145285606384,-0.10484705865383148,0.26317423582077026,0.30709224939346313,-0.13170631229877472,-0.09789266437292099,0.07994235306978226,-0.5602207183837891,-0.33874472975730896,0.5151415467262268,0.7206116318702698,0.34541377425193787,0.5408724546432495,-0.42808669805526733,0.25119173526763916,-0.2010507732629776,0.01410609483718872,-0.09486044198274612,0.7011814117431641,0.12114330381155014,0.011110381223261356,-0.21844585239887238,0.10451953858137131,0.33786746859550476,-0.1039043441414833,-0.09044931828975677,-0.05416889488697052,0.16441281139850616,0.1670617312192917,0.15882399678230286,-0.15592919290065765,0.15629974007606506,0.04013781249523163,0.04926416650414467,-0.1370846927165985,0.015751896426081657,0.3643229007720947,-0.050973400473594666,0.046681810170412064,-0.042547207325696945,-0.02261877804994583,0.02413676120340824,0.14556540548801422,-0.29110854864120483,0.25804492831230164,0.19911856949329376,-0.17114785313606262,-0.050310660153627396,0.15544629096984863,0.28714829683303833,-0.17002172768115997,-0.0819462314248085,0.10204853862524033,0.00891482550650835,0.6710180044174194,-0.024556230753660202,0.06522221863269806,0.22832734882831573,0.014085891656577587,-0.10054461658000946,0.00765085406601429,0.20714867115020752,0.29752612113952637,0.06656969338655472,-0.15672935545444489,0.1517758071422577,0.1472986936569214,-0.12483511865139008,0.13859213888645172,-0.03750736266374588,0.04798527806997299,-0.10996156185865402,-0.199933260679245,0.4166752099990845,0.3404219150543213,0.05169961601495743,-0.12226696312427521,-0.06887919455766678,0.05127953365445137,-0.013555921614170074,0.6237746477127075,-0.0541098527610302,-0.9857949018478394,1.3006649017333984,0.3358539640903473,0.09099365770816803,-0.8557097911834717,-0.29101911187171936,-0.07918767631053925,-0.05635456368327141,0.17513765394687653,0.09673657268285751,0.0018028615741059184,-0.02759418822824955,0.14323748648166656,-0.09135955572128296,-0.41935959458351135,0.021453330293297768,-0.07084810733795166,0.19760195910930634,-0.30169859528541565,0.459502637386322,-0.17928488552570343,-0.1873871386051178,0.1577368527650833,-0.3756364583969116,0.29039695858955383,-0.31712469458580017,0.2787350118160248,0.03170492872595787,-0.0006353550124913454,-0.09043824672698975,-0.032545313239097595,0.048175353556871414,-0.09428102523088455,0.018236301839351654,-0.008844302967190742,0.09291796386241913,-0.04003848508000374,0.10398195683956146,0.20461270213127136,-0.10899610817432404,0.01231375802308321,-0.11461693793535233,0.10583733022212982,-0.09910289943218231,1.0799769163131714,-0.1224493607878685,-0.008540208451449871,0.05826941505074501,-0.13475050032138824,0.15292930603027344,0.43273627758026123,-0.011206344701349735,0.09604059904813766,-0.22257742285728455,0.34651216864585876,-0.5161488056182861,0.19183479249477386,0.2518937289714813,-0.12484782934188843,0.4699016809463501,-0.25219666957855225,0.39937812089920044,-0.2952156960964203,0.024624375626444817,0.16108031570911407,0.178705096244812,-0.03609071671962738,-0.008092822507023811,0.15051522850990295,0.4557090103626251,-0.4065808057785034,0.2948029339313507,0.28955864906311035,0.4082295894622803,0.1446574628353119,0.31474176049232483,0.4563954174518585,0.1137242540717125,0.19630929827690125,-0.45144981145858765,-0.15486256778240204,-0.01958775892853737,-0.03999117761850357,-0.04014734551310539,-0.03208382427692413,-0.02170490473508835,-0.013512696139514446,-0.009591869078576565,-0.007314680609852076,-0.016272978857159615,-0.05492321029305458,-0.08733406662940979,-0.08205056190490723,-0.05655476450920105,-0.03241370618343353,-0.015177351422607899,-0.002812973689287901,0.009974636137485504,0.008057787083089352,-0.022713052108883858,-0.07773664593696594,-0.10399594157934189,-0.07950232177972794,-0.07933776080608368,-0.11655844748020172,-0.09494414180517197,0.03582121059298515,0.1303924322128296,0.1204281747341156,0.06999291479587555,0.0185757577419281,-0.01895492896437645,-0.01845901645720005,0.020338149741292,0.047044169157743454,0.052562449127435684,0.029591437429189682,0.01739516854286194,0.020830826833844185,0.016348689794540405,0.011531420052051544,0.03181159868836403,0.06776230037212372,0.06994156539440155,0.045128632336854935,0.023739028722047806,0.01740790158510208,0.00525592640042305,-0.001767192268744111,-0.09009681642055511,0.009999999776482582],"sample_rate":48000}},{"max_value":1.0,"model":{"version":"0.7.0","metadata":{"date":{"year":2026,"month":4,"day":10,"hour":5,"minute":17,"second":51},"loudness":-24.51380157470703,"gain":0.8608049277445574},"architecture":"WaveNet","config":{"layers":[{"input_size":1,"condition_size":1,"head":{"out_channels":1,"kernel_size":16,"bias":true},"channels":8,"kernel_sizes":[6,6,6,6,6,6,6,6,6,6,6,6,6,6,15,15,6,6,6,6,6,6,6],"dilations":[1,3,7,17,41,101,239,1,3,7,17,41,101,239,1,13,1,3,7,17,41,101,239],"activation":[{"type":"LeakyReLU","negative_slope":0.01},{"type":"LeakyReLU","negative_slope":0.01},{"type":"LeakyReLU","negative_slope":0.01},{"type":"LeakyReLU","negative_slope":0.01},{"type":"LeakyReLU","negative_slope":0.01},{"type":"LeakyReLU","negative_slope":0.01},{"type":"LeakyReLU","negative_slope":0.01},{"type":"LeakyReLU","negative_slope":0.01},{"type":"LeakyReLU","negative_slope":0.01},{"type":"LeakyReLU","negative_slope":0.01},{"type":"LeakyReLU","negative_slope":0.01},{"type":"LeakyReLU","negative_slope":0.01},{"type":"LeakyReLU","negative_slope":0.01},{"type":"LeakyReLU","negative_slope":0.01},{"type":"LeakyReLU","negative_slope":0.01},{"type":"LeakyReLU","negative_slope":0.01},{"type":"LeakyReLU","negative_slope":0.01},{"type":"LeakyReLU","negative_slope":0.01},{"type":"LeakyReLU","negative_slope":0.01},{"type":"LeakyReLU","negative_slope":0.01},{"type":"LeakyReLU","negative_slope":0.01},{"type":"LeakyReLU","negative_slope":0.01},{"type":"LeakyReLU","negative_slope":0.01}],"bottleneck":8,"head1x1":{"active":false,"out_channels":1,"groups":1},"layer1x1":{"active":true,"groups":1},"groups_input":1,"groups_input_mixin":1,"conv_pre_film":{"active":false,"shift":true,"groups":1},"conv_post_film":{"active":false,"shift":true,"groups":1},"input_mixin_pre_film":{"active":false,"shift":true,"groups":1},"input_mixin_post_film":{"active":false,"shift":true,"groups":1},"activation_pre_film":{"active":false,"shift":true,"groups":1},"activation_post_film":{"active":false,"shift":true,"groups":1},"layer1x1_post_film":{"active":false,"shift":true,"groups":1},"head1x1_post_film":{"active":false,"shift":true,"groups":1},"gating_mode":["none","none","none","none","none","none","none","none","none","none","none","none","none","none","none","none","none","none","none","none","none","none","none"],"secondary_activation":[null,null,null,null,null,null,null,null,null,null,null,null,null,null,null,null,null,null,null,null,null,null,null],"slimmable":null}],"head":null,"head_scale":0.01},"weights":[-0.23031067848205566,0.7155481576919556,-1.2068792581558228,-0.6937645673751831,-0.49671506881713867,0.2184872329235077,-0.2886204123497009,0.7090979814529419,-0.04210279881954193,-0.03848830983042717,-0.05643603950738907,-0.056407324969768524,-0.0803547203540802,-0.008970117196440697,0.11283495277166367,0.1155330166220665,0.15274253487586975,0.21460026502609253,0.1866864264011383,0.06130315363407135,-0.15533705055713654,-0.11953360587358475,-0.20290733873844147,-0.24745191633701324,-0.2875846028327942,-0.11442757397890091,-0.10458067059516907,-0.156338632106781,-0.1755531132221222,-0.22837425768375397,-0.23641802370548248,-0.055026158690452576,-0.09455548226833344,-0.0868026465177536,-0.11463246494531631,-0.1495397984981537,-0.15878954529762268,-0.02894132025539875,0.044363051652908325,0.041248004883527756,0.057200971990823746,0.057110223919153214,0.0810825377702713,0.007340818177908659,-0.0523599311709404,-0.04834597185254097,-0.06692102551460266,-0.07378361374139786,-0.09600076079368591,-0.012937302701175213,0.14536359906196594,0.1480736881494522,0.15803273022174835,0.20821820199489594,0.23093226552009583,0.057511866092681885,0.004762033931910992,0.025872882455587387,0.04112699627876282,0.07913459092378616,-0.0706958994269371,-0.061213988810777664,-0.066705122590065,-0.08548981696367264,-0.14962610602378845,-0.19984427094459534,0.26620474457740784,0.19353541731834412,0.14095710217952728,0.16961151361465454,0.22372543811798096,0.24487465620040894,-0.42493876814842224,-0.2589101493358612,0.09186329692602158,0.11462463438510895,0.1749752014875412,0.18897254765033722,-0.29242679476737976,-0.2090066820383072,0.026907633990049362,0.06520376354455948,0.1064843237400055,0.15330418944358826,-0.1732698380947113,-0.13804174959659576,-0.006298431195318699,-0.026638494804501534,-0.0413009412586689,-0.07780609279870987,0.06856397539377213,0.05865705758333206,0.009148960001766682,0.03391548618674278,0.0546078160405159,0.10026504844427109,-0.09379880875349045,-0.08107331395149231,-0.07962504029273987,-0.10172860324382782,-0.14635854959487915,-0.1892867237329483,0.27056795358657837,0.19246499240398407,-0.029679737985134125,-0.013448069803416729,-0.004028864670544863,-0.011272832751274109,-0.006238274741917849,0.03051622398197651,0.08808200061321259,0.036516763269901276,0.007231893017888069,0.03338899090886116,0.013273531571030617,-0.10477497428655624,-0.14367713034152985,-0.05801933631300926,-0.011667546816170216,-0.054853636771440506,-0.019792238250374794,0.1768091320991516,-0.08679123967885971,-0.03598499670624733,-0.00715423421934247,-0.03277455270290375,-0.013051529414951801,0.10279706120491028,-0.0618012435734272,-0.026547523215413094,-0.005641687661409378,-0.023371152579784393,-0.010360650718212128,0.0714770257472992,0.028327859938144684,0.012883317656815052,0.0040008812211453915,0.010783510282635689,0.00602452177554369,-0.02877049893140793,-0.036891110241413116,-0.01651003770530224,-0.004315728787332773,-0.013936750590801239,-0.0072337305173277855,0.03967589512467384,0.08729253709316254,0.03622060269117355,0.007183184381574392,0.033070359379053116,0.013189947232604027,-0.10372550040483475,0.062402550131082535,0.05569067597389221,0.027915267273783684,-0.04032028838992119,-0.16976723074913025,0.06053328141570091,-0.13126246631145477,-0.09872961044311523,-0.028919534757733345,0.07218320667743683,0.32376420497894287,-0.1706872135400772,0.13254408538341522,0.09224828332662582,-0.020848331972956657,-0.07771709561347961,-0.5356202721595764,0.1479615718126297,0.19438032805919647,0.046274784952402115,0.08209434896707535,-0.06863218545913696,-0.4624820053577423,0.17378491163253784,0.08747858554124832,0.03684224933385849,0.050781719386577606,-0.10166522115468979,-0.3079160153865814,0.0887220948934555,-0.04615355283021927,-0.03984899818897247,-0.00835986528545618,0.039837565273046494,0.17727485299110413,-0.0704377293586731,0.06343066692352295,0.06274101138114929,0.032565731555223465,-0.030151406303048134,-0.22700423002243042,0.08351936936378479,-0.1724218726158142,-0.11241090297698975,-0.05367736890912056,0.11796789616346359,0.3492467999458313,-0.12120906263589859,-0.02959476411342621,-0.017723727971315384,-0.022367971017956734,0.008291278034448624,-0.007692682556807995,0.007493528071790934,0.09325984865427017,0.038760796189308167,0.044389285147190094,-0.02232135273516178,0.040381260216236115,-0.019031118601560593,-0.14531295001506805,-0.041005585342645645,-0.047451719641685486,0.042599327862262726,-0.08882869780063629,0.008654491975903511,-0.09151161462068558,-0.042510952800512314,-0.04156513139605522,0.03944331780076027,-0.03791659325361252,0.01855454407632351,-0.07034723460674286,-0.02504226565361023,-0.03710668161511421,0.014765496365725994,-0.025544187054038048,0.013424491509795189,0.028428534045815468,0.017010940238833427,0.02141558937728405,-0.00828452967107296,0.007326760794967413,-0.007491494528949261,-0.038683950901031494,-0.02095121704041958,-0.02630392462015152,0.009501563385128975,-0.011219143867492676,0.00930970162153244,0.0950983315706253,0.030961565673351288,0.0470784567296505,-0.03534470498561859,0.04897672310471535,-0.027720371261239052,0.048009540885686874,0.013000375591218472,0.02781071700155735,0.07559800893068314,0.1162174865603447,-0.025642503052949905,-0.13441143929958344,-0.06099935993552208,-0.16811831295490265,-0.19561336934566498,-0.28609275817871094,-0.013852771371603012,0.07340190559625626,0.09632504731416702,0.1875765323638916,0.367335706949234,0.35863277316093445,-0.0678148865699768,0.08789008855819702,0.06364024430513382,0.18056178092956543,0.2732931077480316,0.24332468211650848,-0.07012337446212769,0.048552222549915314,0.04226266220211983,0.05606336146593094,0.12959735095500946,0.24607959389686584,-0.0612785629928112,-0.05082545429468155,-0.011357977986335754,-0.03880097717046738,-0.1008797436952591,-0.1356760412454605,0.041243668645620346,0.0599677674472332,0.026157760992646217,0.04083532467484474,0.10375188291072845,0.1279952973127365,-0.03031161054968834,-0.14002905786037445,-0.017432447522878647,-0.09100359678268433,-0.24167239665985107,-0.28630852699279785,-0.017310217022895813,0.012759977951645851,0.011545946821570396,-0.0015145520446822047,-0.021682677790522575,-0.029711002483963966,-0.010386969894170761,-0.02000403217971325,-0.036828119307756424,-0.006291055586189032,0.10637544095516205,0.09189201891422272,-0.0041017960757017136,0.022200122475624084,0.06205790117383003,-0.007362319156527519,-0.2043517380952835,-0.13991937041282654,0.03899058327078819,0.017502300441265106,0.05941362306475639,0.0002305892267031595,-0.13184203207492828,-0.09658157080411911,0.020411241799592972,0.0136458370834589,0.027275877073407173,-0.0010375456186011434,-0.06958519667387009,-0.05782733112573624,-0.002528431126847863,-0.012023658491671085,-0.011954057961702347,0.0013515021419152617,0.02103746123611927,0.028451308608055115,0.009228585287928581,0.013869591988623142,0.0149478018283844,-0.001243076752871275,-0.03155288100242615,-0.03659418225288391,-0.011114454828202724,0.00899406149983406,-0.026553548872470856,-0.012896062806248665,0.11655867099761963,0.10933266580104828,-0.004979386925697327,-0.0004899490741081536,0.011213192716240883,0.016814716160297394,-0.00943103525787592,-0.046172257512807846,0.027214694768190384,-0.012770078144967556,0.020803814753890038,-0.026390952989459038,0.041962213814258575,0.1507319211959839,-0.09925347566604614,-0.01779722049832344,0.028405146673321724,-0.021187836304306984,-0.032140884548425674,-0.24704797565937042,0.11884744465351105,-0.032401442527770996,0.03433651477098465,0.03971748799085617,0.002175508299842477,-0.12729652225971222,0.0917176827788353,-0.012669027782976627,0.0029540846589952707,0.009808131493628025,-0.010864349082112312,-0.1164817214012146,0.06661510467529297,-0.004945982713252306,-0.011767377145588398,-0.013235614635050297,0.012816037982702255,0.04742999002337456,-0.02416006103157997,0.0021768310107290745,0.007462008856236935,0.01862877793610096,-0.011315966956317425,-0.05931486189365387,0.04189446568489075,0.018627524375915527,0.018845945596694946,-0.03138672560453415,0.05095454305410385,0.1554718017578125,-0.1236482560634613,-0.09968439489603043,-0.04475611448287964,-0.10278496891260147,0.24336613714694977,0.08172740042209625,0.09153837710618973,0.032509367913007736,0.11012774705886841,0.30407121777534485,0.25474581122398376,-0.14626197516918182,0.36514773964881897,0.039882492274045944,-0.43445855379104614,0.1263146996498108,0.11687295883893967,-0.00020821124780923128,-0.40872722864151,-0.12991096079349518,-0.2755966782569885,0.0005954265361651778,0.15883807837963104,0.07552346587181091,-0.15144984424114227,0.2352718561887741,-0.053892601281404495,0.22671861946582794,0.44363439083099365,0.10480384528636932,-0.32005465030670166,-0.08797677606344223,0.19587469100952148,-0.46651268005371094,-0.7251139879226685,-0.20443740487098694,-0.5948652625083923,-0.12942178547382355,0.4291212558746338,-0.33327463269233704,-0.1321653425693512,0.016245543956756592,-0.17906038463115692,-0.1901330202817917,-0.2297888845205307,0.056971222162246704,-0.06302791088819504,0.17199434340000153,-0.21787622570991516,-0.4419243633747101,-0.15957245230674744,-0.03066806122660637,0.2101879119873047,-0.14659693837165833,0.4250185489654541,-0.08301768451929092,0.09856023639440536,-0.3594747483730316,0.4344824552536011,0.03236284479498863,0.10795080661773682,0.15114234387874603,0.2333517074584961,-0.15647175908088684,0.1176052913069725,-0.2781142294406891,0.33881425857543945,-0.0015948946820572019,0.02771097607910633,-0.22435112297534943,0.33000490069389343,0.08007237315177917,-0.15677328407764435,-0.02612420916557312,-0.09131809324026108,0.07418365031480789,-0.22675687074661255,-0.1424000859260559,-0.004846036899834871,-0.06346121430397034,0.027547601610422134,0.1217968687415123,-0.0701368972659111,0.182526096701622,0.016954418271780014,-0.24923551082611084,0.11960703879594803,0.005314612295478582,0.08056855201721191,-0.0800599455833435,-0.05666211619973183,-0.13393953442573547,-0.014229219406843185,0.07733472436666489,-0.07892654091119766,0.11449465900659561,0.027382396161556244,0.013698909431695938,-0.11495865881443024,-0.2987736761569977,0.0740426555275917,0.07477697730064392,-0.016787756234407425,0.04861700162291527,0.05381830036640167,0.19416438043117523,-0.18778851628303528,0.09512961655855179,0.08171207457780838,-0.11296757310628891,0.0914309173822403,0.13668811321258545,-0.05659795552492142,0.000991967972368002,-0.05973389372229576,0.033697471022605896,0.049225956201553345,0.03665473312139511,0.014182895421981812,-0.12059637159109116,0.0655219778418541,-0.034246210008859634,-0.14191825687885284,-0.0602409690618515,-0.02033231034874916,-0.2048264890909195,-0.03573928773403168,0.03363928198814392,-0.00019399916345719248,0.06963852047920227,-0.07802946120500565,0.08041480928659439,0.026987986639142036,0.06635311245918274,-0.08820603787899017,0.0019460114417597651,0.02751166932284832,-0.09789612889289856,0.034457769244909286,0.13041970133781433,0.04930492490530014,0.0007168169249780476,0.0006610159180127084,-0.010784014128148556,-0.12649153172969818,-0.14809666574001312,-0.09448663890361786,0.049777641892433167,0.1228283941745758,-0.15903550386428833,0.1221492812037468,0.043141771107912064,-0.04715878516435623,-0.11472079157829285,-0.05437687784433365,-0.13346298038959503,0.08818531036376953,-0.0406261645257473,0.02377081662416458,-0.14301127195358276,-0.15875306725502014,0.04401159659028053,-0.06224117800593376,0.034944433718919754,-0.008008996024727821,-0.09900187700986862,-0.12251771241426468,0.1729862242937088,0.033302534371614456,0.06497663259506226,0.09972553700208664,0.07115504145622253,0.041152987629175186,-0.06392180174589157,0.16641731560230255,0.09193328768014908,0.042126014828681946,0.040685560554265976,-0.038888249546289444,0.09174218028783798,-0.1025247797369957,0.012053459882736206,-0.05759517475962639,0.09001366049051285,0.034254610538482666,-0.0026091616600751877,0.0020097149536013603,0.006154243368655443,0.07315704226493835,-0.008725426159799099,-0.08743024617433548,-0.14305780827999115,0.005482588894665241,-0.02148095704615116,-0.08740980923175812,0.03577179089188576,0.24135532975196838,0.06679478287696838,-0.010793294757604599,0.013312982395291328,0.09568570554256439,-0.10067738592624664,-0.2921893298625946,-0.048241887241601944,-0.01910058595240116,-0.010342366993427277,0.021317385137081146,-0.007963533513247967,-0.09574738144874573,0.3072226047515869,0.08519608527421951,0.012377595528960228,0.03578556329011917,-0.0035079591907560825,-0.13549315929412842,0.1258903592824936,-0.021672291681170464,-0.0063336556777358055,-0.02071336656808853,-0.014248725026845932,-0.06329268962144852,0.2668142020702362,0.029394149780273438,0.01960146427154541,0.048764705657958984,-0.001880170893855393,-0.16077114641666412,-0.133307084441185,-0.08166104555130005,-0.004002512898296118,0.04068607836961746,0.0325501523911953,0.0634319931268692,-0.03851667791604996,-0.009358109906315804,-0.03669244050979614,-0.006045588757842779,-0.008686626330018044,0.004174721427261829,-0.02662872150540352,-0.0035241444129496813,0.043755270540714264,0.04691231995820999,0.0063777402974665165,-0.01421076525002718,-0.00544725451618433,-0.009588954970240593,-0.08911196142435074,-0.06232750043272972,-0.026158271357417107,0.02165781520307064,-0.023523885756731033,4.038274346385151e-05,-0.026979465037584305,-0.007340373005717993,-0.0005604695761576295,0.003136617597192526,0.052560750395059586,0.0171501524746418,-0.025689130648970604,-0.03348135948181152,-0.02571965381503105,0.014502680860459805,0.05345045030117035,-0.008784329518675804,-0.015202611684799194,-0.05829380825161934,-0.021285422146320343,-0.034737199544906616,0.06842511147260666,0.011358557268977165,-0.017307952046394348,-0.04679077863693237,-0.016308564692735672,-0.0008209014777094126,-0.01351844985038042,-0.00871435645967722,0.009014603681862354,0.006061047315597534,0.010733522474765778,-0.0063743675127625465,-0.04217151924967766,-0.07369972765445709,-0.015065728686749935,0.010605783201754093,0.019780976697802544,0.060639649629592896,0.06531588733196259,0.023056847974658012,0.03074467182159424,-0.018082985654473305,-0.1085844337940216,-0.22067402303218842,-0.052228253334760666,-0.07515133172273636,-0.08975286036729813,-0.09749188274145126,0.10662028938531876,0.25267332792282104,0.045619383454322815,-0.023147687315940857,0.009277771227061749,-0.009773517958819866,0.029421795159578323,0.06800474226474762,-0.04701590538024902,0.040889739990234375,0.054490067064762115,0.06568007916212082,0.12371931970119476,0.26691821217536926,-0.0992666557431221,0.0017007386777549982,-0.059653639793395996,-0.06719810515642166,-0.03482738882303238,0.051070164889097214,-0.09668981283903122,0.01731414720416069,-0.0022259345278143883,-0.0025754552334547043,0.049668073654174805,0.152821347117424,0.00613140594214201,-0.015546216629445553,-0.011874656192958355,-0.027470102533698082,-0.058771029114723206,-0.08227415382862091,0.12143222242593765,-0.07123184949159622,0.015642063692212105,-0.1294284462928772,-0.005561502650380135,0.029900342226028442,0.1317065805196762,-0.08208291232585907,0.024517107754945755,0.04618807137012482,-0.11170055717229843,0.016455553472042084,-0.10571027547121048,0.023699846118688583,0.028373943641781807,-0.05349570885300636,0.15724453330039978,0.018364325165748596,-0.0016431520925834775,-0.062015894800424576,-0.09155627340078354,-0.004898926708847284,0.06853756308555603,-0.0429457351565361,-0.09380705654621124,0.03779781609773636,0.04550154507160187,-0.11307840794324875,-0.028396446257829666,-0.033434391021728516,-0.11811898648738861,-0.013112397864460945,0.12338823825120926,0.10986854881048203,0.09408373385667801,0.09462019056081772,-0.18781238794326782,0.009953964501619339,-0.07977887988090515,-0.138250470161438,0.014843618497252464,0.06616943329572678,0.1035575345158577,0.06370563060045242,0.06653694063425064,-0.0864136591553688,0.0391661636531353,0.05775769427418709,0.12027854472398758,0.03995789214968681,0.1304289549589157,-0.03648124262690544,0.13142509758472443,0.3046494126319885,0.05217474326491356,0.026997825130820274,0.24159207940101624,-0.028674600645899773,-0.059423159807920456,-0.361941397190094,0.018983671441674232,0.057197652757167816,0.004649441689252853,-0.1270131766796112,0.01877702958881855,0.31600746512413025,-0.022297993302345276,-0.2582745850086212,-0.024046804755926132,-0.02287551574409008,-0.025725074112415314,0.11755520850419998,0.04095654562115669,-0.06073619797825813,-0.13691486418247223,-0.2196691483259201,-0.21002036333084106,-0.14442719519138336,-0.08757047355175018,0.03663535416126251,0.0034406990744173527,-0.1538364291191101,0.022552918642759323,-0.1993880271911621,-0.05036769434809685,0.04118211567401886,0.04322613403201103,-0.08394856750965118,0.017810214310884476,0.01351859886199236,-0.07276193797588348,0.13875244557857513,0.033453889191150665,0.026232078671455383,-0.13481847941875458,0.08855140209197998,-0.050606437027454376,0.035131219774484634,0.018404658883810043,-0.013815064914524555,0.12463527172803879,0.28445717692375183,0.21508930623531342,0.026134133338928223,0.055322788655757904,0.018365293741226196,-0.09388874471187592,-0.3685855567455292,-0.12746042013168335,-0.05128024145960808,-0.006543672177940607,-0.17148707807064056,0.0437244214117527,0.39716842770576477,-0.06767911463975906,0.02059752680361271,-0.07087726145982742,-0.11690492928028107,-0.08642247319221497,0.06209501251578331,-0.28330323100090027,0.012120295315980911,-0.024951577186584473,-0.047088973224163055,0.021823618561029434,0.08821478486061096,-0.0308975949883461,0.08716235309839249,0.037679821252822876,0.020442385226488113,0.03255477175116539,0.10269655287265778,-0.2512190639972687,-0.07300173491239548,0.006173272617161274,-0.06310911476612091,0.04761112481355667,0.11178166419267654,0.10283123701810837,-0.049196112900972366,-0.005495996680110693,-0.06862243264913559,-0.14527644217014313,-0.0247807577252388,0.12515397369861603,-0.007838922552764416,-0.08337248861789703,-0.053585559129714966,-0.20108428597450256,0.06910993903875351,0.1300223171710968,0.049394067376852036,-0.017284220084547997,0.08328884094953537,0.12182339280843735,-0.002074876567348838,-0.08258913457393646,0.2412469983100891,-0.3921169340610504,-0.06899850815534592,-0.057589586824178696,-0.27961084246635437,0.025133660063147545,0.05580049380660057,0.14558273553848267,0.12104237079620361,0.1259102076292038,-0.13787469267845154,0.10463857650756836,0.13601619005203247,-0.2721351683139801,-0.023878570646047592,0.22546884417533875,0.22352689504623413,0.05968829244375229,0.27773186564445496,-0.06521965563297272,-0.1536632627248764,-0.29871851205825806,-0.05302802100777626,0.030595913529396057,0.23146508634090424,0.5354717969894409,0.3162134885787964,0.17143180966377258,-0.021164823323488235,-0.25595158338546753,0.047933582216501236,-0.23191000521183014,0.04924226552248001,0.3368290960788727,0.32447826862335205,0.049440059810876846,0.13906115293502808,0.28521203994750977,0.06970398873090744,-0.07989101111888885,-0.21064332127571106,0.03679583966732025,-0.06633035838603973,0.0719279870390892,-0.11273368448019028,0.3528255820274353,0.01452332828193903,-0.11971791088581085,-0.1963922381401062,0.09803210943937302,-0.2414177507162094,0.35765331983566284,0.111249640583992,-0.10789163410663605,0.001518944394774735,-0.030919937416911125,0.12770168483257294,0.11727762967348099,0.16347897052764893,0.19585539400577545,-0.20494875311851501,0.0024585886858403683,0.05242319032549858,-0.12185259163379669,-0.22356919944286346,0.3078612983226776,0.16943711042404175,-0.09188011288642883,-0.043364111334085464,-0.26419201493263245,-0.15017609298229218,0.12655891478061676,-0.08836761862039566,-0.11543320119380951,-0.05535503849387169,-0.03868795558810234,-0.016322365030646324,-0.044530805200338364,-0.016139455139636993,-0.039247650653123856,-0.004815151449292898,0.07693514227867126,0.018239207565784454,0.015460717491805553,0.013120464980602264,0.034313034266233444,-0.05193913355469704,-0.10831949859857559,-0.047012727707624435,-0.09022847563028336,-0.11202006042003632,-0.025244174525141716,-0.013291253708302975,0.05488816276192665,0.05275627225637436,0.06953685730695724,0.02538791112601757,0.025113649666309357,0.03682868182659149,-0.037811484187841415,-0.007840954698622227,-0.06964898854494095,-0.0009752902551554143,-0.016341401264071465,-0.049175895750522614,-0.053091537207365036,-0.04589375481009483,-0.04207957535982132,-0.007153296377509832,-0.04285605996847153,-0.02265540137887001,-0.0027573846746236086,0.021875599399209023,0.0034981060307472944,0.045832570642232895,0.03687785565853119,-0.020107336342334747,0.042637795209884644,0.0391090102493763,0.0011417049681767821,-0.01078377477824688,-0.02829744853079319,0.003092984901741147,-0.24049168825149536,-0.1640935093164444,-0.14926211535930634,-0.04731158912181854,0.0717197060585022,-0.03388094902038574,0.2537976801395416,0.11763589829206467,0.09212006628513336,0.05659838020801544,-0.07321295142173767,0.03133506700396538,-0.012271526269614697,-0.008646590635180473,-0.05086029693484306,0.06218305230140686,0.22815391421318054,0.08977432548999786,0.0566205233335495,-0.01625741273164749,-0.05676554888486862,-0.016246795654296875,0.13638201355934143,-0.06454119831323624,-0.14160433411598206,-0.01496590580791235,-0.03441908583045006,0.043939873576164246,0.07947509735822678,0.15676932036876678,-0.07888209819793701,0.09586694091558456,0.09678414463996887,0.06663652509450912,0.07170940190553665,0.09338218718767166,-0.012741724029183388,0.002209247788414359,-0.038544196635484695,0.061871662735939026,0.1680254489183426,0.1729782074689865,0.026993263512849808,0.006148544140160084,0.021296242251992226,-0.035826291888952255,0.11198839545249939,-0.07442199438810349,0.10450821369886398,0.2730964422225952,0.1579020768404007,0.058213990181684494,0.11423350125551224,-0.230009526014328,-0.36864426732063293,-0.1714358776807785,0.02699078805744648,0.043974749743938446,0.19368915259838104,0.30179086327552795,0.04199467971920967,0.17082758247852325,0.18517053127288818,0.22971560060977936,-0.011099529452621937,-0.5507441163063049,0.0010920364875346422,-0.11549896746873856,0.11058328300714493,0.15364186465740204,0.07710567861795425,-0.19448016583919525,0.27167293429374695,-0.00035497016506269574,0.17032845318317413,-0.14148305356502533,-0.21239429712295532,-0.42205870151519775,0.23644599318504333,0.11163558810949326,0.03151698037981987,-0.14961884915828705,-0.07399977743625641,-0.32085859775543213,0.1643373817205429,0.19572344422340393,0.1984698623418808,0.11250928789377213,0.0070719183422625065,-0.4913276135921478,-0.19778670370578766,-0.0005864681443199515,-0.023801768198609352,0.006644643843173981,0.16169998049736023,-0.05301687493920326,-0.06693227589130402,-0.15605132281780243,-0.10831058025360107,-0.003357869340106845,-0.08429241180419922,0.022638000547885895,0.1880670040845871,0.17966799437999725,0.020956717431545258,0.09741568565368652,-0.07677584886550903,-0.22963644564151764,-0.1315847635269165,-0.1433645337820053,-0.28053441643714905,-0.1440565139055252,-0.04349755868315697,0.15867969393730164,-0.17923615872859955,-0.18668386340141296,-0.05509456247091293,-0.11255185306072235,-0.14182622730731964,-0.057491037994623184,-0.0875120759010315,-0.19623291492462158,-0.1724606305360794,-0.01987532339990139,-0.08389899879693985,0.07773035764694214,-0.049125272780656815,-0.12475041300058365,-0.01318027451634407,-0.08157635480165482,-0.008488727733492851,0.18019507825374603,-0.01821913756430149,0.027910497039556503,-0.1733238697052002,-0.11349454522132874,0.020416852086782455,0.06202699989080429,0.11543737351894379,0.10571390390396118,0.0636473074555397,0.13311192393302917,-0.06767329573631287,-0.17765025794506073,0.10557549446821213,0.10077165067195892,0.11155050247907639,0.051859300583601,0.05504550412297249,-0.21565011143684387,-0.09142256528139114,-0.039853744208812714,-0.004979568067938089,-0.05526087433099747,0.047567278146743774,0.1573409140110016,0.04762641340494156,0.07247177511453629,0.0891600176692009,0.07808995991945267,-0.0008348540286533535,-0.5993219017982483,-0.06484426558017731,-0.002019406296312809,-0.025239640846848488,-0.003116252366453409,0.026640022173523903,-0.20518547296524048,0.20103809237480164,0.050885219126939774,0.1077180802822113,0.11307249218225479,0.04830687865614891,-0.08243127167224884,0.1366703361272812,0.04272175207734108,-0.009730744175612926,0.03453653305768967,-0.021611692383885384,-0.03775835037231445,-0.009920209646224976,0.005890880711376667,0.08484490215778351,0.046632833778858185,0.030246920883655548,-0.2852003276348114,-0.16311925649642944,-0.02122931368649006,-0.054573822766542435,-0.055172812193632126,0.026239264756441116,-0.14386853575706482,0.09895623475313187,0.18965192139148712,0.0021139841992408037,-0.050554923713207245,0.05319800600409508,-0.30101439356803894,-0.08099563419818878,-0.17649440467357635,-0.0011279446771368384,0.06850959360599518,0.1674627661705017,0.21141546964645386,-0.046589434146881104,0.05706705525517464,-0.0023422674275934696,0.19413618743419647,0.01881808415055275,-0.42005592584609985,0.0023214800748974085,0.047768525779247284,0.1239565908908844,-0.04677839204668999,-0.05783991515636444,-0.258425772190094,0.18778184056282043,0.17063570022583008,-0.028376035392284393,0.07035598903894424,0.0616101510822773,-0.3045133650302887,0.10483259707689285,0.1653706282377243,0.05190263316035271,0.11639560014009476,-0.06837840378284454,-0.13469839096069336,0.12352732568979263,0.042466502636671066,0.22413010895252228,0.22006595134735107,-0.02978026680648327,-0.348408967256546,0.007292686030268669,-0.0034819000866264105,0.032121967524290085,-0.058759018778800964,0.23796920478343964,-0.06361784785985947,-0.05218455567955971,0.1473110467195511,0.05340101569890976,-0.07565207034349442,-0.030458159744739532,-0.3379858434200287,-0.22570353746414185,-0.1742813140153885,0.06323055922985077,-0.04132716730237007,0.09426036477088928,0.37830305099487305,-0.004060611128807068,-0.034178610891103745,0.14516808092594147,0.07066717743873596,0.10492724925279617,-0.5052049160003662,0.02340794913470745,0.13174286484718323,-0.10194580256938934,-0.008035511709749699,0.09006167948246002,-0.2740066647529602,0.12340237945318222,0.10062132775783539,0.039721399545669556,0.12942498922348022,0.04351088032126427,-0.20254836976528168,0.05979573726654053,0.17189840972423553,-0.10117895901203156,-0.05891243368387222,-0.04398920014500618,-0.2299298495054245,0.06916817277669907,0.10096030682325363,0.15333794057369232,0.15941107273101807,-0.0644242987036705,-0.37054696679115295,-0.13085247576236725,-0.1444236785173416,-0.03295980021357536,-0.13952019810676575,0.04260684922337532,-0.1622251272201538,0.041573863476514816,0.022422855719923973,0.10309833288192749,0.07182098180055618,0.09140686690807343,0.01679988205432892,-0.2467375546693802,-0.2902134358882904,-0.12032094597816467,-0.1324804723262787,-0.02574300765991211,0.11688841134309769,0.06184273958206177,0.06946966052055359,0.17762057483196259,0.12190572917461395,0.14256268739700317,-0.0831226333975792,0.23529492318630219,0.20096057653427124,0.2137613296508789,0.05792622268199921,0.13511936366558075,-0.02063320390880108,0.17013908922672272,0.09074311703443527,0.1904558390378952,0.17578880488872528,-0.007804361172020435,-0.26259785890579224,0.05811531841754913,0.09048587828874588,0.03563825786113739,0.04080725833773613,-0.024451525881886482,-0.1885143369436264,-0.009406644850969315,0.16340011358261108,0.10508017241954803,0.015525349415838718,-0.01984250172972679,-0.19519555568695068,0.011732828803360462,0.06858482956886292,0.12720195949077606,-0.05129273980855942,-0.08404462039470673,0.009259989485144615,-0.27068015933036804,-0.1271544247865677,0.10824815928936005,0.05567416548728943,-0.27535486221313477,0.0693487673997879,0.13221478462219238,-0.019174393266439438,0.004343759268522263,-0.005170757882297039,1.0112268924713135,-0.4132820963859558,0.06734813004732132,0.9332045912742615,-0.07470361143350601,0.3151763677597046,0.12213201075792313,-0.1129855364561081,-0.5017175674438477,0.3284890353679657,0.21612097322940826,-0.27953577041625977,-0.12094152718782425,-0.23220552504062653,-0.05605835095047951,0.25020909309387207,0.15361686050891876,0.1084495484828949,0.05316300690174103,0.3313390910625458,0.15903711318969727,-0.11212431639432907,-0.05079224333167076,-0.00820324569940567,-0.44490689039230347,0.14189112186431885,0.5391841530799866,-0.3178999722003937,-0.2380448281764984,-0.16900572180747986,0.03733254224061966,-0.11435408145189285,-0.4598322808742523,0.19226625561714172,0.434896856546402,-0.32033732533454895,-0.34914669394493103,-0.18905210494995117,0.22672636806964874,-0.08189071714878082,-0.06716155260801315,-0.1487497091293335,-0.18963079154491425,0.10948953032493591,0.001752029056660831,0.13889944553375244,0.07000702619552612,-0.1429271548986435,0.4198256731033325,-0.12718631327152252,-0.4494898021221161,-0.10637135058641434,0.28752008080482483,-0.0074912179261446,-0.14463800191879272,-0.29806822538375854,-0.5000963807106018,0.338123619556427,0.10302246361970901,0.015948019921779633,0.11422691494226456,-0.3060486912727356,0.09977559000253677,0.1016460657119751,0.46257826685905457,-0.11873763054609299,0.13574771583080292,0.2281886488199234,0.2749084532260895,0.015503477305173874,0.22887255251407623,-0.20870323479175568,0.025489047169685364,-0.02465328946709633,-0.06342822313308716,-0.13758327066898346,-0.016065627336502075,-0.06812547147274017,0.022021904587745667,0.027969807386398315,0.10202804207801819,0.04721401259303093,-0.08050678670406342,-0.0041143945418298244,-0.013679607771337032,0.05919262394309044,0.04699746146798134,-0.014102799817919731,0.02421768754720688,-0.08589541167020798,0.00020331940322648734,0.03442610427737236,0.06784078478813171,0.016954198479652405,0.007442415691912174,0.06107664853334427,0.0037385981995612383,-0.07498302310705185,0.05656563118100166,-0.07367613911628723,-0.030843816697597504,-0.06937064975500107,-0.08508653193712234,-0.01044614426791668,-0.10806018114089966,0.039112843573093414,-0.017390266060829163,-0.08768829703330994,0.07183350622653961,-0.04487138241529465,0.062190428376197815,0.05044121295213699,-0.0013532312586903572,0.12692616879940033,-0.043726399540901184,-0.0005697126616723835,-0.029003117233514786,0.14261628687381744,-0.05069322884082794,-0.20681309700012207,-0.0329330638051033,0.026814047247171402,0.16137780249118805,-0.034948620945215225,-0.022248590365052223,-0.0743003860116005,0.07402681559324265,0.04729199409484863,-0.09501837939023972,-0.07223109155893326,-0.06295978277921677,-0.04300329461693764,0.07654886692762375,-0.09044444561004639,0.0030817578081041574,0.044795501977205276,-0.07313941419124603,0.13000161945819855,0.023388836532831192,0.08317067474126816,-0.009890975430607796,0.07425430417060852,0.19555002450942993,-0.3001317083835602,-0.004029835108667612,0.09667990356683731,0.02987033501267433,0.0005115123349241912,-0.0274451095610857,0.027762874960899353,0.06326278299093246,-0.001974778948351741,0.18982046842575073,0.05154936760663986,0.17413172125816345,-0.32156988978385925,0.006562785245478153,-0.07117056101560593,-0.1334332376718521,-0.04987754672765732,0.10109124332666397,-0.03115197643637657,-0.02326079271733761,0.01105144526809454,-0.06338948011398315,-0.03611311316490173,-0.045344941318035126,-0.17298050224781036,0.0006644360837526619,0.03875058889389038,-0.012861994095146656,-0.05337098240852356,0.1216571033000946,-0.06888753920793533,-0.02691340073943138,0.03286464139819145,-0.06696928292512894,-0.03688916563987732,0.010362003929913044,0.014155198819935322,-0.06378760933876038,0.028268542140722275,0.0016455400036647916,0.04890432208776474,0.18813587725162506,-0.15881943702697754,0.03341348096728325,0.026408355683088303,-0.029026994481682777,0.029988829046487808,0.007075634319335222,0.3092348873615265,0.0017665439518168569,-0.033833567053079605,0.080428846180439,0.00846803467720747,0.12176994234323502,0.1792946755886078,0.046335842460393906,0.04155183583498001,-0.016120918095111847,-0.06134400516748428,-0.21876484155654907,0.05584926903247833,0.00023331554257310927,-0.03063851036131382,-0.02375434711575508,-0.02454616129398346,-0.023296238854527473,0.00797457154840231,-0.058790843933820724,-0.020222343504428864,-0.0027639286126941442,0.0394926443696022,-0.04963386058807373,0.08385831862688065,0.035383109003305435,-0.008225002326071262,0.031159281730651855,0.08087436854839325,0.18234123289585114,-0.09066174179315567,-0.20669403672218323,-0.08259636163711548,-0.13162554800510406,-0.07710739970207214,-0.09236163645982742,-0.42843902111053467,-0.06646299362182617,-0.03025064431130886,0.02681724540889263,-0.09204285591840744,0.09529728442430496,0.4099523723125458,0.1075025424361229,0.018100153654813766,-0.013750340789556503,0.021224793046712875,0.061929330229759216,-0.34492960572242737,0.043590858578681946,0.12538272142410278,0.15041114389896393,-0.0048260861076414585,0.12108070403337479,-0.17323870956897736,-0.034129299223423004,0.06872787326574326,0.13452188670635223,0.05261003598570824,-0.05896570533514023,-0.1915297508239746,0.15118266642093658,0.01603405736386776,0.02666625753045082,0.05016258731484413,0.15869958698749542,0.027346400544047356,0.00427759625017643,0.007729317992925644,-0.013961495831608772,0.06433401256799698,0.038843609392642975,-0.4503277540206909,-0.013451657257974148,0.06507179141044617,-0.012002929113805294,0.03173189237713814,0.06156487017869949,0.5091874599456787,-0.03791032359004021,-0.04816959425806999,-0.08915343135595322,-0.12228544801473618,-0.041822779923677444,0.05020827800035477,0.05723646655678749,0.01881215162575245,0.03306424245238304,-0.02520350180566311,-0.13357658684253693,-0.02932647056877613,-0.023824086412787437,-0.014938530512154102,-0.02937396615743637,0.05107036605477333,0.17381347715854645,-0.06485125422477722,0.04000240936875343,0.00762206083163619,-0.010866349563002586,0.023649966344237328,0.1782531440258026,0.019960060715675354,-0.07183350622653961,-0.10561972111463547,0.04208829998970032,-0.007939619943499565,0.02067081443965435,-0.07240591198205948,-0.017642276361584663,0.08770142495632172,0.01995510421693325,0.059141606092453,0.13672740757465363,-0.08111734688282013,0.0965183898806572,0.0024443294387310743,0.05416170880198479,-0.05599696934223175,0.01379896979779005,0.26403647661209106,0.04622733220458031,-0.07826906442642212,0.012978472746908665,0.05396623536944389,0.024665096774697304,-0.3358795940876007,-0.11567661911249161,-0.07265056669712067,-0.12736062705516815,-0.011290034279227257,-0.10444221645593643,0.031091006472706795,0.019644388929009438,-0.03763068839907646,-0.04685698449611664,-0.008968839421868324,-0.007745920214802027,0.15107077360153198,0.08718260377645493,0.003799001220613718,-0.0034518959000706673,0.03870200365781784,-0.06573832780122757,-0.031520385295152664,-0.022442150861024857,0.08834651112556458,0.059997543692588806,-0.11505904793739319,-0.12584295868873596,0.15630029141902924,0.0029327610973268747,0.03240817412734032,0.07198726385831833,0.05812143161892891,0.0581689178943634,-0.1677740067243576,0.028890205547213554,-0.04280512034893036,-0.09476003050804138,-0.04588782787322998,0.12664847075939178,-0.09699879586696625,0.012092980556190014,-0.1185179129242897,-0.0272452961653471,-0.13653816282749176,-0.3200397193431854,0.13041891157627106,-0.022253351286053658,-0.03581284359097481,0.05965101346373558,0.03029450960457325,0.07799337059259415,-0.15015092492103577,-0.002304991940036416,-0.012248829938471317,0.12999629974365234,0.1365848034620285,0.2713499963283539,0.15724821388721466,-0.15535973012447357,-0.1652071624994278,0.12296321988105774,-0.009503147564828396,-0.08645714819431305,0.11816635727882385,0.07728689908981323,0.12667140364646912,0.17345258593559265,0.007254467811435461,0.1447356790304184,-0.22285771369934082,-0.027567503973841667,0.07053197920322418,0.04919784888625145,0.14366070926189423,0.13946805894374847,-0.011223247274756432,0.06524987518787384,-0.06817226111888885,0.05923837050795555,-0.05492604896426201,-0.21740460395812988,-0.03335113823413849,-0.05269273743033409,-0.08399049937725067,-0.13480760157108307,-0.1998072862625122,-0.20825040340423584,-0.25232458114624023,-0.07857473939657211,-0.01599249057471752,-0.06719468533992767,0.08496253192424774,0.2585585117340088,-0.033486999571323395,0.042752400040626526,0.1520746946334839,0.10405956208705902,-0.08048257976770401,-0.4878123104572296,-0.2130480855703354,0.04072923585772514,0.03870813921093941,-0.00913397315889597,-0.006568470969796181,0.08517269045114517,-0.09019700437784195,0.1221923828125,0.12534241378307343,0.06751811504364014,0.028068043291568756,-0.0189971961081028,-0.22280851006507874,-0.04157239943742752,-0.026266515254974365,-0.02299419417977333,-0.07668160647153854,0.1739746481180191,0.07903758436441422,0.03888179361820221,0.09209392219781876,0.042680319398641586,0.09357761591672897,0.23937852680683136,0.07798659801483154,-0.06384621560573578,-0.11290191113948822,-0.0731712356209755,-0.11886908113956451,0.10694406926631927,0.22179372608661652,-0.06313037127256393,0.005708988290280104,0.02265395037829876,-0.018673907965421677,0.09030871838331223,0.262641578912735,-0.039156630635261536,-0.0810789093375206,-0.07411371916532516,0.007163786329329014,0.2003798484802246,0.0013919775374233723,-0.11591599136590958,-0.042424000799655914,-0.10448708385229111,-0.1344611942768097,0.02407659962773323,0.05331558361649513,-0.07317396998405457,0.09772690385580063,-0.15572987496852875,-0.1033351868391037,0.06479081511497498,-0.048113930970430374,0.05394235625863075,0.0007638187380507588,-0.016069941222667694,0.10706155747175217,0.0039233919233083725,-0.1497654914855957,0.011961784213781357,0.11265246570110321,-0.36283960938453674,0.03305242210626602,-0.051258258521556854,-0.14730289578437805,0.14268721640110016,0.4398044943809509,-0.246830016374588,-0.015742506831884384,-0.2981344759464264,0.0034864440094679594,0.0475505106151104,0.050436366349458694,0.07906901836395264,-0.3452589511871338,0.03479371592402458,-0.09464281797409058,0.23331224918365479,0.12712328135967255,0.12856344878673553,-0.13487118482589722,0.1707758754491806,0.4154840409755707,-0.04823961853981018,-0.10197636485099792,0.1116839274764061,0.01238244865089655,0.047730255872011185,-0.05650429427623749,0.13576333224773407,0.37203308939933777,0.13480235636234283,-0.09911666065454483,0.17219120264053345,-0.008994460105895996,0.1363312155008316,0.09198317676782608,-0.0757620632648468,0.14971883594989777,0.0949188694357872,0.07901819795370102,0.2780485153198242,-0.2092701494693756,-0.018961574882268906,-0.04450742527842522,-0.1293984055519104,0.11051033437252045,0.07354190200567245,0.173503115773201,0.4702127277851105,-0.38292768597602844,0.07667937129735947,-0.035570546984672546,0.08262404799461365,0.28533461689949036,-0.006228945683687925,-0.13564011454582214,0.07797753065824509,0.04560966417193413,-0.04125252366065979,0.05114833638072014,-0.40921685099601746,-0.3733274042606354,0.15322303771972656,0.1101028099656105,0.21633824706077576,-0.06859277933835983,-0.15953510999679565,-0.03762870281934738,0.051216285675764084,0.20366206765174866,0.1605362594127655,-0.016145559027791023,-0.03426431119441986,-0.05916865915060043,-0.1399349570274353,-0.0399945005774498,0.03254984691739082,0.09177564829587936,0.11323916167020798,0.25523605942726135,0.1153276115655899,0.06267377734184265,0.050703998655080795,0.003282993333414197,0.12453178316354752,-0.07066761702299118,0.07534560561180115,0.05996876582503319,0.049791641533374786,-0.004958804696798325,-0.028564173728227615,0.47266867756843567,0.00879040639847517,-0.07378894090652466,-0.09975346177816391,-0.06515445560216904,-0.10446509718894958,0.33604001998901367,-0.17305365204811096,-0.16757506132125854,-0.13240554928779602,-0.07509562373161316,-0.16952042281627655,0.1317635029554367,0.1020239070057869,0.08622812479734421,0.05995931476354599,-0.002540398156270385,-0.014030040241777897,0.1871640980243683,0.025829816237092018,0.06104256212711334,0.07276778668165207,0.04632745683193207,0.12764355540275574,0.4549333453178406,-0.04440104216337204,-0.016163814812898636,0.00548976194113493,0.1145595833659172,0.06588056683540344,-0.12419895082712173,-0.03963152691721916,-0.03576813265681267,0.04808689281344414,0.20020289719104767,0.13220973312854767,0.19801189005374908,0.0013551735319197178,0.03660916909575462,0.03613750636577606,-0.0009738124208524823,0.20461393892765045,-0.3508926033973694,0.01998184621334076,-0.02838054858148098,0.019233936443924904,-0.03023308515548706,-0.03421696275472641,0.377554327249527,0.020675720646977425,0.05156809464097023,-0.06107567623257637,-0.09305790066719055,-0.21525722742080688,0.25348252058029175,-0.05518961325287819,-0.025641027837991714,0.00308821233920753,-0.04176962748169899,-0.07872280478477478,0.04475027322769165,0.012585215270519257,-0.01853112131357193,-0.019803090021014214,-0.006509748287498951,-0.1601225584745407,-0.09068664163351059,-0.01738883927464485,0.006554403342306614,0.02618410810828209,-0.04563387110829353,0.10439284890890121,0.15047818422317505,0.001967039657756686,-0.011712671257555485,0.05482158809900284,0.11363231390714645,-0.05679270252585411,-0.21175366640090942,-0.021434582769870758,-0.025207245722413063,0.07258281856775284,0.10179665684700012,0.0976535901427269,0.016009293496608734,0.0963340699672699,0.022459421306848526,0.040580760687589645,0.016999052837491035,0.14134882390499115,-0.40624257922172546,0.007976382039487362,-0.07543237507343292,-0.025541894137859344,-0.11668708920478821,-0.1695549637079239,0.45871439576148987,-0.044887345284223557,0.017353123053908348,-0.10323779284954071,-0.0676635354757309,-0.02403302676975727,0.2582017481327057,-0.060995206236839294,0.015655389055609703,-0.04397234693169594,-0.09162163734436035,-0.17934252321720123,0.16982419788837433,-0.03413354232907295,-0.08055950701236725,-0.009262459352612495,-0.025962991639971733,-0.12109996378421783,0.05606129765510559,-0.02539016865193844,-0.013817663304507732,-0.01792738400399685,-0.01045097317546606,-0.03206908702850342,0.1358223855495453,-0.009748025797307491,0.0241110697388649,0.007210107520222664,0.018572840839624405,-0.0008425397099927068,-0.11985867470502853,-0.15513360500335693,-0.13806743919849396,-0.2161768525838852,-0.3865422308444977,-0.011414209380745888,-0.19314979016780853,0.03220294415950775,-0.04398536682128906,-0.044388655573129654,-0.10751538723707199,-0.07708539068698883,-0.22416193783283234,-0.015009749680757523,-0.08996745198965073,-0.11444304138422012,-0.11000781506299973,-0.15051943063735962,0.10734779387712479,-0.06003270670771599,-0.055447496473789215,-0.10282200574874878,-0.1442970484495163,-0.25076937675476074,0.08617562800645828,-0.028618009760975838,0.03622593358159065,-0.12659339606761932,-0.02864820882678032,-0.13283862173557281,0.18976478278636932,-0.16788595914840698,-0.1564931869506836,-0.2027433067560196,-0.23326407372951508,-0.2747788429260254,0.11497040092945099,-0.04469286650419235,-0.1059170514345169,-0.02399367466568947,-0.17802070081233978,-0.17162376642227173,-0.1738765388727188,-0.09947825223207474,-0.03703739121556282,0.03327824920415878,0.060201067477464676,0.027510246261954308,0.11662356555461884,0.10320702195167542,0.10112383216619492,-0.09349098056554794,-0.017388710752129555,-0.08743489533662796,-0.09259086102247238,-0.15976403653621674,-0.08127408474683762,-0.023149777203798294,-0.02032797411084175,-0.2990962564945221,0.35710379481315613,0.026522498577833176,0.06822265684604645,0.0278533436357975,0.060275599360466,0.13615594804286957,-0.16927607357501984,-0.011540685780346394,0.005286460742354393,0.16539891064167023,0.09288804233074188,0.08801468461751938,-0.258283793926239,0.022556185722351074,0.11420553177595139,0.03057672642171383,0.00855717808008194,0.04649427905678749,-0.28134647011756897,0.09385836869478226,0.004212547093629837,-0.00441594235599041,-0.008530848659574986,0.1293872743844986,-0.2963791489601135,-0.030471589416265488,-0.013552290387451649,-0.0241987481713295,0.03077087737619877,-0.04892188683152199,-0.2792174220085144,-0.07638268172740936,0.060382235795259476,-0.07437191158533096,-0.0036990365479141474,-0.019071267917752266,-0.07753196358680725,0.00564205925911665,-0.05194760486483574,-0.036385633051395416,-0.05668646842241287,-0.05281373858451843,0.032703813165426254,-0.0670216903090477,-0.06635128706693649,-0.1149691715836525,-0.03731764480471611,0.011581541039049625,0.0022246562875807285,0.027854254469275475,0.06973747909069061,0.040853410959243774,0.02606060542166233,0.018095185980200768,-0.04698196426033974,-0.12740010023117065,-0.08958607167005539,0.004131506662815809,-0.046711280941963196,-0.004777878988534212,0.032901179045438766,0.10519274324178696,0.0802871435880661,0.07878236472606659,0.1339339315891266,0.060970671474933624,-0.017747972160577774,-0.0035241886507719755,-0.017271844670176506,0.08676093816757202,0.10243543237447739,0.07335949689149857,-0.06506890803575516,-0.07302545011043549,-0.08180737495422363,-0.12351495772600174,-0.031765155494213104,-0.06296291202306747,-0.039326004683971405,-0.058438241481781006,-0.03410138562321663,-0.09085505455732346,-0.10193752497434616,-0.04686864838004112,-0.15240150690078735,0.0022510839626193047,-0.04258587211370468,0.001370834419503808,-0.12400078028440475,-0.24408116936683655,-0.44632381200790405,-0.09867870807647705,-0.0374312549829483,-0.031199272722005844,-0.1635969877243042,-0.241136372089386,0.41788721084594727,-0.01748812012374401,-0.03540574014186859,-0.009679462760686874,-0.020717428997159004,0.1783696860074997,-0.6913655400276184,0.02875342406332493,0.11218772828578949,0.09841606020927429,0.1466073840856552,0.05844012647867203,-0.39461347460746765,0.01966669224202633,0.05073302239179611,0.06599593162536621,0.16854941844940186,0.3787739872932434,-0.22011901438236237,0.03056328184902668,0.009138956665992737,0.04710092768073082,0.005117905791848898,0.09099146723747253,-0.13895751535892487,0.04736471176147461,-0.0537877194583416,-0.023500967770814896,0.008893762715160847,-0.13472503423690796,-0.34448158740997314,0.07889585196971893,0.00255363411270082,0.051118504256010056,-0.04626220464706421,-0.10897185653448105,0.02817661501467228,0.09600801020860672,0.11429035663604736,0.09254229068756104,0.16777962446212769,0.12187538295984268,-0.14780057966709137,0.04193754866719246,0.06459616124629974,0.13930845260620117,0.05124242976307869,0.11185887455940247,-0.2822188436985016,-0.12706513702869415,-0.10140205919742584,-0.07020650804042816,-0.1794549524784088,-0.0919833779335022,0.04028388112783432,0.09737381339073181,0.13499639928340912,0.212722510099411,0.3417012691497803,0.21837863326072693,-0.12250835448503494,0.13634690642356873,-0.011056765913963318,-0.003246637526899576,-0.010908911935985088,0.13418039679527283,0.015405121259391308,-0.02373257279396057,0.03913075849413872,0.11130153387784958,0.17475435137748718,0.25861164927482605,-0.12575127184391022,0.15200810134410858,0.0459420420229435,0.004159770905971527,-0.012132951989769936,0.06358406692743301,-0.03367023169994354,-0.04037244990468025,0.0017748508835211396,-0.019823839887976646,-0.040715575218200684,-0.28977879881858826,-0.16199031472206116,-0.11762677133083344,0.09169042855501175,0.026313206180930138,0.11319517344236374,0.01830592192709446,-0.0936957374215126,-0.06069393455982208,0.12681753933429718,-0.02104140631854534,0.07603994011878967,0.29997697472572327,0.4477916359901428,-0.2346814125776291,-0.015062836930155754,0.07505299150943756,-0.047936104238033295,-0.1735781729221344,0.06107468530535698,0.06481334567070007,-0.03631705790758133,-0.1756759136915207,-0.17229506373405457,-0.4691024124622345,0.222018301486969,-0.03214209899306297,-0.19359628856182098,0.08689473569393158,-0.03939707204699516,-0.037968140095472336,-0.07699302583932877,0.03511977568268776,0.3785191774368286,-0.6580893993377686,0.17407669126987457,-0.10545501112937927,-0.27215775847435,0.23069533705711365,0.21210692822933197,-0.22880853712558746,-0.016255870461463928,-0.13557253777980804,0.28054022789001465,0.35552462935447693,0.21577322483062744,-0.28045326471328735,-0.09792283177375793,-0.2106388956308365,0.30012354254722595,-0.13514629006385803,0.12262335419654846,-0.07542704790830612,0.07184017449617386,0.05473683029413223,-0.11070802062749863,0.022784601897001266,0.04060046002268791,-0.1850735992193222,0.30386248230934143,-0.1975431591272354,-0.2935822606086731,0.19395554065704346,0.11161153018474579,0.07561304420232773,0.3235888183116913,-0.390308678150177,0.23092493414878845,0.01168169267475605,0.0579913891851902,0.2750764787197113,-0.01522907242178917,0.20125442743301392,0.061204101890325546,0.19246959686279297,-0.22916164994239807,-0.13693015277385712,-0.20241805911064148,0.21962130069732666,-0.013865056447684765,0.29602229595184326,0.30268800258636475,-0.006263716612011194,-0.07080040127038956,0.06290086358785629,-0.22129245102405548,-0.09605098515748978,-0.03707367181777954,-0.047685690224170685,-0.030241331085562706,0.0034196623601019382,0.06161249056458473,-0.001104956609196961,-0.09593968838453293,0.032330188900232315,-0.4007125198841095,-0.04693520441651344,-0.09353112429380417,-0.12131836265325546,-0.03903200104832649,0.00821231584995985,0.25623011589050293,0.07247695326805115,0.047042448073625565,0.06869616359472275,0.1324405074119568,0.11763926595449448,-0.3869970440864563,-0.05704360827803612,-0.07689965516328812,-0.04209120199084282,-0.023952851071953773,0.03943385183811188,-0.2610853314399719,-0.034820083528757095,0.0437229722738266,-0.060496050864458084,-0.1564938724040985,0.1420774608850479,-0.050545740872621536,0.052640702575445175,-0.02661229483783245,0.04892672225832939,0.03370272368192673,0.09219631552696228,0.11401468515396118,-0.06310492753982544,0.0241988617926836,-0.030756622552871704,-0.09406916797161102,0.009930169209837914,-0.2200004607439041,-0.043761301785707474,0.054528117179870605,0.011802371591329575,-0.03093579225242138,0.08435255289077759,0.19327671825885773,-0.0682360827922821,-0.10602135211229324,-0.09848390519618988,-0.14228680729866028,-0.05460897833108902,-0.13151422142982483,-0.07780304551124573,-0.18712565302848816,-0.18761232495307922,0.06980516761541367,-0.036543723195791245,-0.16928181052207947,-0.07629703730344772,-0.07401996105909348,0.011987976729869843,0.08708173781633377,0.05543408915400505,-0.03213145583868027,-0.0073548597283661366,-0.01789766550064087,-0.049976129084825516,0.033587340265512466,0.09212923049926758,0.1049460843205452,0.039126064628362656,0.028690606355667114,0.06452977657318115,0.02526235766708851,0.006248292978852987,0.07369016110897064,-0.11869246512651443,-0.23900631070137024,-0.09077538549900055,0.043304212391376495,0.09598658978939056,-0.11493638902902603,-0.03444403409957886,0.016226937994360924,0.03878580033779144,0.03352921083569527,0.07133123278617859,0.0901985689997673,-0.03412959724664688,0.003881237003952265,-0.008954141288995743,-0.05987910181283951,0.07403704524040222,0.24479474127292633,0.034589964896440506,-0.014215286821126938,-0.10477348417043686,-0.04041033610701561,-0.12147042155265808,-0.008101101964712143,-0.026594914495944977,-0.013828020542860031,0.008763890713453293,-0.024818317964673042,0.07193005830049515,-0.29212719202041626,-0.05923695117235184,-0.09716615080833435,-0.01788209192454815,-0.08026530593633652,-0.0917799174785614,0.17562973499298096,-0.010765260085463524,-0.0032702686730772257,-0.014629518613219261,-0.079523965716362,0.015208159573376179,0.06970290094614029,0.07790546119213104,-0.0175296813249588,-0.011347298510372639,-0.002779934089630842,-0.061079468578100204,0.3904362916946411,-0.10263870656490326,-0.11422325670719147,-0.04681400582194328,-0.07817903906106949,-0.2422899454832077,0.03781697154045105,-0.004332267213612795,-0.07306265830993652,-0.07641184329986572,0.0069066849537193775,-0.12417638301849365,0.12067266553640366,0.008130688220262527,-0.023855656385421753,-0.12160733342170715,-0.1671813577413559,-0.05555702745914459,-0.09746720641851425,0.09816176444292068,0.12347636371850967,0.014205030165612698,0.060880567878484726,0.0031447766814380884,-0.09343500435352325,0.02920280583202839,0.03183303028345108,0.12647844851016998,0.022815313190221786,0.03976217657327652,-0.3887912631034851,-0.1027863472700119,-0.14162983000278473,-0.1276973932981491,-0.18155673146247864,-0.24151179194450378,0.37370938062667847,0.05788447707891464,0.008796680718660355,0.05978905409574509,0.11358269304037094,0.07073909789323807,-0.09367852658033371,0.08492030203342438,0.06641671806573868,-0.02746415324509144,-0.04097011685371399,-0.18322324752807617,0.04372742772102356,-0.06421962380409241,-0.10822485387325287,-0.03386133164167404,-0.02787483111023903,-0.1276501566171646,0.001984772039577365,-0.11010225862264633,-0.025005102157592773,-0.07149843871593475,-0.133604496717453,-0.07295460999011993,0.023313332349061966,0.08698484301567078,0.04550996795296669,-0.07070513069629669,0.014291583560407162,-0.0695444643497467,-0.018131067976355553,-0.11397574096918106,-0.11879712343215942,0.016457166522741318,-0.08535854518413544,-0.0744510367512703,0.030708128586411476,-0.10748501121997833,-0.09792003035545349,-0.12352603673934937,-0.01878601685166359,0.0148033257573843,0.18189464509487152,0.09203507751226425,0.13342025876045227,0.1362031102180481,0.09483776241540909,0.200918510556221,-0.2545001804828644,-0.062356021255254745,-0.0409359484910965,-0.107781782746315,-0.029381005093455315,0.10317236930131912,-0.09140489250421524,-0.09863797575235367,0.03174850717186928,0.18957126140594482,0.056332141160964966,0.05946729704737663,-0.26309993863105774,0.045185212045907974,-0.011991056613624096,-0.05813199281692505,0.04310864955186844,0.24844877421855927,-0.3145192265510559,0.15809205174446106,0.018847929313778877,0.06053852662444115,0.07889528572559357,0.13926835358142853,-0.15347419679164886,-0.07707121223211288,0.019007917493581772,0.10078743100166321,-0.004051325377076864,0.13262540102005005,0.020805519074201584,-0.0647699311375618,-0.012483801692724228,-0.06927832961082458,-0.04007919505238533,-0.014730444177985191,0.032525841146707535,-0.1034109890460968,-0.07494209706783295,-0.11058398336172104,-0.21605060994625092,-0.17937420308589935,-0.062122415751218796,-0.15667878091335297,-0.0811401978135109,-0.06182720512151718,-0.08684785664081573,-0.15803921222686768,0.05709776282310486,0.08084747940301895,0.009090629406273365,0.00045858934754505754,-0.030436905100941658,-0.0062604486010968685,-0.3482128977775574,0.04806007072329521,-0.0032199989072978497,0.02631288953125477,-0.08104579150676727,0.04370686039328575,0.03279925882816315,-0.17965711653232574,-0.09435652196407318,-0.1313500702381134,-0.22015048563480377,-0.1880834549665451,-0.14762790501117706,-0.09937974065542221,-0.001495364704169333,-0.06593148410320282,-0.028602153062820435,-0.04792219400405884,0.2708366811275482,0.01679009385406971,-0.01592942699790001,-0.030884291976690292,0.08161909878253937,-0.09728618711233139,-0.1383720189332962,-0.05937042459845543,0.009581904858350754,0.04431527107954025,-0.0414377860724926,0.10487893223762512,-0.11978057026863098,-0.010290389880537987,-0.04209333658218384,-0.02989950031042099,0.008804082870483398,-0.07003472745418549,0.3970167338848114,0.059473831206560135,0.11638103425502777,0.05721931532025337,0.11721343547105789,0.12565629184246063,-0.1957922875881195,-0.0073865922167897224,-0.02058039791882038,-0.016215069219470024,0.025418397039175034,-0.03847882151603699,0.013233166188001633,-0.06686209887266159,0.03231902793049812,-0.03712292015552521,0.018350742757320404,0.102567158639431,-0.32492050528526306,0.10812356323003769,0.12900759279727936,0.06775276362895966,0.014041831716895103,0.22318442165851593,-0.10671182721853256,-0.027747349813580513,0.02698410116136074,0.061610959470272064,-0.01330602541565895,0.11592777818441391,0.1717839241027832,-0.07478734105825424,0.00837747473269701,0.05785702168941498,0.08415166288614273,0.02389567904174328,0.23328737914562225,0.12261375039815903,-0.03008117713034153,0.08333100378513336,0.10057857632637024,-0.1267796754837036,-0.35076528787612915,0.15743482112884521,0.06597572565078735,0.10894571244716644,0.11714141070842743,0.18851806223392487,-0.3783462345600128,-0.034295663237571716,-0.01721056178212166,-0.043772149831056595,-0.06553805619478226,-0.022034889087080956,0.04852249473333359,0.038703735917806625,0.024046359583735466,0.06693696230649948,0.07971195131540298,0.17727893590927124,0.007844203151762486,0.11899000406265259,-0.10148996859788895,-0.02026420272886753,-0.02699062041938305,-0.12332795560359955,0.26428237557411194,-0.025958865880966187,0.00045779693755321205,0.04571659490466118,0.20071174204349518,0.024018920958042145,0.04691097512841225,0.0012406811583787203,0.06424383819103241,-0.14800605177879333,-0.037167392671108246,-0.09395372867584229,0.09058742225170135,0.11031865328550339,-0.03155645355582237,0.022172223776578903,-0.045902177691459656,0.0468941368162632,-0.13276955485343933,-0.03761792927980423,